[
 {
  "init_weights": [
   2.0,
   -97.0
  ],
  "results": [
   [
    [
     2.058441871795702,
     -2.969022297970077
    ],
    8
   ],
   [
    [
     2.035670279500903,
     -2.9611572594999287
    ],
    8
   ],
   [
    [
     2.0473697039828127,
     -2.97816660474622
    ],
    8
   ],
   [
    [
     2.051805779686133,
     -2.9574205816082606
    ],
    8
   ],
   [
    [
     2.0408520349207935,
     -2.9547341057299645
    ],
    8
   ],
   [
    [
     2.0338589567024656,
     -2.966020976914085
    ],
    8
   ],
   [
    [
     2.019639467018614,
     -2.959729222768827
    ],
    8
   ],
   [
    [
     2.0732679447327005,
     -2.9608023018715017
    ],
    8
   ],
   [
    [
     2.004040829886269,
     -2.9662122853618764
    ],
    8
   ],
   [
    [
     2.0618922194623748,
     -2.9646413051257765
    ],
    8
   ]
  ]
 },
 {
  "init_weights": [
   2.0,
   -96.8
  ],
  "results": [
   [
    [
     2.058441871516239,
     -2.9690222688862398
    ],
    8
   ],
   [
    [
     2.0356702788501395,
     -2.9611572295765947
    ],
    8
   ],
   [
    [
     2.0473697038470635,
     -2.9781665767561103
    ],
    8
   ],
   [
    [
     2.0518057796692264,
     -2.9574205510294584
    ],
    8
   ],
   [
    [
     2.040852034635993,
     -2.954734074698903
    ],
    8
   ],
   [
    [
     2.0338589560245084,
     -2.9660209474630914
    ],
    8
   ],
   [
    [
     2.0196394661179515,
     -2.959729192541959
    ],
    8
   ],
   [
    [
     2.073267944405427,
     -2.9608022717787943
    ],
    8
   ],
   [
    [
     2.0040408291269713,
     -2.966212256132991
    ],
    8
   ],
   [
    [
     2.061892218808457,
     -2.964641275468415
    ],
    8
   ]
  ]
 },
 {
  "init_weights": [
   2.0,
   -96.6
  ],
  "results": [
   [
    [
     2.0584418712059906,
     -2.9690222406031337
    ],
    8
   ],
   [
    [
     2.035670278187376,
     -2.96115720048564
    ],
    8
   ],
   [
    [
     2.0473697030665985,
     -2.9781665496192957
    ],
    8
   ],
   [
    [
     2.0518057788834727,
     -2.957420521406238
    ],
    8
   ],
   [
    [
     2.04085203380738,
     -2.9547340445577563
    ],
    8
   ],
   [
    [
     2.03385895563361,
     -2.9660209187782662
    ],
    8
   ],
   [
    [
     2.019639465692938,
     -2.959729163126273
    ],
    8
   ],
   [
    [
     2.0732679438470103,
     -2.960802242545272
    ],
    8
   ],
   [
    [
     2.004040828209062,
     -2.9662122276976772
    ],
    8
   ],
   [
    [
     2.061892218585351,
     -2.9646412465627345
    ],
    8
   ]
  ]
 },
 {
  "init_weights": [
   2.0,
   -96.4
  ],
  "results": [
   [
    [
     2.0584418707577146,
     -2.969022213160357
    ],
    8
   ],
   [
    [
     2.0356702774572377,
     -2.961157172234554
    ],
    8
   ],
   [
    [
     2.04736970287794,
     -2.9781665231928027
    ],
    8
   ],
   [
    [
     2.051805778402871,
     -2.9574204925805687
    ],
    8
   ],
   [
    [
     2.040852033608661,
     -2.9547340152221464
    ],
    8
   ],
   [
    [
     2.033858955603332,
     -2.9660208909036965
    ],
    8
   ],
   [
    [
     2.0196394653995156,
     -2.9597291345159755
    ],
    8
   ],
   [
    [
     2.0732679432624295,
     -2.960802214114778
    ],
    8
   ],
   [
    [
     2.0040408279782254,
     -2.9662122000032567
    ],
    8
   ],
   [
    [
     2.0618922179506614,
     -2.9646412185575515
    ],
    8
   ]
  ]
 },
 {
  "init_weights": [
   2.0,
   -96.2
  ],
  "results": [
   [
    [
     2.058441870490434,
     -2.9690221864808795
    ],
    8
   ],
   [
    [
     2.0356702767347086,
     -2.961157144768562
    ],
    8
   ],
   [
    [
     2.047369702553833,
     -2.978166497521869
    ],
    8
   ],
   [
    [
     2.0518057777460723,
     -2.9574204646003124
    ],
    8
   ],
   [
    [
     2.040852033191987,
     -2.9547339867413585
    ],
    8
   ],
   [
    [
     2.03385895555759,
     -2.9660208638175654
    ],
    8
   ],
   [
    [
     2.019639464635387,
     -2.959729106780983
    ],
    8
   ],
   [
    [
     2.0732679429537106,
     -2.9608021864894845
    ],
    8
   ],
   [
    [
     2.0040408275054387,
     -2.9662121731542492
    ],
    8
   ],
   [
    [
     2.061892217847123,
     -2.964641191266899
    ],
    8
   ]
  ]
 },
 {
  "init_weights": [
   2.0,
   -96.0
  ],
  "results": [
   [
    [
     2.0584418700071274,
     -2.969022160529071
    ],
    8
   ],
   [
    [
     2.035670276149071,
     -2.961157118099021
    ],
    8
   ],
   [
    [
     2.04736970229495,
     -2.9781664725770183
    ],
    8
   ],
   [
    [
     2.0518057771454723,
     -2.957420437390097
    ],
    8
   ],
   [
    [
     2.0408520328950517,
     -2.954733959032164
    ],
    8
   ],
   [
    [
     2.033858954834886,
     -2.9660208375852726
    ],
    8
   ],
   [
    [
     2.0196394640198063,
     -2.9597290798191453
    ],
    8
   ],
   [
    [
     2.073267942381853,
     -2.96080215966322
    ],
    8
   ],
   [
    [
     2.004040827187938,
     -2.966212147026649
    ],
    8
   ],
   [
    [
     2.0618922174979604,
     -2.964641164796438
    ],
    8
   ]
  ]
 },
 {
  "init_weights": [
   2.0,
   -95.8
  ],
  "results": [
   [
    [
     2.058441869683954,
     -2.969022135371547
    ],
    8
   ],
   [
    [
     2.0356702755436484,
     -2.961157092177889
    ],
    8
   ],
   [
    [
     2.0473697022459367,
     -2.978166448328934
    ],
    8
   ],
   [
    [
     2.051805776450757,
     -2.95742041098371
    ],
    8
   ],
   [
    [
     2.040852032321069,
     -2.95473393216592
    ],
    8
   ],
   [
    [
     2.033858954621895,
     -2.9660208120085785
    ],
    8
   ],
   [
    [
     2.0196394634824966,
     -2.9597290536209977
    ],
    8
   ],
   [
    [
     2.073267941906762,
     -2.960802133612908
    ],
    8
   ],
   [
    [
     2.004040826768712,
     -2.9662121216881348
    ],
    8
   ],
   [
    [
     2.061892217141028,
     -2.964641139094681
    ],
    8
   ]
  ]
 },
 {
  "init_weights": [
   2.0,
   -95.6
  ],
  "results": [
   [
    [
     2.0584418691108253,
     -2.9690221109339494
    ],
    8
   ],
   [
    [
     2.035670274995358,
     -2.9611570670320027
    ],
    8
   ],
   [
    [
     2.0473697019235395,
     -2.978166424783676
    ],
    8
   ],
   [
    [
     2.0518057762109607,
     -2.957420385278046
    ],
    8
   ],
   [
    [
     2.0408520318597816,
     -2.9547339060642432
    ],
    8
   ],
   [
    [
     2.033858954136698,
     -2.966020787214405
    ],
    8
   ],
   [
    [
     2.0196394631144057,
     -2.9597290281685673
    ],
    8
   ],
   [
    [
     2.0732679413788047,
     -2.960802108312578
    ],
    8
   ],
   [
    [
     2.0040408261089313,
     -2.966212097080766
    ],
    8
   ],
   [
    [
     2.061892216601143,
     -2.9646411141170894
    ],
    8
   ]
  ]
 },
 {
  "init_weights": [
   2.0,
   -95.4
  ],
  "results": [
   [
    [
     2.0584418691465127,
     -2.9690220871412465
    ],
    8
   ],
   [
    [
     2.035670274474615,
     -2.961157042579551
    ],
    8
   ],
   [
    [
     2.0473697015638472,
     -2.9781664019594594
    ],
    8
   ],
   [
    [
     2.0518057758440302,
     -2.9574203603231917
    ],
    8
   ],
   [
    [
     2.040852031530407,
     -2.95473388069066
    ],
    8
   ],
   [
    [
     2.0338589539702863,
     -2.9660207631228555
    ],
    8
   ],
   [
    [
     2.0196394624969125,
     -2.9597290034617916
    ],
    8
   ],
   [
    [
     2.07326794100866,
     -2.9608020837149316
    ],
    8
   ],
   [
    [
     2.004040825421312,
     -2.9662120732260093
    ],
    8
   ],
   [
    [
     2.061892216320404,
     -2.9646410898444637
    ],
    8
   ]
  ]
 },
 {
  "init_weights": [
   2.0,
   -95.2
  ],
  "results": [
   [
    [
     2.058441868892111,
     -2.9690220640882368
    ],
    8
   ],
   [
    [
     2.035670274049861,
     -2.9611570188154013
    ],
    8
   ],
   [
    [
     2.0473697011077054,
     -2.9781663798109315
    ],
    8
   ],
   [
    [
     2.0518057752434546,
     -2.9574203361236853
    ],
    8
   ],
   [
    [
     2.040852031074877,
     -2.9547338560610092
    ],
    8
   ],
   [
    [
     2.033858953692964,
     -2.96602073972788
    ],
    8
   ],
   [
    [
     2.019639462181676,
     -2.9597289794366795
    ],
    8
   ],
   [
    [
     2.073267940527366,
     -2.9608020598387554
    ],
    8
   ],
   [
    [
     2.0040408251421953,
     -2.9662120499923716
    ],
    8
   ],
   [
    [
     2.061892215923343,
     -2.9646410662895732
    ],
    8
   ]
  ]
 },
 {
  "init_weights": [
   2.0,
   -95.0
  ],
  "results": [
   [
    [
     2.058441868402226,
     -2.969022041719814
    ],
    8
   ],
   [
    [
     2.035670273142369,
     -2.9611569958338517
    ],
    8
   ],
   [
    [
     2.0473697010612257,
     -2.978166358236608
    ],
    8
   ],
   [
    [
     2.051805774404028,
     -2.9574203126502905
    ],
    8
   ],
   [
    [
     2.040852030468431,
     -2.9547338321365064
    ],
    8
   ],
   [
    [
     2.0338589533805167,
     -2.9660207170046733
    ],
    8
   ],
   [
    [
     2.0196394616523174,
     -2.9597289561534077
    ],
    8
   ],
   [
    [
     2.073267939884411,
     -2.9608020367144663
    ],
    8
   ],
   [
    [
     2.0040408247238224,
     -2.966212027481178
    ],
    8
   ],
   [
    [
     2.061892215786857,
     -2.9646410433786765
    ],
    8
   ]
  ]
 },
 {
  "init_weights": [
   2.0,
   -94.8
  ],
  "results": [
   [
    [
     2.0584418681381087,
     -2.9690220199825332
    ],
    8
   ],
   [
    [
     2.035670272652844,
     -2.96115697347125
    ],
    8
   ],
   [
    [
     2.0473697005999347,
     -2.978166337370486
    ],
    8
   ],
   [
    [
     2.051805774268524,
     -2.9574202898210786
    ],
    8
   ],
   [
    [
     2.040852030267073,
     -2.9547338089074096
    ],
    8
   ],
   [
    [
     2.0338589531622384,
     -2.9660206949439654
    ],
    8
   ],
   [
    [
     2.019639461179073,
     -2.95972893355458
    ],
    8
   ],
   [
    [
     2.0732679398197527,
     -2.960802014181123
    ],
    8
   ],
   [
    [
     2.0040408242904544,
     -2.9662120056288233
    ],
    8
   ],
   [
    [
     2.0618922153052535,
     -2.964641021216159
    ],
    8
   ]
  ]
 },
 {
  "init_weights": [
   2.0,
   -94.6
  ],
  "results": [
   [
    [
     2.0584418678761773,
     -2.9690219988921758
    ],
    8
   ],
   [
    [
     2.0356702719116977,
     -2.9611569518090968
    ],
    8
   ],
   [
    [
     2.047369700298819,
     -2.978166317074274
    ],
    8
   ],
   [
    [
     2.051805773828785,
     -2.9574202676750634
    ],
    8
   ],
   [
    [
     2.040852029764236,
     -2.9547337863920458
    ],
    8
   ],
   [
    [
     2.033858952938447,
     -2.966020673560397
    ],
    8
   ],
   [
    [
     2.0196394606600854,
     -2.9597289116135985
    ],
    8
   ],
   [
    [
     2.0732679393901225,
     -2.9608019923354756
    ],
    8
   ],
   [
    [
     2.0040408239862937,
     -2.9662119843534462
    ],
    8
   ],
   [
    [
     2.0618922150591144,
     -2.964640999651889
    ],
    8
   ]
  ]
 },
 {
  "init_weights": [
   2.0,
   -94.4
  ],
  "results": [
   [
    [
     2.0584418672111586,
     -2.969021978441826
    ],
    8
   ],
   [
    [
     2.035670271378396,
     -2.9611569307385905
    ],
    8
   ],
   [
    [
     2.047369700256189,
     -2.9781662973643255
    ],
    8
   ],
   [
    [
     2.051805773103638,
     -2.9574202462160883
    ],
    8
   ],
   [
    [
     2.0408520295461905,
     -2.954733764472197
    ],
    8
   ],
   [
    [
     2.0338589523725803,
     -2.966020652799741
    ],
    8
   ],
   [
    [
     2.0196394601400383,
     -2.959728890309629
    ],
    8
   ],
   [
    [
     2.073267939319045,
     -2.960801971135251
    ],
    8
   ],
   [
    [
     2.0040408235237788,
     -2.9662119637606037
    ],
    8
   ],
   [
    [
     2.061892214460962,
     -2.9646409787611345
    ],
    8
   ]
  ]
 },
 {
  "init_weights": [
   2.0,
   -94.2
  ],
  "results": [
   [
    [
     2.0584418672967972,
     -2.9690219585499396
    ],
    8
   ],
   [
    [
     2.035670271073984,
     -2.961156910278736
    ],
    8
   ],
   [
    [
     2.047369699991747,
     -2.978166278284249
    ],
    8
   ],
   [
    [
     2.0518057726128056,
     -2.9574202253749426
    ],
    8
   ],
   [
    [
     2.0408520290232888,
     -2.9547337432699248
    ],
    8
   ],
   [
    [
     2.033858952403903,
     -2.9660206326232315
    ],
    8
   ],
   [
    [
     2.0196394600388046,
     -2.9597288695796493
    ],
    8
   ],
   [
    [
     2.073267938727252,
     -2.9608019505737446
    ],
    8
   ],
   [
    [
     2.0040408229984195,
     -2.9662119437886276
    ],
    8
   ],
   [
    [
     2.0618922142444625,
     -2.9646409584616094
    ],
    8
   ]
  ]
 },
 {
  "init_weights": [
   2.0,
   -94.0
  ],
  "results": [
   [
    [
     2.0584418670120663,
     -2.9690219392824826
    ],
    8
   ],
   [
    [
     2.035670270442035,
     -2.961156890473507
    ],
    8
   ],
   [
    [
     2.047369699806795,
     -2.9781662597448344
    ],
    8
   ],
   [
    [
     2.05180577240897,
     -2.957420205119133
    ],
    8
   ],
   [
    [
     2.0408520287396303,
     -2.9547337226519517
    ],
    8
   ],
   [
    [
     2.0338589519385075,
     -2.966020613106578
    ],
    8
   ],
   [
    [
     2.0196394596105813,
     -2.9597288495530023
    ],
    8
   ],
   [
    [
     2.07326793813885,
     -2.960801930676475
    ],
    8
   ],
   [
    [
     2.0040408227289097,
     -2.9662119244094853
    ],
    8
   ],
   [
    [
     2.0618922140751206,
     -2.964640938739989
    ],
    8
   ]
  ]
 },
 {
  "init_weights": [
   2.0,
   -93.8
  ],
  "results": [
   [
    [
     2.0584418666034554,
     -2.969021920604081
    ],
    8
   ],
   [
    [
     2.0356702700598786,
     -2.9611568712595986
    ],
    8
   ],
   [
    [
     2.047369699473077,
     -2.978166241785212
    ],
    8
   ],
   [
    [
     2.0518057717732576,
     -2.957420185503959
    ],
    8
   ],
   [
    [
     2.0408520283923517,
     -2.9547337026803313
    ],
    8
   ],
   [
    [
     2.033858951773998,
     -2.9660205941231657
    ],
    8
   ],
   [
    [
     2.0196394589185585,
     -2.9597288301441522
    ],
    8
   ],
   [
    [
     2.0732679376697427,
     -2.9608019113297015
    ],
    8
   ],
   [
    [
     2.0040408221411936,
     -2.9662119056393492
    ],
    8
   ],
   [
    [
     2.0618922135325763,
     -2.9646409196724215
    ],
    8
   ]
  ]
 },
 {
  "init_weights": [
   2.0,
   -93.6
  ],
  "results": [
   [
    [
     2.058441866366931,
     -2.9690219024735955
    ],
    8
   ],
   [
    [
     2.035670269550025,
     -2.9611568526005576
    ],
    8
   ],
   [
    [
     2.047369699341423,
     -2.978166224331934
    ],
    8
   ],
   [
    [
     2.051805771442298,
     -2.9574201664746296
    ],
    8
   ],
   [
    [
     2.040852027858861,
     -2.954733683313122
    ],
    8
   ],
   [
    [
     2.0338589513583534,
     -2.9660205757419704
    ],
    8
   ],
   [
    [
     2.0196394584656514,
     -2.9597288112622944
    ],
    8
   ],
   [
    [
     2.073267937292434,
     -2.9608018925678703
    ],
    8
   ],
   [
    [
     2.004040821543373,
     -2.9662118874352834
    ],
    8
   ],
   [
    [
     2.061892213450873,
     -2.9646409011202968
    ],
    8
   ]
  ]
 },
 {
  "init_weights": [
   2.0,
   -93.4
  ],
  "results": [
   [
    [
     2.05844186604973,
     -2.9690218848867787
    ],
    8
   ],
   [
    [
     2.0356702689205375,
     -2.961156834560618
    ],
    8
   ],
   [
    [
     2.0473696988116443,
     -2.9781662074508652
    ],
    8
   ],
   [
    [
     2.0518057708467197,
     -2.95742014802539
    ],
    8
   ],
   [
    [
     2.040852027593759,
     -2.9547336645202087
    ],
    8
   ],
   [
    [
     2.0338589514425705,
     -2.966020557879618
    ],
    8
   ],
   [
    [
     2.0196394582422035,
     -2.959728792926801
    ],
    8
   ],
   [
    [
     2.0732679371097613,
     -2.960801874341363
    ],
    8
   ],
   [
    [
     2.0040408213528393,
     -2.966211869734449
    ],
    8
   ],
   [
    [
     2.061892212747751,
     -2.9646408831913225
    ],
    8
   ]
  ]
 },
 {
  "init_weights": [
   2.0,
   -93.2
  ],
  "results": [
   [
    [
     2.058441865679363,
     -2.9690218678596363
    ],
    8
   ],
   [
    [
     2.0356702683319106,
     -2.9611568170395746
    ],
    8
   ],
   [
    [
     2.0473696987584127,
     -2.9781661910604407
    ],
    8
   ],
   [
    [
     2.0518057708233,
     -2.9574201300945417
    ],
    8
   ],
   [
    [
     2.040852027372761,
     -2.9547336462637093
    ],
    8
   ],
   [
    [
     2.033858951002945,
     -2.966020540593532
    ],
    8
   ],
   [
    [
     2.019639457731342,
     -2.9597287752038786
    ],
    8
   ],
   [
    [
     2.0732679365476243,
     -2.9608018567244416
    ],
    8
   ],
   [
    [
     2.0040408210060696,
     -2.966211852619002
    ],
    8
   ],
   [
    [
     2.061892212602627,
     -2.964640865749957
    ],
    8
   ]
  ]
 },
 {
  "init_weights": [
   2.0,
   -93.0
  ],
  "results": [
   [
    [
     2.058441865687968,
     -2.969021851319563
    ],
    8
   ],
   [
    [
     2.035670267925914,
     -2.961156800056638
    ],
    8
   ],
   [
    [
     2.047369698521328,
     -2.9781661751646022
    ],
    8
   ],
   [
    [
     2.0518057701454495,
     -2.9574201127652224
    ],
    8
   ],
   [
    [
     2.040852026855187,
     -2.954733628588349
    ],
    8
   ],
   [
    [
     2.0338589510329115,
     -2.96602052378855
    ],
    8
   ],
   [
    [
     2.0196394570638243,
     -2.9597287580602507
    ],
    8
   ],
   [
    [
     2.073267936433823,
     -2.9608018395894136
    ],
    8
   ],
   [
    [
     2.004040820708522,
     -2.9662118359805776
    ],
    8
   ],
   [
    [
     2.0618922121501653,
     -2.9646408488813325
    ],
    8
   ]
  ]
 },
 {
  "init_weights": [
   2.0,
   -92.8
  ],
  "results": [
   [
    [
     2.058441865406911,
     -2.9690218353098192
    ],
    8
   ],
   [
    [
     2.03567026761609,
     -2.9611567835603787
    ],
    8
   ],
   [
    [
     2.0473696982302987,
     -2.9781661597882096
    ],
    8
   ],
   [
    [
     2.0518057698376597,
     -2.9574200959362402
    ],
    8
   ],
   [
    [
     2.0408520267713346,
     -2.95473361143249
    ],
    8
   ],
   [
    [
     2.0338589503792357,
     -2.9660205075600943
    ],
    8
   ],
   [
    [
     2.019639456942455,
     -2.9597287413460287
    ],
    8
   ],
   [
    [
     2.0732679362752138,
     -2.960801822987672
    ],
    8
   ],
   [
    [
     2.004040820262725,
     -2.966211819904348
    ],
    8
   ],
   [
    [
     2.0618922122499055,
     -2.9646408324618534
    ],
    8
   ]
  ]
 },
 {
  "init_weights": [
   2.0,
   -92.6
  ],
  "results": [
   [
    [
     2.058441864807522,
     -2.9690218198073386
    ],
    8
   ],
   [
    [
     2.035670267037989,
     -2.9611567676325103
    ],
    8
   ],
   [
    [
     2.04736969809164,
     -2.9781661448304875
    ],
    8
   ],
   [
    [
     2.0518057694873972,
     -2.957420079657926
    ],
    8
   ],
   [
    [
     2.0408520259383836,
     -2.954733594883285
    ],
    8
   ],
   [
    [
     2.0338589505391607,
     -2.966020491781656
    ],
    8
   ],
   [
    [
     2.01963945677383,
     -2.959728725178001
    ],
    8
   ],
   [
    [
     2.07326793577559,
     -2.9608018069678637
    ],
    8
   ],
   [
    [
     2.004040819968714,
     -2.9662118042818895
    ],
    8
   ],
   [
    [
     2.0618922118543654,
     -2.9646408166111873
    ],
    8
   ]
  ]
 },
 {
  "init_weights": [
   2.0,
   -92.4
  ],
  "results": [
   [
    [
     2.058441864277289,
     -2.969021804802502
    ],
    8
   ],
   [
    [
     2.035670266547893,
     -2.9611567521488182
    ],
    8
   ],
   [
    [
     2.0473696980252694,
     -2.978166130346629
    ],
    8
   ],
   [
    [
     2.0518057691288942,
     -2.9574200638443573
    ],
    8
   ],
   [
    [
     2.0408520260473098,
     -2.95473357873795
    ],
    8
   ],
   [
    [
     2.0338589501605098,
     -2.9660204764903413
    ],
    8
   ],
   [
    [
     2.0196394562744437,
     -2.9597287095311726
    ],
    8
   ],
   [
    [
     2.073267935599465,
     -2.96080179136881
    ],
    8
   ],
   [
    [
     2.0040408195260206,
     -2.9662117892005155
    ],
    8
   ],
   [
    [
     2.061892211539177,
     -2.964640801222673
    ],
    8
   ]
  ]
 },
 {
  "init_weights": [
   2.0,
   -92.2
  ],
  "results": [
   [
    [
     2.0584418643447404,
     -2.969021790184948
    ],
    8
   ],
   [
    [
     2.0356702658483403,
     -2.961156737205677
    ],
    8
   ],
   [
    [
     2.0473696978078704,
     -2.97816611633121
    ],
    8
   ],
   [
    [
     2.051805768579353,
     -2.9574200485760715
    ],
    8
   ],
   [
    [
     2.0408520256226477,
     -2.954733563162667
    ],
    8
   ],
   [
    [
     2.0338589496898174,
     -2.966020461751487
    ],
    8
   ],
   [
    [
     2.0196394562322837,
     -2.959728694329558
    ],
    8
   ],
   [
    [
     2.07326793520779,
     -2.9608017762915053
    ],
    8
   ],
   [
    [
     2.004040819374447,
     -2.96621177450251
    ],
    8
   ],
   [
    [
     2.061892211237565,
     -2.9646407863381614
    ],
    8
   ]
  ]
 },
 {
  "init_weights": [
   2.0,
   -92.0
  ],
  "results": [
   [
    [
     2.0584418641733255,
     -2.9690217760691047
    ],
    8
   ],
   [
    [
     2.0356702654356216,
     -2.9611567227000335
    ],
    8
   ],
   [
    [
     2.0473696977848057,
     -2.97816610273726
    ],
    8
   ],
   [
    [
     2.0518057682504196,
     -2.957420033741009
    ],
    8
   ],
   [
    [
     2.0408520250634887,
     -2.9547335480505126
    ],
    8
   ],
   [
    [
     2.0338589497918704,
     -2.9660204474031198
    ],
    8
   ],
   [
    [
     2.0196394553060912,
     -2.959728679697668
    ],
    8
   ],
   [
    [
     2.073267934770511,
     -2.960801761679005
    ],
    8
   ],
   [
    [
     2.004040818967836,
     -2.9662117603412876
    ],
    8
   ],
   [
    [
     2.0618922111752895,
     -2.9646407718816934
    ],
    8
   ]
  ]
 },
 {
  "init_weights": [
   2.0,
   -91.8
  ],
  "results": [
   [
    [
     2.058441863951428,
     -2.969021762411392
    ],
    8
   ],
   [
    [
     2.0356702651083984,
     -2.9611567086490327
    ],
    8
   ],
   [
    [
     2.0473696974916122,
     -2.9781660896002347
    ],
    8
   ],
   [
    [
     2.051805768246492,
     -2.9574200193219493
    ],
    8
   ],
   [
    [
     2.040852025278379,
     -2.954733533373629
    ],
    8
   ],
   [
    [
     2.0338589495004467,
     -2.966020433511358
    ],
    8
   ],
   [
    [
     2.019639455050443,
     -2.959728665455235
    ],
    8
   ],
   [
    [
     2.073267934607741,
     -2.96080174749207
    ],
    8
   ],
   [
    [
     2.004040818516246,
     -2.9662117466165414
    ],
    8
   ],
   [
    [
     2.061892211092328,
     -2.964640757859922
    ],
    8
   ]
  ]
 },
 {
  "init_weights": [
   2.0,
   -91.6
  ],
  "results": [
   [
    [
     2.0584418635544393,
     -2.969021749178418
    ],
    8
   ],
   [
    [
     2.0356702646635063,
     -2.9611566950629147
    ],
    8
   ],
   [
    [
     2.047369697195382,
     -2.9781660768974105
    ],
    8
   ],
   [
    [
     2.051805767511993,
     -2.95742000547213
    ],
    8
   ],
   [
    [
     2.0408520247847974,
     -2.954733519202854
    ],
    8
   ],
   [
    [
     2.0338589493694017,
     -2.9660204200577645
    ],
    8
   ],
   [
    [
     2.0196394547808674,
     -2.9597286516666848
    ],
    8
   ],
   [
    [
     2.073267934081877,
     -2.9608017338242103
    ],
    8
   ],
   [
    [
     2.0040408180879563,
     -2.966211733322205
    ],
    8
   ],
   [
    [
     2.0618922107438165,
     -2.964640744339662
    ],
    8
   ]
  ]
 },
 {
  "init_weights": [
   2.0,
   -91.4
  ],
  "results": [
   [
    [
     2.058441863729894,
     -2.969021736313315
    ],
    8
   ],
   [
    [
     2.035670264344166,
     -2.9611566818858606
    ],
    8
   ],
   [
    [
     2.0473696972945707,
     -2.978166064519218
    ],
    8
   ],
   [
    [
     2.0518057672427212,
     -2.957419992006897
    ],
    8
   ],
   [
    [
     2.040852024185321,
     -2.9547335055125306
    ],
    8
   ],
   [
    [
     2.03385894912419,
     -2.96602040702551
    ],
    8
   ],
   [
    [
     2.0196394544079954,
     -2.959728638320501
    ],
    8
   ],
   [
    [
     2.0732679338921227,
     -2.960801720539038
    ],
    8
   ],
   [
    [
     2.004040818076602,
     -2.9662117204356075
    ],
    8
   ],
   [
    [
     2.061892210586588,
     -2.9646407311954976
    ],
    8
   ]
  ]
 },
 {
  "init_weights": [
   2.0,
   -91.2
  ],
  "results": [
   [
    [
     2.0584418634775936,
     -2.9690217239093886
    ],
    8
   ],
   [
    [
     2.035670263875024,
     -2.9611566691294944
    ],
    8
   ],
   [
    [
     2.0473696972049322,
     -2.9781660525708147
    ],
    8
   ],
   [
    [
     2.0518057667682914,
     -2.9574199790015743
    ],
    8
   ],
   [
    [
     2.040852024476943,
     -2.9547334921305413
    ],
    8
   ],
   [
    [
     2.0338589490660466,
     -2.96602039441973
    ],
    8
   ],
   [
    [
     2.01963945418721,
     -2.959728625375182
    ],
    8
   ],
   [
    [
     2.0732679334593036,
     -2.960801707699901
    ],
    8
   ],
   [
    [
     2.0040408177350573,
     -2.966211707945156
    ],
    8
   ],
   [
    [
     2.061892209947823,
     -2.964640718555491
    ],
    8
   ]
  ]
 },
 {
  "init_weights": [
   2.0,
   -91.0
  ],
  "results": [
   [
    [
     2.058441862667483,
     -2.9690217119388262
    ],
    8
   ],
   [
    [
     2.0356702633447576,
     -2.9611566568003207
    ],
    8
   ],
   [
    [
     2.047369696692934,
     -2.9781660410459794
    ],
    8
   ],
   [
    [
     2.05180576670338,
     -2.9574199663252747
    ],
    8
   ],
   [
    [
     2.0408520242768935,
     -2.9547334792485582
    ],
    8
   ],
   [
    [
     2.033858948691593,
     -2.9660203822263114
    ],
    8
   ],
   [
    [
     2.019639453893368,
     -2.959728612879684
    ],
    8
   ],
   [
    [
     2.073267933209527,
     -2.960801695243209
    ],
    8
   ],
   [
    [
     2.004040817450345,
     -2.9662116958804785
    ],
    8
   ],
   [
    [
     2.0618922102275885,
     -2.964640706197326
    ],
    8
   ]
  ]
 },
 {
  "init_weights": [
   2.0,
   -90.8
  ],
  "results": [
   [
    [
     2.058441862811938,
     -2.969021700299774
    ],
    8
   ],
   [
    [
     2.035670263470228,
     -2.9611566448016196
    ],
    8
   ],
   [
    [
     2.0473696964230563,
     -2.9781660298691235
    ],
    8
   ],
   [
    [
     2.051805766478691,
     -2.9574199540997865
    ],
    8
   ],
   [
    [
     2.0408520236597125,
     -2.954733466826862
    ],
    8
   ],
   [
    [
     2.03385894839327,
     -2.9660203704119605
    ],
    8
   ],
   [
    [
     2.0196394535368305,
     -2.9597286007822854
    ],
    8
   ],
   [
    [
     2.073267932985245,
     -2.960801683214288
    ],
    8
   ],
   [
    [
     2.0040408169828776,
     -2.966211684216131
    ],
    8
   ],
   [
    [
     2.061892209744409,
     -2.964640694310021
    ],
    8
   ]
  ]
 },
 {
  "init_weights": [
   2.0,
   -90.6
  ],
  "results": [
   [
    [
     2.058441862550916,
     -2.9690216890334034
    ],
    8
   ],
   [
    [
     2.035670262762673,
     -2.9611566333040873
    ],
    8
   ],
   [
    [
     2.047369696173998,
     -2.978166019068569
    ],
    8
   ],
   [
    [
     2.051805765841348,
     -2.9574199423593956
    ],
    8
   ],
   [
    [
     2.040852023334434,
     -2.9547334547746136
    ],
    8
   ],
   [
    [
     2.033858948285608,
     -2.9660203589625533
    ],
    8
   ],
   [
    [
     2.0196394531141157,
     -2.9597285890831815
    ],
    8
   ],
   [
    [
     2.0732679328340105,
     -2.960801671556705
    ],
    8
   ],
   [
    [
     2.0040408169011226,
     -2.9662116729142762
    ],
    8
   ],
   [
    [
     2.0618922095833017,
     -2.96464068278233
    ],
    8
   ]
  ]
 },
 {
  "init_weights": [
   2.0,
   -90.4
  ],
  "results": [
   [
    [
     2.058441862412532,
     -2.969021678133703
    ],
    8
   ],
   [
    [
     2.035670262015559,
     -2.96115662218227
    ],
    8
   ],
   [
    [
     2.047369696195098,
     -2.978166008573138
    ],
    8
   ],
   [
    [
     2.0518057655099464,
     -2.9574199309240456
    ],
    8
   ],
   [
    [
     2.0408520232766985,
     -2.954733443070114
    ],
    8
   ],
   [
    [
     2.033858948310955,
     -2.966020347894082
    ],
    8
   ],
   [
    [
     2.019639452829594,
     -2.959728577749735
    ],
    8
   ],
   [
    [
     2.073267932216228,
     -2.960801660323356
    ],
    8
   ],
   [
    [
     2.0040408162635495,
     -2.9662116620162933
    ],
    8
   ],
   [
    [
     2.0618922094782874,
     -2.964640671633933
    ],
    8
   ]
  ]
 },
 {
  "init_weights": [
   2.0,
   -90.2
  ],
  "results": [
   [
    [
     2.0584418624295977,
     -2.969021667567008
    ],
    8
   ],
   [
    [
     2.0356702617089293,
     -2.9611566113273233
    ],
    8
   ],
   [
    [
     2.0473696961659815,
     -2.978165998416015
    ],
    8
   ],
   [
    [
     2.0518057655312503,
     -2.957419919824246
    ],
    8
   ],
   [
    [
     2.040852022808557,
     -2.9547334318023446
    ],
    8
   ],
   [
    [
     2.033858948083722,
     -2.966020337213694
    ],
    8
   ],
   [
    [
     2.0196394526483084,
     -2.9597285667738
    ],
    8
   ],
   [
    [
     2.0732679322527106,
     -2.960801649382937
    ],
    8
   ],
   [
    [
     2.00404081618284,
     -2.9662116514324985
    ],
    8
   ],
   [
    [
     2.0618922091899505,
     -2.964640660861896
    ],
    8
   ]
  ]
 },
 {
  "init_weights": [
   2.0,
   -90.0
  ],
  "results": [
   [
    [
     2.0584418623458554,
     -2.969021657395755
    ],
    8
   ],
   [
    [
     2.0356702615026054,
     -2.9611566008875974
    ],
    8
   ],
   [
    [
     2.047369696093581,
     -2.978165988609316
    ],
    8
   ],
   [
    [
     2.0518057648526145,
     -2.957419909164411
    ],
    8
   ],
   [
    [
     2.0408520225815066,
     -2.9547334209024556
    ],
    8
   ],
   [
    [
     2.0338589480253297,
     -2.966020326849501
    ],
    8
   ],
   [
    [
     2.019639452444924,
     -2.9597285561451816
    ],
    8
   ],
   [
    [
     2.0732679319909186,
     -2.9608016388471525
    ],
    8
   ],
   [
    [
     2.004040815910481,
     -2.9662116412029857
    ],
    8
   ],
   [
    [
     2.061892208978258,
     -2.964640650438442
    ],
    8
   ]
  ]
 },
 {
  "init_weights": [
   2.0,
   -89.8
  ],
  "results": [
   [
    [
     2.0584418619578315,
     -2.9690216475692006
    ],
    8
   ],
   [
    [
     2.035670261194636,
     -2.961156590767356
    ],
    8
   ],
   [
    [
     2.047369695943375,
     -2.9781659791445962
    ],
    8
   ],
   [
    [
     2.0518057647707195,
     -2.957419898797962
    ],
    8
   ],
   [
    [
     2.0408520223594433,
     -2.9547334103195357
    ],
    8
   ],
   [
    [
     2.0338589478451397,
     -2.9660203168064685
    ],
    8
   ],
   [
    [
     2.0196394517264333,
     -2.9597285459631215
    ],
    8
   ],
   [
    [
     2.0732679316638247,
     -2.9608016286540435
    ],
    8
   ],
   [
    [
     2.004040815686573,
     -2.966211631325032
    ],
    8
   ],
   [
    [
     2.0618922086378757,
     -2.9646406403806065
    ],
    8
   ]
  ]
 },
 {
  "init_weights": [
   2.0,
   -89.6
  ],
  "results": [
   [
    [
     2.0584418617225606,
     -2.9690216380285857
    ],
    8
   ],
   [
    [
     2.03567026077554,
     -2.9611565810056004
    ],
    8
   ],
   [
    [
     2.047369695603366,
     -2.978165969981588
    ],
    8
   ],
   [
    [
     2.0518057643550303,
     -2.9574198888188428
    ],
    8
   ],
   [
    [
     2.040852021942855,
     -2.954733400135383
    ],
    8
   ],
   [
    [
     2.033858947467423,
     -2.9660203071908198
    ],
    8
   ],
   [
    [
     2.0196394518508844,
     -2.9597285360007626
    ],
    8
   ],
   [
    [
     2.073267931614702,
     -2.960801618780348
    ],
    8
   ],
   [
    [
     2.004040815190402,
     -2.9662116218140846
    ],
    8
   ],
   [
    [
     2.061892208666254,
     -2.964640630597589
    ],
    8
   ]
  ]
 },
 {
  "init_weights": [
   2.0,
   -89.4
  ],
  "results": [
   [
    [
     2.058441861601402,
     -2.9690216288113507
    ],
    8
   ],
   [
    [
     2.0356702604536765,
     -2.961156571576872
    ],
    8
   ],
   [
    [
     2.0473696953377334,
     -2.9781659611758737
    ],
    8
   ],
   [
    [
     2.051805764073733,
     -2.9574198791542576
    ],
    8
   ],
   [
    [
     2.040852021858272,
     -2.954733390220532
    ],
    8
   ],
   [
    [
     2.033858947475046,
     -2.966020297797769
    ],
    8
   ],
   [
    [
     2.019639451447615,
     -2.9597285264123836
    ],
    8
   ],
   [
    [
     2.0732679312982603,
     -2.96080160926109
    ],
    8
   ],
   [
    [
     2.0040408148756277,
     -2.9662116125470446
    ],
    8
   ],
   [
    [
     2.061892208482311,
     -2.9646406211702594
    ],
    8
   ]
  ]
 },
 {
  "init_weights": [
   2.0,
   -89.2
  ],
  "results": [
   [
    [
     2.058441861533289,
     -2.9690216198965604
    ],
    8
   ],
   [
    [
     2.035670260031119,
     -2.9611565624620577
    ],
    8
   ],
   [
    [
     2.0473696953035203,
     -2.978165952590009
    ],
    8
   ],
   [
    [
     2.0518057637980913,
     -2.957419869811014
    ],
    8
   ],
   [
    [
     2.0408520218636466,
     -2.954733380672244
    ],
    8
   ],
   [
    [
     2.0338589475068334,
     -2.9660202887504457
    ],
    8
   ],
   [
    [
     2.0196394512518596,
     -2.9597285171321794
    ],
    8
   ],
   [
    [
     2.073267930799024,
     -2.9608016000545567
    ],
    8
   ],
   [
    [
     2.004040814673441,
     -2.96621160364041
    ],
    8
   ],
   [
    [
     2.061892208096414,
     -2.9646406120660176
    ],
    8
   ]
  ]
 },
 {
  "init_weights": [
   2.0,
   -89.0
  ],
  "results": [
   [
    [
     2.0584418611634163,
     -2.969021611346758
    ],
    8
   ],
   [
    [
     2.035670259862139,
     -2.961156553613517
    ],
    8
   ],
   [
    [
     2.0473696955868994,
     -2.9781659442615536
    ],
    8
   ],
   [
    [
     2.0518057636779194,
     -2.9574198607713162
    ],
    8
   ],
   [
    [
     2.0408520214705774,
     -2.9547333714676554
    ],
    8
   ],
   [
    [
     2.0338589470994135,
     -2.9660202800282307
    ],
    8
   ],
   [
    [
     2.019639450862026,
     -2.959728508234277
    ],
    8
   ],
   [
    [
     2.0732679305379986,
     -2.9608015911762293
    ],
    8
   ],
   [
    [
     2.0040408144763924,
     -2.9662115950119743
    ],
    8
   ],
   [
    [
     2.0618922080243474,
     -2.9646406032473434
    ],
    8
   ]
  ]
 },
 {
  "init_weights": [
   2.0,
   -88.8
  ],
  "results": [
   [
    [
     2.05844186090856,
     -2.969021603043028
    ],
    8
   ],
   [
    [
     2.035670259599805,
     -2.9611565450799966
    ],
    8
   ],
   [
    [
     2.0473696947278626,
     -2.9781659363561728
    ],
    8
   ],
   [
    [
     2.0518057631878523,
     -2.957419852068979
    ],
    8
   ],
   [
    [
     2.040852021122358,
     -2.954733362551432
    ],
    8
   ],
   [
    [
     2.033858947002702,
     -2.9660202715761637
    ],
    8
   ],
   [
    [
     2.019639450518485,
     -2.9597284995921904
    ],
    8
   ],
   [
    [
     2.073267930352628,
     -2.960801582571749
    ],
    8
   ],
   [
    [
     2.0040408139732273,
     -2.9662115867026317
    ],
    8
   ],
   [
    [
     2.06189220774973,
     -2.9646405947411476
    ],
    8
   ]
  ]
 },
 {
  "init_weights": [
   2.0,
   -88.6
  ],
  "results": [
   [
    [
     2.0584418610512745,
     -2.969021594975912
    ],
    8
   ],
   [
    [
     2.0356702592035845,
     -2.961156536875283
    ],
    8
   ],
   [
    [
     2.0473696949237996,
     -2.9781659285975306
    ],
    8
   ],
   [
    [
     2.0518057633247895,
     -2.9574198436019365
    ],
    8
   ],
   [
    [
     2.0408520209082837,
     -2.9547333539444582
    ],
    8
   ],
   [
    [
     2.0338589467217587,
     -2.9660202634315747
    ],
    8
   ],
   [
    [
     2.0196394503634933,
     -2.9597284912257584
    ],
    8
   ],
   [
    [
     2.0732679305383486,
     -2.960801574196535
    ],
    8
   ],
   [
    [
     2.004040814016206,
     -2.9662115786246335
    ],
    8
   ],
   [
    [
     2.0618922073913364,
     -2.9646405865427314
    ],
    8
   ]
  ]
 },
 {
  "init_weights": [
   2.0,
   -88.4
  ],
  "results": [
   [
    [
     2.0584418605802686,
     -2.969021587258063
    ],
    8
   ],
   [
    [
     2.035670258905045,
     -2.961156528934178
    ],
    8
   ],
   [
    [
     2.04736969500022,
     -2.9781659211169096
    ],
    8
   ],
   [
    [
     2.051805762539566,
     -2.957419835511644
    ],
    8
   ],
   [
    [
     2.040852020848505,
     -2.954733345609313
    ],
    8
   ],
   [
    [
     2.03385894655922,
     -2.9660202555611175
    ],
    8
   ],
   [
    [
     2.0196394499530923,
     -2.9597284831849877
    ],
    8
   ],
   [
    [
     2.0732679299690515,
     -2.9608015662426217
    ],
    8
   ],
   [
    [
     2.004040813652606,
     -2.9662115708897803
    ],
    8
   ],
   [
    [
     2.0618922074940356,
     -2.9646405785666117
    ],
    8
   ]
  ]
 },
 {
  "init_weights": [
   2.0,
   -88.2
  ],
  "results": [
   [
    [
     2.058441860499775,
     -2.969021579746497
    ],
    8
   ],
   [
    [
     2.0356702582638557,
     -2.961156521322951
    ],
    8
   ],
   [
    [
     2.047369694808994,
     -2.978165913916091
    ],
    8
   ],
   [
    [
     2.0518057623872665,
     -2.957419827668116
    ],
    8
   ],
   [
    [
     2.0408520205607124,
     -2.9547333375767764
    ],
    8
   ],
   [
    [
     2.0338589462083054,
     -2.966020247934815
    ],
    8
   ],
   [
    [
     2.0196394500028427,
     -2.9597284753531152
    ],
    8
   ],
   [
    [
     2.0732679298352297,
     -2.9608015584691127
    ],
    8
   ],
   [
    [
     2.0040408135416072,
     -2.966211563376498
    ],
    8
   ],
   [
    [
     2.0618922070708603,
     -2.9646405709264765
    ],
    8
   ]
  ]
 },
 {
  "init_weights": [
   2.0,
   -88.0
  ],
  "results": [
   [
    [
     2.0584418602846877,
     -2.9690215725326112
    ],
    8
   ],
   [
    [
     2.0356702579669874,
     -2.96115651390793
    ],
    8
   ],
   [
    [
     2.047369694647891,
     -2.978165906962201
    ],
    8
   ],
   [
    [
     2.0518057621989088,
     -2.957419820071904
    ],
    8
   ],
   [
    [
     2.040852020258065,
     -2.954733329804159
    ],
    8
   ],
   [
    [
     2.0338589463139356,
     -2.9660202405980183
    ],
    8
   ],
   [
    [
     2.0196394494404233,
     -2.9597284678688824
    ],
    8
   ],
   [
    [
     2.0732679296754344,
     -2.960801551001645
    ],
    8
   ],
   [
    [
     2.0040408133323493,
     -2.966211556123037
    ],
    8
   ],
   [
    [
     2.0618922070742247,
     -2.964640563507678
    ],
    8
   ]
  ]
 },
 {
  "init_weights": [
   2.0,
   -87.8
  ],
  "results": [
   [
    [
     2.0584418603693226,
     -2.9690215655362144
    ],
    8
   ],
   [
    [
     2.035670257786053,
     -2.961156506749756
    ],
    8
   ],
   [
    [
     2.047369694536246,
     -2.978165900262376
    ],
    8
   ],
   [
    [
     2.051805762365039,
     -2.9574198126780704
    ],
    8
   ],
   [
    [
     2.04085202033884,
     -2.9547333222862586
    ],
    8
   ],
   [
    [
     2.0338589463308634,
     -2.9660202334599663
    ],
    8
   ],
   [
    [
     2.019639449362145,
     -2.9597284605994116
    ],
    8
   ],
   [
    [
     2.073267929294366,
     -2.9608015437913173
    ],
    8
   ],
   [
    [
     2.004040813280683,
     -2.9662115491040297
    ],
    8
   ],
   [
    [
     2.0618922065975975,
     -2.964640556385135
    ],
    8
   ]
  ]
 },
 {
  "init_weights": [
   2.0,
   -87.6
  ],
  "results": [
   [
    [
     2.0584418601512615,
     -2.969021558800572
    ],
    8
   ],
   [
    [
     2.0356702574128804,
     -2.9611564998582427
    ],
    8
   ],
   [
    [
     2.0473696943796766,
     -2.9781658937879225
    ],
    8
   ],
   [
    [
     2.05180576180056,
     -2.9574198056791556
    ],
    8
   ],
   [
    [
     2.040852019866813,
     -2.954733315078674
    ],
    8
   ],
   [
    [
     2.0338589459847345,
     -2.9660202266435935
    ],
    8
   ],
   [
    [
     2.019639449095735,
     -2.9597284535934407
    ],
    8
   ],
   [
    [
     2.073267929134264,
     -2.9608015368063025
    ],
    8
   ],
   [
    [
     2.004040812943708,
     -2.9662115423878115
    ],
    8
   ],
   [
    [
     2.0618922067771197,
     -2.9646405494585926
    ],
    8
   ]
  ]
 },
 {
  "init_weights": [
   2.0,
   -87.4
  ],
  "results": [
   [
    [
     2.0584418596986773,
     -2.96902155234887
    ],
    8
   ],
   [
    [
     2.0356702572209615,
     -2.9611564932051624
    ],
    8
   ],
   [
    [
     2.0473696941549355,
     -2.9781658875371524
    ],
    8
   ],
   [
    [
     2.051805761412537,
     -2.9574197988731026
    ],
    8
   ],
   [
    [
     2.04085201945917,
     -2.954733308110037
    ],
    8
   ],
   [
    [
     2.0338589460036145,
     -2.9660202200096695
    ],
    8
   ],
   [
    [
     2.01963944884045,
     -2.9597284468386564
    ],
    8
   ],
   [
    [
     2.0732679289458606,
     -2.9608015300873594
    ],
    8
   ],
   [
    [
     2.004040812647506,
     -2.966211535890876
    ],
    8
   ],
   [
    [
     2.0618922065940333,
     -2.964640542763521
    ],
    8
   ]
  ]
 },
 {
  "init_weights": [
   2.0,
   -87.2
  ],
  "results": [
   [
    [
     2.0584418597977656,
     -2.969021546037594
    ],
    8
   ],
   [
    [
     2.0356702569798744,
     -2.9611564867910802
    ],
    8
   ],
   [
    [
     2.0473696938150945,
     -2.9781658815394545
    ],
    8
   ],
   [
    [
     2.0518057612300353,
     -2.9574197922777166
    ],
    8
   ],
   [
    [
     2.0408520196152473,
     -2.9547333013645014
    ],
    8
   ],
   [
    [
     2.0338589455277267,
     -2.966020213674621
    ],
    8
   ],
   [
    [
     2.0196394485747304,
     -2.9597284403493274
    ],
    8
   ],
   [
    [
     2.073267928717509,
     -2.9608015236088643
    ],
    8
   ],
   [
    [
     2.0040408123183973,
     -2.9662115296487777
    ],
    8
   ],
   [
    [
     2.0618922064891088,
     -2.9646405363411725
    ],
    8
   ]
  ]
 },
 {
  "init_weights": [
   2.0,
   -87.0
  ],
  "results": [
   [
    [
     2.0584418594188256,
     -2.9690215400160525
    ],
    8
   ],
   [
    [
     2.0356702567313594,
     -2.9611564805873853
    ],
    8
   ],
   [
    [
     2.0473696938915023,
     -2.9781658756658462
    ],
    8
   ],
   [
    [
     2.051805760949905,
     -2.957419785943085
    ],
    8
   ],
   [
    [
     2.040852019519683,
     -2.9547332948421583
    ],
    8
   ],
   [
    [
     2.033858945655489,
     -2.966020207500717
    ],
    8
   ],
   [
    [
     2.0196394483427995,
     -2.959728434032689
    ],
    8
   ],
   [
    [
     2.073267928346067,
     -2.960801517368252
    ],
    8
   ],
   [
    [
     2.004040812411992,
     -2.9662115235534263
    ],
    8
   ],
   [
    [
     2.0618922062001785,
     -2.964640530166417
    ],
    8
   ]
  ]
 },
 {
  "init_weights": [
   2.0,
   -86.8
  ],
  "results": [
   [
    [
     2.058441859341638,
     -2.969021534183375
    ],
    8
   ],
   [
    [
     2.0356702563794418,
     -2.961156474653139
    ],
    8
   ],
   [
    [
     2.0473696939609827,
     -2.9781658700585893
    ],
    8
   ],
   [
    [
     2.0518057608671034,
     -2.957419779808052
    ],
    8
   ],
   [
    [
     2.0408520194441144,
     -2.954733288561661
    ],
    8
   ],
   [
    [
     2.0338589454338574,
     -2.9660202015739747
    ],
    8
   ],
   [
    [
     2.0196394482273567,
     -2.9597284279505507
    ],
    8
   ],
   [
    [
     2.073267928190095,
     -2.9608015113459225
    ],
    8
   ],
   [
    [
     2.0040408121131636,
     -2.9662115177273636
    ],
    8
   ],
   [
    [
     2.061892206112334,
     -2.96464052417262
    ],
    8
   ]
  ]
 },
 {
  "init_weights": [
   2.0,
   -86.6
  ],
  "results": [
   [
    [
     2.058441859209272,
     -2.9690215285646464
    ],
    8
   ],
   [
    [
     2.0356702563372195,
     -2.9611564688495866
    ],
    8
   ],
   [
    [
     2.04736969388741,
     -2.9781658646108298
    ],
    8
   ],
   [
    [
     2.0518057607201348,
     -2.9574197739067176
    ],
    8
   ],
   [
    [
     2.0408520191704955,
     -2.954733282522292
    ],
    8
   ],
   [
    [
     2.0338589454145217,
     -2.9660201958519137
    ],
    8
   ],
   [
    [
     2.0196394480250914,
     -2.9597284221089195
    ],
    8
   ],
   [
    [
     2.0732679280515915,
     -2.9608015055244543
    ],
    8
   ],
   [
    [
     2.0040408119381055,
     -2.9662115120837433
    ],
    8
   ],
   [
    [
     2.06189220596038,
     -2.964640518404246
    ],
    8
   ]
  ]
 },
 {
  "init_weights": [
   2.0,
   -86.4
  ],
  "results": [
   [
    [
     2.0584418589959914,
     -2.9690215231391894
    ],
    8
   ],
   [
    [
     2.0356702557808957,
     -2.961156463349319
    ],
    8
   ],
   [
    [
     2.047369693531532,
     -2.978165859435413
    ],
    8
   ],
   [
    [
     2.0518057604622992,
     -2.9574197682302836
    ],
    8
   ],
   [
    [
     2.0408520190482604,
     -2.95473327668532
    ],
    8
   ],
   [
    [
     2.03385894538333,
     -2.966020190325937
    ],
    8
   ],
   [
    [
     2.019639447609951,
     -2.959728416504118
    ],
    8
   ],
   [
    [
     2.0732679280593294,
     -2.9608014998529546
    ],
    8
   ],
   [
    [
     2.0040408116248907,
     -2.9662115066898584
    ],
    8
   ],
   [
    [
     2.061892205849576,
     -2.964640512837197
    ],
    8
   ]
  ]
 },
 {
  "init_weights": [
   2.0,
   -86.2
  ],
  "results": [
   [
    [
     2.0584418588162907,
     -2.9690215179082813
    ],
    8
   ],
   [
    [
     2.035670255604229,
     -2.9611564580047016
    ],
    8
   ],
   [
    [
     2.0473696937752557,
     -2.9781658543457743
    ],
    8
   ],
   [
    [
     2.051805760101601,
     -2.9574197627477945
    ],
    8
   ],
   [
    [
     2.0408520188818065,
     -2.9547332710762806
    ],
    8
   ],
   [
    [
     2.0338589453234737,
     -2.9660201849975953
    ],
    8
   ],
   [
    [
     2.019639447501987,
     -2.9597284110537583
    ],
    8
   ],
   [
    [
     2.0732679281364805,
     -2.960801494443751
    ],
    8
   ],
   [
    [
     2.004040811524933,
     -2.9662115014616197
    ],
    8
   ],
   [
    [
     2.0618922055166413,
     -2.9646405075108864
    ],
    8
   ]
  ]
 },
 {
  "init_weights": [
   2.0,
   -86.0
  ],
  "results": [
   [
    [
     2.05844185859535,
     -2.9690215128847703
    ],
    8
   ],
   [
    [
     2.0356702552253108,
     -2.96115645286808
    ],
    8
   ],
   [
    [
     2.0473696937617034,
     -2.978165849495738
    ],
    8
   ],
   [
    [
     2.051805759909071,
     -2.957419757476202
    ],
    8
   ],
   [
    [
     2.0408520184940317,
     -2.954733265676476
    ],
    8
   ],
   [
    [
     2.0338589451300524,
     -2.9660201798761117
    ],
    8
   ],
   [
    [
     2.0196394473039914,
     -2.9597284058157216
    ],
    8
   ],
   [
    [
     2.073267927800699,
     -2.960801489244624
    ],
    8
   ],
   [
    [
     2.004040811381531,
     -2.966211496403047
    ],
    8
   ],
   [
    [
     2.061892205622965,
     -2.9646405023169877
    ],
    8
   ]
  ]
 },
 {
  "init_weights": [
   2.0,
   -85.8
  ],
  "results": [
   [
    [
     2.0584418588662206,
     -2.9690215079747033
    ],
    8
   ],
   [
    [
     2.0356702551825285,
     -2.961156447899436
    ],
    8
   ],
   [
    [
     2.047369693033119,
     -2.9781658449040127
    ],
    8
   ],
   [
    [
     2.0518057596876758,
     -2.9574197524081525
    ],
    8
   ],
   [
    [
     2.04085201834553,
     -2.954733260450737
    ],
    8
   ],
   [
    [
     2.033858945125678,
     -2.966020174911126
    ],
    8
   ],
   [
    [
     2.0196394470826786,
     -2.959728400768966
    ],
    8
   ],
   [
    [
     2.073267927440949,
     -2.9608014842590813
    ],
    8
   ],
   [
    [
     2.004040811061389,
     -2.966211491587501
    ],
    8
   ],
   [
    [
     2.0618922055372977,
     -2.9646404973091323
    ],
    8
   ]
  ]
 },
 {
  "init_weights": [
   2.0,
   -85.6
  ],
  "results": [
   [
    [
     2.0584418586064404,
     -2.969021503322139
    ],
    8
   ],
   [
    [
     2.0356702549850643,
     -2.961156443099921
    ],
    8
   ],
   [
    [
     2.047369693495795,
     -2.9781658403363624
    ],
    8
   ],
   [
    [
     2.0518057595540227,
     -2.957419747489334
    ],
    8
   ],
   [
    [
     2.0408520182768046,
     -2.954733255408535
    ],
    8
   ],
   [
    [
     2.0338589449030398,
     -2.9660201701882203
    ],
    8
   ],
   [
    [
     2.019639447013874,
     -2.95972839590055
    ],
    8
   ],
   [
    [
     2.073267927203859,
     -2.96080147942555
    ],
    8
   ],
   [
    [
     2.0040408105647782,
     -2.966211486939222
    ],
    8
   ],
   [
    [
     2.0618922052117425,
     -2.964640492537686
    ],
    8
   ]
  ]
 },
 {
  "init_weights": [
   2.0,
   -85.4
  ],
  "results": [
   [
    [
     2.0584418586905415,
     -2.9690214988163226
    ],
    8
   ],
   [
    [
     2.0356702544580907,
     -2.96115643857129
    ],
    8
   ],
   [
    [
     2.04736969338586,
     -2.978165835997226
    ],
    8
   ],
   [
    [
     2.051805759082804,
     -2.9574197428117333
    ],
    8
   ],
   [
    [
     2.0408520181377408,
     -2.954733250566275
    ],
    8
   ],
   [
    [
     2.0338589448005484,
     -2.9660201655907086
    ],
    8
   ],
   [
    [
     2.019639446704239,
     -2.959728391237944
    ],
    8
   ],
   [
    [
     2.0732679271151175,
     -2.9608014747714484
    ],
    8
   ],
   [
    [
     2.0040408109338457,
     -2.966211482399399
    ],
    8
   ],
   [
    [
     2.0618922051411435,
     -2.9646404879126687
    ],
    8
   ]
  ]
 },
 {
  "init_weights": [
   2.0,
   -85.2
  ],
  "results": [
   [
    [
     2.0584418583939765,
     -2.969021494479403
    ],
    8
   ],
   [
    [
     2.0356702543219245,
     -2.961156434120008
    ],
    8
   ],
   [
    [
     2.0473696933175867,
     -2.978165831813216
    ],
    8
   ],
   [
    [
     2.0518057591628516,
     -2.9574197382300307
    ],
    8
   ],
   [
    [
     2.040852017767721,
     -2.9547332459218274
    ],
    8
   ],
   [
    [
     2.0338589448661155,
     -2.966020161144098
    ],
    8
   ],
   [
    [
     2.0196394467093306,
     -2.9597283866904056
    ],
    8
   ],
   [
    [
     2.0732679271641383,
     -2.960801470272613
    ],
    8
   ],
   [
    [
     2.004040810375137,
     -2.966211478108382
    ],
    8
   ],
   [
    [
     2.0618922050388657,
     -2.9646404834534126
    ],
    8
   ]
  ]
 },
 {
  "init_weights": [
   2.0,
   -85.0
  ],
  "results": [
   [
    [
     2.058441858332394,
     -2.96902149030235
    ],
    8
   ],
   [
    [
     2.0356702541024174,
     -2.9611564298623674
    ],
    8
   ],
   [
    [
     2.0473696930404537,
     -2.9781658278160346
    ],
    8
   ],
   [
    [
     2.051805758969569,
     -2.957419733859849
    ],
    8
   ],
   [
    [
     2.040852017652175,
     -2.9547332414252914
    ],
    8
   ],
   [
    [
     2.033858944574783,
     -2.966020156938544
    ],
    8
   ],
   [
    [
     2.0196394462935556,
     -2.9597283823670955
    ],
    8
   ],
   [
    [
     2.073267926903747,
     -2.9608014659656634
    ],
    8
   ],
   [
    [
     2.004040810080586,
     -2.9662114739634498
    ],
    8
   ],
   [
    [
     2.0618922051024584,
     -2.9646404791471803
    ],
    8
   ]
  ]
 },
 {
  "init_weights": [
   2.0,
   -84.8
  ],
  "results": [
   [
    [
     2.058441858128705,
     -2.9690214863034186
    ],
    8
   ],
   [
    [
     2.035670253716247,
     -2.9611564258022605
    ],
    8
   ],
   [
    [
     2.0473696928786094,
     -2.978165823973926
    ],
    8
   ],
   [
    [
     2.051805758702102,
     -2.957419729654135
    ],
    8
   ],
   [
    [
     2.0408520177196694,
     -2.954733237073134
    ],
    8
   ],
   [
    [
     2.0338589444489275,
     -2.9660201528150467
    ],
    8
   ],
   [
    [
     2.019639446227758,
     -2.9597283781775396
    ],
    8
   ],
   [
    [
     2.073267926727562,
     -2.9608014618154908
    ],
    8
   ],
   [
    [
     2.00404081058757,
     -2.96621146987561
    ],
    8
   ],
   [
    [
     2.06189220465604,
     -2.9646404750543804
    ],
    8
   ]
  ]
 },
 {
  "init_weights": [
   2.0,
   -84.6
  ],
  "results": [
   [
    [
     2.0584418583302275,
     -2.9690214823853416
    ],
    8
   ],
   [
    [
     2.035670253481539,
     -2.96115642186371
    ],
    8
   ],
   [
    [
     2.047369692909086,
     -2.978165820193429
    ],
    8
   ],
   [
    [
     2.05180575853048,
     -2.9574197255924126
    ],
    8
   ],
   [
    [
     2.040852017597702,
     -2.9547332329298435
    ],
    8
   ],
   [
    [
     2.0338589444942614,
     -2.966020148864553
    ],
    8
   ],
   [
    [
     2.0196394461386187,
     -2.959728374157634
    ],
    8
   ],
   [
    [
     2.073267926466966,
     -2.9608014578209874
    ],
    8
   ],
   [
    [
     2.004040810376466,
     -2.966211466028575
    ],
    8
   ],
   [
    [
     2.061892204591848,
     -2.964640471080277
    ],
    8
   ]
  ]
 },
 {
  "init_weights": [
   2.0,
   -84.4
  ],
  "results": [
   [
    [
     2.058441857941773,
     -2.969021478697458
    ],
    8
   ],
   [
    [
     2.0356702532353323,
     -2.9611564180613437
    ],
    8
   ],
   [
    [
     2.04736969278248,
     -2.9781658166244607
    ],
    8
   ],
   [
    [
     2.0518057582140345,
     -2.9574197217157865
    ],
    8
   ],
   [
    [
     2.0408520173697298,
     -2.9547332289143227
    ],
    8
   ],
   [
    [
     2.0338589446185336,
     -2.966020145088395
    ],
    8
   ],
   [
    [
     2.0196394458294256,
     -2.959728370331271
    ],
    8
   ],
   [
    [
     2.0732679265296454,
     -2.960801453934706
    ],
    8
   ],
   [
    [
     2.0040408098066997,
     -2.966211462378448
    ],
    8
   ],
   [
    [
     2.061892204621105,
     -2.9646404672324227
    ],
    8
   ]
  ]
 },
 {
  "init_weights": [
   2.0,
   -84.2
  ],
  "results": [
   [
    [
     2.0584418578550467,
     -2.9690214751264197
    ],
    8
   ],
   [
    [
     2.0356702532216597,
     -2.9611564143853455
    ],
    8
   ],
   [
    [
     2.0473696926056038,
     -2.9781658131725512
    ],
    8
   ],
   [
    [
     2.0518057582668967,
     -2.9574197179553074
    ],
    8
   ],
   [
    [
     2.0408520170868996,
     -2.954733225070134
    ],
    8
   ],
   [
    [
     2.0338589442276964,
     -2.966020141445428
    ],
    8
   ],
   [
    [
     2.0196394458295597,
     -2.959728366573292
    ],
    8
   ],
   [
    [
     2.0732679259669133,
     -2.960801450304864
    ],
    8
   ],
   [
    [
     2.0040408097477416,
     -2.9662114587887465
    ],
    8
   ],
   [
    [
     2.061892204376605,
     -2.964640463561218
    ],
    8
   ]
  ]
 },
 {
  "init_weights": [
   2.0,
   -84.0
  ],
  "results": [
   [
    [
     2.0584418577409305,
     -2.9690214716782584
    ],
    8
   ],
   [
    [
     2.035670252805891,
     -2.9611564109302537
    ],
    8
   ],
   [
    [
     2.0473696928118787,
     -2.978165809832061
    ],
    8
   ],
   [
    [
     2.0518057579838476,
     -2.9574197143741134
    ],
    8
   ],
   [
    [
     2.040852017019206,
     -2.9547332213670914
    ],
    8
   ],
   [
    [
     2.033858944231552,
     -2.9660201379280293
    ],
    8
   ],
   [
    [
     2.019639445897615,
     -2.9597283629936166
    ],
    8
   ],
   [
    [
     2.0732679259334836,
     -2.960801446731634
    ],
    8
   ],
   [
    [
     2.00404080956532,
     -2.96621145535254
    ],
    8
   ],
   [
    [
     2.0618922045033186,
     -2.9646404600286003
    ],
    8
   ]
  ]
 },
 {
  "init_weights": [
   2.0,
   -83.8
  ],
  "results": [
   [
    [
     2.058441857685187,
     -2.969021468377252
    ],
    8
   ],
   [
    [
     2.0356702525627286,
     -2.961156407564394
    ],
    8
   ],
   [
    [
     2.047369692505328,
     -2.978165806647666
    ],
    8
   ],
   [
    [
     2.051805757835978,
     -2.957419710898146
    ],
    8
   ],
   [
    [
     2.040852016867441,
     -2.9547332177930854
    ],
    8
   ],
   [
    [
     2.0338589442573687,
     -2.9660201345610853
    ],
    8
   ],
   [
    [
     2.019639445585816,
     -2.959728359567383
    ],
    8
   ],
   [
    [
     2.0732679260549136,
     -2.9608014432807828
    ],
    8
   ],
   [
    [
     2.0040408095321793,
     -2.9662114520530984
    ],
    8
   ],
   [
    [
     2.061892204287662,
     -2.964640456629019
    ],
    8
   ]
  ]
 },
 {
  "init_weights": [
   2.0,
   -83.6
  ],
  "results": [
   [
    [
     2.0584418574625163,
     -2.969021465185881
    ],
    8
   ],
   [
    [
     2.035670252648148,
     -2.961156404300248
    ],
    8
   ],
   [
    [
     2.047369692366774,
     -2.978165803604159
    ],
    8
   ],
   [
    [
     2.051805757618692,
     -2.9574197075866855
    ],
    8
   ],
   [
    [
     2.040852016750259,
     -2.9547332143674176
    ],
    8
   ],
   [
    [
     2.033858944050222,
     -2.9660201313222405
    ],
    8
   ],
   [
    [
     2.019639445207219,
     -2.9597283562950456
    ],
    8
   ],
   [
    [
     2.073267925693105,
     -2.9608014400345835
    ],
    8
   ],
   [
    [
     2.0040408091914705,
     -2.9662114488881546
    ],
    8
   ],
   [
    [
     2.0618922041222687,
     -2.964640453364604
    ],
    8
   ]
  ]
 },
 {
  "init_weights": [
   2.0,
   -83.4
  ],
  "results": [
   [
    [
     2.0584418574465206,
     -2.969021462117134
    ],
    8
   ],
   [
    [
     2.0356702521634946,
     -2.9611564012157263
    ],
    8
   ],
   [
    [
     2.047369692310651,
     -2.9781658006518232
    ],
    8
   ],
   [
    [
     2.051805757458458,
     -2.957419704391442
    ],
    8
   ],
   [
    [
     2.0408520164996484,
     -2.9547332110598594
    ],
    8
   ],
   [
    [
     2.033858944075129,
     -2.9660201281943954
    ],
    8
   ],
   [
    [
     2.019639445031446,
     -2.959728353114666
    ],
    8
   ],
   [
    [
     2.0732679255694206,
     -2.960801436857727
    ],
    8
   ],
   [
    [
     2.004040808864403,
     -2.9662114458707363
    ],
    8
   ],
   [
    [
     2.0618922039549035,
     -2.9646404502291834
    ],
    8
   ]
  ]
 },
 {
  "init_weights": [
   2.0,
   -83.2
  ],
  "results": [
   [
    [
     2.0584418573793206,
     -2.969021459179581
    ],
    8
   ],
   [
    [
     2.035670252292045,
     -2.961156398209411
    ],
    8
   ],
   [
    [
     2.0473696922762126,
     -2.9781657978093183
    ],
    8
   ],
   [
    [
     2.0518057574890007,
     -2.9574197012881482
    ],
    8
   ],
   [
    [
     2.0408520163891697,
     -2.9547332079293267
    ],
    8
   ],
   [
    [
     2.033858944062312,
     -2.9660201251704867
    ],
    8
   ],
   [
    [
     2.0196394447454686,
     -2.959728350093513
    ],
    8
   ],
   [
    [
     2.0732679256590845,
     -2.9608014338210915
    ],
    8
   ],
   [
    [
     2.0040408090422837,
     -2.9662114429275666
    ],
    8
   ],
   [
    [
     2.061892203695768,
     -2.964640447211869
    ],
    8
   ]
  ]
 },
 {
  "init_weights": [
   2.0,
   -83.0
  ],
  "results": [
   [
    [
     2.0584418572722005,
     -2.969021456354726
    ],
    8
   ],
   [
    [
     2.0356702518772685,
     -2.961156395362223
    ],
    8
   ],
   [
    [
     2.0473696925868907,
     -2.9781657950363143
    ],
    8
   ],
   [
    [
     2.0518057571530957,
     -2.9574196983666363
    ],
    8
   ],
   [
    [
     2.0408520162646595,
     -2.954733204882123
    ],
    8
   ],
   [
    [
     2.0338589437044416,
     -2.9660201223458365
    ],
    8
   ],
   [
    [
     2.0196394447611263,
     -2.9597283471423332
    ],
    8
   ],
   [
    [
     2.073267925379419,
     -2.9608014308983863
    ],
    8
   ],
   [
    [
     2.004040808576768,
     -2.966211440165789
    ],
    8
   ],
   [
    [
     2.0618922036349225,
     -2.9646404443128054
    ],
    8
   ]
  ]
 },
 {
  "init_weights": [
   2.0,
   -82.8
  ],
  "results": [
   [
    [
     2.058441857004914,
     -2.969021453672521
    ],
    8
   ],
   [
    [
     2.035670251733899,
     -2.961156392624229
    ],
    8
   ],
   [
    [
     2.0473696923928344,
     -2.9781657924447713
    ],
    8
   ],
   [
    [
     2.0518057570773194,
     -2.9574196955051404
    ],
    8
   ],
   [
    [
     2.0408520162034196,
     -2.9547332019483976
    ],
    8
   ],
   [
    [
     2.0338589436863432,
     -2.9660201195538147
    ],
    8
   ],
   [
    [
     2.019639444686758,
     -2.959728344311165
    ],
    8
   ],
   [
    [
     2.0732679252974573,
     -2.960801428111568
    ],
    8
   ],
   [
    [
     2.0040408087010153,
     -2.966211437448052
    ],
    8
   ],
   [
    [
     2.06189220359058,
     -2.9646404415366368
    ],
    8
   ]
  ]
 },
 {
  "init_weights": [
   2.0,
   -82.6
  ],
  "results": [
   [
    [
     2.0584418569004828,
     -2.969021451063019
    ],
    8
   ],
   [
    [
     2.035670251654468,
     -2.9611563899668933
    ],
    8
   ],
   [
    [
     2.0473696924758307,
     -2.9781657899014142
    ],
    8
   ],
   [
    [
     2.05180575695222,
     -2.9574196928003733
    ],
    8
   ],
   [
    [
     2.0408520162234693,
     -2.954733199134656
    ],
    8
   ],
   [
    [
     2.033858943587225,
     -2.9660201169273535
    ],
    8
   ],
   [
    [
     2.0196394444422996,
     -2.959728341643637
    ],
    8
   ],
   [
    [
     2.073267924974613,
     -2.9608014254486603
    ],
    8
   ],
   [
    [
     2.0040408082581647,
     -2.9662114348826947
    ],
    8
   ],
   [
    [
     2.061892203515905,
     -2.9646404388485634
    ],
    8
   ]
  ]
 },
 {
  "init_weights": [
   2.0,
   -82.4
  ],
  "results": [
   [
    [
     2.0584418569744503,
     -2.9690214485417528
    ],
    8
   ],
   [
    [
     2.0356702516185248,
     -2.9611563873883116
    ],
    8
   ],
   [
    [
     2.04736969237562,
     -2.9781657874915304
    ],
    8
   ],
   [
    [
     2.0518057568913277,
     -2.9574196901750103
    ],
    8
   ],
   [
    [
     2.040852016011089,
     -2.9547331964358188
    ],
    8
   ],
   [
    [
     2.0338589434364303,
     -2.966020114386499
    ],
    8
   ],
   [
    [
     2.0196394443752066,
     -2.959728339025067
    ],
    8
   ],
   [
    [
     2.073267925156072,
     -2.9608014228394994
    ],
    8
   ],
   [
    [
     2.0040408083825096,
     -2.966211432368868
    ],
    8
   ],
   [
    [
     2.0618922035680476,
     -2.9646404362497076
    ],
    8
   ]
  ]
 },
 {
  "init_weights": [
   2.0,
   -82.2
  ],
  "results": [
   [
    [
     2.058441856942588,
     -2.9690214461441355
    ],
    8
   ],
   [
    [
     2.0356702511829514,
     -2.9611563850349243
    ],
    8
   ],
   [
    [
     2.047369691876066,
     -2.978165785215504
    ],
    8
   ],
   [
    [
     2.0518057566124948,
     -2.9574196876774117
    ],
    8
   ],
   [
    [
     2.0408520161239254,
     -2.954733193815844
    ],
    8
   ],
   [
    [
     2.0338589435334153,
     -2.96602011191424
    ],
    8
   ],
   [
    [
     2.019639444100503,
     -2.9597283365784626
    ],
    8
   ],
   [
    [
     2.0732679245585826,
     -2.960801420418853
    ],
    8
   ],
   [
    [
     2.004040808125815,
     -2.966211429998509
    ],
    8
   ],
   [
    [
     2.0618922035453804,
     -2.964640433767971
    ],
    8
   ]
  ]
 },
 {
  "init_weights": [
   2.0,
   -82.0
  ],
  "results": [
   [
    [
     2.0584418567141607,
     -2.9690214438452256
    ],
    8
   ],
   [
    [
     2.0356702510606004,
     -2.9611563826823537
    ],
    8
   ],
   [
    [
     2.047369691900202,
     -2.9781657830014745
    ],
    8
   ],
   [
    [
     2.051805756580527,
     -2.9574196852857018
    ],
    8
   ],
   [
    [
     2.0408520155677676,
     -2.9547331914120227
    ],
    8
   ],
   [
    [
     2.0338589434164738,
     -2.9660201095920367
    ],
    8
   ],
   [
    [
     2.019639443941781,
     -2.959728334176422
    ],
    8
   ],
   [
    [
     2.073267924608416,
     -2.9608014180283972
    ],
    8
   ],
   [
    [
     2.0040408082031878,
     -2.966211427705992
    ],
    8
   ],
   [
    [
     2.0618922033116407,
     -2.9646404314109938
    ],
    8
   ]
  ]
 },
 {
  "init_weights": [
   2.0,
   -81.8
  ],
  "results": [
   [
    [
     2.058441856573503,
     -2.969021441639381
    ],
    8
   ],
   [
    [
     2.0356702510266214,
     -2.9611563804571417
    ],
    8
   ],
   [
    [
     2.0473696919632247,
     -2.978165780834804
    ],
    8
   ],
   [
    [
     2.051805756558533,
     -2.9574196829488453
    ],
    8
   ],
   [
    [
     2.0408520158404833,
     -2.9547331889762978
    ],
    8
   ],
   [
    [
     2.033858943482775,
     -2.966020107297997
    ],
    8
   ],
   [
    [
     2.0196394435795133,
     -2.9597283319209247
    ],
    8
   ],
   [
    [
     2.0732679245398735,
     -2.9608014157604248
    ],
    8
   ],
   [
    [
     2.0040408080591967,
     -2.966211425519157
    ],
    8
   ],
   [
    [
     2.0618922035693283,
     -2.964640429102435
    ],
    8
   ]
  ]
 },
 {
  "init_weights": [
   2.0,
   -81.6
  ],
  "results": [
   [
    [
     2.058441856874624,
     -2.9690214394945533
    ],
    8
   ],
   [
    [
     2.0356702506984643,
     -2.9611563783169794
    ],
    8
   ],
   [
    [
     2.04736969166847,
     -2.978165778821372
    ],
    8
   ],
   [
    [
     2.0518057561418592,
     -2.957419680774246
    ],
    8
   ],
   [
    [
     2.040852015720633,
     -2.954733186712409
    ],
    8
   ],
   [
    [
     2.0338589435380894,
     -2.9660201051339734
    ],
    8
   ],
   [
    [
     2.0196394439660788,
     -2.959728329677107
    ],
    8
   ],
   [
    [
     2.0732679245970744,
     -2.9608014135431353
    ],
    8
   ],
   [
    [
     2.0040408079083694,
     -2.96621142341552
    ],
    8
   ],
   [
    [
     2.061892203515239,
     -2.964640426933867
    ],
    8
   ]
  ]
 },
 {
  "init_weights": [
   2.0,
   -81.4
  ],
  "results": [
   [
    [
     2.0584418566725597,
     -2.9690214374704644
    ],
    8
   ],
   [
    [
     2.035670250555798,
     -2.9611563762581814
    ],
    8
   ],
   [
    [
     2.0473696918183637,
     -2.978165776845652
    ],
    8
   ],
   [
    [
     2.0518057560389,
     -2.9574196786623768
    ],
    8
   ],
   [
    [
     2.0408520153491074,
     -2.9547331845406206
    ],
    8
   ],
   [
    [
     2.033858943260603,
     -2.9660201030777014
    ],
    8
   ],
   [
    [
     2.0196394436522604,
     -2.959728327585721
    ],
    8
   ],
   [
    [
     2.0732679246311885,
     -2.9608014114307593
    ],
    8
   ],
   [
    [
     2.00404080775015,
     -2.9662114214053603
    ],
    8
   ],
   [
    [
     2.061892202872735,
     -2.9646404248950944
    ],
    8
   ]
  ]
 },
 {
  "init_weights": [
   2.0,
   -81.2
  ],
  "results": [
   [
    [
     2.058441856650645,
     -2.9690214355131443
    ],
    8
   ],
   [
    [
     2.0356702504694613,
     -2.9611563742707476
    ],
    8
   ],
   [
    [
     2.0473696918604682,
     -2.9781657749278323
    ],
    8
   ],
   [
    [
     2.051805756117712,
     -2.9574196766071554
    ],
    8
   ],
   [
    [
     2.040852015633316,
     -2.9547331823696283
    ],
    8
   ],
   [
    [
     2.0338589433698124,
     -2.966020101060798
    ],
    8
   ],
   [
    [
     2.019639443761207,
     -2.9597283255304703
    ],
    8
   ],
   [
    [
     2.0732679241529226,
     -2.9608014094826767
    ],
    8
   ],
   [
    [
     2.004040807550307,
     -2.966211419495768
    ],
    8
   ],
   [
    [
     2.0618922031190614,
     -2.9646404228622534
    ],
    8
   ]
  ]
 },
 {
  "init_weights": [
   2.0,
   -81.0
  ],
  "results": [
   [
    [
     2.0584418563668985,
     -2.9690214336907137
    ],
    8
   ],
   [
    [
     2.0356702504291384,
     -2.9611563723915864
    ],
    8
   ],
   [
    [
     2.0473696917620336,
     -2.9781657731191844
    ],
    8
   ],
   [
    [
     2.051805755720248,
     -2.9574196747005552
    ],
    8
   ],
   [
    [
     2.04085201520393,
     -2.9547331804035406
    ],
    8
   ],
   [
    [
     2.0338589433935397,
     -2.9660200991631815
    ],
    8
   ],
   [
    [
     2.019639443494219,
     -2.959728323647099
    ],
    8
   ],
   [
    [
     2.0732679243429946,
     -2.960801407510234
    ],
    8
   ],
   [
    [
     2.0040408073899965,
     -2.9662114176700807
    ],
    8
   ],
   [
    [
     2.0618922029401445,
     -2.9646404209591304
    ],
    8
   ]
  ]
 },
 {
  "init_weights": [
   2.0,
   -80.8
  ],
  "results": [
   [
    [
     2.0584418566260405,
     -2.9690214318634522
    ],
    8
   ],
   [
    [
     2.0356702502088693,
     -2.961156370597227
    ],
    8
   ],
   [
    [
     2.0473696917661157,
     -2.978165771394174
    ],
    8
   ],
   [
    [
     2.051805755839828,
     -2.957419672815022
    ],
    8
   ],
   [
    [
     2.040852015264605,
     -2.954733178448923
    ],
    8
   ],
   [
    [
     2.0338589431111442,
     -2.966020097347563
    ],
    8
   ],
   [
    [
     2.0196394433482934,
     -2.9597283217787407
    ],
    8
   ],
   [
    [
     2.0732679240479444,
     -2.9608014057082364
    ],
    8
   ],
   [
    [
     2.004040807239918,
     -2.9662114158982056
    ],
    8
   ],
   [
    [
     2.061892203069245,
     -2.964640419083408
    ],
    8
   ]
  ]
 },
 {
  "init_weights": [
   2.0,
   -80.6
  ],
  "results": [
   [
    [
     2.05844185631609,
     -2.96902143017245
    ],
    8
   ],
   [
    [
     2.035670249907356,
     -2.961156368883883
    ],
    8
   ],
   [
    [
     2.0473696914790485,
     -2.9781657697571555
    ],
    8
   ],
   [
    [
     2.0518057556864755,
     -2.9574196710304705
    ],
    8
   ],
   [
    [
     2.0408520151356675,
     -2.9547331766091802
    ],
    8
   ],
   [
    [
     2.033858942896678,
     -2.966020095605319
    ],
    8
   ],
   [
    [
     2.0196394432852456,
     -2.9597283199995856
    ],
    8
   ],
   [
    [
     2.0732679239822076,
     -2.9608014039247568
    ],
    8
   ],
   [
    [
     2.0040408076964242,
     -2.9662114141334155
    ],
    8
   ],
   [
    [
     2.0618922029597933,
     -2.964640417295135
    ],
    8
   ]
  ]
 },
 {
  "init_weights": [
   2.0,
   -80.4
  ],
  "results": [
   [
    [
     2.0584418562313833,
     -2.9690214285370486
    ],
    8
   ],
   [
    [
     2.035670249918262,
     -2.9611563672214696
    ],
    8
   ],
   [
    [
     2.0473696916457684,
     -2.978165768140266
    ],
    8
   ],
   [
    [
     2.051805755279643,
     -2.9574196693602253
    ],
    8
   ],
   [
    [
     2.040852014725207,
     -2.9547331748773
    ],
    8
   ],
   [
    [
     2.033858943060396,
     -2.966020093916142
    ],
    8
   ],
   [
    [
     2.0196394430156834,
     -2.9597283183426755
    ],
    8
   ],
   [
    [
     2.073267924091599,
     -2.960801402210219
    ],
    8
   ],
   [
    [
     2.0040408069659414,
     -2.9662114125909262
    ],
    8
   ],
   [
    [
     2.061892202671917,
     -2.9646404156407384
    ],
    8
   ]
  ]
 },
 {
  "init_weights": [
   2.0,
   -80.2
  ],
  "results": [
   [
    [
     2.0584418562881672,
     -2.969021426954979
    ],
    8
   ],
   [
    [
     2.0356702495421546,
     -2.9611563656779505
    ],
    8
   ],
   [
    [
     2.04736969158967,
     -2.97816576663471
    ],
    8
   ],
   [
    [
     2.051805755299537,
     -2.9574196677226348
    ],
    8
   ],
   [
    [
     2.0408520152826335,
     -2.9547331731023134
    ],
    8
   ],
   [
    [
     2.0338589430287266,
     -2.9660200923241775
    ],
    8
   ],
   [
    [
     2.019639442836359,
     -2.9597283167265225
    ],
    8
   ],
   [
    [
     2.073267923841879,
     -2.960801400636168
    ],
    8
   ],
   [
    [
     2.00404080705171,
     -2.966211411024643
    ],
    8
   ],
   [
    [
     2.0618922026067046,
     -2.9646404140316633
    ],
    8
   ]
  ]
 },
 {
  "init_weights": [
   2.0,
   -80.0
  ],
  "results": [
   [
    [
     2.05844185604794,
     -2.96902142546095
    ],
    8
   ],
   [
    [
     2.0356702493772088,
     -2.961156364185067
    ],
    8
   ],
   [
    [
     2.047369691425983,
     -2.9781657651685784
    ],
    8
   ],
   [
    [
     2.0518057554172073,
     -2.9574196661149155
    ],
    8
   ],
   [
    [
     2.040852014881918,
     -2.95473317152934
    ],
    8
   ],
   [
    [
     2.033858942861573,
     -2.966020090794412
    ],
    8
   ],
   [
    [
     2.019639442692518,
     -2.9597283151825597
    ],
    8
   ],
   [
    [
     2.0732679237615543,
     -2.9608013990803213
    ],
    8
   ],
   [
    [
     2.0040408069808495,
     -2.966211409551446
    ],
    8
   ],
   [
    [
     2.061892202604586,
     -2.96464041247364
    ],
    8
   ]
  ]
 },
 {
  "init_weights": [
   2.0,
   -79.8
  ],
  "results": [
   [
    [
     2.058441856068367,
     -2.969021424016983
    ],
    8
   ],
   [
    [
     2.035670249566908,
     -2.9611563627097537
    ],
    8
   ],
   [
    [
     2.0473696912862165,
     -2.978165763795513
    ],
    8
   ],
   [
    [
     2.051805755358543,
     -2.9574196646219217
    ],
    8
   ],
   [
    [
     2.040852014870378,
     -2.954733169954696
    ],
    8
   ],
   [
    [
     2.0338589429676204,
     -2.966020089307017
    ],
    8
   ],
   [
    [
     2.0196394427054223,
     -2.9597283136654107
    ],
    8
   ],
   [
    [
     2.0732679240068,
     -2.9608013975723417
    ],
    8
   ],
   [
    [
     2.0040408071003806,
     -2.96621140809003
    ],
    8
   ],
   [
    [
     2.061892202571096,
     -2.964640410972596
    ],
    8
   ]
  ]
 },
 {
  "init_weights": [
   2.0,
   -79.6
  ],
  "results": [
   [
    [
     2.0584418561884767,
     -2.9690214226135643
    ],
    8
   ],
   [
    [
     2.035670248993519,
     -2.9611563613686687
    ],
    8
   ],
   [
    [
     2.0473696912297354,
     -2.9781657624655202
    ],
    8
   ],
   [
    [
     2.0518057553366447,
     -2.9574196631984275
    ],
    8
   ],
   [
    [
     2.040852014785802,
     -2.9547331684667006
    ],
    8
   ],
   [
    [
     2.0338589428071727,
     -2.966020087906808
    ],
    8
   ],
   [
    [
     2.019639442796079,
     -2.9597283122395694
    ],
    8
   ],
   [
    [
     2.0732679236209584,
     -2.96080139619059
    ],
    8
   ],
   [
    [
     2.004040806769084,
     -2.966211406780689
    ],
    8
   ],
   [
    [
     2.0618922024686372,
     -2.9646404095777394
    ],
    8
   ]
  ]
 },
 {
  "init_weights": [
   2.0,
   -79.4
  ],
  "results": [
   [
    [
     2.058441856193294,
     -2.969021421292261
    ],
    8
   ],
   [
    [
     2.035670248689291,
     -2.9611563600796775
    ],
    8
   ],
   [
    [
     2.0473696911753745,
     -2.978165761188647
    ],
    8
   ],
   [
    [
     2.051805755050084,
     -2.9574196618514916
    ],
    8
   ],
   [
    [
     2.0408520145727342,
     -2.9547331670791097
    ],
    8
   ],
   [
    [
     2.0338589428332408,
     -2.9660200865567483
    ],
    8
   ],
   [
    [
     2.019639442364257,
     -2.9597283109393566
    ],
    8
   ],
   [
    [
     2.0732679233928972,
     -2.960801394848219
    ],
    8
   ],
   [
    [
     2.00404080630041,
     -2.9662114055095077
    ],
    8
   ],
   [
    [
     2.0618922022997332,
     -2.9646404082296476
    ],
    8
   ]
  ]
 },
 {
  "init_weights": [
   2.0,
   -79.2
  ],
  "results": [
   [
    [
     2.0584418558778057,
     -2.9690214200655856
    ],
    8
   ],
   [
    [
     2.0356702488687337,
     -2.961156358788323
    ],
    8
   ],
   [
    [
     2.047369691320551,
     -2.9781657599444924
    ],
    8
   ],
   [
    [
     2.0518057549274977,
     -2.9574196605428233
    ],
    8
   ],
   [
    [
     2.040852014512652,
     -2.954733165709987
    ],
    8
   ],
   [
    [
     2.0338589429936156,
     -2.966020085260891
    ],
    8
   ],
   [
    [
     2.01963944223723,
     -2.959728309634792
    ],
    8
   ],
   [
    [
     2.07326792335611,
     -2.9608013935401054
    ],
    8
   ],
   [
    [
     2.0040408063970774,
     -2.966211404252335
    ],
    8
   ],
   [
    [
     2.061892202413165,
     -2.9646404069115357
    ],
    8
   ]
  ]
 },
 {
  "init_weights": [
   2.0,
   -79.0
  ],
  "results": [
   [
    [
     2.058441855637612,
     -2.9690214188729063
    ],
    8
   ],
   [
    [
     2.035670248905641,
     -2.96115635755142
    ],
    8
   ],
   [
    [
     2.047369691146889,
     -2.978165758794198
    ],
    8
   ],
   [
    [
     2.051805754918822,
     -2.9574196592784605
    ],
    8
   ],
   [
    [
     2.0408520143541513,
     -2.9547331644207
    ],
    8
   ],
   [
    [
     2.033858942623366,
     -2.966020084077826
    ],
    8
   ],
   [
    [
     2.019639442337521,
     -2.959728308357051
    ],
    8
   ],
   [
    [
     2.0732679232328506,
     -2.9608013923216636
    ],
    8
   ],
   [
    [
     2.004040806468746,
     -2.9662114030610267
    ],
    8
   ],
   [
    [
     2.0618922022672552,
     -2.9646404056903877
    ],
    8
   ]
  ]
 },
 {
  "init_weights": [
   2.0,
   -78.8
  ],
  "results": [
   [
    [
     2.0584418557544057,
     -2.96902141771733
    ],
    8
   ],
   [
    [
     2.0356702487326457,
     -2.9611563564334236
    ],
    8
   ],
   [
    [
     2.0473696911676966,
     -2.978165757702197
    ],
    8
   ],
   [
    [
     2.051805754633245,
     -2.9574196581047376
    ],
    8
   ],
   [
    [
     2.0408520140933515,
     -2.9547331632026514
    ],
    8
   ],
   [
    [
     2.0338589425093607,
     -2.9660200828836034
    ],
    8
   ],
   [
    [
     2.0196394422184785,
     -2.9597283071861136
    ],
    8
   ],
   [
    [
     2.073267923128821,
     -2.9608013911631192
    ],
    8
   ],
   [
    [
     2.0040408065602406,
     -2.966211401920325
    ],
    8
   ],
   [
    [
     2.061892202422283,
     -2.964640404464146
    ],
    8
   ]
  ]
 },
 {
  "init_weights": [
   2.0,
   -78.6
  ],
  "results": [
   [
    [
     2.0584418557745585,
     -2.9690214165936566
    ],
    8
   ],
   [
    [
     2.035670248556308,
     -2.961156355334046
    ],
    8
   ],
   [
    [
     2.0473696913694126,
     -2.9781657565655686
    ],
    8
   ],
   [
    [
     2.0518057547374298,
     -2.957419656967801
    ],
    8
   ],
   [
    [
     2.040852014220152,
     -2.954733161989347
    ],
    8
   ],
   [
    [
     2.0338589426077367,
     -2.9660200817608007
    ],
    8
   ],
   [
    [
     2.0196394419546575,
     -2.9597283060748945
    ],
    8
   ],
   [
    [
     2.073267923074433,
     -2.9608013900413326
    ],
    8
   ],
   [
    [
     2.004040806392313,
     -2.966211400840674
    ],
    8
   ],
   [
    [
     2.061892202148444,
     -2.964640403347114
    ],
    8
   ]
  ]
 },
 {
  "init_weights": [
   2.0,
   -78.4
  ],
  "results": [
   [
    [
     2.0584418556108077,
     -2.969021415573303
    ],
    8
   ],
   [
    [
     2.035670248362373,
     -2.961156354295147
    ],
    8
   ],
   [
    [
     2.0473696910210615,
     -2.9781657556062906
    ],
    8
   ],
   [
    [
     2.0518057544340738,
     -2.9574196559064014
    ],
    8
   ],
   [
    [
     2.0408520142542486,
     -2.9547331608389746
    ],
    8
   ],
   [
    [
     2.033858942476109,
     -2.9660200806729344
    ],
    8
   ],
   [
    [
     2.019639442143365,
     -2.959728304963344
    ],
    8
   ],
   [
    [
     2.073267923154393,
     -2.9608013889262756
    ],
    8
   ],
   [
    [
     2.0040408063284145,
     -2.9662113998212547
    ],
    8
   ],
   [
    [
     2.061892201927107,
     -2.964640402300099
    ],
    8
   ]
  ]
 },
 {
  "init_weights": [
   2.0,
   -78.2
  ],
  "results": [
   [
    [
     2.058441855256784,
     -2.969021414596071
    ],
    8
   ],
   [
    [
     2.035670248570501,
     -2.961156353256297
    ],
    8
   ],
   [
    [
     2.0473696912524395,
     -2.9781657545866316
    ],
    8
   ],
   [
    [
     2.051805754229917,
     -2.957419654894547
    ],
    8
   ],
   [
    [
     2.04085201413282,
     -2.9547331597709006
    ],
    8
   ],
   [
    [
     2.033858942352074,
     -2.966020079675255
    ],
    8
   ],
   [
    [
     2.0196394416411096,
     -2.9597283040046087
    ],
    8
   ],
   [
    [
     2.0732679231033204,
     -2.960801387898208
    ],
    8
   ],
   [
    [
     2.004040806136186,
     -2.966211398860808
    ],
    8
   ],
   [
    [
     2.061892202089007,
     -2.964640401230406
    ],
    8
   ]
  ]
 },
 {
  "init_weights": [
   2.0,
   -78.0
  ],
  "results": [
   [
    [
     2.058441855484574,
     -2.969021413631535
    ],
    8
   ],
   [
    [
     2.035670248194085,
     -2.961156352357022
    ],
    8
   ],
   [
    [
     2.0473696906090066,
     -2.97816575372549
    ],
    8
   ],
   [
    [
     2.0518057543296107,
     -2.9574196538537727
    ],
    8
   ],
   [
    [
     2.0408520141460884,
     -2.9547331587329566
    ],
    8
   ],
   [
    [
     2.033858942384364,
     -2.9660200786892266
    ],
    8
   ],
   [
    [
     2.019639441800166,
     -2.959728302960292
    ],
    8
   ],
   [
    [
     2.0732679227299173,
     -2.960801386979745
    ],
    8
   ],
   [
    [
     2.0040408063126205,
     -2.966211397907851
    ],
    8
   ],
   [
    [
     2.06189220168769,
     -2.96464040029555
    ],
    8
   ]
  ]
 },
 {
  "init_weights": [
   2.0,
   -77.8
  ],
  "results": [
   [
    [
     2.0584418553633137,
     -2.969021412711816
    ],
    8
   ],
   [
    [
     2.0356702480128113,
     -2.961156351457661
    ],
    8
   ],
   [
    [
     2.047369690982394,
     -2.978165752779387
    ],
    8
   ],
   [
    [
     2.0518057542409354,
     -2.957419652911394
    ],
    8
   ],
   [
    [
     2.0408520141688764,
     -2.954733157726913
    ],
    8
   ],
   [
    [
     2.0338589423443025,
     -2.9660200777609633
    ],
    8
   ],
   [
    [
     2.0196394417493124,
     -2.959728302024729
    ],
    8
   ],
   [
    [
     2.073267923069993,
     -2.9608013860003233
    ],
    8
   ],
   [
    [
     2.0040408061149613,
     -2.966211397020675
    ],
    8
   ],
   [
    [
     2.0618922019214594,
     -2.9646403993162136
    ],
    8
   ]
  ]
 },
 {
  "init_weights": [
   2.0,
   -77.6
  ],
  "results": [
   [
    [
     2.058441855920807,
     -2.9690214117788756
    ],
    8
   ],
   [
    [
     2.035670248181095,
     -2.961156350575794
    ],
    8
   ],
   [
    [
     2.0473696906436443,
     -2.9781657519852747
    ],
    8
   ],
   [
    [
     2.0518057542931016,
     -2.9574196520175557
    ],
    8
   ],
   [
    [
     2.040852013991128,
     -2.9547331568032096
    ],
    8
   ],
   [
    [
     2.0338589423161646,
     -2.966020076853856
    ],
    8
   ],
   [
    [
     2.0196394416401184,
     -2.9597283011478703
    ],
    8
   ],
   [
    [
     2.073267922857138,
     -2.960801385122541
    ],
    8
   ],
   [
    [
     2.004040805791306,
     -2.9662113962006145
    ],
    8
   ],
   [
    [
     2.06189220179129,
     -2.9646403984019094
    ],
    8
   ]
  ]
 },
 {
  "init_weights": [
   2.0,
   -77.4
  ],
  "results": [
   [
    [
     2.058441855316818,
     -2.9690214110210764
    ],
    8
   ],
   [
    [
     2.035670248059348,
     -2.9611563497316937
    ],
    8
   ],
   [
    [
     2.04736969096667,
     -2.9781657511209123
    ],
    8
   ],
   [
    [
     2.051805753872366,
     -2.9574196511887707
    ],
    8
   ],
   [
    [
     2.0408520137563024,
     -2.9547331559523387
    ],
    8
   ],
   [
    [
     2.033858942359887,
     -2.9660200759900115
    ],
    8
   ],
   [
    [
     2.0196394415440215,
     -2.9597283003131714
    ],
    8
   ],
   [
    [
     2.073267922886023,
     -2.9608013842581893
    ],
    8
   ],
   [
    [
     2.0040408059646238,
     -2.9662113953784286
    ],
    8
   ],
   [
    [
     2.06189220190631,
     -2.964640397515847
    ],
    8
   ]
  ]
 },
 {
  "init_weights": [
   2.0,
   -77.2
  ],
  "results": [
   [
    [
     2.0584418555434936,
     -2.9690214101989425
    ],
    8
   ],
   [
    [
     2.035670247591407,
     -2.9611563489973523
    ],
    8
   ],
   [
    [
     2.0473696909426486,
     -2.978165750344097
    ],
    8
   ],
   [
    [
     2.051805753986706,
     -2.957419650372075
    ],
    8
   ],
   [
    [
     2.040852013872795,
     -2.95473315505785
    ],
    8
   ],
   [
    [
     2.033858942456802,
     -2.9660200751884287
    ],
    8
   ],
   [
    [
     2.0196394415729806,
     -2.959728299480218
    ],
    8
   ],
   [
    [
     2.0732679226114246,
     -2.9608013834732905
    ],
    8
   ],
   [
    [
     2.004040805906509,
     -2.966211394602463
    ],
    8
   ],
   [
    [
     2.061892201708287,
     -2.964640396756519
    ],
    8
   ]
  ]
 },
 {
  "init_weights": [
   2.0,
   -77.0
  ],
  "results": [
   [
    [
     2.0584418554121715,
     -2.9690214094476404
    ],
    8
   ],
   [
    [
     2.035670247580744,
     -2.9611563482440375
    ],
    8
   ],
   [
    [
     2.0473696907891816,
     -2.978165749614382
    ],
    8
   ],
   [
    [
     2.0518057535988614,
     -2.9574196496279934
    ],
    8
   ],
   [
    [
     2.040852013716717,
     -2.9547331542451594
    ],
    8
   ],
   [
    [
     2.033858941985545,
     -2.9660200744548098
    ],
    8
   ],
   [
    [
     2.019639441623868,
     -2.959728298681253
    ],
    8
   ],
   [
    [
     2.0732679225139137,
     -2.9608013826984747
    ],
    8
   ],
   [
    [
     2.004040805783793,
     -2.9662113938743113
    ],
    8
   ],
   [
    [
     2.061892201901484,
     -2.9646403959365113
    ],
    8
   ]
  ]
 },
 {
  "init_weights": [
   2.0,
   -76.8
  ],
  "results": [
   [
    [
     2.0584418551793617,
     -2.9690214087497213
    ],
    8
   ],
   [
    [
     2.035670247935022,
     -2.961156347502203
    ],
    8
   ],
   [
    [
     2.047369690689298,
     -2.978165748938911
    ],
    8
   ],
   [
    [
     2.051805753794951,
     -2.9574196488791133
    ],
    8
   ],
   [
    [
     2.0408520137188204,
     -2.9547331534686117
    ],
    8
   ],
   [
    [
     2.033858942341427,
     -2.9660200736867446
    ],
    8
   ],
   [
    [
     2.019639441584268,
     -2.959728297943386
    ],
    8
   ],
   [
    [
     2.0732679224985056,
     -2.960801381953984
    ],
    8
   ],
   [
    [
     2.004040805798351,
     -2.966211393159378
    ],
    8
   ],
   [
    [
     2.0618922015810743,
     -2.9646403952137974
    ],
    8
   ]
  ]
 },
 {
  "init_weights": [
   2.0,
   -76.6
  ],
  "results": [
   [
    [
     2.0584418552853982,
     -2.9690214080571846
    ],
    8
   ],
   [
    [
     2.035670247424353,
     -2.9611563468823188
    ],
    8
   ],
   [
    [
     2.0473696909094516,
     -2.978165748244533
    ],
    8
   ],
   [
    [
     2.0518057538253753,
     -2.9574196481604407
    ],
    8
   ],
   [
    [
     2.0408520133603543,
     -2.954733152793902
    ],
    8
   ],
   [
    [
     2.0338589423061646,
     -2.9660200729725665
    ],
    8
   ],
   [
    [
     2.0196394412179215,
     -2.9597282972886694
    ],
    8
   ],
   [
    [
     2.0732679224557553,
     -2.9608013812748
    ],
    8
   ],
   [
    [
     2.004040805384153,
     -2.966211392551128
    ],
    8
   ],
   [
    [
     2.0618922016740275,
     -2.9646403945044932
    ],
    8
   ]
  ]
 },
 {
  "init_weights": [
   2.0,
   -76.4
  ],
  "results": [
   [
    [
     2.0584418554864303,
     -2.9690214073993806
    ],
    8
   ],
   [
    [
     2.0356702474011694,
     -2.961156346239618
    ],
    8
   ],
   [
    [
     2.0473696908479924,
     -2.9781657475996606
    ],
    8
   ],
   [
    [
     2.0518057538380954,
     -2.9574196474523085
    ],
    8
   ],
   [
    [
     2.0408520136703583,
     -2.954733152015495
    ],
    8
   ],
   [
    [
     2.0338589419258932,
     -2.966020072329355
    ],
    8
   ],
   [
    [
     2.019639441440048,
     -2.9597282966071927
    ],
    8
   ],
   [
    [
     2.073267922198644,
     -2.9608013806380105
    ],
    8
   ],
   [
    [
     2.004040805607879,
     -2.966211391857982
    ],
    8
   ],
   [
    [
     2.0618922016112333,
     -2.964640393811267
    ],
    8
   ]
  ]
 },
 {
  "init_weights": [
   2.0,
   -76.2
  ],
  "results": [
   [
    [
     2.0584418551198107,
     -2.9690214068040572
    ],
    8
   ],
   [
    [
     2.0356702475037802,
     -2.9611563455968968
    ],
    8
   ],
   [
    [
     2.0473696906820416,
     -2.97816574700656
    ],
    8
   ],
   [
    [
     2.051805753450746,
     -2.957419646888675
    ],
    8
   ],
   [
    [
     2.040852013630517,
     -2.9547331513430177
    ],
    8
   ],
   [
    [
     2.0338589420949327,
     -2.9660200716880945
    ],
    8
   ],
   [
    [
     2.0196394410686294,
     -2.9597282959884215
    ],
    8
   ],
   [
    [
     2.0732679223250376,
     -2.960801379996305
    ],
    8
   ],
   [
    [
     2.004040805597771,
     -2.9662113912679984
    ],
    8
   ],
   [
    [
     2.06189220118786,
     -2.9646403932220298
    ],
    8
   ]
  ]
 },
 {
  "init_weights": [
   2.0,
   -76.0
  ],
  "results": [
   [
    [
     2.0584418551568144,
     -2.9690214061841242
    ],
    8
   ],
   [
    [
     2.0356702473702892,
     -2.9611563450246092
    ],
    8
   ],
   [
    [
     2.0473696906434324,
     -2.978165746430804
    ],
    8
   ],
   [
    [
     2.051805753441394,
     -2.9574196462793547
    ],
    8
   ],
   [
    [
     2.040852013482908,
     -2.954733150725977
    ],
    8
   ],
   [
    [
     2.0338589419833943,
     -2.966020071089161
    ],
    8
   ],
   [
    [
     2.0196394412636254,
     -2.959728295347489
    ],
    8
   ],
   [
    [
     2.0732679223789514,
     -2.960801379367986
    ],
    8
   ],
   [
    [
     2.004040805404833,
     -2.966211390747351
    ],
    8
   ],
   [
    [
     2.0618922014490826,
     -2.964640392586259
    ],
    8
   ]
  ]
 },
 {
  "init_weights": [
   2.0,
   -75.8
  ],
  "results": [
   [
    [
     2.0584418550954418,
     -2.9690214056096367
    ],
    8
   ],
   [
    [
     2.035670247100682,
     -2.9611563445093867
    ],
    8
   ],
   [
    [
     2.047369690483994,
     -2.9781657458891564
    ],
    8
   ],
   [
    [
     2.0518057532886766,
     -2.9574196456956936
    ],
    8
   ],
   [
    [
     2.0408520131666865,
     -2.9547331501657785
    ],
    8
   ],
   [
    [
     2.0338589420160202,
     -2.9660200704920388
    ],
    8
   ],
   [
    [
     2.019639441236012,
     -2.959728294798425
    ],
    8
   ],
   [
    [
     2.073267922023229,
     -2.960801378846126
    ],
    8
   ],
   [
    [
     2.004040805257326,
     -2.9662113901766927
    ],
    8
   ],
   [
    [
     2.061892201500858,
     -2.964640391994839
    ],
    8
   ]
  ]
 },
 {
  "init_weights": [
   2.0,
   -75.6
  ],
  "results": [
   [
    [
     2.0584418550604755,
     -2.969021405126056
    ],
    8
   ],
   [
    [
     2.0356702468311116,
     -2.9611563440051785
    ],
    8
   ],
   [
    [
     2.047369690641161,
     -2.978165745359291
    ],
    8
   ],
   [
    [
     2.0518057533181566,
     -2.9574196451573425
    ],
    8
   ],
   [
    [
     2.0408520132944186,
     -2.9547331495593734
    ],
    8
   ],
   [
    [
     2.03385894199885,
     -2.9660200699472856
    ],
    8
   ],
   [
    [
     2.019639440941212,
     -2.9597282942809042
    ],
    8
   ],
   [
    [
     2.0732679221403547,
     -2.9608013782929206
    ],
    8
   ],
   [
    [
     2.004040805171088,
     -2.9662113896830804
    ],
    8
   ],
   [
    [
     2.06189220141284,
     -2.9646403914316197
    ],
    8
   ]
  ]
 },
 {
  "init_weights": [
   2.0,
   -75.4
  ],
  "results": [
   [
    [
     2.0584418548871337,
     -2.969021404606808
    ],
    8
   ],
   [
    [
     2.035670246709868,
     -2.9611563435364037
    ],
    8
   ],
   [
    [
     2.0473696907135155,
     -2.9781657448482446
    ],
    8
   ],
   [
    [
     2.05180575301904,
     -2.957419644650222
    ],
    8
   ],
   [
    [
     2.0408520133486188,
     -2.9547331490056514
    ],
    8
   ],
   [
    [
     2.0338589421646027,
     -2.9660200694223713
    ],
    8
   ],
   [
    [
     2.019639440820098,
     -2.959728293769227
    ],
    8
   ],
   [
    [
     2.0732679222256585,
     -2.9608013777561517
    ],
    8
   ],
   [
    [
     2.0040408050258214,
     -2.9662113892004243
    ],
    8
   ],
   [
    [
     2.061892201468711,
     -2.964640390909184
    ],
    8
   ]
  ]
 },
 {
  "init_weights": [
   2.0,
   -75.2
  ],
  "results": [
   [
    [
     2.0584418549318397,
     -2.9690214041509493
    ],
    8
   ],
   [
    [
     2.035670246794269,
     -2.9611563430528687
    ],
    8
   ],
   [
    [
     2.0473696907385888,
     -2.978165744362172
    ],
    8
   ],
   [
    [
     2.0518057529663665,
     -2.957419644173504
    ],
    8
   ],
   [
    [
     2.040852013255324,
     -2.9547331484678327
    ],
    8
   ],
   [
    [
     2.0338589419084925,
     -2.966020068964238
    ],
    8
   ],
   [
    [
     2.019639441150643,
     -2.959728293243186
    ],
    8
   ],
   [
    [
     2.0732679219843084,
     -2.9608013773093194
    ],
    8
   ],
   [
    [
     2.004040805067925,
     -2.9662113887413852
    ],
    8
   ],
   [
    [
     2.0618922012142264,
     -2.964640390434105
    ],
    8
   ]
  ]
 },
 {
  "init_weights": [
   2.0,
   -75.0
  ],
  "results": [
   [
    [
     2.058441854976211,
     -2.969021403658524
    ],
    8
   ],
   [
    [
     2.0356702466996808,
     -2.961156342585643
    ],
    8
   ],
   [
    [
     2.0473696904532748,
     -2.97816574394335
    ],
    8
   ],
   [
    [
     2.05180575317219,
     -2.9574196436701667
    ],
    8
   ],
   [
    [
     2.0408520131128705,
     -2.954733147981378
    ],
    8
   ],
   [
    [
     2.0338589420622126,
     -2.966020068455195
    ],
    8
   ],
   [
    [
     2.019639440842185,
     -2.959728292805051
    ],
    8
   ],
   [
    [
     2.0732679218309507,
     -2.960801376830704
    ],
    8
   ],
   [
    [
     2.0040408053733216,
     -2.9662113882475896
    ],
    8
   ],
   [
    [
     2.0618922011103433,
     -2.9646403899624434
    ],
    8
   ]
  ]
 },
 {
  "init_weights": [
   2.0,
   -74.8
  ],
  "results": [
   [
    [
     2.058441854757584,
     -2.96902140324643
    ],
    8
   ],
   [
    [
     2.0356702466196133,
     -2.961156342183668
    ],
    8
   ],
   [
    [
     2.0473696904062706,
     -2.978165743532468
    ],
    8
   ],
   [
    [
     2.0518057532870273,
     -2.957419643218378
    ],
    8
   ],
   [
    [
     2.0408520130233696,
     -2.954733147529774
    ],
    8
   ],
   [
    [
     2.0338589416153456,
     -2.966020068058904
    ],
    8
   ],
   [
    [
     2.0196394409206686,
     -2.959728292346911
    ],
    8
   ],
   [
    [
     2.073267922245012,
     -2.9608013763323937
    ],
    8
   ],
   [
    [
     2.0040408048845704,
     -2.966211387904328
    ],
    8
   ],
   [
    [
     2.0618922012716787,
     -2.9646403894991793
    ],
    8
   ]
  ]
 },
 {
  "init_weights": [
   2.0,
   -74.6
  ],
  "results": [
   [
    [
     2.058441854938026,
     -2.969021402816766
    ],
    8
   ],
   [
    [
     2.035670246743891,
     -2.961156341771695
    ],
    8
   ],
   [
    [
     2.0473696904377654,
     -2.9781657431055386
    ],
    8
   ],
   [
    [
     2.0518057529999805,
     -2.957419642832381
    ],
    8
   ],
   [
    [
     2.0408520129620387,
     -2.9547331470960643
    ],
    8
   ],
   [
    [
     2.033858941825536,
     -2.9660200676124573
    ],
    8
   ],
   [
    [
     2.0196394405177407,
     -2.959728291991095
    ],
    8
   ],
   [
    [
     2.0732679220089336,
     -2.9608013759555707
    ],
    8
   ],
   [
    [
     2.0040408047682976,
     -2.9662113875194844
    ],
    8
   ],
   [
    [
     2.061892201388127,
     -2.964640389036898
    ],
    8
   ]
  ]
 },
 {
  "init_weights": [
   2.0,
   -74.4
  ],
  "results": [
   [
    [
     2.0584418548295775,
     -2.9690214024537993
    ],
    8
   ],
   [
    [
     2.0356702464069163,
     -2.9611563414160953
    ],
    8
   ],
   [
    [
     2.0473696903926775,
     -2.978165742725355
    ],
    8
   ],
   [
    [
     2.051805753030189,
     -2.957419642452599
    ],
    8
   ],
   [
    [
     2.0408520130952694,
     -2.9547331466343216
    ],
    8
   ],
   [
    [
     2.0338589417266695,
     -2.9660200672094814
    ],
    8
   ],
   [
    [
     2.0196394404547977,
     -2.9597282915923726
    ],
    8
   ],
   [
    [
     2.0732679219491894,
     -2.9608013755675975
    ],
    8
   ],
   [
    [
     2.004040805073555,
     -2.9662113870987072
    ],
    8
   ],
   [
    [
     2.061892201216157,
     -2.9646403886623287
    ],
    8
   ]
  ]
 },
 {
  "init_weights": [
   2.0,
   -74.2
  ],
  "results": [
   [
    [
     2.0584418546973144,
     -2.9690214020806525
    ],
    8
   ],
   [
    [
     2.0356702465142433,
     -2.9611563410590374
    ],
    8
   ],
   [
    [
     2.0473696902355845,
     -2.978165742373649
    ],
    8
   ],
   [
    [
     2.0518057528566387,
     -2.957419642054279
    ],
    8
   ],
   [
    [
     2.040852012872557,
     -2.954733146283507
    ],
    8
   ],
   [
    [
     2.033858942083225,
     -2.9660200668020247
    ],
    8
   ],
   [
    [
     2.0196394405708507,
     -2.9597282911894967
    ],
    8
   ],
   [
    [
     2.0732679219367416,
     -2.9608013752095546
    ],
    8
   ],
   [
    [
     2.004040804819937,
     -2.9662113867838213
    ],
    8
   ],
   [
    [
     2.0618922010321694,
     -2.9646403882840997
    ],
    8
   ]
  ]
 },
 {
  "init_weights": [
   2.0,
   -74.0
  ],
  "results": [
   [
    [
     2.0584418545530228,
     -2.9690214017572503
    ],
    8
   ],
   [
    [
     2.0356702463344085,
     -2.9611563407318346
    ],
    8
   ],
   [
    [
     2.0473696902143894,
     -2.9781657420396805
    ],
    8
   ],
   [
    [
     2.0518057528142335,
     -2.9574196417181713
    ],
    8
   ],
   [
    [
     2.040852013055056,
     -2.9547331458659274
    ],
    8
   ],
   [
    [
     2.0338589418146142,
     -2.9660200664645946
    ],
    8
   ],
   [
    [
     2.0196394404456735,
     -2.9597282908308813
    ],
    8
   ],
   [
    [
     2.0732679217162224,
     -2.960801374861903
    ],
    8
   ],
   [
    [
     2.0040408049300495,
     -2.966211386424174
    ],
    8
   ],
   [
    [
     2.06189220122607,
     -2.9646403878881395
    ],
    8
   ]
  ]
 },
 {
  "init_weights": [
   2.0,
   -73.8
  ],
  "results": [
   [
    [
     2.058441854811461,
     -2.9690214013779674
    ],
    8
   ],
   [
    [
     2.035670246191222,
     -2.9611563404221926
    ],
    8
   ],
   [
    [
     2.047369690382429,
     -2.9781657416795215
    ],
    8
   ],
   [
    [
     2.051805752733501,
     -2.95741964137388
    ],
    8
   ],
   [
    [
     2.0408520129298826,
     -2.954733145535661
    ],
    8
   ],
   [
    [
     2.033858941774662,
     -2.966020066133449
    ],
    8
   ],
   [
    [
     2.0196394402676736,
