[
 {
  "init_weights": [
   -98.0,
   3.0
  ],
  "results": [
   [
    [
     1.1201704871060583,
     -2.935479802273324
    ],
    62
   ],
   [
    [
     1.5945990169742164,
     3.4281034696172172
    ],
    62
   ],
   [
    [
     1.0749856551683112,
     -3.0327711969753985
    ],
    61
   ],
   [
    [
     1.0433296994303722,
     -3.1969704475037877
    ],
    61
   ],
   [
    [
     0.9835240363156348,
     -3.2116712810394246
    ],
    61
   ],
   [
    [
     0.9818114174826674,
     -2.756875287905837
    ],
    63
   ],
   [
    [
     1.1046186494701025,
     -3.032186285063779
    ],
    61
   ],
   [
    [
     0.957176111016639,
     -3.095362197419144
    ],
    61
   ],
   [
    [
     0.9953249771014578,
     -3.0859978568800144
    ],
    61
   ],
   [
    [
     1.1052239379223427,
     -3.0304824936525705
    ],
    61
   ]
  ]
 },
 {
  "init_weights": [
   -97.8,
   3.0
  ],
  "results": [
   [
    [
     0.7877494668580867,
     -2.928413196739888
    ],
    61
   ],
   [
    [
     1.6639581521378646,
     3.3956674471652373
    ],
    62
   ],
   [
    [
     1.1570640579807365,
     -3.012641541487307
    ],
    61
   ],
   [
    [
     1.1262410569286798,
     -3.181347767913868
    ],
    61
   ],
   [
    [
     1.067595350535576,
     -3.2013926808763444
    ],
    61
   ],
   [
    [
     1.066880202911042,
     -2.7405514843539898
    ],
    63
   ],
   [
    [
     0.7469881341609552,
     -2.95177711663168
    ],
    60
   ],
   [
    [
     1.0423816960921228,
     -3.0878185906018865
    ],
    61
   ],
   [
    [
     0.6376440289685587,
     -3.053528546112827
    ],
    60
   ],
   [
    [
     0.7466854210658964,
     -2.9752324621935253
    ],
    60
   ]
  ]
 },
 {
  "init_weights": [
   -97.6,
   3.0
  ],
  "results": [
   [
    [
     0.8767226846790526,
     -2.926618511952243
    ],
    61
   ],
   [
    [
     1.3605048055255593,
     3.4605877186798475
    ],
    61
   ],
   [
    [
     0.8026300225586989,
     -2.965957550176902
    ],
    60
   ],
   [
    [
     0.7717615972950196,
     -3.1436696423245145
    ],
    60
   ],
   [
    [
     1.1509274043715563,
     -3.190567144202908
    ],
    61
   ],
   [
    [
     1.1513780486197858,
     -2.7257433669705207
    ],
    63
   ],
   [
    [
     0.8327189267069348,
     -2.905244417483483
    ],
    60
   ],
   [
    [
     1.1268296712856196,
     -3.0798754634842567
    ],
    61
   ],
   [
    [
     0.7245831403242001,
     -3.0391646501803886
    ],
    60
   ],
   [
    [
     0.8322379524571414,
     -2.946568248437026
    ],
    60
   ]
  ]
 },
 {
  "init_weights": [
   -97.4,
   3.0
  ],
  "results": [
   [
    [
     0.9649257767487118,
     -2.924698986239176
    ],
    61
   ],
   [
    [
     1.4344715286279828,
     3.429204117319931
    ],
    61
   ],
   [
    [
     0.8877982241219822,
     -2.9427742343387737
    ],
    60
   ],
   [
    [
     0.8577019888114945,
     -3.1246784337073277
    ],
    60
   ],
   [
    [
     0.8002783612744884,
     -3.1645702318258415
    ],
    60
   ],
   [
    [
     1.2352873755961558,
     -2.7123420974241017
    ],
    63
   ],
   [
    [
     0.9180225442011241,
     -2.8552335223266625
    ],
    60
   ],
   [
    [
     0.7747616837257604,
     -3.0566430688272233
    ],
    60
   ],
   [
    [
     0.8107939640673277,
     -3.0240097794988126
    ],
    60
   ],
   [
    [
     0.917153325189366,
     -2.9161101915666667
    ],
    60
   ]
  ]
 },
 {
  "init_weights": [
   -97.2,
   3.0
  ],
  "results": [
   [
    [
     1.0523560649685213,
     -2.922644330422214
    ],
    61
   ],
   [
    [
     1.5081519090342204,
     3.396037278968472
    ],
    61
   ],
   [
    [
     0.9722870754878803,
     -2.918265254820661
    ],
    60
   ],
   [
    [
     0.9429430220362299,
     -3.1044278187461107
    ],
    60
   ],
   [
    [
     0.8866616818395425,
     -3.1516851835992905
    ],
    60
   ],
   [
    [
     0.9357603651497821,
     -2.7602823068160234
    ],
    62
   ],
   [
    [
     1.0029694199975983,
     -2.8016267683799687
    ],
    60
   ],
   [
    [
     0.8622786568633722,
     -3.0473834699137217
    ],
    60
   ],
   [
    [
     0.8962779247039927,
     -3.0080142929901643
    ],
    60
   ],
   [
    [
     1.0014457672083876,
     -2.883756078769098
    ],
    60
   ]
  ]
 },
 {
  "init_weights": [
   -97.0,
   3.0
  ],
  "results": [
   [
    [
     1.1390112342012717,
     -2.920444818352661
    ],
    61
   ],
   [
    [
     1.5815496196327343,
     3.361659403986438
    ],
    61
   ],
   [
    [
     1.05610373499229,
     -2.892356098024901
    ],
    60
   ],
   [
    [
     1.027488957668666,
     -3.0828104059419696
    ],
    60
   ],
   [
    [
     0.9723087056992475,
     -3.138041434824294
    ],
    60
   ],
   [
    [
     1.022754971773402,
     -2.7454978610707084
    ],
    62
   ],
   [
    [
     1.0876576832743456,
     -2.744392041392696
    ],
    60
   ],
   [
    [
     0.9490402417698804,
     -3.037634431214273
    ],
    60
   ],
   [
    [
     0.9810366506620234,
     -2.9911245633759034
    ],
    60
   ],
   [
    [
     1.085133215525258,
     -2.8494089787890875
    ],
    60
   ]
  ]
 },
 {
  "init_weights": [
   -96.8,
   3.0
  ],
  "results": [
   [
    [
     0.7953638628299564,
     -2.9132512524333576
    ],
    60
   ],
   [
    [
     1.265623397450264,
     3.435402075066222
    ],
    60
   ],
   [
    [
     1.1392570942601212,
     -2.864972635933124
    ],
    60
   ],
   [
    [
     1.1113444117858626,
     -3.059709145746964
    ],
    60
   ],
   [
    [
     1.0572216986756247,
     -3.123580861655266
    ],
    60
   ],
   [
    [
     1.1091364898346383,
     -2.7319726023924478
    ],
    62
   ],
   [
    [
     1.1722263220059872,
     -2.6836355229324313
    ],
    60
   ],
   [
    [
     1.035046634499299,
     -3.0273700888434485
    ],
    60
   ],
   [
    [
     1.0650720252518364,
     -2.973283386794888
    ],
    60
   ],
   [
    [
     1.1682384523301574,
     -2.8129819430786824
    ],
    60
   ]
  ]
 },
 {
  "init_weights": [
   -96.6,
   3.0
  ],
  "results": [
   [
    [
     0.8851319278468448,
     -2.91008801080596
    ],
    60
   ],
   [
    [
     1.3433505574563334,
     3.4026247512664742
    ],
    60
   ],
   [
    [
     1.221757977324339,
     -2.83604265949214
    ],
    60
   ],
   [
    [
     0.7425742460544889,
     -3.005096368711587
    ],
    59
   ],
   [
    [
     1.141403154608634,
     -3.108239287760913
    ],
    60
   ],
   [
    [
     1.1948909336432054,
     -2.719619573234468
    ],
    62
   ],
   [
    [
     1.2568764143364355,
     -2.619682620609329
    ],
    60
   ],
   [
    [
     1.1202980116807613,
     -3.016562411776638
    ],
    60
   ],
   [
    [
     1.1483861741900077,
     -2.9544296115879667
    ],
    60
   ],
   [
    [
     1.2507909964808661,
     -2.774405846058707
    ],
    60
   ]
  ]
 },
 {
  "init_weights": [
   -96.4,
   3.0
  ],
  "results": [
   [
    [
     0.9741272819613787,
     -2.9067805757561116
    ],
    60
   ],
   [
    [
     1.4207182729718837,
     3.369122501795257
    ],
    60
   ],
   [
    [
     1.3036200280985797,
     -2.8054988360394946
    ],
    60
   ],
   [
    [
     0.8295648209945392,
     -2.977719718365763
    ],
    59
   ],
   [
    [
     0.7767003414199625,
     -3.068630882767594
    ],
    59
   ],
   [
    [
     0.8822033957065161,
     -2.7676956554145127
    ],
    61
   ],
   [
    [
     1.7480873447712288,
     -2.579158337909453
    ],
    61
   ],
   [
    [
     0.7549373668969576,
     -2.987722836519094
    ],
    59
   ],
   [
    [
     0.7848175989206001,
     -2.9117125552760093
    ],
    59
   ],
   [
    [
     1.332829460516791,
     -2.7336388955210396
    ],
    60
   ]
  ]
 },
 {
  "init_weights": [
   -96.2,
   3.0
  ],
  "results": [
   [
    [
     1.0623475540417382,
     -2.90331772004128
    ],
    60
   ],
   [
    [
     1.497723725887632,
     3.3352340534258085
    ],
    60
   ],
   [
    [
     1.3848605265148781,
     -2.773282197425922
    ],
    60
   ],
   [
    [
     0.9158942764606981,
     -2.94853095731312
    ],
    59
   ],
   [
    [
     0.8639713370360819,
     -3.0503342605241452
    ],
    59
   ],
   [
    [
     0.9710757712520293,
     -2.75384527364411
    ],
    61
   ],
   [
    [
     1.8283014433758535,
     -2.5042624472866217
    ],
    61
   ],
   [
    [
     0.8432984301439124,
     -2.975174098988785
    ],
    59
   ],
   [
    [
     0.8712867383296654,
     -2.8902496315172668
    ],
    59
   ],
   [
    [
     1.414405226302839,
     -2.6906818563296957
    ],
    60
   ]
  ]
 },
 {
  "init_weights": [
   -96.0,
   3.0
  ],
  "results": [
   [
    [
     1.1497904500826337,
     -2.8996885271264303
    ],
    60
   ],
   [
    [
     1.1677024072040696,
     3.4155850856383787
    ],
    59
   ],
   [
    [
     1.0298365952754598,
     -2.7199270975821297
    ],
    59
   ],
   [
    [
     1.001574587032823,
     -2.9174089856099523
    ],
    59
   ],
   [
    [
     0.9505187251919731,
     -3.0308943080880364
    ],
    59
   ],
   [
    [
     1.0593038902125178,
     -2.7410593050734287
    ],
    61
   ],
   [
    [
     1.9095624623063392,
     -2.4276818007807988
    ],
    61
   ],
   [
    [
     0.9309092039410138,
     -2.9619724987409897
    ],
    59
   ],
   [
    [
     0.9570553669696665,
     -2.8676337737015656
    ],
    59
   ],
   [
    [
     1.495587098900626,
     -2.64559758625173
    ],
    60
   ]
  ]
 },
 {
  "init_weights": [
   -95.8,
   3.0
  ],
  "results": [
   [
    [
     1.2364537965399123,
     -2.8958821869427838
    ],
    60
   ],
   [
    [
     1.2488435270069431,
     3.383238948639328
    ],
    59
   ],
   [
    [
     1.114735416787389,
     -2.685816111226861
    ],
    59
   ],
   [
    [
     1.086620494946975,
     -2.8842314567315706
    ],
    59
   ],
   [
    [
     1.0363461262193963,
     -3.01022586312325
    ],
    59
   ],
   [
    [
     1.1468762612840706,
     -2.729266996945267
    ],
    61
   ],
   [
    [
     2.347054972402774,
     -2.3640269282798156
    ],
    62
   ],
   [
    [
     1.0177701561047332,
     -2.9480811779888585
    ],
    59
   ],
   [
    [
     1.0421296555626571,
     -2.8438069171431923
    ],
    59
   ],
   [
    [
     1.5764688356341954,
     -2.598541046652614
    ],
    60
   ]
  ]
 },
 {
  "init_weights": [
   -95.6,
   3.0
  ],
  "results": [
   [
    [
     0.8847017354361831,
     -2.8877338876344596
    ],
    59
   ],
   [
    [
     1.3295567361384728,
     3.3506844511153147
    ],
    59
   ],
   [
    [
     1.1991715713846827,
     -2.650397430963941
    ],
    59
   ],
   [
    [
     1.1710504386467697,
     -2.8488800808034482
    ],
    59
   ],
   [
    [
     1.121457670873129,
     -2.9882375370601992
    ],
    59
   ],
   [
    [
     1.2337818499266158,
     -2.718401114513155
    ],
    61
   ],
   [
    [
     3.3142986122404396,
     -2.9597714549623877
    ],
    86
   ],
   [
    [
     1.103882054613012,
     -2.9334610580596476
    ],
    59
   ],
   [
    [
     1.1265172270373949,
     -2.8187114194640266
    ],
    59
   ],
   [
    [
     1.6571796587884329,
     -2.5498001311613594
    ],
    60
   ]
  ]
 },
 {
  "init_weights": [
   -95.4,
   3.0
  ],
  "results": [
   [
    [
     0.9745261498476323,
     -2.8828333914685875
    ],
    59
   ],
   [
    [
     1.4098371003487653,
     3.318133389346327
    ],
    59
   ],
   [
    [
     1.283208537423996,
     -2.6137958145714943
    ],
    59
   ],
   [
    [
     1.2548879649687648,
     -2.811244020872044
    ],
    59
   ],
   [
    [
     1.2058580151861475,
     -2.9648316250020637
    ],
    59
   ],
   [
    [
     0.910964978769853,
     -2.764722621941472
    ],
    60
   ],
   [
    [
     3.2856382208091146,
     -2.9644116759954757
    ],
    88
   ],
   [
    [
     1.1892458634419887,
     -2.91807033079027
    ],
    59
   ],
   [
    [
     1.2102272998845565,
     -2.79229163586757
    ],
    59
   ],
   [
    [
     1.7379003945329021,
     -2.4998584598372533
    ],
    60
   ]
  ]
 },
 {
  "init_weights": [
   -95.2,
   3.0
  ],
  "results": [
   [
    [
     1.0635735713338956,
     -2.8777445986912977
    ],
    59
   ],
   [
    [
     1.0643203660038612,
     3.4034087233080976
    ],
    58
   ],
   [
    [
     1.366929280343019,
     -2.5762098600630607
    ],
    59
   ],
   [
    [
     1.3381633687446652,
     -2.771229031347868
    ],
    59
   ],
   [
    [
     0.8305280081763755,
     -2.9112472561754386
    ],
    58
   ],
   [
    [
     1.0010287505360318,
     -2.752276162116657
    ],
    60
   ],
   [
    [
     3.2782392954764434,
     -2.9750965659339346
    ],
    87
   ],
   [
    [
     1.273862678850334,
     -2.9018647396890627
    ],
    59
   ],
   [
    [
     1.2932714013266935,
     -2.7644964600509354
    ],
    59
   ],
   [
    [
     1.8188877696495884,
     -2.4494867786533976
    ],
    60
   ]
  ]
 },
 {
  "init_weights": [
   -95.0,
   3.0
  ],
  "results": [
   [
    [
     1.1518418406623232,
     -2.872454557567391
    ],
    59
   ],
   [
    [
     1.148611372054701,
     3.3721749589071592
    ],
    58
   ],
   [
    [
     1.4504432470181436,
     -2.5379412468721583
    ],
    59
   ],
   [
    [
     1.4209164847069324,
     -2.728767666913844
    ],
    59
   ],
   [
    [
     0.9181679580372486,
     -2.884241539008295
    ],
    58
   ],
   [
    [
     1.090415035424805,
     -2.7406842425782862
    ],
    60
   ],
   [
    [
     0.8119103592264529,
     -2.8951605175706874
    ],
    57
   ],
   [
    [
     0.9024599277645822,
     -2.8664356979694956
    ],
    58
   ],
   [
    [
     1.3756638384680238,
     -2.7352811110411688
    ],
    59
   ],
   [
    [
     1.900513290004161,
     -2.3998859890215622
    ],
    60
   ]
  ]
 },
 {
  "init_weights": [
   -94.8,
   3.0
  ],
  "results": [
   [
    [
     1.239328815928612,
     -2.866950226195902
    ],
    59
   ],
   [
    [
     1.2324162766583389,
     3.340981702860868
    ],
    58
   ],
   [
    [
     1.5338968593965472,
     -2.499433883391852
    ],
    59
   ],
   [
    [
     1.5032001977559717,
     -2.6838342344019086
    ],
    59
   ],
   [
    [
     1.0051345270248433,
     -2.855612744294755
    ],
    58
   ],
   [
    [
     1.1791143517764593,
     -2.729891069142745
    ],
    60
   ],
   [
    [
     1.0517277960578064,
     -3.318097678866085
    ],
    57
   ],
   [
    [
     0.9902879849123138,
     -2.8481173875464774
    ],
    58
   ],
   [
    [
     1.0112499182445442,
     -2.6896455721089865
    ],
    58
   ],
   [
    [
     2.3496178421312397,
     -2.3463760090012937
    ],
    61
   ]
  ]
 },
 {
  "init_weights": [
   -94.6,
   3.0
  ],
  "results": [
   [
    [
     0.874757834489795,
     -2.858984368425156
    ],
    58
   ],
   [
    [
     1.3157296515366756,
     3.3099691383645555
    ],
    58
   ],
   [
    [
     2.017199679325101,
     -2.457501767870992
    ],
    60
   ],
   [
    [
     1.5850859002231927,
     -2.6364668357743746
    ],
    59
   ],
   [
    [
     1.0914413994086223,
     -2.8252763023670484
    ],
    58
   ],
   [
    [
     1.2671177220539616,
     -2.7198434579651347
    ],
    60
   ],
   [
    [
     2.5743854834027706,
     -3.2928129281921246
    ],
    60
   ],
   [
    [
     1.077385397260463,
     -2.8288874805628685
    ],
    58
   ],
   [
    [
     1.0973054755871976,
     -2.658972952466106
    ],
    58
   ],
   [
    [
     3.411748267844597,
     -2.914169248697788
    ],
    83
   ]
  ]
 },
 {
  "init_weights": [
   -94.4,
   3.0
  ],
  "results": [
   [
    [
     0.9654517023704674,
     -2.8522399529574636
    ],
    58
   ],
   [
    [
     0.953443330502353,
     3.3989791213233054
    ],
    57
   ],
   [
    [
     2.095410322301906,
     -2.413930625668472
    ],
    60
   ],
   [
    [
     1.6666712138271211,
     -2.5867993464889874
    ],
    59
   ],
   [
    [
     1.1771054283994924,
     -2.793153034194951
    ],
    58
   ],
   [
    [
     0.9334778866549458,
     -2.7652118220790287
    ],
    59
   ],
   [
    [
     1.3682439056343925,
     -2.727323810595017
    ],
    56
   ],
   [
    [
     1.1637559638426453,
     -2.808702921978345
    ],
    58
   ],
   [
    [
     1.1828404782751083,
     -2.627193880600911
    ],
    58
   ],
   [
    [
     3.387492937876627,
     -2.9472351631371843
    ],
    85
   ]
  ]
 },
 {
  "init_weights": [
   -94.2,
   3.0
  ],
  "results": [
   [
    [
     1.055367468639551,
     -2.8452612144697307
    ],
    58
   ],
   [
    [
     1.0406933219481003,
     3.3690463155873136
    ],
    57
   ],
   [
    [
     2.1741236252168954,
     -2.371619918073676
    ],
    60
   ],
   [
    [
     1.7480915412591882,
     -2.535106032982868
    ],
    59
   ],
   [
    [
     1.2621478802234378,
     -2.7591725911583196
    ],
    58
   ],
   [
    [
     1.0246893620377735,
     -2.7535460585531197
    ],
    59
   ],
   [
    [
     0.873445171111111,
     2.964746991948578
    ],
    55
   ],
   [
    [
     1.2494043102293948,
     -2.787520549312095
    ],
    58
   ],
   [
    [
     1.2679038441452213,
     -2.594402466339364
    ],
    58
   ],
   [
    [
     3.3629869811284783,
     -2.9781088476144744
    ],
    85
   ]
  ]
 },
 {
  "init_weights": [
   -94.0,
   3.0
  ],
  "results": [
   [
    [
     1.1445030304801378,
     -2.8380326017020603
    ],
    58
   ],
   [
    [
     1.1274096225661387,
     3.339266829424607
    ],
    57
   ],
   [
    [
     2.8040068852631084,
     -2.37643987287432
    ],
    65
   ],
   [
    [
     1.829537748746418,
     -2.4818707597633045
    ],
    59
   ],
   [
    [
     1.3465956284843192,
     -2.7232798911441467
    ],
    58
   ],
   [
    [
     1.1151982877987145,
     -2.742576775154843
    ],
    59
   ],
   [
    [
     2.383034282614804,
     3.3150643900050776
    ],
    59
   ],
   [
    [
     1.3343360398729809,
     -2.765297811844695
    ],
    58
   ],
   [
    [
     1.352558044227882,
     -2.560745730909501
    ],
    58
   ],
   [
    [
     1.1436164981700285,
     -2.655700664694451
    ],
    57
   ]
  ]
 },
 {
  "init_weights": [
   -93.8,
   3.0
  ],
  "results": [
   [
    [
     1.232856448250652,
     -2.8305382943905935
    ],
    58
   ],
   [
    [
     1.2135869895846105,
     3.3097385605786585
    ],
    57
   ],
   [
    [
     3.3802323443858,
     -2.9467077953352443
    ],
    83
   ],
   [
    [
     1.911283345961476,
     -2.4278888922771276
    ],
    59
   ],
   [
    [
     1.430483196949053,
     -2.685442648085065
    ],
    58
   ],
   [
    [
     1.204996841575017,
     -2.7322589655004874
    ],
    59
   ],
   [
    [
     0.9683559474004622,
     3.3068867398626267
    ],
    56
   ],
   [
    [
     1.4185580558702844,
     -2.741994012832929
    ],
    58
   ],
   [
    [
     1.4368839063167038,
     -2.526441696341479
    ],
    58
   ],
   [
    [
     0.8292331971076237,
     -3.032685843322007
    ],
    56
   ]
  ]
 },
 {
  "init_weights": [
   -93.6,
   3.0
  ],
  "results": [
   [
    [
     1.320425905985227,
     -2.8227620632951793
    ],
    58
   ],
   [
    [
     1.2992196742375164,
     3.2805438116464907
    ],
    57
   ],
   [
    [
     3.3382054532617116,
     -2.6167168532562446
    ],
    73
   ],
   [
    [
     2.372328171094358,
     -2.3802666653745126
    ],
    60
   ],
   [
    [
     1.5138554013464711,
     -2.6456633473731817
    ],
    58
   ],
   [
    [
     0.855815390856328,
     -2.7796719126309175
    ],
    58
   ],
   [
    [
     0.9015018415721056,
     2.820174926461621
    ],
    56
   ],
   [
    [
     1.5020788716694595,
     -2.71757162702336
    ],
    58
   ],
   [
    [
     1.520986833955135,
     -2.4918051597938393
    ],
    58
   ],
   [
    [
     1.0227138542904954,
     -3.3352012271911264
    ],
    56
   ]
  ]
 },
 {
  "init_weights": [
   -93.4,
   3.0
  ],
  "results": [
   [
    [
     0.946273858204151,
     -2.8146741804014646
    ],
    57
   ],
   [
    [
     0.9233962464850977,
     3.373004567942148
    ],
    56
   ],
   [
    [
     1.75516705237016,
     -2.4331742418991604
    ],
    58
   ],
   [
    [
     3.3694683719874647,
     -2.704110401850718
    ],
    76
   ],
   [
    [
     1.5967711033975764,
     -2.603994095850435
    ],
    58
   ],
   [
    [
     0.9488737611872502,
     -2.7677177794196144
    ],
    58
   ],
   [
    [
     3.251101761516983,
     2.9813088991744725
    ],
    86
   ],
   [
    [
     1.129321489773268,
     -2.6814656462124957
    ],
    57
   ],
   [
    [
     1.6050058080677627,
     -2.4572823770191867
    ],
    58
   ],
   [
    [
     2.1194320996021223,
     -3.286788060330588
    ],
    58
   ]
  ]
 },
 {
  "init_weights": [
   -93.2,
   3.0
  ],
  "results": [
   [
    [
     1.0371098962973893,
     -2.8055314900351864
    ],
    57
   ],
   [
    [
     1.0129008058012363,
     3.3445508951282847
    ],
    56
   ],
   [
    [
     0.9907547920108912,
     -2.8133139927055533
    ],
    56
   ],
   [
    [
     3.2786218346354925,
     -2.9952883446014593
    ],
    86
   ],
   [
    [
     1.6793084597799164,
     -2.5605585066066663
    ],
    58
   ],
   [
    [
     1.0412175108163866,
     -2.75637604195674
    ],
    58
   ],
   [
    [
     3.2474727583097147,
     2.957676404769189
    ],
    87
   ],
   [
    [
     1.216422567886434,
     -2.6557115214711104
    ],
    57
   ],
   [
    [
     1.6891262569770429,
     -2.4235009741797966
    ],
    58
   ],
   [
    [
     3.1583272113185923,
     -3.1464894836985273
    ],
    62
   ]
  ]
 },
 {
  "init_weights": [
   -93.0,
   3.0
  ],
  "results": [
   [
    [
     1.1271666532098936,
     -2.796080650234158
    ],
    57
   ],
   [
    [
     1.1018286847754322,
     3.3163644636925915
    ],
    56
   ],
   [
    [
     1.1384826381125732,
     -2.9786048609871445
    ],
    56
   ],
   [
    [
     3.2961334937395312,
     -2.98245266490648
    ],
    86
   ],
   [
    [
     1.761572728248758,
     -2.515582552861184
    ],
    58
   ],
   [
    [
     1.1328394213379844,
     -2.7456080950845374
    ],
    58
   ],
   [
    [
     3.264533519771707,
     2.9606990388341883
    ],
    86
   ],
   [
    [
     1.3029049797604224,
     -2.6290133242214777
    ],
    57
   ],
   [
    [
     2.1720620759684017,
     -2.3734549287499576
    ],
    59
   ],
   [
    [
     1.9494941171576337,
     -2.5122276856635337
    ],
    56
   ]
  ]
 },
 {
  "init_weights": [
   -92.8,
   3.0
  ],
  "results": [
   [
    [
     1.2164424722275469,
     -2.7863032079979604
    ],
    57
   ],
   [
    [
     1.1901747418020336,
     3.288506188107596
    ],
    56
   ],
   [
    [
     1.3096939458149577,
     -3.2241761661576795
    ],
    56
   ],
   [
    [
     3.2738415418431357,
     -2.9809089705728877
    ],
    86
   ],
   [
    [
     1.843707260496409,
     -2.469438763893285
    ],
    58
   ],
   [
    [
     1.2237326855831976,
     -2.7353768583059694
    ],
    58
   ],
   [
    [
     3.2643014579166785,
     2.973240083756371
    ],
    84
   ],
   [
    [
     1.3887956391915548,
     -2.6014073193316176
    ],
    57
   ],
   [
    [
     2.251067926395491,
     -2.3360914146397316
    ],
    59
   ],
   [
    [
     2.045436889692541,
     2.406323648597192
    ],
    56
   ]
  ]
 },
 {
  "init_weights": [
   -92.6,
   3.0
  ],
  "results": [
   [
    [
     1.3049357828000998,
     -2.7761803785808534
    ],
    57
   ],
   [
    [
     1.2779335102645895,
     3.2610270650633413
    ],
    56
   ],
   [
    [
     1.9462196189274956,
     -3.3332821467681724
    ],
    57
   ],
   [
    [
     1.2259510858134832,
     -2.634066120189128
    ],
    56
   ],
   [
    [
     1.925910406193443,
     -2.422709803327494
    ],
    58
   ],
   [
    [
     0.862124640518436,
     -2.7832109338641615
    ],
    57
   ],
   [
    [
     2.3878148993856745,
     2.3658635472781713
    ],
    59
   ],
   [
    [
     1.4741280489791007,
     -2.572954631241535
    ],
    57
   ],
   [
    [
     3.250337499073736,
     -2.5689484067121287
    ],
    71
   ],
   [
    [
     3.237853251444884,
     2.536382197713604
    ],
    84
   ]
  ]
 },
 {
  "init_weights": [
   -92.4,
   3.0
  ],
  "results": [
   [
    [
     1.3926451627538674,
     -2.7656928892591996
    ],
    57
   ],
   [
    [
     0.8874198985407181,
     3.3558735575802325
    ],
    55
   ],
   [
    [
     3.307723385694837,
     -2.5985079563587856
    ],
    82
   ],
   [
    [
     0.9112859136431121,
     -3.040728733514675
    ],
    55
   ],
   [
    [
     2.3973534897691513,
     -2.3791895789465296
    ],
    59
   ],
   [
    [
     0.9563346595121194,
     -2.7713384646826458
    ],
    57
   ],
   [
    [
     2.07192658546216,
     2.4236252901741593
    ],
    58
   ],
   [
    [
     1.558944286009954,
     -2.543749930077652
    ],
    57
   ],
   [
    [
     2.9915946897983243,
     -2.4324472862849578
    ],
    67
   ],
   [
    [
     2.0907931124973906,
     3.347026061765114
    ],
    57
   ]
  ]
 },
 {
  "init_weights": [
   -92.2,
   3.0
  ],
  "results": [
   [
    [
     1.00831347503811,
     -2.7590694674917926
    ],
    56
   ],
   [
    [
     0.9790261030136717,
     3.3288692857870683
    ],
    55
   ],
   [
    [
     2.311243090895861,
     -3.4297920985406227
    ],
    63
   ],
   [
    [
     1.1190160601996166,
     -3.382574232525786
    ],
    55
   ],
   [
    [
     3.3242363525440486,
     -2.6474435047826788
    ],
    73
   ],
   [
    [
     1.0498139972003513,
     -2.7599738143342645
    ],
    57
   ],
   [
    [
     1.7273028508209896,
     2.4754547273771
    ],
    57
   ],
   [
    [
     1.6432973611963027,
     -2.513930926307707
    ],
    57
   ],
   [
    [
     2.3743932566830344,
     -2.331208626883099
    ],
    62
   ],
   [
    [
     1.1311654068432275,
     3.3185543548946006
    ],
    55
   ]
  ]
 },
 {
  "init_weights": [
   -92.0,
   3.0
  ],
  "results": [
   [
    [
     1.0993725276871331,
     -2.74719350457488
    ],
    56
   ],
   [
    [
     1.0700212093507004,
     3.3021676794732078
    ],
    55
   ],
   [
    [
     3.3175934494900674,
     -2.780982797763838
    ],
    91
   ],
   [
    [
     2.256643630658778,
     -3.3821812063689705
    ],
    57
   ],
   [
    [
     3.293077614542473,
     -2.9581214824135382
    ],
    84
   ],
   [
    [
     1.14255632122826,
     -2.749084589131448
    ],
    57
   ],
   [
    [
     1.8065814262349318,
     2.5480786903199624
    ],
    57
   ],
   [
    [
     1.7272546952549415,
     -2.483693102741407
    ],
    57
   ],
   [
    [
     1.3839232581878629,
     -2.551105878015029
    ],
    56
   ],
   [
    [
     1.1066904179960981,
     2.933920955420182
    ],
    55
   ]
  ]
 },
 {
  "init_weights": [
   -91.8,
   3.0
  ],
  "results": [
   [
    [
     1.1896567553701503,
     -2.73493508611051
    ],
    56
   ],
   [
    [
     1.1604004129363674,
     3.2758088199857354
    ],
    55
   ],
   [
    [
     1.3210551388328788,
     2.9475819520278588
    ],
    54
   ],
   [
    [
     3.171320897908027,
     -2.5468206773015702
    ],
    86
   ],
   [
    [
     3.268991864435608,
     -2.978472508978569
    ],
    85
   ],
   [
    [
     1.2345555387056684,
     -2.738639574429746
    ],
    57
   ],
   [
    [
     1.4367695658774464,
     2.588348798287802
    ],
    56
   ],
   [
    [
     1.8109028299488101,
     -2.453307928490051
    ],
    57
   ],
   [
    [
     1.0375903066613765,
     -2.805412122604623
    ],
    55
   ],
   [
    [
     1.1189898685380784,
     2.6787790267815534
    ],
    55
   ]
  ]
 },
 {
  "init_weights": [
   -91.6,
   3.0
  ],
  "results": [
   [
    [
     1.279165515641501,
     -2.7222753251477685
    ],
    56
   ],
   [
    [
     1.2501587242220773,
     3.249826040697331
    ],
    55
   ],
   [
    [
     3.3250444398711925,
     2.645823992022944
    ],
    80
   ],
   [
    [
     3.3617736676778667,
     -2.683578167828641
    ],
    89
   ],
   [
    [
     3.3094747747481317,
     -2.966095257783303
    ],
    84
   ],
   [
    [
     0.8596877815839903,
     -2.7876359146143797
    ],
    56
   ],
   [
    [
     1.521674952850335,
     2.6553740253597318
    ],
    56
   ],
   [
    [
     1.8943536073240677,
     -2.4231483926979105
    ],
    57
   ],
   [
    [
     0.6812461677823972,
     -3.1778233723273424
    ],
    54
   ],
   [
    [
     3.398902644525435,
     2.8330388320757525
    ],
    80
   ]
  ]
 },
 {
  "init_weights": [
   -91.4,
   3.0
  ],
  "results": [
   [
    [
     1.3678982785944656,
     -2.7091952241181954
    ],
    56
   ],
   [
    [
     0.8438442631732772,
     3.3464131592158886
    ],
    54
   ],
   [
    [
     2.425266588692436,
     3.242596326505666
    ],
    57
   ],
   [
    [
     0.9283120293654002,
     3.199269613612667
    ],
    53
   ],
   [
    [
     2.747086590425614,
     -2.388563161158728
    ],
    65
   ],
   [
    [
     0.9550628721322862,
     -2.775554863314377
    ],
    56
   ],
   [
    [
     1.125089426283391,
     2.685992668228905
    ],
    55
   ],
   [
    [
     1.9777532410722334,
     -2.393723881923163
    ],
    57
   ],
   [
    [
     1.3394254557556122,
     -3.1658447834509382
    ],
    55
   ],
   [
    [
     3.3080383108766402,
     2.994621811561233
    ],
    84
   ]
  ]
 },
 {
  "init_weights": [
   -91.2,
   3.0
  ],
  "results": [
   [
    [
     1.4558548925747772,
     -2.695675957542626
    ],
    56
   ],
   [
    [
     0.9374529993204227,
     3.3207109711193654
    ],
    54
   ],
   [
    [
     1.5332281611370442,
     3.259940850956771
    ],
    55
   ],
   [
    [
     3.304133019947751,
     2.655139060615403
    ],
    79
   ],
   [
    [
     1.3077629459064328,
     -2.6787360546549346
    ],
    55
   ],
   [
    [
     1.0496944912065822,
     -2.763895512361878
    ],
    56
   ],
   [
    [
     1.2149816288939004,
     2.7466494347498913
    ],
    55
   ],
   [
    [
     2.061295133301318,
     -2.365729383552078
    ],
    57
   ],
   [
    [
     1.527864559582699,
     -3.4614562081650444
    ],
    55
   ],
   [
    [
     3.3315043597732563,
     2.9758390857465487
    ],
    83
   ]
  ]
 },
 {
  "init_weights": [
   -91.0,
   3.0
  ],
  "results": [
   [
    [
     1.060973724432177,
     -2.69387445669054
    ],
    55
   ],
   [
    [
     1.0304235339551633,
     3.2953094624230146
    ],
    54
   ],
   [
    [
     1.0414102136431658,
     3.1422591282482104
    ],
    54
   ],
   [
    [
     1.6623445861623694,
     3.3080574574010755
    ],
    55
   ],
   [
    [
     0.9791674252749211,
     -3.0865105290262256
    ],
    54
   ],
   [
    [
     1.1435769272362384,
     -2.7526301191899454
    ],
    56
   ],
   [
    [
     1.3048249039566573,
     2.805856384729332
    ],
    55
   ],
   [
    [
     2.7676155960593594,
     -2.3578871900594174
    ],
    62
   ],
   [
    [
     2.9268181948697922,
     -3.1650023159563956
    ],
    58
   ],
   [
    [
     3.3004606056609513,
     2.990198089762966
    ],
    83
   ]
  ]
 },
 {
  "init_weights": [
   -90.8,
   3.0
  ],
  "results": [
   [
    [
     1.152416755548054,
     -2.679220863337947
    ],
    55
   ],
   [
    [
     1.1227513380099423,
     3.270236504767259
    ],
    54
   ],
   [
    [
     1.0568732268071348,
     2.869113388811204
    ],
    54
   ],
   [
    [
     1.1353715952675596,
     3.0875918201078707
    ],
    54
   ],
   [
    [
     1.1751920614104274,
     -3.3960212166689607
    ],
    54
   ],
   [
    [
     1.2367045855851562,
     -2.7417318129104378
    ],
    56
   ],
   [
    [
     0.8847998412181344,
     2.8242224959147104
    ],
    54
   ],
   [
    [
     2.9774622280825596,
     -2.4095608884708852
    ],
    65
   ],
   [
    [
     3.2061280915151293,
     -2.5308162633719484
    ],
    83
   ],
   [
    [
     3.0855160922062197,
     2.442648158450397
    ],
    65
   ]
  ]
 },
 {
  "init_weights": [
   -90.6,
   3.0
  ],
  "results": [
   [
    [
     1.2431042414726376,
     -2.664155530909666
    ],
    55
   ],
   [
    [
     1.2144318873292392,
     3.245515292035517
    ],
    54
   ],
   [
    [
     1.093252045819706,
     2.6772772190276473
    ],
    54
   ],
   [
    [
     1.1287655540167356,
     2.7602501335025877
    ],
    54
   ],
   [
    [
     2.307261526641457,
     -3.3296654580832286
    ],
    56
   ],
   [
    [
     0.8477029762385128,
     -2.7926826873906214
    ],
    55
   ],
   [
    [
     0.9791465179803736,
     2.8771079521481
    ],
    54
   ],
   [
    [
     2.9914394287553803,
     -2.4113887371872686
    ],
    65
   ],
   [
    [
     1.8364626417856882,
     -2.4556800606448093
    ],
    54
   ],
   [
    [
     2.369763383235241,
     2.3505235159341717
    ],
    57
   ]
  ]
 },
 {
  "init_weights": [
   -90.4,
   3.0
  ],
  "results": [
   [
    [
     1.333038272875748,
     -2.6486680825902478
    ],
    55
   ],
   [
    [
     1.3054605106106716,
     3.2211648235872468
    ],
    54
   ],
   [
    [
     3.2323334925963385,
     2.5544406418094403
    ],
    69
   ],
   [
    [
     3.3213439631490917,
     2.8931245454557204
    ],
    81
   ],
   [
    [
     3.183308195196326,
     -2.539139362606269
    ],
    85
   ],
   [
    [
     0.9442676703399309,
     -2.7801645247761506
    ],
    55
   ],
   [
    [
     1.0731238699120405,
     2.9276804342142015
    ],
    54
   ],
   [
    [
     1.549124932561342,
     -2.4819713141915605
    ],
    55
   ],
   [
    [
     3.260480745118996,
     2.784509710249393
    ],
    87
   ],
   [
    [
     2.030308842331096,
     2.39375717765476
    ],
    56
   ]
  ]
 },
 {
  "init_weights": [
   -90.2,
   3.0
  ],
  "results": [
   [
    [
     1.422221832461596,
     -2.6327502948622565
    ],
    55
   ],
   [
    [
     0.8867616218505922,
     3.3188769337493427
    ],
    53
   ],
   [
    [
     3.2498247415161092,
     3.010443250599425
    ],
    84
   ],
   [
    [
     3.2638828821605674,
     2.9868970219803628
    ],
    84
   ],
   [
    [
     2.068713733897463,
     -2.432447696458912
    ],
    54
   ],
   [
    [
     1.0400787407958705,
     -2.76799516148014
    ],
    55
   ],
   [
    [
     1.1666157683938594,
     2.975422030266
    ],
    54
   ],
   [
    [
     1.176770583674076,
     -2.6653431968328887
    ],
    54
   ],
   [
    [
     2.411107578462043,
     3.3710597370796016
    ],
    62
   ],
   [
    [
     2.1098217225120552,
     2.441623355557641
    ],
    56
   ]
  ]
 },
 {
  "init_weights": [
   -90.0,
   3.0
  ],
  "results": [
   [
    [
     1.5106585571286737,
     -2.616396342725886
    ],
    55
   ],
   [
    [
     0.981654414652562,
     3.2945831576130087
    ],
    53
   ],
   [
    [
     3.2887048573536037,
     3.0019069698134238
    ],
    83
   ],
   [
    [
     3.222971860257308,
     2.969342066287084
    ],
    85
   ],
   [
    [
     2.676753183513348,
     2.3843620666824314
    ],
    55
   ],
   [
    [
     1.1351308507836464,
     -2.7561503598625205
    ],
    55
   ],
   [
    [
     0.7266976026773921,
     2.9830803740171947
    ],
    53
   ],
   [
    [
     0.7848416847812182,
     -2.935078134574252
    ],
    53
   ],
   [
    [
     3.1202322430886924,
     2.533393930619748
    ],
    84
   ],
   [
    [
     1.7437500939509278,
     2.4781783700975124
    ],
    55
   ]
  ]
 },
 {
  "init_weights": [
   -89.8,
   3.0
  ],
  "results": [
   [
    [
     1.5983530824396384,
     -2.5996035668855946
    ],
    55
   ],
   [
    [
     1.0758835313355037,
     3.270591205790926
    ],
    53
   ],
   [
    [
     3.2950486720271246,
     2.9856690890872684
    ],
    82
   ],
   [
    [
     3.2346663033647904,
     2.989639267044694
    ],
    84
   ],
   [
    [
     3.1705188945373464,
     2.5585895816320763
    ],
    83
   ],
   [
    [
     1.2294189084571743,
     -2.7446065256083974
    ],
    55
   ],
   [
    [
     0.8244995286840278,
     3.025836095874196
    ],
    53
   ],
   [
    [
     0.9218518400210466,
     -3.0615198954317373
    ],
    53
   ],
   [
    [
     2.124143652135724,
     3.333309822980313
    ],
    55
   ],
   [
    [
     1.8285384910665492,
     2.523945173449508
    ],
    55
   ]
  ]
 },
 {
  "init_weights": [
   -89.6,
   3.0
  ],
  "results": [
   [
    [
     1.685311109757074,
     -2.582373295317948
    ],
    55
   ],
   [
    [
     1.1694448522848804,
     3.246918190697411
    ],
    53
   ],
   [
    [
     3.3570427178115883,
     2.696302750339152
    ],
    72
   ],
   [
    [
     3.2516364322390974,
     2.984356175059506
    ],
    83
   ],
   [
    [
     2.671721221558541,
     3.1700350347919537
    ],
    56
   ],
   [
    [
     1.3229377920653707,
     -2.7333407349731305
    ],
    55
   ],
   [
    [
     0.9217104777360487,
     3.065789623895417
    ],
    53
   ],
   [
    [
     1.070844519834627,
     -3.2312283904519585
    ],
    53
   ],
   [
    [
     1.1629843025969895,
     3.4194359032268404
    ],
    53
   ],
   [
    [
     1.4343797064378006,
     2.5548088118746555
    ],
    54
   ]
  ]
 },
 {
  "init_weights": [
   -89.4,
   3.0
  ],
  "results": [
   [
    [
     1.288989352478617,
     -2.592370983526248
    ],
    54
   ],
   [
    [
     1.2623341112789332,
     3.2235781781574935
    ],
    53
   ],
   [
    [
     2.7246610295349436,
     2.3659023993348276
    ],
    59
   ],
   [
    [
     3.3259330242141556,
     2.896948162436829
    ],
    79
   ],
   [
    [
     1.2840434619692431,
     3.399417053698339
    ],
    53
   ],
   [
    [
     0.9231645732676989,
     -2.7852893726288084
    ],
    54
   ],
   [
    [
     1.0182738619515521,
     3.102719543384086
    ],
    53
   ],
   [
    [
     1.7232040521383276,
     -3.2101244827054294
    ],
    54
   ],
   [
    [
     1.1627959038196343,
     3.0865126297358714
    ],
    53
   ],
   [
    [
     1.5239918500807261,
     2.5973597070431937
    ],
    54
   ]
  ]
 },
 {
  "init_weights": [
   -89.2,
   3.0
  ],
  "results": [
   [
    [
     1.3797864943963498,
     -2.57523222430382
    ],
    54
   ],
   [
    [
     0.8256532362375284,
     3.3223467327604603
    ],
    52
   ],
   [
    [
     2.0565323433113547,
     2.377023846463773
    ],
    55
   ],
   [
    [
     2.456746643666177,
     2.367796630815361
    ],
    56
   ],
   [
    [
     0.7371891195522863,
     3.2532616865672717
    ],
    52
   ],
   [
    [
     1.0201919983552294,
     -2.77244548859634
    ],
    54
   ],
   [
    [
     1.114144823944655,
     3.1364742307965225
    ],
    53
   ],
   [
    [
     2.3401451297496876,
     -3.2528787647125235
    ],
    55
   ],
   [
    [
     0.661626599831609,
     3.0621901636843587
    ],
    52
   ],
   [
    [
     1.6136141630242982,
     2.6409467038977326
    ],
    54
   ]
  ]
 },
 {
  "init_weights": [
   -89.0,
   3.0
  ],
  "results": [
   [
    [
     1.4699108974861474,
     -2.5578787589426977
    ],
    54
   ],
   [
    [
     0.9224435443758153,
     3.298986593654036
    ],
    52
   ],
   [
    [
     2.1373531331614375,
     2.4116522214655713
    ],
    55
   ],
   [
    [
     2.1101636507630808,
     2.408595658651554
    ],
    55
   ],
   [
    [
     0.7480082365293733,
     2.9412529495497473
    ],
    52
   ],
   [
    [
     1.1164529870148292,
     -2.7598662777272613
    ],
    54
   ],
   [
    [
     0.6582039181291517,
     3.139034817976359
    ],
    52
   ],
   [
    [
     3.2414008312043667,
     -2.537387857974493
    ],
    82
   ],
   [
    [
     1.228923216725876,
     2.656474948041382
    ],
    53
   ],
   [
    [
     1.194576039953068,
     2.662737057861481
    ],
    53
   ]
  ]
 },
 {
  "init_weights": [
   -88.8,
   3.0
  ],
  "results": [
   [
    [
     1.5593783990586645,
     -2.5403563100920876
    ],
    54
   ],
   [
    [
     1.0185538154851328,
     3.2758968927765184
    ],
    52
   ],
   [
    [
     1.761557025984918,
     2.4485873792256534
    ],
    54
   ],
   [
    [
     1.7312305989516346,
     2.4477607142168116
    ],
    54
   ],
   [
    [
     2.6083586977062616,
     2.3717952547254817
    ],
    62
   ],
   [
    [
     1.2119426897753858,
     -2.7475307493668937
    ],
    54
   ],
   [
    [
     0.7583807705446617,
     3.1698563647752183
    ],
    52
   ],
   [
    [
     3.2512494541648516,
     -2.538445155142526
    ],
    84
   ],
   [
    [
     2.1040676235336924,
     2.35221643813728
    ],
    58
   ],
   [
    [
     1.2886297253297094,
     2.702336115291639
    ],
    53
   ]
  ]
 },
 {
  "init_weights": [
   -88.6,
   3.0
  ],
  "results": [
   [
    [
     1.648207942959937,
     -2.5227238411050683
    ],
    54
   ],
   [
    [
     1.1139803081005757,
     3.253091038933827
    ],
    52
   ],
   [
    [
     1.8475357564593176,
     2.4822293016635917
    ],
    54
   ],
   [
    [
     1.8173663347885185,
     2.495440975724025
    ],
    54
   ],
   [
    [
     3.2134515186253427,
     2.9966133521907015
    ],
    83
   ],
   [
    [
     1.3066565045788716,
     -2.7354184054040145
    ],
    54
   ],
   [
    [
     0.8578452716314927,
     3.197857496185875
    ],
    52
   ],
   [
    [
     1.6043616310963063,
     -2.507155692222537
    ],
    52
   ],
   [
    [
     3.247633317801285,
     2.9964228661415153
    ],
    81
   ],
   [
    [
     1.3824049235788198,
     2.741910554528401
    ],
    53
   ]
  ]
 },
 {
  "init_weights": [
   -88.4,
   3.0
  ],
  "results": [
   [
    [
     1.7364223871257056,
     -2.505056243533946
    ],
    54
   ],
   [
    [
     1.2087191087101563,
     3.230580125517923
    ],
    52
   ],
   [
    [
     1.4424475017877882,
     2.5155129422816613
    ],
    53
   ],
   [
    [
     1.9039057045961605,
     2.5453101720142066
    ],
    54
   ],
   [
    [
     3.223450857334886,
     2.9940998011341433
    ],
    83
   ],
   [
    [
     0.8909860816939235,
     -2.791452306647589
    ],
    53
   ],
   [
    [
     0.9565721955759077,
     3.222989718391755
    ],
    52
   ],
   [
    [
     3.23843897202227,
     2.9711398195017122
    ],
    90
   ],
   [
    [
     3.2609361545055364,
     2.974578191612729
    ],
    81
   ],
   [
    [
     0.937222070936954,
     2.757047686720057
    ],
    52
   ]
  ]
 },
 {
  "init_weights": [
   -88.2,
   3.0
  ],
  "results": [
   [
    [
     1.8240490494725918,
     -2.487448049834257
    ],
    54
   ],
   [
    [
     1.3027662241306734,
     3.2083731846456316
    ],
    52
   ],
   [
    [
     1.533218264139567,
     2.5470605829852038
    ],
    53
   ],
   [
    [
     1.5006698153428801,
     2.5726907752323585
    ],
    53
   ],
   [
    [
     3.214501751822519,
     2.9896187544907264
    ],
    83
   ],
   [
    [
     0.9892780140762087,
     -2.777827316308054
    ],
    53
   ],
   [
    [
     1.0545415293765183,
     3.2452390226657806
    ],
    52
   ],
   [
    [
     1.1703823674603635,
     2.942232905468008
    ],
    51
   ],
   [
    [
     3.247561313385014,
     2.9926026055357604
    ],
    81
   ],
   [
    [
     1.035282934827371,
     2.7927549157924907
    ],
    52
   ]
  ]
 },
 {
  "init_weights": [
   -88.0,
   3.0
  ],
  "results": [
   [
    [
     1.4243202951431355,
     -2.5276121821366586
    ],
    53
   ],
   [
    [
     0.851581578754762,
     3.3077049552069413
    ],
    51
   ],
   [
    [
     1.6240341390125157,
     2.5806683702761464
    ],
    53
   ],
   [
    [
     1.5920083744870341,
     2.6183844943715178
    ],
    53
   ],
   [
    [
     3.2150604473894813,
     2.9778535408704823
    ],
    83
   ],
   [
    [
     1.0867983673686763,
     -2.7644163146213256
    ],
    53
   ],
   [
    [
     1.15173741144506,
     3.2646208670376713
    ],
    52
   ],
   [
    [
     3.2096751973961366,
     2.552672569164318
    ],
    84
   ],
   [
    [
     3.263840552236413,
     2.9915255298066055
    ],
    80
   ],
   [
    [
     1.1329131945261226,
     2.827950072827762
    ],
    52
   ]
  ]
 },
 {
  "init_weights": [
   -87.8,
   3.0
  ],
  "results": [
   [
    [
     1.5166039770776736,
     -2.5135944643036816
    ],
    53
   ],
   [
    [
     0.9495724342916213,
     3.285368652885045
    ],
    51
   ],
   [
    [
     1.714727273611711,
     2.61553683777218
    ],
    53
   ],
   [
    [
     1.1583337628325727,
     2.641187027780642
    ],
    52
   ],
   [
    [
     3.2292245544665494,
     2.9766534618169262
    ],
    82
   ],
   [
    [
     1.1835427170380666,
     -2.7512006356319696
    ],
    53
   ],
   [
    [
     1.2481475399413715,
     3.2811755396109574
    ],
    52
   ],
   [
    [
     3.3936494709592284,
     2.791886730990125
    ],
    71
   ],
   [
    [
     3.3141245002725452,
     2.902184483004482
    ],
    78
   ],
   [
    [
     1.230038723344039,
     2.862266304272065
    ],
    52
   ]
  ]
 },
 {
  "init_weights": [
   -87.6,
   3.0
  ],
  "results": [
   [
    [
     1.6085007753530127,
     -2.500472726697973
    ],
    53
   ],
   [
    [
     1.0468671808141234,
     3.2632815989422967
    ],
    51
   ],
   [
    [
     1.2880810003857115,
     2.6371915692574732
    ],
    52
   ],
   [
    [
     1.2542809094251106,
     2.6826493743649826
    ],
    52
   ],
   [
    [
     3.227492777496347,
     2.9883926400682475
    ],
    81
   ],
   [
    [
     1.279506734164909,
     -2.7381620196993026
    ],
    53
   ],
   [
    [
     0.7854228830176792,
     3.2882570909402986
    ],
    51
   ],
   [
    [
     2.064718148805648,
     3.3308904774911396
    ],
    53
   ],
   [
    [
     2.849000854158404,
     2.388826447728188
    ],
    60
   ],
   [
    [
     1.326597520191573,
     2.8954000030410127
    ],
    52
   ]
  ]
 },
 {
  "init_weights": [
   -87.4,
   3.0
  ],
  "results": [
   [
    [
     1.700078651706178,
     -2.488516345277239
    ],
    53
   ],
   [
    [
     1.1434621024196368,
     3.2414531339271795
    ],
    51
   ],
   [
    [
     1.383122999477468,
     2.668749926536159
    ],
    52
   ],
   [
    [
     1.350001690878279,
     2.724158874317244
    ],
    52
   ],
   [
    [
     2.2799868890989976,
     2.3552306425075527
    ],
    54
   ],
   [
    [
     0.8470052490045763,
     -2.799726764756291
    ],
    52
   ],
   [
    [
     0.8862275245919278,
     3.304248826727879
    ],
    51
   ],
   [
    [
     1.578071333971466,
     3.2366145309558636
    ],
    52
   ],
   [
    [
     2.2845690469804256,
     2.3558402626139276
    ],
    54
   ],
   [
    [
     0.8635443063033639,
     2.9012736955056657
    ],
    51
   ]
  ]
 },
 {
  "init_weights": [
   -87.2,
   3.0
  ],
  "results": [
   [
    [
     1.7914201839463322,
     -2.4780562182481787
    ],
    53
   ],
   [
    [
     1.2393535831319917,
     3.2198909223472407
    ],
    51
   ],
   [
    [
     1.47783791608015,
     2.7007797847497215
    ],
    52
   ],
   [
    [
     1.4453708195358823,
     2.7651111783800117
    ],
    52
   ],
   [
    [
     2.3616459144628013,
     2.4008586412491555
    ],
    54
   ],
   [
    [
     0.9466248226768039,
     -2.785293618100199
    ],
    52
   ],
   [
    [
     0.9862547636141374,
     3.3177898244648136
    ],
    51
   ],
   [
    [
     1.0739409136305955,
     3.201505337673997
    ],
    51
   ],
   [
    [
     1.9064903859482452,
     2.394541244690492
    ],
    53
   ],
   [
    [
     0.9643282695503278,
     2.931320390763286
    ],
    51
   ]
  ]
 },
 {
  "init_weights": [
   -87.0,
   3.0
  ],
  "results": [
   [
    [
     1.3821311188743164,
     -2.5696977456445005
    ],
    52
   ],
   [
    [
     0.7678857207042928,
     3.3200781131452546
    ],
    50
   ],
   [
    [
     1.023838349209506,
     2.7175709840847424
    ],
    51
   ],
   [
    [
     0.9893825768842007,
     2.776969780406797
    ],
    51
   ],
   [
    [
     1.984847875532101,
     2.434760055573747
    ],
    53
   ],
   [
    [
     1.0454707497383025,
     -2.771035419700695
    ],
    52
   ],
   [
    [
     1.085496360191143,
     3.328933082527406
    ],
    51
   ],
   [
    [
     1.1108939624365928,
     2.965783160535875
    ],
    51
   ],
   [
    [
     1.9926108897639176,
     2.4228909833357335
    ],
    53
   ],
   [
    [
     1.0645004504192779,
     2.9601752613831156
    ],
    51
   ]
  ]
 },
 {
  "init_weights": [
   -86.8,
   3.0
  ],
  "results": [
   [
    [
     1.479622287948124,
     -2.5694763549271755
    ],
    52
   ],
   [
    [
     0.8677706269799219,
     3.29837451833086
    ],
    50
   ],
   [
    [
     1.1228160165352654,
     2.7463409224488435
    ],
    51
   ],
   [
    [
     1.0891237476700386,
     2.8138376522066637
    ],
    51
   ],
   [
    [
     2.071682746355928,
     2.4777344839410342
    ],
    53
   ],
   [
    [
     1.1435390485074026,
     -2.7569360768502498
    ],
    52
   ],
   [
    [
     1.1839459566082655,
     3.3377445273556106
    ],
    51
   ],
   [
    [
     1.1611160775813292,
     2.7833034122433062
    ],
    51
   ],
   [
    [
     1.5842070727524133,
     2.4587834143123444
    ],
    52
   ],
   [
    [
     1.1640226879751843,
     2.9876587063933613
    ],
    51
   ]
  ]
 },
 {
  "init_weights": [
   -86.6,
   3.0
  ],
  "results": [
   [
    [
     1.0450291636297204,
     -2.7107690823299966
    ],
    51
   ],
   [
    [
     0.9669499747169671,
     3.2768872546949352
    ],
    50
   ],
   [
    [
     1.2213515448859358,
     2.775174988096751
    ],
    51
   ],
   [
    [
     1.188383034365743,
     2.8498002048758724
    ],
    51
   ],
   [
    [
     1.6647452960938625,
     2.5067876104855165
    ],
    52
   ],
   [
    [
     1.2408257817990824,
     -2.7429799120318057
    ],
    52
   ],
   [
    [
     1.2815986758255264,
     3.34430080619098
    ],
    51
   ],
   [
    [
     1.221409588465825,
     2.6451062189362844
    ],
    51
   ],
   [
    [
     1.6751876697522512,
     2.485429794485438
    ],
    52
   ],
   [
    [
     1.262862409187186,
     3.0136243753430176
    ],
    51
   ]
  ]
 },
 {
  "init_weights": [
   -86.4,
   3.0
  ],
  "results": [
   [
    [
     1.1498977317072652,
     -2.726348188234301
    ],
    51
   ],
   [
    [
     1.0654203322724798,
     3.255624586994474
    ],
    50
   ],
   [
    [
     1.3193820796447335,
     2.803754179800828
    ],
    51
   ],
   [
    [
     1.287092242785603,
     2.884526075481677
    ],
    51
   ],
   [
    [
     1.7564299593662756,
     2.546374056646909
    ],
    52
   ],
   [
    [
     1.3373272546395782,
     -2.729151632481958
    ],
    52
   ],
   [
    [
     1.3784509332361403,
     3.3486871374725475
    ],
    51
   ],
   [
    [
     2.168945348384992,
     2.3600492675585314
    ],
    56
   ],
   [
    [
     1.7662277121778653,
     2.5145518064522268
    ],
    52
   ],
   [
    [
     0.7810339512535412,
     3.0156389134896515
    ],
    50
   ]
  ]
 },
 {
  "init_weights": [
   -86.2,
   3.0
  ],
  "results": [
   [
    [
     1.2556724777372414,
     -2.748239827998396
    ],
    51
   ],
   [
    [
     1.1631783180023378,
     3.234593418194218
    ],
    50
   ],
   [
    [
     1.4168538382308988,
     2.8318061148696145
    ],
    51
   ],
   [
    [
     0.807647455136727,
     2.8898175376794004
    ],
    50
   ],
   [
    [
     1.3179344498511416,
     2.571858924167786
    ],
    51
   ],
   [
    [
     0.8916071027780155,
     -2.7968217717625605
    ],
    51
   ],
   [
    [
     0.9080149160513621,
     3.3663958098876794
    ],
    50
   ],
   [
    [
     3.391889754503559,
     2.7814065974056645
    ],
    74
   ],
   [
    [
     1.3306886841231989,
     2.543817702061905
    ],
    51
   ],
   [
    [
     0.8841442926720001,
     3.0395411317529883
    ],
    50
   ]
  ]
 },
 {
  "init_weights": [
   -86.0,
   3.0
  ],
  "results": [
   [
    [
     0.8043751730043701,
     -2.9659818160326226
    ],
    50
   ],
   [
    [
     1.2602204053431858,
     3.2137994417321614
    ],
    50
   ],
   [
    [
     0.9437486485069303,
     2.8402196389345784
    ],
    50
   ],
   [
    [
     0.9106871687727357,
     2.9212392677449586
    ],
    50
   ],
   [
    [
     1.4142872695892992,
     2.607834103304806
    ],
    51
   ],
   [
    [
     0.9918682420354586,
     -2.7818266413078883
    ],
    51
   ],
   [
    [
     1.0093364051152725,
     3.371584620975326
    ],
    50
   ],
   [
    [
     3.372539417246087,
     2.904042295994109
    ],
    77
   ],
   [
    [
     1.4262552801040886,
     2.5701968884681947
    ],
    51
   ],
   [
    [
     0.9865641314348719,
     3.06207041110898
    ],
    50
   ]
  ]
 },
 {
  "init_weights": [
   -85.8,
   3.0
  ],
  "results": [
   [
    [
     0.920090149696242,
     -3.0141087929110384
    ],
    50
   ],
   [
    [
     0.7719782050424472,
     3.3144020374784513
    ],
    49
   ],
   [
    [
     1.0454547347553422,
     2.8655206913010263
    ],
    50
   ],
   [
    [
     1.0131250265313099,
     2.9514127757681416
    ],
    50
   ],
   [
    [
     1.5104478344961016,
     2.6445610874982433
    ],
    51
   ],
   [
    [
     1.0913546498297557,
     -2.76697270960091
    ],
    51
   ],
   [
    [
     1.109867095489494,
     3.3748654457725986
    ],
    50
   ],
   [
    [
     3.332531501832654,
     2.9613853270712753
    ],
    78
   ],
   [
    [
     1.5216214027767836,
     2.597984374588102
    ],
    51
   ],
   [
    [
     1.0882710892259937,
     3.083137207524336
    ],
    50
   ]
  ]
 },
 {
  "init_weights": [
   -85.6,
   3.0
  ],
  "results": [
   [
    [
     1.0381719696636293,
     -3.073914563967826
    ],
    50
   ],
   [
    [
     0.87306794167295,
     3.293420500005281
    ],
    49
   ],
   [
    [
     1.1465646129896716,
     2.8902406363409083
    ],
    50
   ],
   [
    [
     1.1149194263598148,
     2.9801441149294656
    ],
    50
   ],
   [
    [
     1.6062923276344385,
     2.6814374578532876
    ],
    51
   ],
   [
    [
     1.190063185252642,
     -2.7522480250478814
    ],
    51
   ],
   [
    [
     1.2096038390568449,
     3.3763126732112667
    ],
    50
   ],
   [
    [
     3.3276945409609135,
     2.9747850152745463
    ],
    78
   ],
   [
    [
     1.6166810832341318,
     2.626656258254736
    ],
    51
   ],
   [
    [
     1.1892458347988208,
     3.1026719256953315
    ],
    50
   ]
  ]
 },
 {
  "init_weights": [
   -85.4,
   3.0
  ],
  "results": [
   [
    [
     1.1593049330632677,
     -3.1475548582296624
    ],
    50
   ],
   [
    [
     0.9734419214513756,
     3.272632039999222
    ],
    49
   ],
   [
    [
     1.2470428085964043,
     2.914202836129669
    ],
    50
   ],
   [
    [
     1.2160348606548574,
     3.0072760472834004
    ],
    50
   ],
   [
    [
     1.144384102805541,
     2.696343164033226
    ],
    50
   ],
   [
    [
     1.287990805055423,
     -2.7376412623922213
    ],
    51
   ],
   [
    [
     1.3085441089281251,
     3.376005002916241
    ],
    50
   ],
   [
    [
     3.3947538035638414,
     2.816814020346091
    ],
    74
   ],
   [
    [
     1.1573679860095316,
     2.6470473219073316
    ],
    50
   ],
   [
    [
     0.6875640636521804,
     3.10431932624639
    ],
    49
   ]
  ]
 },
 {
  "init_weights": [
   -85.2,
   3.0
  ],
  "results": [
   [
    [
     1.2843572330029287,
     -3.237390465167993
    ],
    50
   ],
   [
    [
     1.0730968805480208,
     3.252043171473556
    ],
    49
   ],
   [
    [
     0.7489592365056188,
     2.9198479621160143
    ],
    49
   ],
   [
    [
     0.716939716673165,
     3.0083200747370484
    ],
    49
   ],
   [
    [
     1.2446597740421343,
     2.7294644603339027
    ],
    50
   ],
   [
    [
     0.8237502218656053,
     -2.815573671314346
    ],
    50
   ],
   [
    [
     1.4066860664817575,
     3.374024361555406
    ],
    50
   ],
   [
    [
     3.240397772042217,
     2.5466591865443564
    ],
    64
   ],
   [
    [
     1.2567697791633123,
     2.672623234708363
    ],
    50
   ],
   [
    [
     0.7928748513704629,
     3.122677743950415
    ],
    49
   ]
  ]
 },
 {
  "init_weights": [
   -85.0,
   3.0
  ],
  "results": [
   [
    [
     1.414432705233264,
     -3.3457031555764125
    ],
    50
   ],
   [
    [
     1.172029481942006,
     3.2316593888865546
    ],
    49
   ],
   [
    [
     0.8537035706601356,
     2.9415886048321833
    ],
    49
   ],
   [
    [
     0.8224196176975638,
     3.0332593990632963
    ],
    49
   ],
   [
    [
     1.34448638358342,
     2.762307194770178
    ],
    50
   ],
   [
    [
     0.9255525094566097,
     -2.8001476900356814
    ],
    50
   ],
   [
    [
     1.504028307391194,
     3.370454867383932
    ],
    50
   ],
   [
    [
     2.7011335686417546,
     2.36547155075409
    ],
    56
   ],
   [
    [
     1.3557484954333243,
     2.6986394948221317
    ],
    50
   ],
   [
    [
     0.8974593296036152,
     3.139685735988016
    ],
    49
   ]
  ]
 },
 {
  "init_weights": [
   -84.8,
   3.0
  ],
  "results": [
   [
    [
     1.5509278154317567,
     -3.4739271251957513
    ],
    50
   ],
   [
    [
     1.2702363600913444,
     3.2114852212168947
    ],
    49
   ],
   [
    [
     0.9578033074149952,
     2.962620223685678
    ],
    49
   ],
   [
    [
     0.9272104179503902,
     3.056757360840357
    ],
    49
   ],
   [
    [
     1.443793965506105,
     2.794524229504479
    ],
    50
   ],
   [
    [
     1.026590116157033,
     -2.7848768413126868
    ],
    50
   ],
   [
    [
     1.0246748913790111,
     3.3998798090443705
    ],
    49
   ],
   [
    [
     1.9582543937038324,
     2.374842178373412
    ],
    51
   ],
   [
    [
     1.4542405833225098,
     2.724772314917785
    ],
    50
   ],
   [
    [
     1.001302892293011,
     3.155300023350977
    ],
    49
   ]
  ]
 },
 {
  "init_weights": [
   -84.6,
   3.0
  ],
  "results": [
   [
    [
     2.2038024732190262,
     -3.388159506132357
    ],
    51
   ],
   [
    [
     0.7640409599339409,
     3.3124833960361424
    ],
    48
   ],
   [
    [
     1.0612331933044117,
     2.9828225091459606
    ],
    49
   ],
   [
    [
     1.0312879896230287,
     3.0787184885980228
    ],
    49
   ],
   [
    [
     0.9572953157258756,
     2.8027115426563647
    ],
    49
   ],
   [
    [
     1.1268611516162608,
     -2.76975540015633
    ],
    50
   ],
   [
    [
     1.1265406164391945,
     3.397741683879577
    ],
    49
   ],
   [
    [
     2.0478407119377864,
     2.392882539645571
    ],
    51
   ],
   [
    [
     0.969998228744935,
     2.739200500447259
    ],
    49
   ],
   [
    [
     1.1043926445999053,
     3.1694897013336187
    ],
    49
   ]
  ]
 },
 {
  "init_weights": [
   -84.4,
   3.0
  ],
  "results": [
   [
    [
     3.2102805176241724,
     -3.114064692331117
    ],
    53
   ],
   [
    [
     0.8663527543935332,
     3.292098108048844
    ],
    48
   ],
   [
    [
     1.163970667807721,
     3.002092859254012
    ],
    49
   ],
   [
    [
     1.1346311931060558,
     3.099068568055868
    ],
    49
   ],
   [
    [
     1.0609861241581586,
     2.8317036784776937
    ],
    49
   ],
   [
    [
     1.2263639694090487,
     -2.7547787540120376
    ],
    50
   ],
   [
    [
     1.2276140466109684,
     3.3941699167461508
    ],
    49
   ],
   [
    [
     2.1376238642207106,
     2.4144533837496316
    ],
    51
   ],
   [
    [
     1.072796288160082,
     2.7624643859845595
    ],
    49
   ],
   [
    [
     1.2067172265095565,
     3.182235197633491
    ],
    49
   ]
  ]
 },
 {
  "init_weights": [
   -84.2,
   3.0
  ],
  "results": [
   [
    [
     3.188852442245856,
     -2.567190607751348
    ],
    81
   ],
   [
    [
     0.9679408657463762,
     3.2718830138131
    ],
    48
   ],
   [
    [
     1.2659958986102544,
     3.0203448686966534
    ],
    49
   ],
   [
    [
     1.2372219571805705,
     3.1177526895018293
    ],
    49
   ],
   [
    [
     1.1641019014542533,
     2.8599784818050766
    ],
    49
   ],
   [
    [
     1.3250972107701147,
     -2.7399435050812024
    ],
    50
   ],
   [
    [
     1.3278932716344851,
     3.389234361818034
    ],
    49
   ],
   [
    [
     1.7042891234526358,
     2.4512216876560684
    ],
    50
   ],
   [
    [
     1.1750545955019942,
     2.7856846547441383
    ],
    49
   ],
   [
    [
     0.6891284462298185,
     3.1865132793876123
    ],
    48
   ]
  ]
 },
 {
  "init_weights": [
   -84.0,
   3.0
  ],
  "results": [
   [
    [
     3.2443932377885916,
     -2.565446018525291
    ],
    81
   ],
   [
    [
     1.0688020653537311,
     3.251843579048393
    ],
    48
   ],
   [
    [
     0.7516968075448548,
     3.023554431256062
    ],
    48
   ],
   [
    [
     0.7225132216453063,
     3.118763936217366
    ],
    48
   ],
   [
    [
     1.2665985823891435,
     2.887320925203892
    ],
    49
   ],
   [
    [
     0.8463519597723184,
     -2.8311408764540076
    ],
    49
   ],
   [
    [
     1.4273767855443966,
     3.3830057420130126
    ],
    49
   ],
   [
    [
     1.798783527829223,
     2.4707371312137787
    ],
    50
   ],
   [
    [
     1.276731196649631,
     2.8086473537263275
    ],
    49
   ],
   [
    [
     0.7958751444927566,
     3.198956783262719
    ],
    48
   ]
  ]
 },
 {
  "init_weights": [
   -83.8,
   3.0
  ],
  "results": [
   [
    [
     3.226339391123901,
     -2.56272823876038
    ],
    79
   ],
   [
    [
     1.168933218610407,
     3.2319844310447574
    ],
    48
   ],
   [
    [
     0.858073418693383,
     3.0404552299022987
    ],
    48
   ],
   [
    [
     0.8295506990708598,
     3.136466148800503
    ],
    48
   ],
   [
    [
     1.3684381468552735,
     2.9135501296052477
    ],
    49
   ],
   [
    [
     0.949135262290805,
     -2.8161159947067986
    ],
    49
   ],
   [
    [
     1.5260631512899867,
     3.375555074543793
    ],
    49
   ],
   [
    [
     1.8931745582590804,
     2.492508658632039
    ],
    50
   ],
   [
    [
     1.3777890452304051,
     2.831166027053875
    ],
    49
   ],
   [
    [
     0.9018689817630607,
     3.2101319336021463
    ],
    48
   ]
  ]
 },
 {
  "init_weights": [
   -83.6,
   3.0
  ],
  "results": [
   [
    [
     1.387559047319498,
     -2.635792664117574
    ],
    48
   ],
   [
    [
     1.2683310366776572,
     3.212309445316894
    ],
    48
   ],
   [
    [
     0.9637433900043817,
     3.0564612740907577
    ],
    48
   ],
   [
    [
     0.9358436766432866,
     3.1527088326678467
    ],
    48
   ],
   [
    [
     0.8611577962604552,
     2.9165279047304966
    ],
    48
   ],
   [
    [
     1.0511759291685707,
     -2.8013188054204745
    ],
    49
   ],
   [
    [
     1.0311345337346314,
     3.4129178957863493
    ],
    48
   ],
   [
    [
     1.4303379287485676,
     2.524745229642361
    ],
    49
   ],
   [
    [
     0.872344253244021,
     2.8399870276384727
    ],
    48
   ],
   [
    [
     1.0071004684393912,
     3.2200277807414546
    ],
    48
   ]
  ]
 },
 {
  "init_weights": [
   -83.4,
   3.0
  ],
  "results": [
   [
    [
     3.3292819964035805,
     -2.8102589101007283
    ],
    82
   ],
   [
    [
     1.3669923071990753,
     3.192821781486744
    ],
    48
   ],
   [
    [
     1.06869112649921,
     3.071511046926824
    ],
    48
   ],
   [
    [
     1.041378161655409,
     3.1674595674277373
    ],
    48
   ],
   [
    [
     0.9674098547441088,
     2.9404214446067414
    ],
    48
   ],
   [
    [
     1.1524747455341346,
     -2.7867566519907485
    ],
    49
   ],
   [
    [
     1.1343831454446627,
     3.4070840978793937
    ],
    48
   ],
   [
    [
     1.5292569258369868,
     2.5438689105365606
    ],
    49
   ],
   [
    [
     0.9777391116351899,
     2.8601925051863244
    ],
    48
   ],
   [
    [
     1.1115610574950425,
     3.2286408371039372
    ],
    48
   ]
  ]
 },
 {
  "init_weights": [
   -83.2,
   3.0
  ],
  "results": [
   [
    [
     3.353751659173383,
     2.7223903278926986
    ],
    83
   ],
   [
    [
     0.8465092489941457,
     3.2938203028496913
    ],
    47
   ],
   [
    [
     1.1729024879828103,
     3.0855536817496363
    ],
    48
   ],
   [
    [
     1.1461418240392676,
     3.180697994726617
    ],
    48
   ],
   [
    [
     1.0729914872745203,
     2.963295163358404
    ],
    48
   ],
   [
    [
     1.253033123257042,
     -2.7724392444037083
    ],
    49
   ],
   [
    [
     1.236841250808375,
     3.400120687667184
    ],
    48
   ],
   [
    [
     1.627898160001139,
     2.5645078984124168
    ],
    49
   ],
   [
    [
     1.0825003978551058,
     2.8799678770004906
    ],
    48
   ],
   [
    [
     1.2152431078809347,
     3.2359743530083604
    ],
    48
   ]
  ]
 },
 {
  "init_weights": [
   -83.0,
   3.0
  ],
  "results": [
   [
    [
     2.3285006300515745,
     2.6031147585215484
    ],
    49
   ],
   [
    [
     0.9493405698431152,
     3.2740752424255115
    ],
    47
   ],
   [
    [
     0.6362375908833667,
     3.0895494110121366
    ],
    47
   ],
   [
    [
     1.2501238768645626,
     3.19241459621221
    ],
    48
   ],
   [
    [
     1.177876218288861,
     2.9850309217852424
    ],
    48
   ],
   [
    [
     0.7545136214139231,
     -2.8824321981197016
    ],
    48
   ],
   [
    [
     1.3385069500571913,
     3.3920864625188707
    ],
    48
   ],
   [
    [
     1.726179936104694,
     2.5862516007915595
    ],
    49
   ],
   [
    [
     1.1866013738604462,
     2.8991826304104285
    ],
    48
   ],
   [
    [
     1.3181397123371983,
     3.2420375496841998
    ],
    48
   ]
  ]
 },
 {
  "init_weights": [
   -82.8,
   3.0
  ],
  "results": [
   [
    [
     1.0992296410355071,
     3.3345275917478956
    ],
    47
   ],
   [
    [
     1.0514391410274293,
     3.2544834527086572
    ],
    47
   ],
   [
    [
     0.744866450355215,
     3.10278387656488
    ],
    47
   ],
   [
    [
     0.7187083795591013,
     3.1969540119090616
    ],
    47
   ],
   [
    [
     1.2820405408558826,
     3.0055307485790377
    ],
    48
   ],
   [
    [
     0.8593345374484843,
     -2.8688157989441208
    ],
    48
   ],
   [
    [
     1.4393784138941133,
     3.383040113841773
    ],
    48
   ],
   [
    [
     1.2372720255108811,
     2.6114883730156677
    ],
    48
   ],
   [
    [
     1.2900180883635006,
     2.9177232468809033
    ],
    48
   ],
   [
    [
     0.7887658103121737,
     3.2524266502190042
    ],
    47
   ]
  ]
 },
 {
  "init_weights": [
   -82.6,
   3.0
  ],
  "results": [
   [
    [
     3.160236087432837,
     2.5679648660988095
    ],
    80
   ],
   [
    [
     1.1528017371715698,
     3.2350490786640975
    ],
    47
   ],
   [
    [
     0.852770437515349,
     3.11514267436062
    ],
    47
   ],
   [
    [
     0.8272187537862806,
     3.208572207312022
    ],
    47
   ],
   [
    [
     0.7528312184018046,
     3.0069795409106104
    ],
    47
   ],
   [
    [
     0.9634580560115915,
     -2.8556033794600255
    ],
    48
   ],
   [
    [
     1.5394541496007952,
     3.373039887190163
    ],
    48
   ],
   [
    [
     1.3399756535266023,
     2.6303739901530943
    ],
    48
   ],
   [
    [
     0.762271802342505,
     2.924088948726769
    ],
    47
   ],
   [
    [
     0.8961829014017112,
     3.258927600688135
    ],
    47
   ]
  ]
 },
 {
  "init_weights": [
   -82.4,
   3.0
  ],
  "results": [
   [
    [
     3.205992132846533,
     2.5693137461316975
    ],
    80
   ],
   [
    [
     1.2534252365681398,
     3.21577564004283
    ],
    47
   ],
   [
    [
     0.959937778025791,
     3.126587940733693
    ],
    47
   ],
   [
    [
     0.934960872605851,
     3.2188561706869234
    ],
    47
   ],
   [
    [
     0.8614666689798941,
     3.0259721854714665
    ],
    47
   ],
   [
    [
     1.0668894105091375,
     -2.8428236384698984
    ],
    48
   ],
   [
    [
     1.0275492656549876,
     3.417210832655096
    ],
    47
   ],
   [
    [
     1.442235762748818,
     2.6500240956003154
    ],
    48
   ],
   [
    [
     0.8700864378539673,
     2.9409079629680344
    ],
    47
   ],
   [
    [
     1.0028285531021979,
     3.264300587495737
    ],
    47
   ]
  ]
 },
 {
  "init_weights": [
   -82.2,
   3.0
  ],
  "results": [
   [
    [
     3.16605474763883,
     2.5356919145358763
    ],
    78
   ],
   [
    [
     1.3533065346570203,
     3.1966660437011325
    ],
    47
   ],
   [
    [
     1.066357545173362,
     3.1370890617328766
    ],
    47
   ],
   [
    [
     1.041925473897257,
     3.2278024786043584
    ],
    47
   ],
   [
    [
     0.9693858053746319,
     3.0438803982114515
    ],
    47
   ],
   [
    [
     1.1696349556110741,
     -2.8305099082625693
    ],
    48
   ],
   [
    [
     1.1322266839387929,
     3.408865446493882
    ],
    47
   ],
   [
    [
     1.5439992277142993,
     2.6701663910445887
    ],
    48
   ],
   [
    [
     0.9772187664332959,
     2.9571362411608844
    ],
    47
   ],
   [
    [
     1.1086963246363397,
     3.268554392712098
    ],
    47
   ]
  ]
 },
 {
  "init_weights": [
   -82.0,
   3.0
  ],
  "results": [
   [
    [
     2.825015796764477,
     3.204273356480527
    ],
    50
   ],
   [
    [
     0.8124088602362577,
     3.298130342279869
    ],
    46
   ],
   [
    [
     1.1720197877390337,
     3.146622325199479
    ],
    47
   ],
   [
    [
     1.1481042630863865,
     3.235414939484169
    ],
    47
   ],
   [
    [
     1.076570674737948,
     3.0606374084241303
    ],
    47
   ],
   [
    [
     1.2717022947484118,
     -2.818700828807787
    ],
    48
   ],
   [
    [
     1.2361148203978063,
     3.399616766719469
    ],
    47
   ],
   [
    [
     1.6452191094559492,
     2.690560764953422
    ],
    48
   ],
   [
    [
     1.0836501634899784,
     2.9726904625790294
    ],
    47
   ],
   [
    [
     1.2137803671128609,
     3.2717019400657668
    ],
    47
   ]
  ]
 },
 {
  "init_weights": [
   -81.8,
   3.0
  ],
  "results": [
   [
    [
     1.8489876173616717,
     3.4641763609191223
    ],
    48
   ],
   [
    [
     0.9165196692558893,
     3.2787705801140787
    ],
    46
   ],
   [
    [
     1.2769153748918436,
     3.1551701141583544
    ],
    47
   ],
   [
    [
     1.253489822351468,
     3.24170376148767
    ],
    47
   ],
   [
    [
     1.1830053030902445,
     3.076189353721054
    ],
    47
   ],
   [
    [
     0.7582325529261984,
     -2.954684174688039
    ],
    47
   ],
   [
    [
     1.3392114345819883,
     3.3895133505138255
    ],
    47
   ],
   [
    [
     1.1339452337693925,
     2.70821741062403
    ],
    47
   ],
   [
    [
     1.189363561526566,
     2.987498548407001
    ],
    47
   ],
   [
    [
     1.3180753057257757,
     3.273759926508198
    ],
    47
   ]
  ]
 },
 {
  "init_weights": [
   -81.6,
   3.0
  ],
  "results": [
   [
    [
     1.8949249277831541,
     3.252319836826544
    ],
    48
   ],
   [
    [
     1.019893331706545,
     3.2595433759999195
    ],
    46
   ],
   [
    [
     0.7270715275177833,
     3.1624383957877233
    ],
    46
   ],
   [
    [
     1.3580754084788071,
     3.246684821182886
    ],
    47
   ],
   [
    [
     1.2886753111191398,
     3.0904942229585908
    ],
    47
   ],
   [
    [
     0.8649224446802347,
     -2.9451297928607545
    ],
    47
   ],
   [
    [
     1.4415145617185923,
     3.378603264475072
    ],
    47
   ],
   [
    [
     1.2395778719584105,
     2.726004967301172
    ],
    47
   ],
   [
    [
     0.6380886506131522,
     2.9935860073388536
    ],
    46
   ],
   [
    [
     0.7704284412769276,
     3.2896748160482625
    ],
    46
   ]
  ]
 },
 {
  "init_weights": [
   -81.4,
   3.0
  ],
  "results": [
   [
    [
     1.376797523142853,
     3.3157732403441513
    ],
    47
   ],
   [
    [
     1.1225268661707228,
     3.240452570206706
    ],
    46
   ],
   [
    [
     0.8364929601759337,
     3.170881206963963
    ],
    46
   ],
   [
    [
     0.814097792751217,
     3.2582062762655544
    ],
    46
   ],
   [
    [
     0.7415462873386554,
     3.0931234098964966
    ],
    46
   ],
   [
    [
     0.9710098878840966,
     -2.9363834996945517
    ],
    47
   ],
   [
    [
     1.5430221232585106,
     3.366933950952574
    ],
    47
   ],
   [
    [
     1.3446368228366388,
     2.7439524712110184
    ],
    47
   ],
   [
    [
     0.7482649931507042,
     3.0071863374583465
    ],
    46
   ],
   [
    [
     0.8793115550608855,
     3.2925204953842737
    ],
    46
   ]
  ]
 },
 {
  "init_weights": [
   -81.2,
   3.0
  ],
  "results": [
   [
    [
     1.4411753291258655,
     3.143486262630641
    ],
    47
   ],
   [
    [
     1.2244171308366096,
     3.22150151460674
    ],
    46
   ],
   [
    [
     0.945162779080974,
     3.1784614943120824
    ],
    46
   ],
   [
    [
     0.9233056721469568,
     3.2638113438449636
    ],
    46
   ],
   [
    [
     0.8517738120781021,
     3.1067845812702317
    ],
    46
   ],
   [
    [
     1.0765106025258326,
     -2.9285205416849633
    ],
    47
   ],
   [
    [
     1.643732253867534,
     3.354551993152547
    ],
    47
   ],
   [
    [
     1.4490885395176574,
     2.761889841737449
    ],
    47
   ],
   [
    [
     0.8577333958790085,
     3.02014771460017
    ],
    46
   ],
   [
    [
     0.9874197445675209,
     3.2943869896019446
    ],
    46
   ]
  ]
 },
 {
  "init_weights": [
   -81.0,
   3.0
  ],
  "results": [
   [
    [
     0.8927969727222912,
     3.2388373137059348
    ],
    46
   ],
   [
    [
     1.325561120543396,
     3.2026930297281226
    ],
    46
   ],
   [
    [
     1.0530726246870492,
     3.1851653473533768
    ],
    46
   ],
   [
    [
     1.0317282017974203,
     3.2682541477706684
    ],
    46
   ],
   [
    [
     0.9612494784507273,
     3.119361546414958
    ],
    46
   ],
   [
    [
     1.1814428461615818,
     -2.9216263932519464
    ],
    47
   ],
   [
    [
     1.118878324459733,
     3.406783747723827
    ],
    46
   ],
   [
    [
     0.9092744057075749,
     2.7774349662557976
    ],
    46
   ],
   [
    [
     0.9664798100175407,
     3.0324147992834667
    ],
    46
   ],
   [
    [
     1.0947476748410194,
     3.295287908439942
    ],
    46
   ]
  ]
 },
 {
  "init_weights": [
   -80.8,
   3.0
  ],
  "results": [
   [
    [
     0.970715273807829,
     3.09635321834138
    ],
    46
   ],
   [
    [
     0.762899506214501,
     3.3046820624477644
    ],
    45
   ],
   [
    [
     1.1602146994762301,
     3.190983353296551
    ],
    46
   ],
   [
    [
     1.1393590485354366,
     3.27154856187011
    ],
    46
   ],
   [
    [
     1.0699612929087068,
     3.130824578974136
    ],
    46
   ],
   [
    [
     1.285827311490678,
     -2.9157978586666236
    ],
    47
   ],
   [
    [
     1.2242409451716276,
     3.3959976170475112
    ],
    46
   ],
   [
    [
     1.0181662020255309,
     2.7930667512848237
    ],
    46
   ],
   [
    [
     1.0744912385934668,
     3.043940088282566
    ],
    46
   ],
   [
    [
     1.2012902950043736,
     3.2952395710934503
    ],
    46
   ]
  ]
 },
 {
  "init_weights": [
   -80.6,
   3.0
  ],
  "results": [
   [
    [
     1.0522840455395168,
     2.9720091489776963
    ],
    46
   ],
   [
    [
     0.8683309421025984,
     3.285638140205687
    ],
    45
   ],
   [
    [
     1.2665817744209837,
     3.195910230740382
    ],
    46
   ],
   [
    [
     1.2461923534176425,
     3.273712361634471
    ],
    46
   ],
   [
    [
     1.177898308177567,
     3.141151988781136
    ],
    46
   ],
   [
    [
     0.7579470591493335,
     -3.0871454304826185
    ],
    46
   ],
   [
    [
     1.328812550317444,
     3.384515614682793
    ],
    46
   ],
   [
    [
     1.1264400660965093,
     2.808680857463414
    ],
    46
   ],
   [
    [
     1.1817555829284285,
     3.054683288904246
    ],
    46
   ],
   [
    [
     1.307042900019769,
     3.2942606298150294
    ],
    46
   ]
  ]
 },
 {
  "init_weights": [
   -80.4,
   3.0
  ],
  "results": [
   [
    [
     1.1369384175717918,
     2.8646188265437793
    ],
    46
   ],
   [
    [
     0.9730224447652607,
     3.2667075951695304
    ],
    45
   ],
   [
    [
     0.6971298907163755,
     3.2072733885363696
    ],
    45
   ],
   [
    [
     1.3522227325112675,
     3.274766822935863
    ],
    46
   ],
   [
    [
     1.2850505487141408,
     3.1503293353426307
    ],
    46
   ],
   [
    [
     0.8675171596695523,
     -3.0859233257259997
    ],
    46
   ],
   [
    [
     1.4325906571817706,
     3.372377119288433
    ],
    46
   ],
   [
    [
     1.234070591847003,
     2.8241513477220757
    ],
    46
   ],
   [
    [
     0.6108938705881178,
     3.061929194860023
    ],
    45
   ],
   [
    [
     1.4120010814073154,
     3.292371852076052
    ],
    46
   ]
  ]
 },
 {
  "init_weights": [
   -80.2,
   3.0
  ],
  "results": [
   [
    [
     1.2241779843485858,
     2.7726346801695456
    ],
    46
   ],
   [
    [
     1.0769711043347687,
     3.247894102819145
    ],
    45
   ],
   [
    [
     0.8080990607503886,
     3.2124670044408035
    ],
    45
   ],
   [
    [
     0.788990784821189,
     3.292207032873639
    ],
    45
   ],
   [
    [
     0.718778226892145,
     3.1564493275269183
    ],
    45
   ],
   [
    [
     0.9766771504751788,
     -3.086303429534915
    ],
    46
   ],
   [
    [
     1.5355730671429872,
     3.359620837240749
    ],
    46
   ],
   [
    [
     1.3410345774525898,
     2.8393658122280714
    ],
    46
   ],
   [
    [
     0.7227079915225001,
     3.072026233502937
    ],
    45
   ],
   [
    [
     0.8501649498182873,
     3.3157463071035305
    ],
    45
   ]
  ]
 },
 {
  "init_weights": [
   -80.0,
   3.0
  ],
  "results": [
   [
    [
     1.3135656692525453,
     2.6944289794235288
    ],
    46
   ],
   [
    [
     1.1801738335102294,
     3.2292009486177027
    ],
    45
   ],
   [
    [
     0.9183092567729789,
     3.216874188065407
    ],
    45
   ],
   [
    [
     0.8997067167384921,
     3.294210397553247
    ],
    45
   ],
   [
    [
     0.8305683458352227,
     3.165607269587138
    ],
    45
   ],
   [
    [
     1.0854653528717861,
     -3.088447465843858
    ],
    46
   ],
   [
    [
     1.6377573592026384,
     3.3462847054770726
    ],
    46
   ],
   [
    [
     1.4473107817034039,
     2.854224012924876
    ],
    46
   ],
   [
    [
     0.8337899548438573,
     3.0814538386006767
    ],
    45
   ],
   [
    [
     0.959791799531038,
     3.3149162670110357
    ],
    45
   ]
  ]
 },
 {
  "init_weights": [
   -79.8,
   3.0
  ],
  "results": [
   [
    [
     1.4047223733946967,
     2.628432817059752
    ],
    46
   ],
   [
    [
     1.2826276097153577,
     3.210630977330075
    ],
    45
   ],
   [
    [
     1.027753612980836,
     3.2204898655054293
    ],
    45
   ],
   [
    [
     1.0096345379674942,
     3.2952146227950263
    ],
    45
   ],
   [
    [
     0.9415895687453053,
     3.173760461816471
    ],
    45
   ],
   [
    [
     1.1939255414012924,
     -3.0925366488023465
    ],
    46
   ],
   [
    [
     1.093126270033975,
     3.4031245406362443
    ],
    45
   ],
   [
    [
     0.887890373091127,
     2.865859348398906
    ],
    45
   ],
   [
    [
     0.9441291036079799,
     3.0901794479749176
    ],
    45
   ],
   [
    [
     1.0686381703548948,
     3.3132539372610106
    ],
    45
   ]
  ]
 },
 {
  "init_weights": [
   -79.6,
   3.0
  ],
  "results": [
   [
    [
     1.4973199988107853,
     2.573197704748022
    ],
    46
   ],
   [
    [
     1.384329403798012,
     3.192186634614603
    ],
    45
   ],
   [
    [
     1.1364254603894852,
     3.223312136222787
    ],
    45
   ],
   [
    [
     1.1187688680242083,
     3.295236900564589
    ],
    45
   ],
   [
    [
     1.0518329643032265,
     3.180898076537219
    ],
    45
   ],
   [
    [
     1.3021081136625272,
     -3.0987742011919854
    ],
    46
   ],
   [
    [
     1.2000085956618292,
     3.39130717039177
    ],
    45
   ],
   [
    [
     0.9986878853162005,
     2.8790053774226156
    ],
    45
   ],
   [
    [
     1.0537154904640822,
     3.0981757129087293
    ],
    45
   ],
   [
    [
     1.1766993481037868,
     3.310775938501825
    ],
    45
   ]
  ]
 },
 {
  "init_weights": [
   -79.4,
   3.0
  ],
  "results": [
   [
    [
     1.5910749706167127,
     2.527417981376214
    ],
    46
   ],
   [
    [
     0.8035959622071319,
     3.2944427701057886
    ],
    44
   ],
   [
    [
     1.2443186761808174,
     3.225341928912302
    ],
    45
   ],
   [
    [
     1.2271046427214471,
     3.2942968852733734
    ],
    45
   ],
   [
    [
     1.1612901900441837,
     3.1870144989167697
    ],
    45
   ],
   [
    [
     1.4100706804576266,
     -3.107387164085093
    ],
    46
   ],
   [
    [
     1.3061001502154852,
     3.3789111146829707
    ],
    45
   ],
   [
    [
     1.1088036536194026,
     2.891860942740766
    ],
    45
   ],
   [
    [
     1.1625397031972997,
     3.1054201333765326
    ],
    45
   ],
   [
    [
     1.28397098967883,
     3.307500457748328
    ],
    45
   ]
  ]
 },
 {
  "init_weights": [
   -79.2,
   3.0
  ],
  "results": [
   [
    [
     1.6857415732531655,
     2.4899316566700382
    ],
    46
   ],
   [
    [
     0.9096516143706661,
     3.2757530970595323
    ],
    44
   ],
   [
    [
     1.3514272165337586,
     3.226582774963341
    ],
    45
   ],
   [
    [
     1.3346370599463628,
     3.2924164692894586
    ],
    45
   ],
   [
    [
     1.2699534929468803,
     3.1921088348482844
    ],
    45
   ],
   [
    [
     0.8752435266487939,
     -3.3274518379771387
    ],
    45
   ],
   [
    [
     1.411398221498286,
     3.365968794174502
    ],
    45
   ],
   [
    [
     1.2182203582475788,
     2.904348229397083
    ],
    45
   ],
   [
    [
     1.2705930300148132,
     3.1118947911379697
    ],
    45
   ],
   [
    [
     1.390448877340714,
     3.3034470575909656
    ],
    45
   ]
  ]
 },
 {
  "init_weights": [
   -79.0,
   3.0
  ],
  "results": [
   [
    [
     1.7811066756220582,
     2.4597118652161893
    ],
    46
   ],
   [
    [
     1.014962953892468,
     3.2571625914858955
    ],
    44
   ],
   [
    [
     0.7664762261262663,
     3.2438412003896433
    ],
    44
   ],
   [
    [
     1.4413616763311203,
     3.28961945930531
    ],
    45
   ],
   [
    [
     1.377815756632081,
     3.196184541918107
    ],
    45
   ],
   [
    [
     0.9894779768648543,
     -3.3440328836189184
    ],
    45
   ],
   [
    [
     1.5159002229882552,
     3.352512040399426
    ],
    45
   ],
   [
    [
     1.3269219033231643,
     2.916397884095839
    ],
    45
   ],
   [
    [
     0.6842940676957895,
     3.1224740299078353
    ],
    44
   ],
   [
    [
     0.8076222120900076,
     3.332137778978595
    ],
    44
   ]
  ]
 },
 {
  "init_weights": [
   -78.8,
   3.0
  ],
  "results": [
   [
    [
     1.87698487987132,
     2.4358541864399994
    ],
    46
   ],
   [
    [
     1.1195270954655638,
     3.238674508155587
    ],
    44
   ],
   [
    [
     0.8782787063227724,
     3.245682022746546
    ],
    44
   ],
   [
    [
     0.8629909294148785,
     3.3149050063817866
    ],
    44
   ],
   [
    [
     0.7965646011151006,
     3.2083563798360406
    ],
    44
   ],
   [
    [
     1.1037732300554906,
     -3.3637490174870077
    ],
    45
   ],
   [
    [
     1.6196034187416533,
     3.3385720311390252
    ],
    45
   ],
   [
    [
     1.4348933338336487,
     2.927948324166168
    ],
    45
   ],
   [
    [
     0.797003506263872,
     3.1288476894607222
    ],
    44
   ],
   [
    [
     0.9188262659510323,
     3.3292379436158694
    ],
    44
   ]
  ]
 },
 {
  "init_weights": [
   -78.6,
   3.0
  ],
  "results": [
   [
    [
     1.9732143144634833,
     2.4175627387051155
    ],
    46
   ],
   [
    [
     1.2233409673298286,
     3.220291746175121
    ],
    44
   ],
   [
    [
     0.9893130052861091,
     3.2468163996854273
    ],
    44
   ],
   [
    [
     0.9744783100285492,
     3.313298937412413
    ],
    44
   ],
   [
    [
     0.9091609883622062,
     3.2129536805534036
    ],
    44
   ],
   [
    [
     1.2182280623091013,
     -3.3868635237718565
    ],
    45
   ],
   [
    [
     1.0537403394140465,
     3.399313486799084
    ],
    44
   ],
   [
    [
     0.8547721333918702,
     2.9387934252443326
    ],
    44
   ],
   [
    [
     0.9089591827357868,
     3.1345543564861558
    ],
    44
   ],
   [
    [
     1.0292507165925642,
     3.325617383871623
    ],
    44
   ]
  ]
 },
 {
  "init_weights": [
   -78.4,
   3.0
  ],
  "results": [
   [
    [
     1.4510500684310688,
     2.5014438468048854
    ],
    45
   ],
   [
    [
     1.3264016571342925,
     3.202016858093304
    ],
    44
   ],
   [
    [
     1.0995731409397502,
     3.2472461273965436
    ],
    44
   ],
   [
    [
     1.085172366948767,
     3.3108515493495037
    ],
    44
   ],
   [
    [
     1.0209732361231336,
     3.2166482232552736
    ],
    44
   ],
   [
    [
     1.3329554550362417,
     -3.4136411709180763
    ],
    45
   ],
   [
    [
     1.1621890830682804,
     3.386809455601277
    ],
    44
   ],
   [
    [
     0.9673540034695541,
     2.9491693923730558
    ],
    44
   ],
   [
    [
     1.0201528722014235,
     3.1395783079130317
    ],
    44
   ],
   [
    [
     1.1388911594066795,
     3.3212916395655148
    ],
    44
   ]
  ]
 },
 {
  "init_weights": [
   -78.2,
   3.0
  ],
  "results": [
   [
    [
     1.552457436395654,
     2.4827205446497183
    ],
    45
   ],
   [
    [
     1.428706207344658,
     3.183852059820397
    ],
    44
   ],
   [
    [
     1.209053465548239,
     3.2469750824924066
    ],
    44
   ],
   [
    [
     1.1950684659679722,
     3.307581851134924
    ],
    44
   ],
   [
    [
     1.1319944224376806,
     3.219442230812978
    ],
    44
   ],
   [
    [
     1.4480850732240975,
     -3.4443353989958267
    ],
    45
   ],
   [
    [
     1.2698474406274092,
     3.3738136998789527
    ],
    44
   ],
   [
    [
     1.0792192680715258,
     2.959136433408379
    ],
    44
   ],
   [
    [
     1.1305768156629268,
     3.1439071803960363
    ],
    44
   ],
   [
    [
     1.2477433051734377,
     3.316277358460401
    ],
    44
   ]
  ]
 },
 {
  "init_weights": [
   -78.0,
   3.0
  ],
  "results": [
   [
    [
     1.6539555039107248,
     2.4683332993875773
    ],
    45
   ],
   [
    [
     0.8285713824606968,
     3.2865455501700076
    ],
    43
   ],
   [
    [
     1.3177485522287657,
     3.246008971097555
    ],
    44
   ],
   [
    [
     1.3041620901301854,
     3.303510289389076
    ],
    44
   ],
   [
    [
     1.2422179100957602,
     3.2213410226864356
    ],
    44
   ],
   [
    [
     2.166749994591157,
     -3.259110001961076
    ],
    46
   ],
   [
    [
     1.3767125483256035,
     3.360353129874032
    ],
    44
   ],
   [
    [
     1.1903550552592062,
     2.968644585392168
    ],
    44
   ],
   [
    [
     1.2402235229904375,
     3.147531812211988
    ],
    44
   ],
   [
    [
     1.3558029503555957,
     3.3105921366411613
    ],
    44
   ]
  ]
 },
 {
  "init_weights": [
   -77.8,
   3.0
  ],
  "results": [
   [
    [
     1.7554440215992562,
     2.457772388259815
    ],
    45
   ],
   [
    [
     0.9352955557139492,
     3.2681332417905704
    ],
    43
   ],
   [
    [
     0.7104935521469604,
     3.268102240950584
    ],
    43
   ],
   [
    [
     1.4124488654298952,
     3.2986585917298408
    ],
    44
   ],
   [
    [
     1.3516375872357789,
     3.22235288168336
    ],
    44
   ],
   [
    [
     2.2764555132939184,
     -3.298186943413453
    ],
    46
   ],
   [
    [
     1.4827813526506564,
     3.3464541896751223
    ],
    44
   ],
   [
    [
     1.3007490529184689,
     2.9776494889678493
    ],
    44
   ],
   [
    [
     0.6318139932506809,
     3.1620871709476974
    ],
    43
   ],
   [
    [
     1.4630660062674077,
     3.3042544101406066
    ],
    44
   ]
  ]
 },
 {
  "init_weights": [
   -77.6,
   3.0
  ],
  "results": [
   [
    [
     1.8568334712996097,
     2.450582031792846
    ],
    45
   ],
   [
    [
     1.0412724167029657,
     3.249806673743292
    ],
    43
   ],
   [
    [
     0.8239460209851878,
     3.2678805887479156
    ],
    43
   ],
   [
    [
     1.5199246406958717,
     3.293049530458502
    ],
    44
   ],
   [
    [
     0.7485321743150412,
     3.239754424316773
    ],
    43
   ],
   [
    [
     2.3870942327666134,
     -3.3427574267518207
    ],
    46
   ],
   [
    [
     1.5880510191906316,
     3.3321427574134685
    ],
    44
   ],
   [
    [
     1.4103898226237677,
     2.986112192280595
    ],
    44
   ],
   [
    [
     0.7461897843789747,
     3.165894537393085
    ],
    43
   ],
   [
    [
     0.8633634182463247,
     3.3397706606955326
    ],
    43
   ]
  ]
 },
 {
  "init_weights": [
   -77.4,
   3.0
  ],
  "results": [
   [
    [
     1.9580436831791734,
     2.4463539861577708
    ],
    45
   ],
   [
    [
     1.146499036644303,
     3.231568825607219
    ],
    43
   ],
   [
    [
     0.9366301135200683,
     3.2670305601849976
    ],
    43
   ],
   [
    [
     0.9250608349875326,
     3.3257874164086836
    ],
    43
   ],
   [
    [
     0.8627503157492565,
     3.2415342870179207
    ],
    43
   ],
   [
    [
     2.498918182878819,
     -3.3930694815294484
    ],
    46
   ],
   [
    [
     0.9994694102345337,
     3.3962631482807293
    ],
    43
   ],
   [
    [
     0.8083264289710352,
     2.998262953092067
    ],
    43
   ],
   [
    [
     0.8598065231166461,
     3.1690866640264304
    ],
    43
   ],
   [
    [
     0.9754257989289936,
     3.334651110031851
    ],
    43
   ]
  ]
 },
 {
  "init_weights": [
   -77.2,
   3.0
  ],
  "results": [
   [
    [
     1.4146669987284235,
     2.5152291732712246
    ],
    44
   ],
   [
    [
     1.2509724681179442,
     3.213422360151324
    ],
    43
   ],
   [
    [
     1.0485402553844962,
     3.265555626727577
    ],
    43
   ],
   [
    [
     1.037372400388386,
     3.321475090878552
    ],
    43
   ],
   [
    [
     0.9761821006175736,
     3.242519329662798
    ],
    43
   ],
   [
    [
     3.220351207837422,
     -2.589064936686773
    ],
    73
   ],
   [
    [
     1.1095330419191411,
     3.3833089386149684
    ],
    43
   ],
   [
    [
     0.9226632369991473,
     3.0059877039459204
    ],
    43
   ],
   [
    [
     0.9726569779545344,
     3.1716544673448435
    ],
    43
   ],
   [
    [
     1.0867060395847798,
     3.3289165801891696
    ],
    43
   ]
  ]
 },
 {
  "init_weights": [
   -77.0,
   3.0
  ],
  "results": [
   [
    [
     1.5206723448055932,
     2.5088141211608366
    ],
    44
   ],
   [
    [
     1.3546898931699731,
     3.195369640742904
    ],
    43
   ],
   [
    [
     1.159671075196967,
     3.263460752943883
    ],
    43
   ],
   [
    [
     1.1488875052217633,
     3.3164543581958172
    ],
    43
   ],
   [
    [
     1.088821315753863,
     3.242715201333769
    ],
    43
   ],
   [
    [
     3.1785301061357316,
     -2.5691669977807767
    ],
    75
   ],
   [
    [
     1.218807119745326,
     3.3699280151499225
    ],
    43
   ],
   [
    [
     1.0362640468537,
     3.01326387431793
    ],
    43
   ],
   [
    [
     1.084734215348346,
     3.173591344535536
    ],
    43
   ],
   [
    [
     1.1971997080650045,
     3.322581832582034
    ],
    43
   ]
  ]
 },
 {
  "init_weights": [
   -76.8,
   3.0
  ],
  "results": [
   [
    [
     1.6263969305839647,
     2.5048540587536188
    ],
    44
   ],
   [
    [
     0.7285392175497466,
     3.2990404345316615
    ],
    42
   ],
   [
    [
     1.2700173541046336,
     3.2607523155815943
    ],
    43
   ],
   [
    [
     1.2596017279606153,
     3.3107434926286996
    ],
    43
   ],
   [
    [
     1.200662071228893,
     3.2421297502155015
    ],
    43
   ],
   [
    [
     3.159822836827635,
     -2.589370035556426
    ],
    76
   ],
   [
    [
     1.3272884546015833,
     3.3561429359564725
    ],
    43
   ],
   [
    [
     1.1491183113749384,
     3.0200582371358125
    ],
    43
   ],
   [
    [
     1.1960315666330086,
     3.1748929985691223
    ],
    43
   ],
   [
    [
     1.3069026746132493,
     3.3156622991646723
    ],
    43
   ]
  ]
 },
 {
  "init_weights": [
   -76.6,
   3.0
  ],
  "results": [
   [
    [
     1.7317852071184112,
     2.5030618203684525
    ],
    44
   ],
   [
    [
     0.8367279778137234,
     3.280769373091735
    ],
    42
   ],
   [
    [
     1.3795740164535926,
     3.2574379377002973
    ],
    43
   ],
   [
    [
     1.3695107495556107,
     3.304361631295579
    ],
    43
   ],
   [
    [
     1.3116986652469413,
     3.2407728530612196
    ],
    43
   ],
   [
    [
     3.179794128299973,
     -2.570308445473059
    ],
    76
   ],
   [
    [
     1.4349739144962073,
     3.3419758558999098
    ],
    43
   ],
   [
    [
     1.2612161098678936,
     3.026341624864121
    ],
    43
   ],
   [
    [
     1.3065425566302766,
     3.1755573092457774
    ],
    43
   ],
   [
    [
     1.4158108187934721,
     3.308174030379475
    ],
    43
   ]
  ]
 },
 {
  "init_weights": [
   -76.4,
   3.0
  ],
  "results": [
   [
    [
     1.8367865220156943,
     2.5031765516275644
    ],
    44
   ],
   [
    [
     0.9441706112491801,
     3.2625683525882483
    ],
    42
   ],
   [
    [
     0.754146431616883,
     3.2857721948650456
    ],
    42
   ],
   [
    [
     1.4786103551845216,
     3.297328674873478
    ],
    43
   ],
   [
    [
     1.421925683462782,
     3.238656201473682
    ],
    43
   ],
   [
    [
     3.2274410069392565,
     -2.6133934598928774
    ],
    76
   ],
   [
    [
     1.541860322872957,
     3.327448507417107
    ],
    43
   ],
   [
    [
     1.3725479586247662,
     3.0320885737754257
    ],
    43
   ],
   [
    [
     0.6801644460767324,
     3.195539200006988
    ],
    42
   ],
   [
    [
     1.523920055560972,
     3.3001335830935
    ],
    43
   ]
  ]
 },
 {
  "init_weights": [
   -76.2,
   3.0
  ],
  "results": [
   [
    [
     1.94135462682579,
     2.504960998745853
    ],
    44
   ],
   [
    [
     1.0508642533581143,
     3.2444404239063815
    ],
    42
   ],
   [
    [
     0.8685417408713613,
     3.283336271969763
    ],
    42
   ],
   [
    [
     0.8601465752648413,
     3.3350178760597173
    ],
    42
   ],
   [
    [
     0.8011283302530389,
     3.262971962593351
    ],
    42
   ],
   [
    [
     3.189015943240283,
     -2.6040310611545894
    ],
    76
   ],
   [
    [
     1.6479444961416854,
     3.31258215261435
    ],
    43
   ],
   [
    [
     0.7471867627363022,
     3.0469146084230276
    ],
    42
   ],
   [
    [
     0.7954962626161307,
     3.196660091263733
    ],
    42
   ],
   [
    [
     0.9059619749475131,
     3.3420104734837417
    ],
    42
   ]
  ]
 },
 {
  "init_weights": [
   -76.0,
   3.0
  ],
  "results": [
   [
    [
     1.3756234432698886,
     2.562175699046595
    ],
    43
   ],
   [
    [
     1.156806014991176,
     3.2263883830770324
    ],
    42
   ],
   [
    [
     0.9821645865080186,
     3.2803447643887598
    ],
    42
   ],
   [
    [
     0.9741336061825978,
     3.3292936068734353
    ],
    42
   ],
   [
    [
     0.9162358343102965,
     3.261832971426511
    ],
    42
   ],
   [
    [
     3.1738804105351828,
     -2.605272699677058
    ],
    76
   ],
   [
    [
     1.0407668103073364,
     3.3813488478339773
    ],
    42
   ],
   [
    [
     0.8632936231823273,
     3.0522594017474978
    ],
    42
   ],
   [
    [
     0.9100605097142936,
     3.197216200494359
    ],
    42
   ],
   [
    [
     1.018942113384829,
     3.335198549982438
    ],
    42
   ]
  ]
 },
 {
  "init_weights": [
   -75.8,
   3.0
  ],
  "results": [
   [
    [
     1.4849115294338895,
     2.5613726387579305
    ],
    43
   ],
   [
    [
     1.2619930103680337,
     3.2084147582109726
    ],
    42
   ],
   [
    [
     1.095009800359544,
     3.27680280718965
    ],
    42
   ],
   [
    [
     1.0873264432915795,
     3.322952837715754
    ],
    42
   ],
   [
    [
     1.030551363617347,
     3.260001962258856
    ],
    42
   ],
   [
    [
     3.163200955777058,
     -2.5672645575613884
    ],
    74
   ],
   [
    [
     1.151707307397574,
     3.3677308458666926
    ],
    42
   ],
   [
    [
     0.978653748666975,
     3.0571560198518597
    ],
    42
   ],
   [
    [
     1.023850745985781,
     3.1972041247286866
    ],
    42
   ],
   [
    [
     1.1311380991062294,
     3.327857822925097
    ],
    42
   ]
  ]
 },
 {
  "init_weights": [
   -75.6,
   3.0
  ],
  "results": [
   [
    [
     1.593728347393354,
     2.5620292488501644
    ],
    43
   ],
   [
    [
     1.3664223198209218,
     3.1905218240030755
    ],
    42
   ],
   [
    [
     1.207072170396032,
     3.2727166000555723
    ],
    42
   ],
   [
    [
     1.1997206623926293,
     3.3160115045895444
    ],
    42
   ],
   [
    [
     1.144069336581231,
     3.2574873645858635
    ],
    42
   ],
   [
    [
     1.0605364324339557,
     -3.191729379501244
    ],
    42
   ],
   [
    [
     1.261856304688371,
     3.353754159642534
    ],
    42
   ],
   [
    [
     1.0932581509088322,
     3.061581639388339
    ],
    42
   ],
   [
    [
     1.1368607801313,
     3.196622182136893
    ],
    42
   ],
   [
    [
     1.2425456976840428,
     3.3200016372596304
    ],
    42
   ]
  ]
 },
 {
  "init_weights": [
   -75.4,
   3.0
  ],
  "results": [
   [
    [
     1.7020390145312374,
     2.563966878898346
    ],
    43
   ],
   [
    [
     1.4700911387025082,
     3.1727116200427656
    ],
    42
   ],
   [
    [
     1.3183467364210422,
     3.26809333227923
    ],
    42
   ],
   [
    [
     1.3113118602912208,
     3.308486181155469
    ],
    42
   ],
   [
    [
     1.256784384031878,
     3.2542990779889047
    ],
    42
   ],
   [
    [
     1.2023709773741778,
     -2.767145270604873
    ],
    42
   ],
   [
    [
     1.371210334540273,
     3.3394375700426484
    ],
    42
   ],
   [
    [
     1.207098270040203,
     3.0655163935877874
    ],
    42
   ],
   [
    [
     1.2490844616268935,
     3.1954703161016242
    ],
    42
   ],
   [
    [
     1.3531606275527128,
     3.311643836418746
    ],
    42
   ]
  ]
 },
 {
  "init_weights": [
   -75.2,
   3.0
  ],
  "results": [
   [
    [
     1.8098111022364258,
     2.5670213990248913
    ],
    43
   ],
   [
    [
     0.8269517817482197,
     3.277022754270697
    ],
    41
   ],
   [
    [
     1.4288285419713032,
     3.2629410774568406
    ],
    42
   ],
   [
    [
     1.4220957234090612,
     3.30039398548033
    ],
    42
   ],
   [
    [
     1.368691206980643,
     3.2504483216016085
    ],
    42
   ],
   [
    [
     2.0770733597937534,
     -2.4182093752386167
    ],
    43
   ],
   [
    [
     1.4797661209935002,
     3.3247994920803148
    ],
    42
   ],
   [
    [
     1.320165782336259,
     3.068943135204288
    ],
    42
   ],
   [
    [
     1.3605159934568956,
     3.1937499586119977
    ],
    42
   ],
   [
    [
     1.4629788335898222,
     3.30279861896479
    ],
    42
   ]
  ]
 },
 {
  "init_weights": [
   -75.0,
   3.0
  ],
  "results": [
   [
    [
     1.2153684830433549,
     2.619711681939491
    ],
    42
   ],
   [
    [
     0.9351678939242389,
     3.2589760080157957
    ],
    41
   ],
   [
    [
     0.783839651380576,
     3.2974283468348906
    ],
    41
   ],
   [
    [
     1.5320681365818507,
     3.29175247828503
    ],
    42
   ],
   [
    [
     1.4797847166937004,
     3.2459475026673683
    ],
    42
   ],
   [
    [
     3.3432189281587057,
     -3.0048632268932156
    ],
    74
   ],
   [
    [
     1.5875202497057752,
     3.309857999849949
    ],
    42
   ],
   [
    [
     1.4324527064674326,
     3.0718473126100703
    ],
    42
   ],
   [
    [
