[
 {
  "init_weights": [
   -98.0,
   3.0
  ],
  "results": [
   [
    [
     3.2847012525875847,
     2.346983604509806
    ],
    6
   ],
   [
    [
     -2.1086362373892307,
     -1.7150886203413558
    ],
    6
   ],
   [
    [
     -0.34575813376252285,
     3.079448642028879
    ],
    5
   ],
   [
    [
     -0.5850831418535094,
     3.03486556367086
    ],
    5
   ],
   [
    [
     -1.1815107211462959,
     1.947897724406662
    ],
    5
   ],
   [
    [
     2.1254902465859047,
     2.8937890243120044
    ],
    6
   ],
   [
    [
     0.19950412093284772,
     3.256537062961306
    ],
    6
   ],
   [
    [
     -2.0369245047005577,
     1.045865020134602
    ],
    5
   ],
   [
    [
     -1.165252519663177,
     2.0467020316202826
    ],
    5
   ],
   [
    [
     -0.0436698096304724,
     3.9896963087027966
    ],
    5
   ]
  ]
 },
 {
  "init_weights": [
   -97.8,
   3.0
  ],
  "results": [
   [
    [
     -4.302819217221234,
     -0.013923214621432208
    ],
    5
   ],
   [
    [
     NaN,
     NaN
    ],
    0
   ],
   [
    [
     -0.2502961716805743,
     3.2286115614069075
    ],
    5
   ],
   [
    [
     -0.49228594450334384,
     3.198383617967046
    ],
    5
   ],
   [
    [
     -1.081636269399624,
     2.0763573401229958
    ],
    5
   ],
   [
    [
     2.1522920065781896,
     2.8599789013285077
    ],
    6
   ],
   [
    [
     0.2272265448639995,
     2.7351680490847206
    ],
    6
   ],
   [
    [
     -1.924985927726297,
     1.1228193131064261
    ],
    5
   ],
   [
    [
     -1.0597860865205675,
     2.1616931649030713
    ],
    5
   ],
   [
    [
     0.04327721979458943,
     4.175608773092819
    ],
    5
   ]
  ]
 },
 {
  "init_weights": [
   -97.6,
   3.0
  ],
  "results": [
   [
    [
     -4.190465975030875,
     0.004414323577804441
    ],
    5
   ],
   [
    [
     -2.831513940638413,
     2.5197698050160335
    ],
    6
   ],
   [
    [
     -0.15643258872387378,
     3.3846681375018846
    ],
    5
   ],
   [
    [
     -0.4021064616749541,
     3.3727743762170634
    ],
    5
   ],
   [
    [
     -0.982697847523248,
     2.2064280471417868
    ],
    5
   ],
   [
    [
     2.1788936896967535,
     2.8235979023554267
    ],
    6
   ],
   [
    [
     0.24469372836728712,
     2.0439795909310234
    ],
    6
   ],
   [
    [
     -1.813487129505944,
     1.2032161116808455
    ],
    5
   ],
   [
    [
     -0.9555350222298671,
     2.2811349592769545
    ],
    5
   ],
   [
    [
     0.12783158647891923,
     4.363284963461402
    ],
    5
   ]
  ]
 },
 {
  "init_weights": [
   -97.4,
   3.0
  ],
  "results": [
   [
    [
     -4.077993331253261,
     0.023331381336376952
    ],
    5
   ],
   [
    [
     -1.308512321814474,
     -3.1721942774388046
    ],
    10
   ],
   [
    [
     -0.06451481503552259,
     3.5436628454757684
    ],
    5
   ],
   [
    [
     -0.3141343670778767,
     3.5506989844873136
    ],
    5
   ],
   [
    [
     -0.8853257317456737,
     2.3443644614786106
    ],
    5
   ],
   [
    [
     2.2048088333580225,
     2.788293146480034
    ],
    6
   ],
   [
    [
     0.25851343287581796,
     1.3043151296239497
    ],
    6
   ],
   [
    [
     -1.703745618949469,
     1.288609974959524
    ],
    5
   ],
   [
    [
     -0.8516429217671728,
     2.404353904316878
    ],
    5
   ],
   [
    [
     0.20949878971056535,
     4.559999425480887
    ],
    5
   ]
  ]
 },
 {
  "init_weights": [
   -97.2,
   3.0
  ],
  "results": [
   [
    [
     -3.966820476186328,
     0.04586904235455029
    ],
    5
   ],
   [
    [
     -3.6486022702976095,
     0.05637344752893725
    ],
    6
   ],
   [
    [
     0.026006320873378286,
     3.7044563688483088
    ],
    5
   ],
   [
    [
     -0.22756646212047826,
     3.7318885468558736
    ],
    5
   ],
   [
    [
     -0.7891843780454764,
     2.4854921665074405
    ],
    5
   ],
   [
    [
     2.2305037623134325,
     2.7519163603296617
    ],
    6
   ],
   [
    [
     0.27124965543058005,
     0.6396146453012701
    ],
    6
   ],
   [
    [
     -1.5944952625731048,
     1.37422994497037
    ],
    5
   ],
   [
    [
     -0.7497752745918618,
     2.532581244927986
    ],
    5
   ],
   [
    [
     0.2888180254872239,
     4.7596990825989165
    ],
    5
   ]
  ]
 },
 {
  "init_weights": [
   -97.0,
   3.0
  ],
  "results": [
   [
    [
     -3.8552347586174562,
     0.06847211913309774
    ],
    5
   ],
   [
    [
     -4.213191919865867,
     -1.5069349706010255
    ],
    7
   ],
   [
    [
     0.11331159132481616,
     3.873429938313305
    ],
    5
   ],
   [
    [
     -0.14455614671891226,
     3.9215309318443055
    ],
    5
   ],
   [
    [
     -0.6960808566418919,
     2.632843923881207
    ],
    5
   ],
   [
    [
     2.2557215149261687,
     2.7148654135980657
    ],
    6
   ],
   [
    [
     0.2899185713388347,
     0.18607934051119024
    ],
    6
   ],
   [
    [
     -1.4858694538953685,
     1.4636508570779254
    ],
    5
   ],
   [
    [
     -0.6507538668820558,
     2.665909593529158
    ],
    5
   ],
   [
    [
     0.36538399872355143,
     4.967381227174667
    ],
    5
   ]
  ]
 },
 {
  "init_weights": [
   -96.8,
   3.0
  ],
  "results": [
   [
    [
     -3.7434088682961715,
     0.0909020042663875
    ],
    5
   ],
   [
    [
     -2.4909462648229406,
     -2.6915061880890736
    ],
    9
   ],
   [
    [
     0.19867650111262236,
     4.047793020912367
    ],
    5
   ],
   [
    [
     -0.0632910956618602,
     4.115372293152721
    ],
    5
   ],
   [
    [
     -0.6039988138681309,
     2.7861461374077625
    ],
    5
   ],
   [
    [
     2.2804810556209887,
     2.681149138561554
    ],
    6
   ],
   [
    [
     -6.711866374830087,
     -4.811047611393574
    ],
    7
   ],
   [
    [
     -1.3801706550097776,
     1.5602705328163489
    ],
    5
   ],
   [
    [
     -0.5528624413076457,
     2.805411234793532
    ],
    5
   ],
   [
    [
     -6.055659006882841,
     0.327352344860187
    ],
    5
   ]
  ]
 },
 {
  "init_weights": [
   -96.6,
   3.0
  ],
  "results": [
   [
    [
     -3.632101809451406,
     0.11621523808611398
    ],
    5
   ],
   [
    [
     -3.6381186990539307,
     -2.831654794130949
    ],
    9
   ],
   [
    [
     0.2812375958948863,
     4.227089813697966
    ],
    5
   ],
   [
    [
     0.014394034362624097,
     4.316441870588356
    ],
    5
   ],
   [
    [
     -0.513394241858613,
     2.9427623762382504
    ],
    5
   ],
   [
    [
     2.3047768057291798,
     2.6470714884887494
    ],
    6
   ],
   [
    [
     -5.246589550926458,
     0.4185949668254728
    ],
    5
   ],
   [
    [
     -1.2742634062382692,
     1.6588783858352467
    ],
    5
   ],
   [
    [
     -0.45686258837802995,
     2.945299331462963
    ],
    5
   ],
   [
    [
     -3.934286557167691,
     -1.9758075652086502
    ],
    7
   ]
  ]
 },
 {
  "init_weights": [
   -96.4,
   3.0
  ],
  "results": [
   [
    [
     -3.5207546254354867,
     0.1443047583072566
    ],
    5
   ],
   [
    [
     NaN,
     NaN
    ],
    0
   ],
   [
    [
     -6.871748209930523,
     0.7924121769094283
    ],
    5
   ],
   [
    [
     0.09062065439258049,
     4.522495837891495
    ],
    5
   ],
   [
    [
     -0.42554630014369366,
     3.1078729986831712
    ],
    5
   ],
   [
    [
     2.328767611131017,
     2.610561210069341
    ],
    6
   ],
   [
    [
     -7.7940829257427975,
     3.3780512589812046
    ],
    8
   ],
   [
    [
     -1.169164034742323,
     1.7610515761153982
    ],
    5
   ],
   [
    [
     -0.3627570063519485,
     3.0922911793888885
    ],
    5
   ],
   [
    [
     -6.891387566889426,
     2.757491874008668
    ],
    6
   ]
  ]
 },
 {
  "init_weights": [
   -96.2,
   3.0
  ],
  "results": [
   [
    [
     -3.409960570965424,
     0.17214062160514707
    ],
    5
   ],
   [
    [
     -6.908383358489894,
     -4.157442490086488
    ],
    11
   ],
   [
    [
     -8.388830310432574,
     4.234532064877601
    ],
    6
   ],
   [
    [
     0.1645605428030521,
     4.732454904946656
    ],
    5
   ],
   [
    [
     -0.337993868910921,
     3.2746389539744394
    ],
    5
   ],
   [
    [
     2.352168943699258,
     2.5768045258005783
    ],
    6
   ],
   [
    [
     -6.704547125449125,
     1.7699090422126136
    ],
    5
   ],
   [
    [
     -1.065781519548942,
     1.8674561754518038
    ],
    5
   ],
   [
    [
     -0.2692021570876193,
     3.2429088271149453
    ],
    5
   ],
   [
    [
     -7.160696777890125,
     4.020704004581784
    ],
    8
   ]
  ]
 },
 {
  "init_weights": [
   -96.0,
   3.0
  ],
  "results": [
   [
    [
     -3.2995841566876862,
     0.20229678974809975
    ],
    5
   ],
   [
    [
     -7.652736684485632,
     -3.995309717944066
    ],
    9
   ],
   [
    [
     -5.547612443280061,
     2.919065039444466
    ],
    6
   ],
   [
    [
     0.23501504423106212,
     4.9513472456235315
    ],
    5
   ],
   [
    [
     -0.2533125923619224,
     3.447906727817542
    ],
    5
   ],
   [
    [
     2.3752603703393422,
     2.5403003340397947
    ],
    6
   ],
   [
    [
     -7.072778986769693,
     4.012779055519153
    ],
    12
   ],
   [
    [
     -0.9643174534378716,
     1.9783626940268337
    ],
    5
   ],
   [
    [
     -0.17926630489825612,
     3.4008602284733604
    ],
    5
   ],
   [
    [
     -6.836094146777559,
     2.713354290716401
    ],
    6
   ]
  ]
 },
 {
  "init_weights": [
   -95.8,
   3.0
  ],
  "results": [
   [
    [
     -3.188732587088559,
     0.2364671113962642
    ],
    5
   ],
   [
    [
     0.9305819165931766,
     4.280202453551061
    ],
    5
   ],
   [
    [
     -4.4045141410106865,
     -2.1573017708728357
    ],
    5
   ],
   [
    [
     0.30311072586408017,
     5.173709938820353
    ],
    5
   ],
   [
    [
     -0.1717709750360612,
     3.6297850441268436
    ],
    5
   ],
   [
    [
     2.397818243924563,
     2.507640588937933
    ],
    6
   ],
   [
    [
     -7.354942138440536,
     4.016349998859129
    ],
    12
   ],
   [
    [
     -0.8632693618472373,
     2.0919370054132655
    ],
    5
   ],
   [
    [
     -0.09090142867901108,
     3.561538142236154
    ],
    5
   ],
   [
    [
     -6.52624619959613,
     1.345130772755048
    ],
    5
   ]
  ]
 },
 {
  "init_weights": [
   -95.6,
   3.0
  ],
  "results": [
   [
    [
     -3.0783224926359622,
     0.2684759132040141
    ],
    5
   ],
   [
    [
     NaN,
     NaN
    ],
    0
   ],
   [
    [
     -7.631528496080602,
     4.129726326203834
    ],
    7
   ],
   [
    [
     0.36799335116250376,
     5.402775716476945
    ],
    5
   ],
   [
    [
     -0.09087583916660691,
     3.812976247965649
    ],
    5
   ],
   [
    [
     2.4198695474659875,
     2.4747234500697024
    ],
    6
   ],
   [
    [
     -4.9819717951721785,
     1.3772012773603552
    ],
    5
   ],
   [
    [
     -0.763931136409937,
     2.210459517224397
    ],
    5
   ],
   [
    [
     -0.005404957268972055,
     3.7291317510548625
    ],
    5
   ],
   [
    [
     -3.6417190697598656,
     -5.083248855506762
    ],
    5
   ]
  ]
 },
 {
  "init_weights": [
   -95.4,
   3.0
  ],
  "results": [
   [
    [
     -2.9692736350151847,
     0.3050530773449994
    ],
    5
   ],
   [
    [
     -5.930978473650347,
     -4.103014796149553
    ],
    10
   ],
   [
    [
     -1.8416047568310514,
     4.25190062206581
    ],
    7
   ],
   [
    [
     0.4307768676005068,
     5.637137986136951
    ],
    5
   ],
   [
    [
     -0.013556845847944032,
     4.003407750056686
    ],
    5
   ],
   [
    [
     2.4416102837116114,
     2.441632807699622
    ],
    6
   ],
   [
    [
     -6.002940372902202,
     2.1292112294444077
    ],
    5
   ],
   [
    [
     -0.6666990658178236,
     2.334356437674034
    ],
    5
   ],
   [
    [
     0.0788687834405053,
     3.899159157888906
    ],
    5
   ],
   [
    [
     -4.234890793229226,
     -0.10500920574204563
    ],
    5
   ]
  ]
 },
 {
  "init_weights": [
   -95.2,
   3.0
  ],
  "results": [
   [
    [
     -2.8597426221870137,
     0.3426886882885005
    ],
    5
   ],
   [
    [
     -4.27540802413567,
     -3.3857359395536224
    ],
    7
   ],
   [
    [
     -5.700605108292947,
     0.960078540728702
    ],
    5
   ],
   [
    [
     0.41012293972430036,
     3.1752373306986437
    ],
    6
   ],
   [
    [
     0.06229453307713584,
     4.201196418557291
    ],
    5
   ],
   [
    [
     2.4629391881110063,
     2.4073274099213915
    ],
    6
   ],
   [
    [
     -6.025578648411688,
     2.3009265558811713
    ],
    5
   ],
   [
    [
     -0.5705821720128696,
     2.460337699102109
    ],
    5
   ],
   [
    [
     0.1606265657589887,
     4.076308944834814
    ],
    5
   ],
   [
    [
     -5.518746931865941,
     1.3149756389932248
    ],
    5
   ]
  ]
 },
 {
  "init_weights": [
   -95.0,
   3.0
  ],
  "results": [
   [
    [
     -2.7505971888710334,
     0.38269077322289635
    ],
    5
   ],
   [
    [
     -7.517005734304027,
     -4.201956922051719
    ],
    8
   ],
   [
    [
     -3.4720671653794923,
     -3.798712684815418
    ],
    5
   ],
   [
    [
     0.4360929206140927,
     2.721095287844288
    ],
    6
   ],
   [
    [
     0.13596351323219125,
     4.400353862363131
    ],
    5
   ],
   [
    [
     2.483734843373904,
     2.3757307230946423
    ],
    6
   ],
   [
    [
     -3.251028126997035,
     0.18769086412006347
    ],
    5
   ],
   [
    [
     -0.47658502078544984,
     2.592820242480716
    ],
    5
   ],
   [
    [
     0.23935239289253474,
     4.258115089338891
    ],
    5
   ],
   [
    [
     -5.352229608928646,
     4.4495617177752855
    ],
    6
   ]
  ]
 },
 {
  "init_weights": [
   -94.8,
   3.0
  ],
  "results": [
   [
    [
     -2.642133666550471,
     0.4246468791956992
    ],
    5
   ],
   [
    [
     2.3221128133042006,
     -4.667197161323541
    ],
    6
   ],
   [
    [
     -5.608823406279242,
     1.1885043314288066
    ],
    5
   ],
   [
    [
     0.4541577728287127,
     2.111102521374451
    ],
    6
   ],
   [
    [
     0.20588733656794744,
     4.609880154081782
    ],
    5
   ],
   [
    [
     2.504189197436867,
     2.343600586986069
    ],
    6
   ],
   [
    [
     -3.1822426973240283,
     0.46682487441030474
    ],
    5
   ],
   [
    [
     -0.38409928497858203,
     2.729270713559968
    ],
    5
   ],
   [
    [
     -6.7245084855503094,
     0.8716204496742548
    ],
    5
   ],
   [
    [
     -6.000918807673326,
     4.564754830242654
    ],
    6
   ]
  ]
 },
 {
  "init_weights": [
   -94.6,
   3.0
  ],
  "results": [
   [
    [
     -2.5348200739815,
     0.46794368062517194
    ],
    5
   ],
   [
    [
     -5.63900772879168,
     -3.8591746148252
    ],
    6
   ],
   [
    [
     -3.422224141012981,
     3.16169782667677
    ],
    7
   ],
   [
    [
     0.46608921176438634,
     1.4117333609545808
    ],
    6
   ],
   [
    [
     0.2737344473793826,
     4.822883037514086
    ],
    5
   ],
   [
    [
     2.524043761556131,
     2.311448387911911
    ],
    6
   ],
   [
    [
     -6.881392141992844,
     4.75663894814549
    ],
    6
   ],
   [
    [
     -0.2934720028483113,
     2.8723387886269416
    ],
    5
   ],
   [
    [
     -8.478591262464347,
     4.225685251163393
    ],
    6
   ],
   [
    [
     -5.421966088602787,
     1.7241099487350313
    ],
    5
   ]
  ]
 },
 {
  "init_weights": [
   -94.4,
   3.0
  ],
  "results": [
   [
    [
     -2.4279581141127977,
     0.5161592913929551
    ],
    5
   ],
   [
    [
     -7.927961197033945,
     -4.070692604829997
    ],
    11
   ],
   [
    [
     -7.703862129527746,
     3.1920287411169785
    ],
    8
   ],
   [
    [
     0.4765964935087028,
     0.7556827771866113
    ],
    6
   ],
   [
    [
     0.3391247972411975,
     5.040872971684653
    ],
    5
   ],
   [
    [
     2.5436374045621584,
     2.282444739552316
    ],
    6
   ],
   [
    [
     -5.070340030809753,
     2.6471335117900527
    ],
    5
   ],
   [
    [
     -0.20408417764302555,
     3.0173790124853506
    ],
    5
   ],
   [
    [
     -6.359004644714345,
     2.896920629427637
    ],
    6
   ],
   [
    [
     -3.272183244048726,
     -0.0035501764963728685
    ],
    5
   ]
  ]
 },
 {
  "init_weights": [
   -94.2,
   3.0
  ],
  "results": [
   [
    [
     -2.3211775168610416,
     0.5645932891678552
    ],
    5
   ],
   [
    [
     -7.6537157697627105,
     -4.062510296165131
    ],
    11
   ],
   [
    [
     -2.8209373965063946,
     -2.3607869870478457
    ],
    5
   ],
   [
    [
     0.49110800404253563,
     0.26883888279393187
    ],
    6
   ],
   [
    [
     0.40140811693141387,
     5.264952060162829
    ],
    5
   ],
   [
    [
     2.5625965402934767,
     2.2522421424603127
    ],
    6
   ],
   [
    [
     -6.973858651098169,
     4.127633313660622
    ],
    9
   ],
   [
    [
     -0.1171403623625551,
     3.167361198231461
    ],
    5
   ],
   [
    [
     -6.959065227020057,
     3.9678697988356064
    ],
    7
   ],
   [
    [
     -8.011913885309157,
     3.490156638844922
    ],
    9
   ]
  ]
 },
 {
  "init_weights": [
   -94.0,
   3.0
  ],
  "results": [
   [
    [
     -2.214726295202979,
     0.6158633847357368
    ],
    5
   ],
   [
    [
     NaN,
     NaN
    ],
    0
   ],
   [
    [
     -8.373703176431242,
     3.8200694990405424
    ],
    9
   ],
   [
    [
     -4.731609231374567,
     4.299150479664323
    ],
    6
   ],
   [
    [
     0.4614330068564456,
     5.493989929399539
    ],
    5
   ],
   [
    [
     2.5811815016536546,
     2.22385524296632
    ],
    6
   ],
   [
    [
     -1.7264862279101152,
     -0.9971886904343461
    ],
    5
   ],
   [
    [
     -0.0315671578414225,
     3.3243859882869073
    ],
    5
   ],
   [
    [
     -6.8941303740521604,
     2.833343871413251
    ],
    6
   ],
   [
    [
     -5.50474851676163,
     2.195394257305784
    ],
    5
   ]
  ]
 },
 {
  "init_weights": [
   -93.8,
   3.0
  ],
  "results": [
   [
    [
     -2.10938695283059,
     0.669402106228017
    ],
    5
   ],
   [
    [
     2.3013783503547955,
     -1.9002187942151183
    ],
    5
   ],
   [
    [
     -3.9313066229823903,
     0.8866863357176193
    ],
    5
   ],
   [
    [
     -6.273496358885323,
     -2.9641952050337554
    ],
    8
   ],
   [
    [
     0.5175215139977354,
     5.73162025707493
    ],
    5
   ],
   [
    [
     2.5993013625908983,
     2.1943109916066406
    ],
    6
   ],
   [
    [
     -8.260260271447109,
     4.281206164077793
    ],
    6
   ],
   [
    [
     0.05130364118794262,
     3.4833799331492137
    ],
    5
   ],
   [
    [
     -3.611214701124827,
     -2.9501169275753147
    ],
    6
   ],
   [
    [
     -5.645918275570239,
     2.3790948585153413
    ],
    5
   ]
  ]
 },
 {
  "init_weights": [
   -93.6,
   3.0
  ],
  "results": [
   [
    [
     -2.0051437915729977,
     0.72621102855482
    ],
    5
   ],
   [
    [
     NaN,
     NaN
    ],
    0
   ],
   [
    [
     -1.9818119610976905,
     1.1642597643027646
    ],
    8
   ],
   [
    [
     -4.690677592722032,
     0.8720810968822733
    ],
    5
   ],
   [
    [
     0.47446191548902306,
     2.8041359748723913
    ],
    6
   ],
   [
    [
     2.6170142376795376,
     2.16958390050147
    ],
    6
   ],
   [
    [
     -7.861837558971763,
     4.477854778086629
    ],
    6
   ],
   [
    [
     0.13307596948910572,
     3.6486686849621623
    ],
    5
   ],
   [
    [
     -5.630667036330962,
     1.0868153056827268
    ],
    5
   ],
   [
    [
     -3.672099811947092,
     1.582836746668321
    ],
    5
   ]
  ]
 },
 {
  "init_weights": [
   -93.4,
   3.0
  ],
  "results": [
   [
    [
     -1.901001303466721,
     0.7852974015840569
    ],
    5
   ],
   [
    [
     1.731624620362485,
     3.265814352655356
    ],
    12
   ],
   [
    [
     -5.554142678449061,
     2.0755990473253094
    ],
    5
   ],
   [
    [
     -8.01187375615798,
     3.6556923548600913
    ],
    9
   ],
   [
    [
     0.49327901644742583,
     2.254760282351303
    ],
    6
   ],
   [
    [
     2.63423749593988,
     2.1437977713744467
    ],
    6
   ],
   [
    [
     -7.151007189181847,
     4.689860467116146
    ],
    6
   ],
   [
    [
     0.21237532895683842,
     3.8163917987497755
    ],
    5
   ],
   [
    [
     -6.474918785320277,
     1.4926474136802903
    ],
    5
   ],
   [
    [
     -7.068506595888035,
     3.0116162628055743
    ],
    7
   ]
  ]
 },
 {
  "init_weights": [
   -93.2,
   3.0
  ],
  "results": [
   [
    [
     -1.797636673740726,
     0.8468041089618128
    ],
    5
   ],
   [
    [
     -3.5617642067062114,
     -3.5997525086355973
    ],
    11
   ],
   [
    [
     -6.615555936526199,
     2.364582926928623
    ],
    5
   ],
   [
    [
     -2.7899983746526757,
     -3.3362192199467513
    ],
    5
   ],
   [
    [
     0.5037235936878454,
     1.5863045445484643
    ],
    6
   ],
   [
    [
     2.6510912118566328,
     2.119340634620217
    ],
    6
   ],
   [
    [
     -5.540024294497741,
     3.9406801581962396
    ],
    5
   ],
   [
    [
     0.28910333821283274,
     3.992099675727821
    ],
    5
   ],
   [
    [
     -7.440341620103412,
     3.8052251063525744
    ],
    8
   ],
   [
    [
     3.6552515126927894,
     1.513648323125766
    ],
    8
   ]
  ]
 },
 {
  "init_weights": [
   -93.0,
   3.0
  ],
  "results": [
   [
    [
     -1.6953903219057835,
     0.9095096589099108
    ],
    5
   ],
   [
    [
     NaN,
     NaN
    ],
    0
   ],
   [
    [
     -5.7198098365034085,
     2.367558347885715
    ],
    5
   ],
   [
    [
     -5.111207482672473,
     4.407099113255657
    ],
    6
   ],
   [
    [
     0.5128214134989723,
     0.9228883042325364
    ],
    6
   ],
   [
    [
     2.6674706146191784,
     2.0952908829964167
    ],
    6
   ],
   [
    [
     -1.4685289448957448,
     1.1566436457553801
    ],
    5
   ],
   [
    [
     0.36361423574354745,
     4.171361882047406
    ],
    5
   ],
   [
    [
     -6.467242790265502,
     1.691113344026232
    ],
    5
   ],
   [
    [
     -8.162491362734594,
     -3.7526932150496077
    ],
    11
   ]
  ]
 },
 {
  "init_weights": [
   -92.8,
   3.0
  ],
  "results": [
   [
    [
     -1.5935038160393802,
     0.9770340411437304
    ],
    5
   ],
   [
    [
     5.195625477220059,
     -1.6924763423405014
    ],
    5
   ],
   [
    [
     -7.9161694951740085,
     3.1626670285208838
    ],
    9
   ],
   [
    [
     -5.752687114231991,
     4.523169944184378
    ],
    6
   ],
   [
    [
     0.5243455849170118,
     0.3875514803501483
    ],
    6
   ],
   [
    [
     2.6833309260323084,
     2.073019200294325
    ],
    6
   ],
   [
    [
     -3.298592575301697,
     3.536690068874428
    ],
    5
   ],
   [
    [
     0.43651845005645384,
     4.35409403720212
    ],
    5
   ],
   [
    [
     -5.5017110399541735,
     1.541459354502593
    ],
    5
   ],
   [
    [
     -3.682294789060741,
     2.4531166061456844
    ],
    5
   ]
  ]
 },
 {
  "init_weights": [
   -92.6,
   3.0
  ],
  "results": [
   [
    [
     -1.4929930783075918,
     1.0474740557141942
    ],
    5
   ],
   [
    [
     1.835905041001844,
     4.327316114236009
    ],
    7
   ],
   [
    [
     -6.287052364183763,
     4.658181896189117
    ],
    6
   ],
   [
    [
     -2.258621397815766,
     -2.596420940263094
    ],
    5
   ],
   [
    [
     0.541578544319455,
     0.07057782309383764
    ],
    6
   ],
   [
    [
     2.698826934308121,
     2.052719966502014
    ],
    6
   ],
   [
    [
     -6.223696653178543,
     4.587504498436343
    ],
    5
   ],
   [
    [
     0.5061820236171783,
     4.544295071315676
    ],
    5
   ],
   [
    [
     -6.244530846717454,
     4.004553887562693
    ],
    9
   ],
   [
    [
     -5.83295936169506,
     3.2834676691044167
    ],
    5
   ]
  ]
 },
 {
  "init_weights": [
   -92.4,
   3.0
  ],
  "results": [
   [
    [
     -1.393787496024295,
     1.1213027127728346
    ],
    5
   ],
   [
    [
     NaN,
     NaN
    ],
    0
   ],
   [
    [
     -7.014095501914239,
     4.775745900119155
    ],
    6
   ],
   [
    [
     -5.496280457060898,
     4.491034515971361
    ],
    6
   ],
   [
    [
     -7.9845660039216,
     3.22644964282951
    ],
    8
   ],
   [
    [
     2.713747436672328,
     2.033110086620504
    ],
    6
   ],
   [
    [
     -1.5591247826227033,
     2.5118091786672534
    ],
    5
   ],
   [
    [
     -5.177534904742971,
     2.863605297653309
    ],
    6
   ],
   [
    [
     -7.349360528403588,
     3.8390715868383922
    ],
    8
   ],
   [
    [
     -5.818634089107221,
     5.165835029012616
    ],
    9
   ]
  ]
 },
 {
  "init_weights": [
   -92.2,
   3.0
  ],
  "results": [
   [
    [
     -1.2951623121781708,
     1.1978821249467033
    ],
    5
   ],
   [
    [
     4.379484218947532,
     1.2644304788013807
    ],
    6
   ],
   [
    [
     -1.2436244458846635,
     -0.37718489708457614
    ],
    6
   ],
   [
    [
     -5.658405652802294,
     2.5741201835687906
    ],
    5
   ],
   [
    [
     -5.287145465387397,
     1.4221367529230753
    ],
    5
   ],
   [
    [
     2.728463601672132,
     2.0162450090285198
    ],
    6
   ],
   [
    [
     -6.148765996022604,
     4.97424370977163
    ],
    5
   ],
   [
    [
     -3.021019696933827,
     -1.3498124462980599
    ],
    7
   ],
   [
    [
     -5.508224725649548,
     1.9186016644128494
    ],
    5
   ],
   [
    [
     -5.929205438137796,
     5.288754783491846
    ],
    9
   ]
  ]
 },
 {
  "init_weights": [
   -92.0,
   3.0
  ],
  "results": [
   [
    [
     -1.1974283044059248,
     1.2766249667182208
    ],
    5
   ],
   [
    [
     -7.798264302544313,
     3.8607857528136806
    ],
    10
   ],
   [
    [
     -1.0460063536859268,
     -0.842516948227856
    ],
    6
   ],
   [
    [
     -1.6179582071761673,
     5.1399979258524455
    ],
    6
   ],
   [
    [
     -5.003796212083273,
     4.355663040809632
    ],
    6
   ],
   [
    [
     2.7425981463356184,
     1.9993545290287842
    ],
    6
   ],
   [
    [
     -7.686341584657419,
     3.0861769982958025
    ],
    7
   ],
   [
    [
     -2.3063436247293962,
     3.064831486674238
    ],
    7
   ],
   [
    [
     -5.716592215151939,
     4.505139822218288
    ],
    6
   ],
   [
    [
     -0.7832867640436163,
     -0.291243891554249
    ],
    5
   ]
  ]
 },
 {
  "init_weights": [
   -91.8,
   3.0
  ],
  "results": [
   [
    [
     -1.1001258519795556,
     1.3595567159948763
    ],
    5
   ],
   [
    [
     -8.500719781274618,
     3.9078695155820617
    ],
    10
   ],
   [
    [
     -7.2616431522486415,
     3.043722880806091
    ],
    8
   ],
   [
    [
     -7.6915165230167215,
     3.5212784723823027
    ],
    8
   ],
   [
    [
     -7.344270584530271,
     2.2068034417676965
    ],
    5
   ],
   [
    [
     2.7563426635231654,
     1.984271663843911
    ],
    6
   ],
   [
    [
     -4.719654254575147,
     -1.6285978395364877
    ],
    8
   ],
   [
    [
     1.301001640283617,
     1.062308572279992
    ],
    7
   ],
   [
    [
     -5.547214444006741,
     2.1772977413599226
    ],
    5
   ],
   [
    [
     -3.897701121530524,
     3.57596285098166
    ],
    5
   ]
  ]
 },
 {
  "init_weights": [
   -91.6,
   3.0
  ],
  "results": [
   [
    [
     -1.0052409839174175,
     1.445470284040428
    ],
    5
   ],
   [
    [
     -8.319774236617263,
     4.102208534461009
    ],
    10
   ],
   [
    [
     -1.0249316054824504,
     -0.29450324811729767
    ],
    5
   ],
   [
    [
     -8.00339987089401,
     3.7887878149083303
    ],
    6
   ],
   [
    [
     -7.40218131371833,
     2.3171515338800837
    ],
    5
   ],
   [
    [
     2.7695869077596136,
     1.9719675775061651
    ],
    6
   ],
   [
    [
     -5.1312942279594616,
     -1.9638315268361213
    ],
    6
   ],
   [
    [
     -4.027117053012191,
     0.027213857619852636
    ],
    5
   ],
   [
    [
     -2.52716680924042,
     0.15371885988445141
    ],
    5
   ],
   [
    [
     -1.610045670804368,
     2.1702414935170564
    ],
    5
   ]
  ]
 },
 {
  "init_weights": [
   -91.4,
   3.0
  ],
  "results": [
   [
    [
     -0.9103877089539907,
     1.5331123321037814
    ],
    5
   ],
   [
    [
     NaN,
     NaN
    ],
    0
   ],
   [
    [
     -7.5740760706024295,
     4.13914197935763
    ],
    7
   ],
   [
    [
     -1.5113490320639187,
     -0.6246355481099247
    ],
    5
   ],
   [
    [
     -4.3165550035864015,
     1.528568149510715
    ],
    5
   ],
   [
    [
     2.782350127698857,
     1.9619623559828838
    ],
    6
   ],
   [
    [
     -6.474855477473893,
     2.8088402590213226
    ],
    7
   ],
   [
    [
     -6.853785143452519,
     2.79512624548071
    ],
    6
   ],
   [
    [
     -6.656568993488435,
     4.673466996247679
    ],
    6
   ],
   [
    [
     -4.521189662554534,
     -3.202501834630951
    ],
    9
   ]
  ]
 },
 {
  "init_weights": [
   -91.2,
   3.0
  ],
  "results": [
   [
    [
     -0.8173460709522757,
     1.625965337693789
    ],
    5
   ],
   [
    [
     0.42215671028532853,
     -5.68728647956649
    ],
    4
   ],
   [
    [
     -7.59890620168126,
     2.639153626111179
    ],
    7
   ],
   [
    [
     -7.205828333614538,
     3.9090504539887747
    ],
    12
   ],
   [
    [
     -4.273168739774249,
     1.691766081960883
    ],
    5
   ],
   [
    [
     2.7947293747648185,
     1.9537758988564435
    ],
    6
   ],
   [
    [
     -5.729981036073225,
     -2.1629412248461897
    ],
    6
   ],
   [
    [
     -6.5536258373893475,
     2.7776964892058325
    ],
    6
   ],
   [
    [
     -7.381184461392589,
     2.6065183469540205
    ],
    7
   ],
   [
    [
     -4.242857778860228,
     4.9498293114811345
    ],
    6
   ]
  ]
 },
 {
  "init_weights": [
   -91.0,
   3.0
  ],
  "results": [
   [
    [
     -0.7256873833845248,
     1.721603413546049
    ],
    5
   ],
   [
    [
     NaN,
     NaN
    ],
    0
   ],
   [
    [
     -7.1545485016952135,
     3.7854326367306155
    ],
    7
   ],
   [
    [
     -7.8495161668188596,
     3.926478744287217
    ],
    12
   ],
   [
    [
     -5.697403881770603,
     4.507080710664683
    ],
    6
   ],
   [
    [
     2.806737303678286,
     1.9462021108603014
    ],
    6
   ],
   [
    [
     -6.314202166584114,
     -2.1326179584600284
    ],
    6
   ],
   [
    [
     -5.086767976912597,
     1.392902385131019
    ],
    5
   ],
   [
    [
     -1.8767875418940179,
     -0.01849875734040541
    ],
    5
   ],
   [
    [
     -2.7748635023953057,
     3.9660278440769483
    ],
    6
   ]
  ]
 },
 {
  "init_weights": [
   -90.8,
   3.0
  ],
  "results": [
   [
    [
     -0.634532675784186,
     1.8205602013418825
    ],
    5
   ],
   [
    [
     -8.013412917637163,
     3.9067248985834713
    ],
    12
   ],
   [
    [
     -7.801284077067708,
     3.8860541664886
    ],
    7
   ],
   [
    [
     -5.019097440098392,
     3.5787726231593244
    ],
    5
   ],
   [
    [
     -4.269026112998688,
     2.0690353935219283
    ],
    5
   ],
   [
    [
     2.8182308007282195,
     1.9427361048994691
    ],
    6
   ],
   [
    [
     -4.403456479799722,
     1.2336714906295045
    ],
    7
   ],
   [
    [
     -2.685860035273387,
     2.2266000055479482
    ],
    7
   ],
   [
    [
     -6.816304197292581,
     2.880092908401097
    ],
    5
   ],
   [
    [
     -0.6890642695701104,
     2.2459892864167834
    ],
    5
   ]
  ]
 },
 {
  "init_weights": [
   -90.6,
   3.0
  ],
  "results": [
   [
    [
     -0.545199771224425,
     1.9244582592212724
    ],
    5
   ],
   [
    [
     -8.13524954555496,
     3.804785726224617
    ],
    12
   ],
   [
    [
     -7.286945149086651,
     3.6603385357113694
    ],
    7
   ],
   [
    [
     -6.602545339633824,
     4.614963343421473
    ],
    6
   ],
   [
    [
     -5.847360982550075,
     4.5505786040018394
    ],
    6
   ],
   [
    [
     -4.23281628780682,
     -0.06761647587311986
    ],
    5
   ],
   [
    [
     1.7336281326399288,
     -0.12624097531571188
    ],
    5
   ],
   [
    [
     -2.274834066313403,
     -3.0253074551506627
    ],
    5
   ],
   [
    [
     -3.06585945903808,
     2.0758452649263077
    ],
    5
   ],
   [
    [
     -7.1405627169046895,
     4.747536713565113
    ],
    5
   ]
  ]
 },
 {
  "init_weights": [
   -90.4,
   3.0
  ],
  "results": [
   [
    [
     -0.45634006912779057,
     2.0306567811290135
    ],
    5
   ],
   [
    [
     -5.567290740625348,
     -3.0090162168667236
    ],
    5
   ],
   [
    [
     1.9508233080253756,
     3.3764910694207773
    ],
    11
   ],
   [
    [
     -0.29348084068181635,
     -2.136280740047182
    ],
    5
   ],
   [
    [
     -4.602935024922688,
     3.2389324559763164
    ],
    11
   ],
   [
    [
     -4.131628942904101,
     -0.05846867417192459
    ],
    5
   ],
   [
    [
     1.81748497834878,
     -2.7975172325899678
    ],
    5
   ],
   [
    [
     -5.15804423292424,
     1.7889400243140656
    ],
    5
   ],
   [
    [
     -3.8558541577194774,
     2.710500284985961
    ],
    5
   ],
   [
    [
     1.008280511901006,
     -3.213005007349579
    ],
    5
   ]
  ]
 },
 {
  "init_weights": [
   -90.2,
   3.0
  ],
  "results": [
   [
    [
     -0.369197549897045,
     2.140460037483857
    ],
    5
   ],
   [
    [
     NaN,
     NaN
    ],
    0
   ],
   [
    [
     -7.132459979254606,
     -3.9580610452963922
    ],
    11
   ],
   [
    [
     -7.840874345105533,
     3.556976531668423
    ],
    7
   ],
   [
    [
     -1.472134535573467,
     -1.0929613170446937
    ],
    5
   ],
   [
    [
     -4.029263248301724,
     -0.05050523889361554
    ],
    5
   ],
   [
    [
     -0.724327446130971,
     5.534793650364832
    ],
    5
   ],
   [
    [
     -3.5381734176764468,
     1.0617922300823663
    ],
    5
   ],
   [
    [
     -7.381732356672757,
     4.832188863857482
    ],
    6
   ],
   [
    [
     -2.936734487708822,
     1.351323118309749
    ],
    7
   ]
  ]
 },
 {
  "init_weights": [
   -90.0,
   3.0
  ],
  "results": [
   [
    [
     -0.28418226342989783,
     2.2546092819361254
    ],
    5
   ],
   [
    [
     5.243198896725467,
     1.0579366804193135
    ],
    5
   ],
   [
    [
     -6.9529487270538795,
     4.34393729278983
    ],
    5
   ],
   [
    [
     -7.2809454267060705,
     4.056052726903756
    ],
    9
   ],
   [
    [
     -7.63119759183327,
     3.5298555879963964
    ],
    8
   ],
   [
    [
     -3.928443937567806,
     -0.040341739120791045
    ],
    5
   ],
   [
    [
     -6.316891194886948,
     -3.6475579905275852
    ],
    7
   ],
   [
    [
     -6.106527176478437,
     2.190399295167555
    ],
    5
   ],
   [
    [
     -6.075253144045552,
     3.369673729925793
    ],
    11
   ],
   [
    [
     -5.174765202609788,
     4.10817627529799
    ],
    8
   ]
  ]
 },
 {
  "init_weights": [
   -89.8,
   3.0
  ],
  "results": [
   [
    [
     -0.20003664005224664,
     2.3723801115346665
    ],
    5
   ],
   [
    [
     -3.5340481691880843,
     4.355056712710002
    ],
    12
   ],
   [
    [
     -0.9566668108974596,
     3.0067474510875685
    ],
    5
   ],
   [
    [
     -1.412089851884538,
     2.570058122064081
    ],
    5
   ],
   [
    [
     -7.799844318023673,
     3.550547766290607
    ],
    8
   ],
   [
    [
     -3.8268800863114905,
     -0.029052719757823572
    ],
    5
   ],
   [
    [
     -3.180931511657762,
     1.6295986999884047
    ],
    6
   ],
   [
    [
     -3.476076053067551,
     1.4003557253526278
    ],
    5
   ],
   [
    [
     -1.0087234850886375,
     0.5521310936284793
    ],
    5
   ],
   [
    [
     -4.320223111651481,
     -4.682901410223654
    ],
    6
   ]
  ]
 },
 {
  "init_weights": [
   -89.6,
   3.0
  ],
  "results": [
   [
    [
     -0.1180046916911408,
     2.4956635995694514
    ],
    5
   ],
   [
    [
     NaN,
     NaN
    ],
    0
   ],
   [
    [
     1.027586362832622,
     -5.565451581766563
    ],
    5
   ],
   [
    [
     -1.4793665049414813,
     2.9784675111092036
    ],
    5
   ],
   [
    [
     -2.6289767872931975,
     2.196437645182721
    ],
    5
   ],
   [
    [
     -3.7263551143141314,
     -0.01767671663558442
    ],
    5
   ],
   [
    [
     1.766716146688914,
     -0.0006777385065337427
    ],
    6
   ],
   [
    [
     -5.552449076717765,
     4.482200253288911
    ],
    6
   ],
   [
    [
     -2.4094629764471236,
     2.7033654946521724
    ],
    5
   ],
   [
    [
     -2.697473009268684,
     5.707061625759102
    ],
    5
   ]
  ]
 },
 {
  "init_weights": [
   -89.4,
   3.0
  ],
  "results": [
   [
    [
     -0.036908448416440365,
     2.6191791423015616
    ],
    5
   ],
   [
    [
     -3.7565922300369756,
     4.389756593037373
    ],
    12
   ],
   [
    [
     1.1925984032738342,
     -4.952586092911286
    ],
    5
   ],
   [
    [
     -1.5631870093142481,
     3.3844171805891468
    ],
    5
   ],
   [
    [
     -4.726158308631874,
     3.4852290229686527
    ],
    5
   ],
   [
    [
     -3.6247203834566406,
     -0.0056622363183718855
    ],
    5
   ],
   [
    [
     -7.913555557593626,
     3.8850780940424006
    ],
    7
   ],
   [
    [
     -5.189181472717884,
     2.408283388747289
    ],
    5
   ],
   [
    [
     -8.230240571063208,
     3.0996550653975463
    ],
    7
   ],
   [
    [
     1.183708842345853,
     0.014573545744570815
    ],
    6
   ]
  ]
 },
 {
  "init_weights": [
   -89.2,
   3.0
  ],
  "results": [
   [
    [
     0.04254860457630372,
     2.7507615952693314
    ],
    5
   ],
   [
    [
     5.027681722374469,
     -1.2395476945047486
    ],
    5
   ],
   [
    [
     -7.389426587080976,
     4.826771726748386
    ],
    5
   ],
   [
    [
     -6.271540152278355,
     5.056033529725482
    ],
    5
   ],
   [
    [
     -2.076473491786757,
     2.1806939196208504
    ],
    5
   ],
   [
    [
     -3.524201029888097,
     0.008879800780157474
    ],
    5
   ],
   [
    [
     1.7765783305004348,
     3.4093988815862994
    ],
    5
   ],
   [
    [
     -6.270596089812443,
     2.626208350152381
    ],
    5
   ],
   [
    [
     -6.960797543611216,
     -1.174215755140605
    ],
    7
   ],
   [
    [
     -5.755429384802419,
     -1.9537453797103712
    ],
    6
   ]
  ]
 },
 {
  "init_weights": [
   -89.0,
   3.0
  ],
  "results": [
   [
    [
     0.11972662480966534,
     2.883958559194732
    ],
    5
   ],
   [
    [
     4.98105503748382,
     3.8467129956521458
    ],
    5
   ],
   [
    [
     -8.383599528639257,
     4.067814615895018
    ],
    8
   ],
   [
    [
     0.07160119267528842,
     1.5866513021048791
    ],
    5
   ],
   [
    [
     -5.203370218190566,
     4.730972960803568
    ],
    6
   ],
   [
    [
     -3.4238211948294364,
     0.023740117315829118
    ],
    5
   ],
   [
    [
     -4.608405077616698,
     -1.3852008919869778
    ],
    7
   ],
   [
    [
     -7.671816871798262,
     3.393588757317186
    ],
    8
   ],
   [
    [
     -4.223011742097938,
     4.039362113859069
    ],
    5
   ],
   [
    [
     1.3200521835048917,
     1.8836851665959409
    ],
    5
   ]
  ]
 },
 {
  "init_weights": [
   -88.8,
   3.0
  ],
  "results": [
   [
    [
     0.1959303250749045,
     3.0214083614089398
    ],
    5
   ],
   [
    [
     -8.55845471558198,
     3.8116757507774643
    ],
    12
   ],
   [
    [
     -2.7758990908653516,
     5.535057132108161
    ],
    5
   ],
   [
    [
     -4.31480925281849,
     -4.014155343150195
    ],
    6
   ],
   [
    [
     -6.005421280789142,
     1.663433437648803
    ],
    7
   ],
   [
    [
     -3.3245294120158704,
     0.04081255326213079
    ],
    5
   ],
   [
    [
     2.7317172963708174,
     0.7523326325276289
    ],
    5
   ],
   [
    [
     -1.103084873644164,
     -1.0188717294975427
    ],
    5
   ],
   [
    [
     -2.6404744990260127,
     3.762295712034827
    ],
    5
   ],
   [
    [
     -3.322584903405181,
     3.8607241439449402
    ],
    6
   ]
  ]
 },
 {
  "init_weights": [
   -88.6,
   3.0
  ],
  "results": [
   [
    [
     0.2701237297143422,
     3.1643461555035493
    ],
    5
   ],
   [
    [
     -0.9233241236974337,
     4.266190769393351
    ],
    12
   ],
   [
    [
     -2.915094054055899,
     5.807550118325812
    ],
    5
   ],
   [
    [
     -5.035880270680886,
     5.28400851514764
    ],
    6
   ],
   [
    [
     -1.9789902978407454,
     2.937625257812415
    ],
    5
   ],
   [
    [
     -3.2243259137712883,
     0.05680884168554347
    ],
    5
   ],
   [
    [
     -4.306884988494637,
     4.796778407379787
    ],
    9
   ],
   [
    [
     -0.7649865586664197,
     -2.1309755344805517
    ],
    6
   ],
   [
    [
     -6.92036916333813,
     4.2422685487745015
    ],
    5
   ],
   [
    [
     -8.502409221791973,
     -3.6784099611016137
    ],
    10
   ]
  ]
 },
 {
  "init_weights": [
   -88.4,
   3.0
  ],
  "results": [
   [
    [
     0.3424155862488121,
     3.309951098695412
    ],
    5
   ],
   [
    [
     -8.468302606465485,
     3.9174449720997924
    ],
    9
   ],
   [
    [
     -6.98534803789642,
     3.7318039216386505
    ],
    9
   ],
   [
    [
     -2.925844243707523,
     5.629118991060555
    ],
    6
   ],
   [
    [
     0.6925002825154802,
     -0.6886562801215739
    ],
    7
   ],
   [
    [
     -3.124726827374758,
     0.07597770172907123
    ],
    5
   ],
   [
    [
     -6.874358865891761,
     -4.135133523147456
    ],
    11
   ],
   [
    [
     -1.4982974449977888,
     0.8490481872598004
    ],
    5
   ],
   [
    [
     -2.8054421320561147,
     4.280587515243106
    ],
    5
   ],
   [
    [
     -4.063597754569565,
     2.645835470043423
    ],
    6
   ]
  ]
 },
 {
  "init_weights": [
   -88.2,
   3.0
  ],
  "results": [
   [
    [
     0.41347195450642005,
     3.4596066186523347
    ],
    5
   ],
   [
    [
     -4.845595077186642,
     3.530786013889777
    ],
    9
   ],
   [
    [
     -2.815537078094448,
     -0.5243913441526571
    ],
    7
   ],
   [
    [
     1.568430093817767,
     -3.774785987145341
    ],
    5
   ],
   [
    [
     -8.206826189400246,
     4.312309738717467
    ],
    9
   ],
   [
    [
     -3.0268031656567373,
     0.09499406700747628
    ],
    5
   ],
   [
    [
     -7.156025332632289,
     2.346541049826853
    ],
    7
   ],
   [
    [
     -0.8816969945430841,
     -0.09762965730477868
    ],
    5
   ],
   [
    [
     0.8604426653674153,
     -1.5453901304927047
    ],
    5
   ],
   [
    [
     -3.8678967736433267,
     1.7084056063285518
    ],
    6
   ]
  ]
 },
 {
  "init_weights": [
   -88.0,
   3.0
  ],
  "results": [
   [
    [
     0.48172681956690155,
     3.615663625474717
    ],
    5
   ],
   [
    [
     2.5828097594457518,
     3.765491709679451
    ],
    5
   ],
   [
    [
     -4.957951530277469,
     -5.383054177530607
    ],
    6
   ],
   [
    [
     -6.0354143835510925,
     -1.93224688071638
    ],
    6
   ],
   [
    [
     -7.090761616830414,
     3.1372201168106457
    ],
    7
   ],
   [
    [
     -2.928327091061618,
     0.11705499863284516
    ],
    5
   ],
   [
    [
     -7.016136298952809,
     -4.236133360022481
    ],
    10
   ],
   [
    [
     -8.03337393262128,
     4.147097092600447
    ],
    10
   ],
   [
    [
     -6.86050827655333,
     5.0952108335715085
    ],
    9
   ],
   [
    [
     -1.8825981027565728,
     1.125908528079016
    ],
    6
   ]
  ]
 },
 {
  "init_weights": [
   -87.8,
   3.0
  ],
  "results": [
   [
    [
     -3.4078389182531694,
     -3.7730204182336706
    ],
    5
   ],
   [
    [
     1.1567215277118272,
     -1.963793728474534
    ],
    5
   ],
   [
    [
     2.000086359239978,
     1.5150296638014917
    ],
    6
   ],
   [
    [
     2.1729697114157958,
     -5.6304266047666145
    ],
    5
   ],
   [
    [
     -3.2830898465234313,
     4.715798225076323
    ],
    5
   ],
   [
    [
     -2.830503721528963,
     0.13978391450578198
    ],
    5
   ],
   [
    [
     -4.605996863665965,
     -3.999886268601499
    ],
    11
   ],
   [
    [
     -3.6387988658115233,
     3.2336285255368913
    ],
    5
   ],
   [
    [
     -5.910361175135584,
     4.999859660704476
    ],
    5
   ],
   [
    [
     -4.54605778892412,
     0.6703277453380538
    ],
    6
   ]
  ]
 },
 {
  "init_weights": [
   -87.6,
   3.0
  ],
  "results": [
   [
    [
     -5.5829937076089555,
     3.764593898489724
    ],
    6
   ],
   [
    [
     -4.872046902714626,
     -4.142660624603063
    ],
    6
   ],
   [
    [
     -6.861550543118341,
     2.998632807356917
    ],
    7
   ],
   [
    [
     1.896838622048378,
     -1.0524782334527645
    ],
    5
   ],
   [
    [
     0.16096924828314485,
     1.4254964046570855
    ],
    5
   ],
   [
    [
     -2.732631740673682,
     0.16263472370476084
    ],
    5
   ],
   [
    [
     -7.797138340567601,
     3.32898799569573
    ],
    7
   ],
   [
    [
     -0.11481975955609627,
     -1.128577553339679
    ],
    6
   ],
   [
    [
     -6.801483873289124,
     -5.26459657553099
    ],
    5
   ],
   [
    [
     -4.4276909049682365,
     0.16782176263794213
    ],
    6
   ]
  ]
 },
 {
  "init_weights": [
   -87.4,
   3.0
  ],
  "results": [
   [
    [
     -5.973781473527468,
     3.50264326615002
    ],
    6
   ],
   [
    [
     -6.178922343204526,
     -2.7307265949762787
    ],
    11
   ],
   [
    [
     1.796417242575309,
     2.387052810244753
    ],
    5
   ],
   [
    [
     -3.039881765582564,
     3.206738613972668
    ],
    6
   ],
   [
    [
     1.8445098394489938,
     -0.06223637285531236
    ],
    6
   ],
   [
    [
     -2.635584924378392,
     0.18937584335448257
    ],
    5
   ],
   [
    [
     1.753334127691423,
     0.49623817254341596
    ],
    6
   ],
   [
    [
     -7.4865406011951166,
     4.1690973647922105
    ],
    6
   ],
   [
    [
     -5.042315126755981,
     -0.8810379947035429
    ],
    8
   ],
   [
    [
     2.3787091788102117,
     2.835758006803714
    ],
    5
   ]
  ]
 },
 {
  "init_weights": [
   -87.2,
   3.0
  ],
  "results": [
   [
    [
     -4.850771057158888,
     2.9651861234996804
    ],
    6
   ],
   [
    [
     -0.7495122757469161,
     3.257440780892637
    ],
    11
   ],
   [
    [
     -8.143002030154072,
     3.4503139596034798
    ],
    7
   ],
   [
    [
     -6.674115355447882,
     4.182038645306463
    ],
    6
   ],
   [
    [
     -8.351061979113199,
     3.808612072900523
    ],
    7
   ],
   [
    [
     -2.5388545855893483,
     0.21501241905435955
    ],
    5
   ],
   [
    [
     3.4548114629129323,
     0.6408915411694834
    ],
    8
   ],
   [
    [
     0.10144678742043078,
     -0.44163543747133804
    ],
    6
   ],
   [
    [
     -3.8774295169330912,
     5.759186542037643
    ],
    5
   ],
   [
    [
     -4.741222974232082,
     -0.4946715139771962
    ],
    7
   ]
  ]
 },
 {
  "init_weights": [
   -87.0,
   3.0
  ],
  "results": [
   [
    [
     -4.913567377957378,
     1.152867135441699
    ],
    5
   ],
   [
    [
     -0.9935661347550173,
     4.049276667701048
    ],
    11
   ],
   [
    [
     1.6176954261172654,
     3.9006243485966374
    ],
    5
   ],
   [
    [
     -6.892105307416437,
     3.922806660717509
    ],
    6
   ],
   [
    [
     -4.909747071979575,
     -1.8821417558338638
    ],
    6
   ],
   [
    [
     -2.4435830834254446,
     0.24450014280480997
    ],
    5
   ],
   [
    [
     -8.427070983763098,
     -4.132110227795632
    ],
    8
   ],
   [
    [
     -2.2833490740690365,
     3.4415479721268287
    ],
    5
   ],
   [
    [
     -3.094697366349372,
     -1.6344151235376492
    ],
    6
   ],
   [
    [
     -7.035218559069525,
     -3.5196832614367652
    ],
    10
   ]
  ]
 },
 {
  "init_weights": [
   -86.8,
   3.0
  ],
  "results": [
   [
    [
     -3.358484747145674,
     0.24508872057573627
    ],
    5
   ],
   [
    [
     -7.460257234293442,
     -4.092176313712167
    ],
    10
   ],
   [
    [
     -0.01766086808618275,
     2.5602476776520433
    ],
    6
   ],
   [
    [
     -7.1088817159136335,
     3.633883691898934
    ],
    6
   ],
   [
    [
     -5.404783807736621,
     -1.8879319678411042
    ],
    6
   ],
   [
    [
     -2.347856664797014,
     0.274396600689281
    ],
    5
   ],
   [
    [
     NaN,
     NaN
    ],
    0
   ],
   [
    [
     -6.066323093930009,
     4.107910386580914
    ],
    5
   ],
   [
    [
     -4.5050411268537545,
     -5.184833507699439
    ],
    6
   ],
   [
    [
     -3.4366159457280556,
     -4.9283703570300705
    ],
    6
   ]
  ]
 },
 {
  "init_weights": [
   -86.6,
   3.0
  ],
  "results": [
   [
    [
     -7.450825855517005,
     4.132310058962556
    ],
    6
   ],
   [
    [
     -8.328274795975226,
     4.161126674322543
    ],
    12
   ],
   [
    [
     -4.609973783285363,
     0.7413028537227007
    ],
    6
   ],
   [
    [
     -7.322153186335806,
     3.320555828832358
    ],
    6
   ],
   [
    [
     1.6999801564486177,
     -3.033966922120488
    ],
    5
   ],
   [
    [
     -2.2528442857304967,
     0.30682183490679443
    ],
    5
   ],
   [
    [
     3.2961014727031333,
     -0.02319163355100251
    ],
    6
   ],
   [
    [
     -4.531129049039378,
     -4.100108939873762
    ],
    9
   ],
   [
    [
     -4.857708568448,
     2.0249437061931723
    ],
    7
   ],
   [
    [
     -6.159572542634606,
     -1.0847043898957573
    ],
    4
   ]
  ]
 },
 {
  "init_weights": [
   -86.4,
   3.0
  ],
  "results": [
   [
    [
     -8.077645229134543,
     3.4997302651707156
    ],
    6
   ],
   [
    [
     -8.327665683973812,
     3.8549022914488473
    ],
    11
   ],
   [
    [
     -5.440654469273764,
     1.151960545337067
    ],
    6
   ],
   [
    [
     2.6029176834399976,
     0.2353102921689632
    ],
    5
   ],
   [
    [
     -2.1929536024485716,
     -5.6846138139301745
    ],
    6
   ],
   [
    [
     -2.1581436197500636,
     0.33893752110255226
    ],
    5
   ],
   [
    [
     -7.509138510653333,
     -3.4200473195674137
    ],
    8
   ],
   [
    [
     -7.945378752278387,
     4.5621663661948935
    ],
    6
   ],
   [
    [
     -5.2179155776110955,
     -4.9910355149521415
    ],
    6
   ],
   [
    [
     1.0095544083964727,
     0.033122685564259235
    ],
    6
   ]
  ]
 },
 {
  "init_weights": [
   -86.2,
   3.0
  ],
  "results": [
   [
    [
     -8.062610691643068,
     3.2654976292342512
    ],
    6
   ],
   [
    [
     1.4946580263953635,
     3.342743434764352
    ],
    5
   ],
   [
    [
     -6.100479113385152,
     -0.6186837096330811
    ],
    6
   ],
   [
    [
     -7.738718797517253,
     2.6656812073446723
    ],
    6
   ],
   [
    [
     -0.4906829914358468,
     5.1615188717670675
    ],
    5
   ],
   [
    [
     -2.0644532927992927,
     0.3743750527491416
    ],
    5
   ],
   [
    [
     -6.503728390893339,
     1.3276255772795729
    ],
    6
   ],
   [
    [
     -0.9212471615188136,
     3.364813752309321
    ],
    5
   ],
   [
    [
     -7.672986092542106,
     -3.3562329178859005
    ],
    10
   ],
   [
    [
     -7.577506611387248,
     2.111492287324454
    ],
    6
   ]
  ]
 },
 {
  "init_weights": [
   -86.0,
   3.0
  ],
  "results": [
   [
    [
     -5.846599724029652,
     1.7216603219387072
    ],
    5
   ],
   [
    [
     NaN,
     NaN
    ],
    0
   ],
   [
    [
     -4.813953854259064,
     5.2567919508916816e-05
    ],
    6
   ],
   [
    [
     -4.086177349453116,
     -2.2470888883656137
    ],
    7
   ],
   [
    [
     -2.283777443722687,
     3.6373640252318626
    ],
    6
   ],
   [
    [
     -1.9719866143973164,
     0.4120507977827583
    ],
    5
   ],
   [
    [
     -3.9757125439015475,
     -2.1763176674774893
    ],
    8
   ],
   [
    [
     -0.9884034721469277,
     3.7138013939101002
    ],
    5
   ],
   [
    [
     -5.6890955874376745,
     -5.2365317353732
    ],
    6
   ],
   [
    [
     -5.350485641630382,
     -3.71568930696863
    ],
    7
   ]
  ]
 },
 {
  "init_weights": [
   -85.8,
   3.0
  ],
  "results": [
   [
    [
     -2.4667806231288765,
     0.15712531801695437
    ],
    5
   ],
   [
    [
     -8.035085931560685,
     -4.092195950221397
    ],
    12
   ],
   [
    [
     -6.520988529882035,
     -2.1750955057189123
    ],
    7
   ],
   [
    [
     -5.546120185806618,
     -1.07812832456613
    ],
    7
   ],
   [
    [
     -5.454483669423019,
     -0.776601645262609
    ],
    7
   ],
   [
    [
     -1.879480011497968,
     0.4511580969748373
    ],
    5
   ],
   [
    [
     NaN,
     NaN
    ],
    0
   ],
   [
    [
     -0.6389127885207557,
     3.6415666963564637
    ],
    5
   ],
   [
    [
     -7.873677479827283,
     -3.4476547088945773
    ],
    10
   ],
   [
    [
     -7.505705091708071,
     -3.8993158081395345
    ],
    10
   ]
  ]
 },
 {
  "init_weights": [
   -85.6,
   3.0
  ],
  "results": [
   [
    [
     -6.4796899547055276,
     2.9124794702235888
    ],
    6
   ],
   [
    [
     -3.4615491064492545,
     3.704950637558195
    ],
    4
   ],
   [
    [
     -7.35852981043401,
     -4.749052446662842
    ],
    6
   ],
   [
    [
     -2.118870309438444,
     -2.8135265278240933
    ],
    9
   ],
   [
    [
     -1.0603462306060012,
     3.3069362267158198
    ],
    6
   ],
   [
    [
     -1.7871340769349615,
     0.4916681574377946
    ],
    5
   ],
   [
    [
     -7.969790705757994,
     -3.8063483277345886
    ],
    11
   ],
   [
    [
     -7.017630763961982,
     4.756434815445604
    ],
    5
   ],
   [
    [
     -6.6464832192236045,
     -4.816123599782329
    ],
    9
   ],
   [
    [
     3.796886735547357,
     -1.5469597780712545
    ],
    5
   ]
  ]
 },
 {
  "init_weights": [
   -85.4,
   3.0
  ],
  "results": [
   [
    [
     -4.94513304269001,
     1.8869922066186369
    ],
    5
   ],
   [
    [
     -6.141697211185584,
     4.481940743658658
    ],
    8
   ],
   [
    [
     -2.675804898752066,
     0.35765862441739577
    ],
    6
   ],
   [
    [
     -6.128433999155006,
     -4.435495660036863
    ],
    7
   ],
   [
    [
     -1.288415050070765,
     2.1645135826260677
    ],
    6
   ],
   [
    [
     -1.6968406083499161,
     0.5352931791017149
    ],
    5
   ],
   [
    [
     -8.19152463854389,
     -3.6296027235755584
    ],
    6
   ],
   [
    [
     1.60555214193149,
     -2.229037288374168
    ],
    5
   ],
   [
    [
     -0.1621050817888965,
     2.558301937904438
    ],
    6
   ],
   [
    [
     -7.194971163127045,
     2.961291493349046
    ],
    7
   ]
  ]
 },
 {
  "init_weights": [
   -85.2,
   3.0
  ],
  "results": [
   [
    [
     -6.75441372568131,
     2.9602325716276683
    ],
    6
   ],
   [
    [
     1.0961259390685463,
     2.6703014539930297
    ],
    7
   ],
   [
    [
     3.520533435789858,
     -2.873304376104834
    ],
    5
   ],
   [
    [
     2.5504188893046233,
     4.522382860852639
    ],
    5
   ],
   [
    [
     1.719855359720654,
     3.302852182242427
    ],
    5
   ],
   [
    [
     -1.6065576442929483,
     0.5805565705315018
    ],
    5
   ],
   [
    [
     -6.805368254335841,
     -2.6796209824228248
    ],
    8
   ],
   [
    [
     -2.6448609322590357,
     5.56582764139633
    ],
    5
   ],
   [
    [
     -5.275199805422373,
     -4.056530747916961
    ],
    6
   ],
   [
    [
     -7.324926994631274,
     -2.9578081914186547
    ],
    7
   ]
  ]
 },
 {
  "init_weights": [
   -85.0,
   3.0
  ],
  "results": [
   [
    [
     -5.0102470525865,
     2.0819353913750307
    ],
    5
   ],
   [
    [
     -4.5774675559590525,
     3.8747179829254104
    ],
    5
   ],
   [
    [
     3.597600549572764,
     -1.9860915063999582
    ],
    5
   ],
   [
    [
     -1.6021902110805275,
     -3.1577494171954887
    ],
    8
   ],
   [
    [
     -1.5636503518085887,
     0.3775254058003146
    ],
    7
   ],
   [
    [
     -1.5173454180308283,
     0.6264534373842665
    ],
    5
   ],
   [
    [
     -6.033549816390512,
     3.103997831996865
    ],
    10
   ],
   [
    [
     1.0560461434925372,
     2.1394331337038044
    ],
    5
   ],
   [
    [
     -4.484733043726341,
     0.43831964347870844
    ],
    6
   ],
   [
    [
     -4.636304480857672,
     -1.5458873494765215
    ],
    6
   ]
  ]
 },
 {
  "init_weights": [
   -84.8,
   3.0
  ],
  "results": [
   [
    [
     -7.571216840036493,
     3.035470563588859
    ],
    6
   ],
   [
    [
     -7.671976912548233,
     -3.761885144157813
    ],
    11
   ],
   [
    [
     3.640955588721905,
     -0.5469197379091306
    ],
    5
   ],
   [
    [
     -7.132677411676814,
     -5.0225812713098685
    ],
    6
   ],
   [
    [
     -7.036251357225659,
     -2.615446334696501
    ],
    6
   ],
   [
    [
     -1.4283050346780755,
     0.6772216804108551
    ],
    5
   ],
   [
    [
     -5.731416658208555,
     -4.939328247799897
    ],
    12
   ],
   [
    [
     -1.2465925299498082,
     5.513327407136828
    ],
    6
   ],
   [
    [
     -4.856025877186523,
     0.3287183488136165
    ],
    6
   ],
   [
    [
     -6.031365967786931,
     -4.305393156276631
    ],
    12
   ]
  ]
 },
 {
  "init_weights": [
   -84.6,
   3.0
  ],
  "results": [
   [
    [
     -1.3349955285032848,
     -0.22012888574229864
    ],
    5
   ],
   [
    [
     -5.171596695221012,
     -3.9366312478759635
    ],
    5
   ],
   [
    [
     -6.6029464189462725,
     -1.0387697224401942
    ],
    7
   ],
   [
    [
     -7.284696119230713,
     -3.9449501938055653
    ],
    9
   ],
   [
    [
     -7.985474621642693,
     3.140417322596514
    ],
    6
   ],
   [
    [
     -1.3402852618437961,
     0.7280637349776395
    ],
    5
   ],
   [
    [
     -8.311993990900664,
     -3.950290570927007
    ],
    6
   ],
   [
    [
     -4.495944423780791,
     -4.953503034631557
    ],
    6
   ],
   [
    [
     1.1921560131995936,
     2.6022236016231743
    ],
    6
   ],
   [
    [
     2.834179715561512,
     0.2884339664296105
    ],
    6
   ]
  ]
 },
 {
  "init_weights": [
   -84.4,
   3.0
  ],
  "results": [
   [
    [
     -3.470311991280397,
     2.107651504742014
    ],
    5
   ],
   [
    [
     0.38636308764911576,
     4.0231465798028045
    ],
    4
   ],
   [
    [
     1.1248749485836065,
     4.097116449602695
    ],
    5
   ],
   [
    [
     -4.231617889739451,
     -0.06462400506661403
    ],
    6
   ],
   [
    [
     0.7771179677065352,
     2.0561076676244534
    ],
    6
   ],
   [
    [
     -1.2532439331613219,
     0.7815173578032922
    ],
    5
   ],
   [
    [
     -8.296472281247192,
     4.086946510094004
    ],
    12
   ],
   [
    [
     -6.6546016417345495,
     1.0829057385233112
    ],
    6
   ],
   [
    [
     0.1574256324388396,
     -0.008330500793060303
    ],
    6
   ],
   [
    [
     -7.199592361802573,
     4.5131647958125685
    ],
    10
   ]
  ]
 },
 {
  "init_weights": [
   -84.2,
   3.0
  ],
  "results": [
   [
    [
     -1.6615803091184915,
     0.9565892936547571
    ],
    5
   ],
   [
    [
     -5.8399643164153545,
     -4.531517823389327
    ],
    5
   ],
   [
    [
     3.365202398989048,
     4.366683032425304
    ],
    5
   ],
   [
    [
     -6.881342162040294,
     -4.449092094006636
    ],
    5
   ],
   [
    [
     -4.345474302029533,
     -3.152811884149421
    ],
    7
   ],
   [
    [
     -1.1663754388023335,
     0.8386388482732114
    ],
    5
   ],
   [
    [
     -7.158109533138433,
     -2.9281986556476376
    ],
    6
   ],
   [
    [
     -8.421409797677565,
     -3.8682646629626847
    ],
    6
   ],
   [
    [
     3.1647686124099508,
     -5.164806686169722
    ],
    5
   ],
   [
    [
     -4.2482090319851995,
     1.2559892855702284
    ],
    5
   ]
  ]
 },
 {
  "init_weights": [
   -84.0,
   3.0
  ],
  "results": [
   [
    [
     -3.507098716982867,
     2.379292164096604
    ],
    5
   ],
   [
    [
     -0.14167005772743124,
     0.7402737850605581
    ],
    5
   ],
   [
    [
     3.186553890661674,
     5.6965829020295065
    ],
    5
   ],
   [
    [
     -7.904543300203137,
     -3.9540015545670704
    ],
    12
   ],
   [
    [
     -7.3254327396643415,
     2.6902868215735447
    ],
    7
   ],
   [
    [
     -1.0817320851054362,
     0.8970788765842401
    ],
    5
   ],
   [
    [
     NaN,
     NaN
    ],
    0
   ],
   [
    [
     -6.502305196004194,
     -4.90768379438495
    ],
    9
   ],
   [
    [
     -7.30792054253707,
     -3.237768171602797
    ],
    6
   ],
   [
    [
     3.5122518178340965,
     0.31138185696223836
    ],
    8
   ]
  ]
 },
 {
  "init_weights": [
   -83.8,
   3.0
  ],
  "results": [
   [
    [
     -8.180537365065135,
     3.226884732617295
    ],
    6
   ],
   [
    [
     -7.73913218370539,
     -2.5754560620502307
    ],
    9
   ],
   [
    [
     -1.3475924320458361,
     5.593032691750572
    ],
    8
   ],
   [
    [
     -5.351850506210839,
     0.22601255520406216
    ],
    6
   ],
   [
    [
     -4.999338401071258,
     -0.025735657784502042
    ],
    8
   ],
   [
    [
     -0.9968087607060667,
     0.9577009770071055
    ],
    5
   ],
   [
    [
     NaN,
     NaN
    ],
    0
   ],
   [
    [
     -3.87777075958354,
     2.9111366387334545
    ],
    6
   ],
   [
    [
     -6.186495002321367,
     -2.4706614400541054
    ],
    7
   ],
   [
    [
     -5.175333933665676,
     -0.05003945726056003
    ],
    5
   ]
  ]
 },
 {
  "init_weights": [
   -83.6,
   3.0
  ],
  "results": [
   [
    [
     -1.1028429584429915,
     0.9018417523390206
    ],
    5
   ],
   [
    [
     NaN,
     NaN
    ],
    0
   ],
   [
    [
     -4.840190921473695,
     -2.24635484663799
    ],
    6
   ],
   [
    [
     -8.194209875642809,
     4.0919003900023165
    ],
    10
   ],
   [
    [
     -8.170451214898666,
     -3.7649108977386976
    ],
    8
   ],
   [
    [
     -0.9138825321591497,
     1.0217534876664394
    ],
    5
   ],
   [
    [
     -7.436915333491228,
     4.590138692992167
    ],
    10
   ],
   [
    [
     -7.690194427159394,
     3.357932434987647
    ],
    7
   ],
   [
    [
     -5.88867260141687,
     -5.419089584952041
    ],
    7
   ],
   [
    [
     NaN,
     NaN
    ],
    0
   ]
  ]
 },
 {
  "init_weights": [
   -83.4,
   3.0
  ],
  "results": [
   [
    [
     -6.522302053421759,
     2.7253828192039435
    ],
    8
   ],
   [
    [
     -8.269665653896448,
     -4.167044640449086
    ],
    7
   ],
   [
    [
     -7.458648352252554,
     -2.300137561185414
    ],
    7
   ],
   [
    [
     -6.455258306456809,
     -0.4678196842513547
    ],
    5
   ],
   [
    [
     -6.106460962017021,
     -2.954981499532751
    ],
    9
   ],
   [
    [
     -0.8304556816356907,
     1.087477206202582
    ],
    5
   ],
   [
    [
     -5.883102614767109,
     -0.1952214883636111
    ],
    9
   ],
   [
    [
     -3.8295016278645315,
     1.450637209870532
    ],
    6
   ],
   [
    [
     -5.988330747801768,
     -1.3242357987439846
    ],
    7
   ],
   [
    [
     -7.468296002391194,
     -3.561211343605623
    ],
    12
   ]
  ]
 },
 {
  "init_weights": [
   -83.2,
   3.0
  ],
  "results": [
   [
    [
     -3.636935412037083,
     2.9300744735323843
    ],
    5
   ],
   [
    [
     NaN,
     NaN
    ],
    0
   ],
   [
    [
     -3.4305697510423574,
     -1.5060637550494071
    ],
    7
   ],
   [
    [
     -6.526858315939844,
     -1.2404064655134164
    ],
    5
   ],
   [
    [
     -5.717475520286435,
     3.396640039644594
    ],
    6
   ],
   [
    [
     -0.7490671600157555,
     1.1554973426921187
    ],
    5
   ],
   [
    [
     -3.5903856594863663,
     -4.753473227904276
    ],
    10
   ],
   [
    [
     -4.662130886591454,
     1.8168812331657787
    ],
    6
   ],
   [
    [
     3.3992124736346696,
     2.1307158050576653
    ],
    5
   ],
   [
    [
     -7.545772278640447,
     -4.033205709959585
    ],
    7
   ]
  ]
 },
 {
  "init_weights": [
   -83.0,
   3.0
  ],
  "results": [
   [
    [
     -2.2747206769511337,
     2.6610663958881324
    ],
    5
   ],
   [
    [
     -5.081837894031998,
     -2.4009795675452916
    ],
    10
   ],
   [
    [
     -8.467660563694526,
     3.442094607900065
    ],
    10
   ],
   [
    [
     1.9732148018310962,
     -3.4838505895824996
    ],
    10
   ],
   [
    [
     -7.207818073709312,
     -3.995290770306033
    ],
    6
   ],
   [
    [
     -0.668451141545745,
     1.2267277102728669
    ],
    5
   ],
   [
    [
     1.6450861061959152,
     4.03291747618955
    ],
    7
   ],
   [
    [
     0.9505056033451873,
     3.0439386811711184
    ],
    6
   ],
   [
    [
     -7.988878102534285,
     -4.400000592798704
    ],
    8
   ],
   [
    [
     -4.35297890754007,
     -3.9227948172984477
    ],
    5
   ]
  ]
 },
 {
  "init_weights": [
   -82.8,
   3.0
  ],
  "results": [
   [
    [
     -5.771996430403277,
     3.1542948845237904
    ],
    5
   ],
   [
    [
     -5.701850711003469,
     -2.0691060432057276
    ],
    6
   ],
   [
    [
     -7.211477514682834,
     -3.4010745496727375
    ],
    11
   ],
   [
    [
     0.13863859006400325,
     -4.102252831815489
    ],
    10
   ],
   [
    [
     -6.881158761388091,
     -2.056458732693282
    ],
    7
   ],
   [
    [
     -0.5888898467800274,
     1.3000156555812883
    ],
    5
   ],
   [
    [
     -7.9036526846049835,
     -2.7032264392338723
    ],
    5
   ],
   [
    [
     -5.505892781140435,
     -1.6689164018810105
    ],
    7
   ],
   [
    [
     0.346192541056098,
     -3.7291418967329593
    ],
    7
   ],
   [
    [
     -5.963266069749048,
     -4.691377183173196
    ],
    9
   ]
  ]
 },
 {
  "init_weights": [
   -82.6,
   3.0
  ],
  "results": [
   [
    [
     -1.0765941285575735,
     2.1346554042874493
    ],
    5
   ],
   [
    [
     -6.875502204945395,
     4.703489206996211
    ],
    11
   ],
   [
    [
     -6.94192126772175,
     5.120593760141045
    ],
    9
   ],
   [
    [
     -3.965332884288159,
     4.878075786132732
    ],
    8
   ],
   [
    [
     -7.332143668584589,
     -3.92681692303715
    ],
    12
   ],
   [
    [
     -0.5098935841034589,
     1.376695814601061
    ],
    5
   ],
   [
    [
     NaN,
     NaN
    ],
    0
   ],
   [
    [
     -5.70176663280203,
     -1.6615995463755593
    ],
    7
   ],
   [
    [
     2.5746307015791734,
     0.8630652493521094
    ],
    6
   ],
   [
    [
     -7.014263184688199,
     -4.770296185826522
    ],
    5
   ]
  ]
 },
 {
  "init_weights": [
   -82.4,
   3.0
  ],
  "results": [
   [
    [
     -1.854635606165175,
     2.9751206024434866
    ],
    5
   ],
   [
    [
     2.001395411604909,
     -3.4554279931774063
    ],
    11
   ],
   [
    [
     -8.012798736119967,
     3.8374941997302074
    ],
    11
   ],
   [
    [
     1.7038382144476198,
     3.403574668240588
    ],
    10
   ],
   [
    [
     -1.7842770809783257,
     4.386595623719739
    ],
    8
   ],
   [
    [
     -0.4323158685868904,
     1.4566148279635396
    ],
    5
   ],
   [
    [
     -5.745938111355058,
     3.8583684397112403
    ],
    12
   ],
   [
    [
     -4.516497332370838,
     0.0057904454686745765
    ],
    6
   ],
   [
    [
     2.4715740601199605,
     0.010627407675647405
    ],
    6
   ],
   [
    [
     4.316329402599919,
     -1.4067391560679825
    ],
    5
   ]
  ]
 },
 {
  "init_weights": [
   -82.2,
   3.0
  ],
  "results": [
   [
    [
     -4.314331726219995,
     1.8603320591705153
    ],
    8
   ],
   [
    [
     -7.9474917607113245,
     -3.9689105781562035
    ],
    12
   ],
   [
    [
     -7.147365679257607,
     -4.8394413871236655
    ],
    5
   ],
   [
    [
     -7.706312403729522,
     3.7886916187310002
    ],
    10
   ],
   [
    [
     3.9095395203651115,
     -1.442130245422357
    ],
    5
   ],
   [
    [
     -0.3560262302131534,
     1.53904201243981
    ],
    5
   ],
   [
    [
     -5.989842012901084,
     3.4549344078173787
    ],
    12
   ],
   [
    [
     -7.148241939670331,
     -2.790103188488011
    ],
    8
   ],
   [
    [
     -5.546383279386292,
     -2.1191214160876797
    ],
    6
   ],
   [
    [
     -6.6664153751729325,
     0.5052561212444955
    ],
    8
   ]
  ]
 },
 {
  "init_weights": [
   -82.0,
   3.0
  ],
  "results": [
   [
    [
     0.5804881228799701,
     -0.4401245388833036
    ],
    5
   ],
   [
    [
     -0.31108343081654155,
     3.3920309644416715
    ],
    12
   ],
   [
    [
     -8.029018947031872,
     -4.570559747740829
    ],
    10
   ],
   [
    [
     -4.94303836715282,
     1.4754398371255304
    ],
    9
   ],
   [
    [
     -7.573024389318977,
     4.084983138695669
    ],
    10
   ],
   [
    [
     -0.2807513637084753,
     1.623261054401892
    ],
    5
   ],
   [
    [
     NaN,
     NaN
    ],
    0
   ],
   [
    [
     -5.512948380068526,
     0.6523868647134305
    ],
    6
   ],
   [
    [
     -3.9346532132769205,
     4.165121983904701
    ],
    4
   ],
   [
    [
     4.123296691301288,
     5.332722534401411
    ],
    5
   ]
  ]
 },
 {
  "init_weights": [
   -81.8,
   3.0
  ],
  "results": [
   [
    [
     -5.224242082637083,
     2.273741147630484
    ],
    8
   ],
   [
    [
     -2.954659603610704,
     3.44619482483518
    ],
    12
   ],
   [
    [
     -6.624497972661309,
     3.3852049445145376
    ],
    11
   ],
   [
    [
     -5.823584959000344,
     3.9572243283207276
    ],
    11
   ],
   [
    [
     -6.983715224780608,
     3.24773221344275
    ],
    9
   ],
   [
    [
     -0.20617850665974657,
     1.711399305677245
    ],
    5
   ],
   [
    [
     -4.97757358938912,
     4.652893435720198
    ],
    9
   ],
   [
    [
     -8.104372008295972,
     -3.037173004056885
    ],
    8
   ],
   [
    [
     -8.500908459248194,
     -3.7774628023908168
    ],
    7
   ],
   [
    [
     -7.505537174590284,
     4.710892044952318
    ],
    9
   ]
  ]
 },
 {
  "init_weights": [
   -81.6,
   3.0
  ],
  "results": [
   [
    [
     -2.120615655419691,
     3.8320606874886414
    ],
    5
   ],
   [
    [
     -7.082699204277915,
     3.634409513217266
    ],
    8
   ],
   [
    [
     -8.360750406249151,
     3.748763263945075
    ],
    11
   ],
   [
    [
     -7.03505248764209,
     4.0028439508101155
    ],
    11
   ],
   [
    [
     -7.172210806086064,
     -2.0276334022554714
    ],
    7
   ],
   [
    [
     -0.13374994381188543,
     1.8019860213499515
    ],
    5
   ],
   [
    [
     -7.284201175329853,
     -3.6011521435808547
    ],
    11
   ],
   [
    [
     -8.129599453785804,
     -3.3691743125149887
    ],
    9
   ],
   [
    [
     1.6138815535645288,
     -3.566981065045576
    ],
    4
   ],
   [
    [
     NaN,
     NaN
    ],
    0
   ]
  ]
 },
 {
  "init_weights": [
   -81.4,
   3.0
  ],
  "results": [
   [
    [
     -7.844490802725834,
     4.128471596662731
    ],
    7
   ],
   [
    [
     -7.464229749121246,
     -3.749291915907187
    ],
    11
   ],
   [
    [
     -7.810982520832567,
     4.930274416497454
    ],
    9
   ],
   [
    [
     6.841235720695003,
     -4.777286358001105
    ],
    4
   ],
   [
    [
     -6.654353017936096,
     4.028137312415235
    ],
    12
   ],
   [
    [
     -0.06156345999427515,
     1.8956691591497803
    ],
    5
   ],
   [
    [
     -4.961744443932,
     2.419145072456324
    ],
    7
   ],
   [
    [
     -4.970985774340182,
     -1.7042339633422432
    ],
    6
   ],
   [
    [
     -4.944082501628582,
     0.4002893570992656
    ],
    7
   ],
   [
    [
     -8.2023402241549,
     4.426641926896257
    ],
    11
   ]
  ]
 },
 {
  "init_weights": [
   -81.2,
   3.0
  ],
  "results": [
   [
    [
     -6.152389563723858,
     3.9467960169830247
    ],
    5
   ],
   [
    [
     -1.3582583950752642,
     -5.408210617594562
    ],
    7
   ],
   [
    [
     -8.217062973592634,
     3.7388132650507693
    ],
    11
   ],
   [
    [
     -6.050423358919753,
     -3.3256472614157
    ],
    11
   ],
   [
    [
     -0.9899209002850107,
     2.4600175075632102
    ],
    9
   ],
   [
    [
     0.00875539236741929,
     1.9929872991328752
    ],
    5
   ],
   [
    [
     -7.162336966229816,
     2.6753779887753857
    ],
    6
   ],
   [
    [
     -5.930783155616319,
     -1.7735834465312008
    ],
    8
   ],
   [
    [
     -5.0911525903152395,
     1.4905419975553134
    ],
    7
   ],
   [
    [
     3.5389529160137094,
     1.782971825870293
    ],
    8
   ]
  ]
 },
 {
  "init_weights": [
   -81.0,
   3.0
  ],
  "results": [
   [
    [
     -2.3704347058063604,
     4.434882424792528
    ],
    5
   ],
   [
    [
     -6.6511570444922805,
     -4.755238063954101
    ],
    10
   ],
   [
    [
     4.01012017008077,
     -4.587980523501619
    ],
    5
   ],
   [
    [
     -6.440177730051115,
     3.7325214278254606
    ],
    11
   ],
   [
    [
     -6.647744879265883,
     5.117035157357026
    ],
    8
   ],
   [
    [
     0.07824619047345038,
     2.092564227199459
    ],
    5
   ],
   [
    [
     -1.0309442855543391,
     -3.8853443035655455
    ],
    12
   ],
   [
    [
     3.26675069326199,
     3.6268401032326754
    ],
    5
   ],
   [
    [
     -6.323076943737087,
     2.996912566439589
    ],
    10
   ],
   [
    [
     -4.827799919945548,
     -1.8839872183927784
    ],
    6
   ]
  ]
 },
 {
  "init_weights": [
   -80.8,
   3.0
  ],
  "results": [
   [
    [
     1.22668842400914,
     0.12998418326600159
    ],
    5
   ],
   [
    [
     -7.400552381309888,
     3.731466108981899
    ],
    12
   ],
   [
    [
     -7.815959008927539,
     -3.767379141899284
    ],
    11
   ],
   [
    [
     -6.108141092225332,
     -4.604203915160484
    ],
    5
   ],
   [
    [
     -6.2628071065702775,
     -4.223650593116221
    ],
    11
   ],
   [
    [
     0.1462491974459894,
     2.195876996847532
    ],
    5
   ],
   [
    [
     NaN,
     NaN
    ],
    0
   ],
   [
    [
     -7.727176452623567,
     3.3413027231789494
    ],
    7
   ],
   [
    [
     -7.288641219226769,
     3.1002094467563044
    ],
    10
   ],
   [
    [
     -1.537318038653221,
     -3.367868624648816
    ],
    5
   ]
  ]
 },
 {
  "init_weights": [
   -80.6,
   3.0
  ],
  "results": [
   [
    [
     0.5615110016174185,
     2.525614064995813
    ],
    5
   ],
   [
    [
     NaN,
     NaN
    ],
    0
   ],
   [
    [
     1.0141873207881318,
     3.89144316843526
    ],
    11
   ],
   [
    [
     -1.9500435527333044,
     -0.2120738977878411
    ],
    10
   ],
   [
    [
     -6.954181593411514,
     -2.9083948402782407
    ],
    6
   ],
   [
    [
     0.2132184663572616,
     2.301675879191318
    ],
    5
   ],
   [
    [
     NaN,
     NaN
    ],
    0
   ],
   [
    [
     -3.0864788163177437,
     -2.9177039554713287
    ],
    8
   ],
   [
    [
     3.953078488716944,
     -3.7793640115088984
    ],
    5
   ],
   [
    [
     NaN,
     NaN
    ],
    0
   ]
  ]
 },
 {
  "init_weights": [
   -80.4,
   3.0
  ],
  "results": [
   [
    [
     -4.7358805833540485,
     -5.414380437438984
    ],
    7
   ],
   [
    [
     -7.915262795381627,
     -4.769077800450775
    ],
    12
   ],
   [
    [
     -3.1754189290824435,
     3.160094176876827
    ],
    11
   ],
   [
    [
     -8.2783235534751,
     3.8781792099595886
    ],
    11
   ],
   [
    [
     -7.549361463471765,
     -4.816992203249491
    ],
    5
   ],
   [
    [
     0.27856338297919336,
     2.4104598535678576
    ],
    5
   ],
   [
    [
     2.626006818659466,
     4.745005405694711
    ],
    5
   ],
   [
    [
     -3.143325462319674,
     -3.040182413272622
    ],
    6
   ],
   [
    [
     -6.037038019781861,
     -3.0742334251783223
    ],
    9
   ],
   [
    [
     1.5689633567078438,
     4.245574704512866
    ],
    9
   ]
  ]
 },
 {
  "init_weights": [
   -80.2,
   3.0
  ],
  "results": [
   [
    [
     -6.515349129274412,
     4.413594061727311
    ],
    5
   ],
   [
    [
     -5.680529466071147,
     3.7047462819243733
    ],
    7
   ],
   [
    [
     -6.812543391865848,
     -3.246970649006861
    ],
    10
   ],
   [
    [
     -3.7291029384532024,
     3.7821700172100305
    ],
    5
   ],
   [
    [
     -7.543991769741803,
     2.4278251629858385
    ],
    8
   ],
   [
    [
     2.155047463933375,
     3.999787974672615
    ],
    6
   ],
   [
    [
     1.9202820449136304,
     1.345234953514634
    ],
    5
   ],
   [
    [
     -7.311139293942483,
     -3.669236491158969
    ],
    10
   ],
   [
    [
     -4.98745599532286,
     2.925260144684685
    ],
    10
   ],
   [
    [
     -2.1150927962190904,
     -1.8148783654359093
    ],
    5
   ]
  ]
 },
 {
  "init_weights": [
   -80.0,
   3.0
  ],
  "results": [
   [
    [
     1.911953589114141,
     1.0243067394786523
    ],
    6
   ],
   [
    [
     NaN,
     NaN
    ],
    0
   ],
   [
    [
     1.5377966798028169,
     -4.970300632170512
    ],
    6
   ],
   [
    [
     -7.772291921530617,
     -4.314332902728992
    ],
    10
   ],
   [
    [
     -7.847475190836477,
     -4.101592341336106
    ],
    4
   ],
   [
    [
     -4.8967281600696,
     0.9799158429848054
    ],
    5
   ],
   [
    [
     -5.890159014632634,
     1.7241492376664453
    ],
    6
   ],
   [
    [
     -4.840111264841138,
     4.528955194728862
    ],
    8
   ],
   [
    [
     3.991507130283299,
     3.198234109627177
    ],
    5
   ],
   [
    [
     -8.091820214542324,
     3.9346499430526247
    ],
    12
   ]
  ]
 },
 {
  "init_weights": [
   -79.8,
   3.0
  ],
  "results": [
   [
    [
     1.8455261475920999,
     0.4703716399532807
    ],
    6
   ],
   [
    [
     0.703877209600023,
     3.805576105509452
    ],
    6
   ],
   [
    [
     -6.846447441165209,
     4.80857025952872
    ],
    8
   ],
   [
    [
     -6.633205048426403,
     1.8501669708554482
    ],
    12
   ],
   [
    [
     -3.8749524965798354,
     3.182398273524715
    ],
    10
   ],
   [
    [
     -2.1612680583731363,
     3.487141079873669
    ],
    6
   ],
   [
    [
     1.7571789441852061,
     3.5217064210799123
    ],
    12
   ],
   [
    [
     -5.740040027951892,
     4.714393261299059
    ],
    10
   ],
   [
    [
     -8.277622597550696,
     -3.783566524454701
    ],
    7
   ],
   [
    [
     -8.60055797113058,
     3.835503847589898
    ],
    13
   ]
  ]
 },
 {
  "init_weights": [
   -79.6,
   3.0
  ],
  "results": [
   [
    [
     -7.147522380426089,
     4.563100930014339
    ],
    5
   ],
   [
    [
     0.8390995225114203,
     1.7600957546105453
    ],
    7
   ],
   [
    [
     -7.821440326446419,
     4.5959978418117835
    ],
    8
   ],
   [
    [
     -7.082172603838005,
     3.918493281462828
    ],
    12
   ],
   [
    [
     0.4151742842966558,
     2.472390751751817
    ],
    5
   ],
   [
    [
     -2.3840033136652776,
     3.515759919373018
    ],
    6
   ],
   [
    [
     -8.108002909786972,
     -3.05178276366043
    ],
    6
   ],
   [
    [
     -6.6841867332402725,
     -1.7108970952603753
    ],
    9
   ],
   [
    [
     -0.5041546215155375,
     -2.959831430006937
    ],
    10
   ],
   [
    [
     -7.337052520987218,
     4.2834275520835545
    ],
    11
   ]
  ]
 },
 {
  "init_weights": [
   -79.4,
   3.0
  ],
  "results": [
   [
    [
     -7.227956206269177,
     4.644500894769289
    ],
    5
   ],
   [
    [
     6.209684457837636,
     0.32960866135350075
    ],
    7
   ],
   [
    [
     1.8998562625080169,
     3.6044433808641667
    ],
    9
   ],
   [
    [
     4.211288696985157,
     3.1760382776536047
    ],
    5
   ],
   [
    [
     -5.843965232367463,
     -4.5493005235601505
    ],
    5
   ],
   [
    [
     -2.3900849369671207,
     -0.20122238432353665
    ],
    5
   ],
   [
    [
     -1.034818221208269,
     -2.0135149505210554
    ],
    5
   ],
   [
    [
     -5.994437625307796,
     4.975054621276927
    ],
    6
   ],
   [
    [
     -6.859931351074479,
     -3.2710533098174133
    ],
    4
   ],
   [
    [
     -5.54151091780566,
     3.31203577856623
    ],
    12
   ]
  ]
 },
 {
  "init_weights": [
   -79.2,
   3.0
  ],
  "results": [
   [
    [
     -0.0069297545246485015,
     5.314388855848946
    ],
    5
   ],
   [
    [
     -7.152160350467346,
     -4.259639633204461
    ],
    12
   ],
   [
    [
     -2.309882318309718,
     3.878172028076693
    ],
    8
   ],
   [
    [
     -6.091825811685627,
     4.502422042489887
    ],
    8
   ],
   [
    [
     4.2049188984180645,
     -1.6302862192439513
    ],
    5
   ],
   [
    [
     -4.817029862691044,
     1.174464479775776
    ],
    5
   ],
   [
    [
     -2.6746266916489105,
     -0.45921705351585995
    ],
    4
   ],
   [
    [
     -6.173711011898892,
     0.7842823598813905
    ],
    7
   ],
   [
    [
     -8.263575724544628,
     3.4868605511995354
    ],
    7
   ],
   [
    [
     NaN,
     NaN
    ],
    0
   ]
  ]
 },
 {
  "init_weights": [
   -79.0,
   3.0
  ],
  "results": [
   [
    [
     -0.11870150266950219,
     5.673740351413169
    ],
    5
   ],
   [
    [
     NaN,
     NaN
    ],
    0
   ],
   [
    [
     -7.1126514917438755,
     3.039934842665116
    ],
    5
   ],
   [
    [
     -8.112570795680107,
     -3.9455056283435304
    ],
    11
   ],
   [
    [
     -6.758360974980887,
     -4.180996255283375
    ],
    11
   ],
   [
    [
     -3.0046117648496917,
     3.608274015955676
    ],
    6
   ],
   [
    [
     -4.324107056952738,
     -0.7044544148323117
    ],
    6
   ],
   [
    [
     -5.882981710911219,
     1.512777908787588
    ],
    7
   ],
   [
    [
     -7.2480837091752885,
     4.498117915070725
    ],
    10
   ],
   [
    [
     -7.485070072449922,
     4.02450030018658
    ],
    8
   ]
  ]
 },
 {
  "init_weights": [
   -78.8,
   3.0
  ],
  "results": [
   [
    [
     1.4519642534019965,
     3.72941569458109
    ],
    5
   ],
   [
    [
     NaN,
     NaN
    ],
    0
   ],
   [
    [
     -5.913549203439716,
     3.409693109000603
    ],
    12
   ],
   [
    [
     NaN,
     NaN
    ],
    0
   ],
   [
    [
     NaN,
     NaN
    ],
    0
   ],
   [
    [
     -2.140491830691893,
     0.05064312728663553
    ],
    5
   ],
   [
    [
     -5.292139391208011,
     4.345037448150779
    ],
    11
   ],
   [
    [
     3.8009581226995053,
     -5.36688486656746
    ],
    5
   ],
   [
    [
     -6.750913068959472,
     4.052366520806684
    ],
    12
   ],
   [
    [
     NaN,
     NaN
    ],
    0
   ]
  ]
 },
 {
  "init_weights": [
   -78.6,
   3.0
  ],
  "results": [
   [
    [
     -7.119383719223759,
     4.883831181068645
    ],
    5
   ],
   [
    [
     NaN,
     NaN
    ],
    0
   ],
   [
    [
     -3.026701926050137,
     -5.622068019548124
    ],
    3
   ],
   [
    [
     -7.070823412209873,
     3.588540948104327
    ],
    9
   ],
   [
    [
     -8.270027622521676,
     4.133643563134215
    ],
    11
   ],
   [
    [
     -2.229515627065908,
     0.3585169702179738
    ],
    5
   ],
   [
    [
     NaN,
     NaN
    ],
    0
   ],
   [
    [
     -6.542155917972224,
     -4.369300229276113
    ],
    6
   ],
   [
    [
     -7.6882312776634665,
     3.500359734688682
    ],
    5
   ],
   [
    [
     NaN,
     NaN
    ],
    0
   ]
  ]
 },
 {
  "init_weights": [
   -78.4,
   3.0
  ],
  "results": [
   [
    [
     -0.5286230291978818,
     1.9213856853749371
    ],
    6
   ],
   [
    [
     NaN,
     NaN
    ],
    0
   ],
   [
    [
     -8.280762482489168,
     3.3005211566599866
    ],
    12
   ],
   [
    [
     -7.475817661414352,
     3.6554038004987093
    ],
    10
   ],
   [
    [
     -7.6886295554011586,
     3.9379855768261463
    ],
    12
   ],
   [
    [
     -1.9199185589195409,
     0.11546345628305815
    ],
    5
   ],
   [
    [
     NaN,
     NaN
    ],
    0
   ],
   [
    [
     -5.358364050361977,
     -4.975471062411192
    ],
    9
   ],
   [
    [
     -2.240057953595444,
     -1.085586923468858
    ],
    5
   ],
   [
    [
     NaN,
     NaN
    ],
    0
   ]
  ]
 },
 {
  "init_weights": [
   -78.2,
   3.0
  ],
  "results": [
   [
    [
     -3.604719895598679,
     3.04442491017435
    ],
    6
   ],
   [
    [
     -2.0697703973146826,
     4.253175643979162
    ],
    12
   ],
   [
    [
     -5.325612811085762,
     2.4247872703259867
    ],
    6
   ],
   [
    [
     NaN,
     NaN
    ],
    0
   ],
   [
    [
     -7.03837669552885,
     3.9854834452357353
    ],
    12
   ],
   [
    [
     -4.282334328771602,
     3.372527529768587
    ],
    6
   ],
   [
    [
     -4.020104481724658,
     3.2076824209921213
    ],
    4
   ],
   [
    [
     -4.440516115652744,
     5.401029411984419
    ],
    9
   ],
   [
    [
     -2.2436615369169064,
     -2.589740373489529
    ],
    5
   ],
   [
    [
     0.9527658933189116,
     -2.270310099777536
    ],
    5
   ]
  ]
 },
 {
  "init_weights": [
   -78.0,
   3.0
  ],
  "results": [
   [
    [
     2.802527415231122,
     -2.670248312155872
    ],
    5
   ],
   [
    [
     NaN,
     NaN
    ],
    0
   ],
   [
    [
     NaN,
     NaN
    ],
    0
   ],
   [
    [
     -7.609462988259112,
     3.610581723402265
    ],
    10
   ],
   [
    [
     -8.201113508999335,
     3.8160826831895402
    ],
    11
   ],
   [
    [
     -5.1362339937453925,
     1.5136588046859831
    ],
    5
   ],
   [
    [
     2.14925170845963,
     4.435350674949357
    ],
    5
   ],
   [
    [
     3.933566334892973,
     3.4688495995922786
    ],
    5
   ],
   [
    [
     -7.2503517080743904,
     3.441221919878207
    ],
    9
   ],
   [
    [
     -1.6572647269727732,
     -5.870831302377546
    ],
    5
   ]
  ]
 },
 {
  "init_weights": [
   -77.8,
   3.0
  ],
  "results": [
   [
    [
     -4.016849961057253,
     2.672421039361244
    ],
    6
   ],
   [
    [
     -3.251762218401071,
     4.375712814163718
    ],
    12
   ],
   [
    [
     -3.1182070120533467,
     -1.7760110132875715
    ],
    4
   ],
   [
    [
     NaN,
     NaN
    ],
    0
   ],
   [
    [
     -6.437555299479026,
     2.0155373436527646
    ],
    10
   ],
   [
    [
     -2.575899121304637,
     1.1469405327122661
    ],
    5
   ],
   [
    [
     -4.667554980467116,
     4.516670592189136
    ],
    4
   ],
   [
    [
     3.8347000943508363,
     -4.930813187001537
    ],
    5
   ],
   [
    [
     4.302559778351796,
     -0.47461191761468235
    ],
    8
   ],
   [
    [
     1.2893442174366232,
     -1.8090321324083227
    ],
    6
   ]
  ]
 },
 {
  "init_weights": [
   -77.6,
   3.0
  ],
  "results": [
   [
    [
     -0.723163413262732,
     -2.17484858167514
    ],
    7
   ],
   [
    [
     -7.761479965562838,
     4.528107406883411
    ],
    11
   ],
   [
    [
     1.8230102512946438,
     1.365400663268269
    ],
    5
   ],
   [
    [
     -3.469226297306939,
     3.218758433436548
    ],
    12
   ],
   [
    [
     -6.724499467366903,
     3.145341021559129
    ],
    5
   ],
   [
    [
     -5.141973515451493,
     4.086470370455595
    ],
    6
   ],
   [
    [
     -4.18904481958123,
     -4.247796778539696
    ],
    5
   ],
   [
    [
     -6.871778778047891,
     -2.600360035296565
    ],
    9
   ],
   [
    [
     -7.688062577287782,
     -4.017137144506285
    ],
    9
   ],
   [
    [
     -5.617324176992383,
     -2.6752599675401663
    ],
    6
   ]
  ]
 },
 {
  "init_weights": [
   -77.4,
   3.0
  ],
  "results": [
   [
    [
     -4.155535757670746,
     1.9033873614059331
    ],
    6
   ],
   [
    [
     -5.82877179810446,
     4.500462370124945
    ],
    12
   ],
   [
    [
     1.7767360037962945,
     0.7013506965143206
    ],
    5
   ],
   [
    [
     NaN,
     NaN
    ],
    0
   ],
   [
    [
     -6.647370253495927,
     -2.901951067314492
    ],
    9
   ],
   [
    [
     -3.2302156525362733,
     1.5617307740895163
    ],
    5
   ],
   [
    [
     4.0057624502917974,
     0.6356222846935018
    ],
    7
   ],
   [
    [
     -7.736982191940723,
     3.286595697988822
    ],
    9
   ],
   [
    [
     -6.672938515575418,
     4.11981941215365
    ],
    8
   ],
   [
    [
     -4.246419722109387,
     1.9130442708440334
    ],
    4
   ]
  ]
 },
 {
  "init_weights": [
   -77.2,
   3.0
  ],
  "results": [
   [
    [
     -1.364665733361987,
     -2.3150317715584965
    ],
    7
   ],
   [
    [
     -5.784192704361672,
     4.864350613889343
    ],
    3
   ],
   [
    [
     0.9246368215258549,
     -2.163707133754369
    ],
    5
   ],
   [
    [
     -4.066305980495827,
     -4.919888110568941
    ],
    6
   ],
   [
    [
     -5.349884032515265,
     4.575344019743003
    ],
    10
   ],
   [
    [
     -5.7337388689364674,
     3.3530039983009994
    ],
    6
   ],
   [
    [
     -2.723937009361851,
     -2.8825676403153606
    ],
    5
   ],
   [
    [
     -8.404779541128207,
     -4.10656647645232
    ],
    10
   ],
   [
    [
     -7.215522741984851,
     4.738922821638754
    ],
    5
   ],
   [
    [
     NaN,
     NaN
    ],
    0
   ]
  ]
 },
 {
  "init_weights": [
   -77.0,
   3.0
  ],
  "results": [
   [
    [
     -4.940384163803235,
     2.35630416482293
    ],
    6
   ],
   [
    [
     -3.2334795985764497,
     3.555127382247316
    ],
    12
   ],
   [
    [
     NaN,
     NaN
    ],
    0
   ],
   [
    [
     NaN,
     NaN
    ],
    0
   ],
   [
    [
     -8.118299179147566,
     4.142778267840539
    ],
    8
   ],
   [
    [
     -2.556874676974793,
     1.5510002626975345
    ],
    5
   ],
   [
    [
     -2.4638691285482928,
     -4.22429889051209
    ],
    7
   ],
   [
    [
     -7.968142779327843,
     4.000297059086274
    ],
    8
   ],
   [
    [
     -2.8218361134549568,
     -3.3222125010303714
    ],
    4
   ],
   [
    [
     0.6903321042518318,
     -4.321515124435742
    ],
    6
   ]
  ]
 },
 {
  "init_weights": [
   -76.8,
   3.0
  ],
  "results": [
   [
    [
     -7.242077204147702,
     -3.016835776284175
    ],
    8
   ],
   [
    [
     NaN,
     NaN
    ],
    0
   ],
   [
    [
     2.254247273486378,
     4.044063868301107
    ],
    5
   ],
   [
    [
     1.3091847987799472,
     -1.4373263991230578
    ],
    6
   ],
   [
    [
     -6.826149529127247,
     3.1925549939850044
    ],
    7
   ],
   [
    [
     -3.806345302097469,
     1.8748307506396436
    ],
    5
   ],
   [
    [
     -5.305241423942999,
     -4.614900329487302
    ],
    7
   ],
   [
    [
     -4.249685689957959,
     2.606242405797173
    ],
    9
   ],
   [
    [
     -0.7507679606190361,
     -0.2696364984697084
    ],
    5
   ],
   [
    [
     -8.16466396184822,
     4.117948648236347
    ],
    8
   ]
  ]
 },
 {
  "init_weights": [
   -76.6,
   3.0
  ],
  "results": [
   [
    [
     -6.437930532533916,
     -4.146335765548151
    ],
    7
   ],
   [
    [
     -3.3919828372482232,
     -2.947903345820349
    ],
    9
   ],
   [
    [
     -6.702778210122865,
     -4.222131113925672
    ],
    7
   ],
   [
    [
     NaN,
     NaN
    ],
    0
   ],
   [
    [
     2.470872272747747,
     -2.7991848832219333
    ],
    6
   ],
   [
    [
     -2.0302911413593137,
     1.5306988661372984
    ],
    5
   ],
   [
    [
     -1.739566787237254,
     2.3121285303952823
    ],
    8
   ],
   [
    [
     -7.7775678332206155,
     3.4168668837346874
    ],
    5
   ],
   [
    [
     -7.933643846530169,
     3.2568527759386194
    ],
    7
   ],
   [
    [
     -0.39417827340445655,
     -0.9752695041159818
    ],
    5
   ]
  ]
 },
 {
  "init_weights": [
   -76.4,
   3.0
  ],
  "results": [
   [
    [
     -6.7264606928100115,
     -5.11432961558344
    ],
    7
   ],
   [
    [
     -7.187178432198161,
     3.528112195236071
    ],
    11
   ],
   [
    [
     0.21119825204979037,
     -4.002638377269395
    ],
    4
   ],
   [
    [
     -2.4130900504943114,
     -3.9046793301252185
    ],
    5
   ],
   [
    [
     -5.30723592834985,
     0.9982185953752554
    ],
    6
   ],
   [
    [
     -0.011465586003986061,
     -3.6985391231975946
    ],
    5
   ],
   [
    [
     0.5364102126614014,
     1.0123794150713468
    ],
    5
   ],
   [
    [
     -7.64386323788887,
     2.6089775751506736
    ],
    10
   ],
   [
    [
     -4.6323481775147854,
     -4.730361351043768
    ],
    3
   ],
   [
    [
     -0.16510825429451614,
     -0.5882976545983896
    ],
    5
   ]
  ]
 },
 {
  "init_weights": [
   -76.2,
   3.0
  ],
  "results": [
   [
    [
     -2.8782383912087774,
     -5.237860731339051
    ],
    6
   ],
   [
    [
     1.9029315042138961,
     3.0713371389522006
    ],
    5
   ],
   [
    [
     3.4996338458518768,
     1.3825451362788608
    ],
    7
   ],
   [
    [
     -2.2543719165959395,
     -3.3941439663399393
    ],
    5
   ],
   [
    [
     -8.180500025746158,
     3.81036424930224
    ],
    7
   ],
   [
    [
     -7.1510209473937145,
     3.4399894605171824
    ],
    6
   ],
   [
    [
     NaN,
     NaN
    ],
    0
   ],
   [
    [
     3.78938721794691,
     -3.8476361166703597
    ],
    5
   ],
   [
    [
     2.29938529679432,
     3.489995715530571
    ],
    5
   ],
   [
    [
     -7.353796052077546,
     4.306543307979749
    ],
    8
   ]
  ]
 },
 {
  "init_weights": [
   -76.0,
   3.0
  ],
  "results": [
   [
    [
     -6.150286250817721,
     -4.265222494165984
    ],
    8
   ],
   [
    [
     1.849912487771622,
     4.01955824111705
    ],
    11
   ],
   [
    [
     -7.824482140118719,
     3.526233403230777
    ],
    8
   ],
   [
    [
     -8.269425506945991,
     3.8774862919059427
    ],
    10
   ],
   [
    [
     2.1056372856797196,
     3.175778527864976
    ],
    5
   ],
   [
    [
     -7.050906136522833,
     4.379823252441396
    ],
    6
   ],
   [
    [
     1.7435477949598308,
     3.3767972428249857
    ],
    5
   ],
   [
    [
     -6.109998048120387,
     4.653472740518884
    ],
    11
   ],
   [
    [
     NaN,
     NaN
    ],
    0
   ],
   [
    [
     -5.837310896907354,
     -2.3386262610644053
    ],
    3
   ]
  ]
 },
 {
  "init_weights": [
   -75.8,
   3.0
  ],
  "results": [
   [
    [
     2.384647991871873,
     -4.443044279869879
    ],
    5
   ],
   [
    [
     1.6757700827145605,
     1.2846479678226772
    ],
    5
   ],
   [
    [
     -1.3492022939897126,
     0.5666833619537073
    ],
    4
   ],
   [
    [
     -6.961421481131985,
     3.9561134766700987
    ],
    10
   ],
   [
    [
     -4.303006150024587,
     -5.1953565118504
    ],
    6
   ],
   [
    [
     -2.099366997767582,
     2.0328272427791565
    ],
    5
   ],
   [
    [
     -2.133882032767931,
     -0.8552244859856941
    ],
    6
   ],
   [
    [
     -8.17352219992835,
     3.7693955163258432
    ],
    11
   ],
   [
    [
     -5.473721500184553,
     4.241671891982442
    ],
    10
   ],
   [
    [
     -8.468714109513703,
     3.6827850259239114
    ],
    6
   ]
  ]
 },
 {
  "init_weights": [
   -75.6,
   3.0
  ],
  "results": [
   [
    [
     3.3245733727746725,
     -4.741440442011858
    ],
    5
   ],
   [
    [
     -7.636683451702027,
     -4.042033099088676
    ],
    9
   ],
   [
    [
     -0.19918506362595423,
     -0.6293370583497271
    ],
    4
   ],
   [
    [
     -0.8038802977082895,
     -3.384082247290479
    ],
    3
   ],
   [
    [
     1.3204495569260182,
     1.5243667634250206
    ],
    5
   ],
   [
    [
     -2.1268084549746007,
     2.157531773811843
    ],
    5
   ],
   [
    [
     1.1188930667557724,
     -3.1392451924727576
    ],
    12
   ],
   [
    [
     -7.87471282537242,
     3.273601522456738
    ],
    8
   ],
   [
    [
     -0.7189083469286821,
     -4.008591851688678
    ],
    5
   ],
   [
    [
     -7.553174785197523,
     2.952502624601545
    ],
    7
   ]
  ]
 },
 {
  "init_weights": [
   -75.4,
   3.0
  ],
  "results": [
   [
    [
     -8.175158552599397,
     -3.823054685677646
    ],
    8
   ],
   [
    [
     -7.455856554589699,
     4.096146989055135
    ],
    10
   ],
   [
    [
     0.9547590524658389,
     1.1028110540753362
    ],
    5
   ],
   [
    [
     -6.5200948711110485,
     3.4987636061658334
    ],
    10
   ],
   [
    [
     -7.6665755788623375,
     3.948549173068027
    ],
    9
   ],
   [
    [
     -7.696802227086671,
     4.487387946322676
    ],
    6
   ],
   [
    [
     -7.054553722784695,
     -3.9241298310436816
    ],
    9
   ],
   [
    [
     -0.10542490549204686,
     3.036409989934531
    ],
    9
   ],
   [
    [
     -1.844280552926083,
     -5.574379417741012
    ],
    5
   ],
   [
    [
     -6.534255096989812,
     1.0466099188842737
    ],
    8
   ]
  ]
 },
 {
  "init_weights": [
   -75.2,
   3.0
  ],
  "results": [
   [
    [
     -5.974336209822412,
     0.7350397126589803
    ],
    6
   ],
   [
    [
     -6.595643698327039,
     -3.772380014776962
    ],
    4
   ],
   [
    [
     -1.8962268811572258,
     2.590000665809517
    ],
    4
   ],
   [
    [
     -4.2363315361554506,
     -4.7338557477798275
    ],
    5
   ],
   [
    [
     -0.1444761211012704,
     -0.8968278410197614
    ],
    5
   ],
   [
    [
     -6.4623645665304394,
     2.2837156313115123
    ],
    5
   ],
   [
    [
     -7.864594211519126,
     -3.4689837693601477
    ],
    8
   ],
   [
    [
     -7.420080238147113,
     3.8828345814459597
    ],
    11
   ],
   [
    [
     -4.59772634876294,
     1.9168146093257004
    ],
    4
   ],
   [
    [
     -4.17156126578722,
     2.7054586790669917
    ],
    5
   ]
  ]
 },
 {
  "init_weights": [
   -75.0,
   3.0
  ],
  "results": [
   [
    [
     -4.091705803303444,
     -2.732140117027514
    ],
    8
   ],
   [
    [
     NaN,
     NaN
    ],
    0
   ],
   [
    [
     -0.278531595118956,
     3.1118007098019875
    ],
    9
   ],
   [
    [
     -3.0028558314946636,
     -3.509275296930312
    ],
    5
   ],
   [
    [
     0.6729741369088629,
     -4.248923332703328
    ],
    3
   ],
   [
    [
     -4.120412442137614,
     2.5900562935038556
    ],
    5
   ],
   [
    [
     -7.733592557391074,
     -3.5444115131086766
    ],
    11
   ],
   [
    [
     -8.288840184285172,
     4.395693111076313
    ],
    10
   ],
   [
    [
     -8.40955687122204,
     -3.6547377183830267
    ],
    6
   ],
   [
    [
     2.102650073189899,
     4.127873982158656
    ],
    5
   ]
  ]
 },
 {
  "init_weights": [
   -74.8,
   3.0
  ],
  "results": [
   [
    [
     -5.224109217745682,
     -4.5755369793761975
    ],
    6
   ],
   [
    [
     -0.6828803045664777,
     -2.742303174616082
    ],
    8
   ],
   [
    [
     1.6150856090643444,
     2.6085536047094044
    ],
    5
   ],
   [
    [
     0.40363046266016056,
     0.19109311275617213
    ],
    4
   ],
   [
    [
     -2.7230706262629027,
     0.7030414761610111
    ],
    4
   ],
   [
    [
     -2.274922357441298,
     2.650374728133715
    ],
    5
   ],
   [
    [
     -8.28573907543052,
     -4.032499629147606
    ],
    10
   ],
   [
    [
     -7.073158513199605,
     3.9406450760859077
    ],
    8
   ],
   [
    [
     0.019120522624653802,
     -2.8657183494883336
    ],
    4
   ],
   [
    [
     -4.290118385613912,
     -2.8723205797816025
    ],
    4
   ]
  ]
 },
 {
  "init_weights": [
   -74.6,
   3.0
  ],
  "results": [
   [
    [
     -6.264894626306097,
     0.3989399632766597
    ],
    6
   ],
   [
    [
     -7.385899291081816,
     -3.405773751558751
    ],
    4
   ],
   [
    [
     1.8413318007932489,
     3.22403411643305
    ],
    5
   ],
   [
    [
     0.23116152648578492,
     1.1334147328241617
    ],
    4
   ],
   [
    [
     -2.8357267648355773,
     -3.9508536499527454
    ],
    5
   ],
   [
    [
     -1.765063711930381,
     2.65083011620629
    ],
    5
   ],
   [
    [
     0.5619815004807158,
     -3.283384707169177
    ],
    9
   ],
   [
    [
     -7.12184232612538,
     2.3894510294058318
    ],
    6
   ],
   [
    [
     -6.999087481509724,
     3.845825130640594
    ],
    10
   ],
   [
    [
     2.1907691719139097,
     2.228137660577069
    ],
    6
   ]
  ]
 },
 {
  "init_weights": [
   -74.4,
   3.0
  ],
  "results": [
   [
    [
     -8.306297495899251,
     -3.8241948971120006
    ],
    9
   ],
   [
    [
     NaN,
     NaN
    ],
    0
   ],
   [
