[
 {
  "init_weights": [
   2.0,
   -97.0
  ],
  "results": [
   [
    [
     2.0939223976995285,
     -84.53894693304828
    ],
    1
   ],
   [
    [
     2.089257649403156,
     -84.69042059932812
    ],
    1
   ],
   [
    [
     2.090645010010982,
     -84.48460295236934
    ],
    1
   ],
   [
    [
     2.09377249947309,
     -84.68722899254011
    ],
    1
   ],
   [
    [
     2.0914141266011046,
     -84.71770218761361
    ],
    1
   ],
   [
    [
     2.0879327463097304,
     -84.48706118840569
    ],
    1
   ],
   [
    [
     2.0850855524842267,
     -84.66687830826417
    ],
    1
   ],
   [
    [
     2.097974484963603,
     -84.56156807897973
    ],
    1
   ],
   [
    [
     2.0800386917310165,
     -84.51589454273098
    ],
    1
   ],
   [
    [
     2.095201523785512,
     -84.53532873901473
    ],
    1
   ]
  ]
 },
 {
  "init_weights": [
   2.0,
   -96.8
  ],
  "results": [
   [
    [
     2.0938621416985006,
     -84.34961608526429
    ],
    1
   ],
   [
    [
     2.0891877064409905,
     -84.50110851897134
    ],
    1
   ],
   [
    [
     2.0905821053382723,
     -84.29526527978634
    ],
    1
   ],
   [
    [
     2.093706784671203,
     -84.49791641169817
    ],
    1
   ],
   [
    [
     2.091344671607435,
     -84.52839315093054
    ],
    1
   ],
   [
    [
     2.0878648723458424,
     -84.29772340384125
    ],
    1
   ],
   [
    [
     2.085010707190394,
     -84.4775632502581
    ],
    1
   ],
   [
    [
     2.097918276669095,
     -84.37224004825606
    ],
    1
   ],
   [
    [
     2.0799620195165294,
     -84.32656056235757
    ],
    1
   ],
   [
    [
     2.0951420976426265,
     -84.34599742216334
    ],
    1
   ]
  ]
 },
 {
  "init_weights": [
   2.0,
   -96.6
  ],
  "results": [
   [
    [
     2.09380181364773,
     -84.1602961159684
    ],
    1
   ],
   [
    [
     2.089117739161928,
     -84.31180737022116
    ],
    1
   ],
   [
    [
     2.090519057030807,
     -84.10593845584471
    ],
    1
   ],
   [
    [
     2.0936416053067335,
     -84.30861475533665
    ],
    1
   ],
   [
    [
     2.091275285480887,
     -84.33909504165038
    ],
    1
   ],
   [
    [
     2.0877970001381247,
     -84.10839647649131
    ],
    1
   ],
   [
    [
     2.0849362297922216,
     -84.28825910237533
    ],
    1
   ],
   [
    [
     2.0978620321854735,
     -84.18292288709259
    ],
    1
   ],
   [
    [
     2.0798848945087807,
     -84.13723745469296
    ],
    1
   ],
   [
    [
     2.095082380078141,
     -84.1566769727197
    ],
    1
   ]
  ]
 },
 {
  "init_weights": [
   2.0,
   -96.4
  ],
  "results": [
   [
    [
     2.0937413670873135,
     -83.97098704755115
    ],
    1
   ],
   [
    [
     2.0890476229827275,
     -84.12251716911965
    ],
    1
   ],
   [
    [
     2.0904560081186143,
     -83.91662251497561
    ],
    1
   ],
   [
    [
     2.0935757223072993,
     -84.1193240509256
    ],
    1
   ],
   [
    [
     2.0912056339067875,
     -84.14980790420613
    ],
    1
   ],
   [
    [
     2.087729130183817,
     -83.91908043210144
    ],
    1
   ],
   [
    [
     2.0848615447092476,
     -84.09896591268878
    ],
    1
   ],
   [
    [
     2.0978055876373096,
     -83.99361664302445
    ],
    1
   ],
   [
    [
     2.0798071932371847,
     -83.94792523337793
    ],
    1
   ],
   [
    [
     2.0950228065262495,
     -83.96736742466203
    ],
    1
   ]
  ]
 },
 {
  "init_weights": [
   2.0,
   -96.2
  ],
  "results": [
   [
    [
     2.093680917193273,
     -83.78168891763443
    ],
    1
   ],
   [
    [
     2.0889773876460946,
     -83.93323795459142
    ],
    1
   ],
   [
    [
     2.0903928292671887,
     -83.72731749662799
    ],
    1
   ],
   [
    [
     2.0935103521227174,
     -83.93004433564401
    ],
    1
   ],
   [
    [
     2.0911359616601626,
     -83.96053176391648
    ],
    1
   ],
   [
    [
     2.087661416874277,
     -83.72977530977744
    ],
    1
   ],
   [
    [
     2.0847869200692855,
     -83.90968370411709
    ],
    1
   ],
   [
    [
     2.0977492715918276,
     -83.80432134464597
    ],
    1
   ],
   [
    [
     2.0797298089727576,
     -83.75862394491482
    ],
    1
   ],
   [
    [
     2.0949628953004593,
     -83.77806881968323
    ],
    1
   ]
  ]
 },
 {
  "init_weights": [
   2.0,
   -96.0
  ],
  "results": [
   [
    [
     2.093620446013235,
     -83.59240176471577
    ],
    1
   ],
   [
    [
     2.088907328898226,
     -83.74396978011896
    ],
    1
   ],
   [
    [
     2.0903298311302985,
     -83.53802342973452
    ],
    1
   ],
   [
    [
     2.093445342413234,
     -83.74077564543217
    ],
    1
   ],
   [
    [
     2.0910666580505883,
     -83.77126666523145
    ],
    1
   ],
   [
    [
     2.087593266331712,
     -83.54048114293113
    ],
    1
   ],
   [
    [
     2.084712330701776,
     -83.72041251383922
    ],
    1
   ],
   [
    [
     2.0976926968910483,
     -83.61503702004619
    ],
    1
   ],
   [
    [
     2.079651915355309,
     -83.56933362070708
    ],
    1
   ],
   [
    [
     2.0949026453044026,
     -83.58878117916828
    ],
    1
   ]
  ]
 },
 {
  "init_weights": [
   2.0,
   -95.8
  ],
  "results": [
   [
    [
     2.093559810468527,
     -83.40312561244491
    ],
    1
   ],
   [
    [
     2.0888369363144044,
     -83.55471265231087
    ],
    1
   ],
   [
    [
     2.0902666055067605,
     -83.34874035164248
    ],
    1
   ],
   [
    [
     2.0933792979755816,
     -83.55151801990361
    ],
    1
   ],
   [
    [
     2.0909969357714906,
     -83.58201262563236
    ],
    1
   ],
   [
    [
     2.087525082386976,
     -83.35119795385987
    ],
    1
   ],
   [
    [
     2.084637154617939,
     -83.53115237202071
    ],
    1
   ],
   [
    [
     2.0976365232627607,
     -83.42576371872518
    ],
    1
   ],
   [
    [
     2.0795745093390208,
     -83.38005428802
    ],
    1
   ],
   [
    [
     2.0948428034458453,
     -83.3995045525273
    ],
    1
   ]
  ]
 },
 {
  "init_weights": [
   2.0,
   -95.6
  ],
  "results": [
   [
    [
     2.093499516407855,
     -83.21386050868351
    ],
    1
   ],
   [
    [
     2.0887665552539483,
     -83.36546663120639
    ],
    1
   ],
   [
    [
     2.090203356524008,
     -83.15946830416166
    ],
    1
   ],
   [
    [
     2.093313755835042,
     -83.36227147877965
    ],
    1
   ],
   [
    [
     2.090927185664596,
     -83.39276968853194
    ],
    1
   ],
   [
    [
     2.087456946681983,
     -83.16192578668243
    ],
    1
   ],
   [
    [
     2.0845625167869524,
     -83.34190331236944
    ],
    1
   ],
   [
    [
     2.0975802262510097,
     -83.2365014626869
    ],
    1
   ],
   [
    [
     2.079497278209669,
     -83.1907859989327
    ],
    1
   ],
   [
    [
     2.0947832273469924,
     -83.21023895958832
    ],
    1
   ]
  ]
 },
 {
  "init_weights": [
   2.0,
   -95.4
  ],
  "results": [
   [
    [
     2.0934387500553533,
     -83.02460647377893
    ],
    1
   ],
   [
    [
     2.088696594883132,
     -83.17623173512415
    ],
    1
   ],
   [
    [
     2.090140096561701,
     -82.97020730724837
    ],
    1
   ],
   [
    [
     2.0932477418129616,
     -83.1730360713484
    ],
    1
   ],
   [
    [
     2.090857479371471,
     -83.20353789235389
    ],
    1
   ],
   [
    [
     2.087388831950675,
     -82.97266467712268
    ],
    1
   ],
   [
    [
     2.084487337451141,
     -83.15266538169736
    ],
    1
   ],
   [
    [
     2.0975236737678875,
     -83.04725029402225
    ],
    1
   ],
   [
    [
     2.0794190174234006,
     -83.00152876564982
    ],
    1
   ],
   [
    [
     2.094723251175322,
     -83.0209844410891
    ],
    1
   ]
  ]
 },
 {
  "init_weights": [
   2.0,
   -95.2
  ],
  "results": [
   [
    [
     2.093378027233482,
     -82.83536355130708
    ],
    1
   ],
   [
    [
     2.088625795323553,
     -82.9870080021555
    ],
    1
   ],
   [
    [
     2.0900766951022685,
     -82.78095740123108
    ],
    1
   ],
   [
    [
     2.09318201758,
     -82.98381182257904
    ],
    1
   ],
   [
    [
     2.0907874135198785,
     -83.01431727369845
    ],
    1
   ],
   [
    [
     2.087320446713525,
     -82.78341466117894
    ],
    1
   ],
   [
    [
     2.0844122495847577,
     -82.96343860160903
    ],
    1
   ],
   [
    [
     2.0974674024217994,
     -82.8580102396492
    ],
    1
   ],
   [
    [
     2.0793411686887557,
     -82.81228263989443
    ],
    1
   ],
   [
    [
     2.0946633168268933,
     -82.83174103724758
    ],
    1
   ]
  ]
 },
 {
  "init_weights": [
   2.0,
   -95.0
  ],
  "results": [
   [
    [
     2.0933172480502886,
     -82.64613177724593
    ],
    1
   ],
   [
    [
     2.0885552426790213,
     -82.79779546848805
    ],
    1
   ],
   [
    [
     2.0900136185061178,
     -82.59171862401266
    ],
    1
   ],
   [
    [
     2.0931165974434798,
     -82.79459877336257
    ],
    1
   ],
   [
    [
     2.090717785120221,
     -82.82510786170606
    ],
    1
   ],
   [
    [
     2.0872520890595374,
     -82.59417577148403
    ],
    1
   ],
   [
    [
     2.084337480161008,
     -82.7742230171383
    ],
    1
   ],
   [
    [
     2.097410963390065,
     -82.66878133551218
    ],
    1
   ],
   [
    [
     2.0792629144077854,
     -82.6230476489642
    ],
    1
   ],
   [
    [
     2.0946031349629215,
     -82.64250877141654
    ],
    1
   ]
  ]
 },
 {
  "init_weights": [
   2.0,
   -94.8
  ],
  "results": [
   [
    [
     2.093256862915786,
     -82.4569111887871
    ],
    1
   ],
   [
    [
     2.088484843425406,
     -82.60859417412524
    ],
    1
   ],
   [
    [
     2.0899501624815398,
     -82.40249100947528
    ],
    1
   ],
   [
    [
     2.093050479665578,
     -82.6053969610616
    ],
    1
   ],
   [
    [
     2.090647606490239,
     -82.63590968849857
    ],
    1
   ],
   [
    [
     2.0871835992151526,
     -82.40494803674369
    ],
    1
   ],
   [
    [
     2.0842620710839217,
     -82.58501865648789
    ],
    1
   ],
   [
    [
     2.097354434819779,
     -82.47956363043096
    ],
    1
   ],
   [
    [
     2.0791850421166864,
     -82.433823824074
    ],
    1
   ],
   [
    [
     2.094543203731789,
     -82.45328769440056
    ],
    1
   ]
  ]
 },
 {
  "init_weights": [
   2.0,
   -94.6
  ],
  "results": [
   [
    [
     2.093196161703208,
     -82.26770180917403
    ],
    1
   ],
   [
    [
     2.0884141830421314,
     -82.4194041535201
    ],
    1
   ],
   [
    [
     2.089886383647676,
     -82.21327459542823
    ],
    1
   ],
   [
    [
     2.0929847536344774,
     -82.41620641869316
    ],
    1
   ],
   [
    [
     2.090577722363515,
     -82.44672279789312
    ],
    1
   ],
   [
    [
     2.0871154299028056,
     -82.21573149706363
    ],
    1
   ],
   [
    [
     2.0841864223001507,
     -82.39582555275393
    ],
    1
   ],
   [
    [
     2.097298271727746,
     -82.29035714205753
    ],
    1
   ],
   [
    [
     2.079107205898745,
     -82.24461122105875
    ],
    1
   ],
   [
    [
     2.094483299719783,
     -82.26407782819106
    ],
    1
   ]
  ]
 },
 {
  "init_weights": [
   2.0,
   -94.4
  ],
  "results": [
   [
    [
     2.0931352324273065,
     -82.0785036845118
    ],
    1
   ],
   [
    [
     2.0883437817329162,
     -82.23022543794013
    ],
    1
   ],
   [
    [
     2.089823136157718,
     -82.024069406769
    ],
    1
   ],
   [
    [
     2.092918714723751,
     -82.22702717594544
    ],
    1
   ],
   [
    [
     2.090507635548107,
     -82.25754721806314
    ],
    1
   ],
   [
    [
     2.0870470282814595,
     -82.02652619072583
    ],
    1
   ],
   [
    [
     2.0841110502614644,
     -82.20664375510285
    ],
    1
   ],
   [
    [
     2.097241357040052,
     -82.10116192155638
    ],
    1
   ],
   [
    [
     2.0790283695664584,
     -82.05540984873089
    ],
    1
   ],
   [
    [
     2.0944232123591617,
     -82.07487920696173
    ],
    1
   ]
  ]
 },
 {
  "init_weights": [
   2.0,
   -94.2
  ],
  "results": [
   [
    [
     2.093074521230128,
     -81.88931684652695
    ],
    1
   ],
   [
    [
     2.0882727306852953,
     -82.04105805976457
    ],
    1
   ],
   [
    [
     2.089759396677317,
     -81.83487549385507
    ],
    1
   ],
   [
    [
     2.0928528347377005,
     -82.03785927663826
    ],
    1
   ],
   [
    [
     2.0904374905188634,
     -82.06838299689487
    ],
    1
   ],
   [
    [
     2.086978358170304,
     -81.83733215143535
    ],
    1
   ],
   [
    [
     2.084035747778233,
     -82.01747328807906
    ],
    1
   ],
   [
    [
     2.0971848997577633,
     -81.91197798983437
    ],
    1
   ],
   [
    [
     2.0789501536156347,
     -81.86621975376158
    ],
    1
   ],
   [
    [
     2.0943631106410847,
     -81.88569187790715
    ],
    1
   ]
  ]
 },
 {
  "init_weights": [
   2.0,
   -94.0
  ],
  "results": [
   [
    [
     2.0930135443539686,
     -81.70014133338778
    ],
    1
   ],
   [
    [
     2.0882016935644105,
     -81.85190206819534
    ],
    1
   ],
   [
    [
     2.0896958877758385,
     -81.64569287817076
    ],
    1
   ],
   [
    [
     2.092787116093713,
     -81.8487027549878
    ],
    1
   ],
   [
    [
     2.0903674839169297,
     -81.87923016377258
    ],
    1
   ],
   [
    [
     2.086909850231284,
     -81.64814941913565
    ],
    1
   ],
   [
    [
     2.0839604124700006,
     -81.8283141922366
    ],
    1
   ],
   [
    [
     2.097128344616677,
     -81.72280538790471
    ],
    1
   ],
   [
    [
     2.0788714174092475,
     -81.67704098049806
    ],
    1
   ],
   [
    [
     2.0943026949925003,
     -81.69651586738584
    ],
    1
   ]
  ]
 },
 {
  "init_weights": [
   2.0,
   -93.8
  ],
  "results": [
   [
    [
     2.0929527589467996,
     -81.51097718358344
    ],
    1
   ],
   [
    [
     2.088131194417438,
     -81.66275748868057
    ],
    1
   ],
   [
    [
     2.089632321624458,
     -81.45652160861538
    ],
    1
   ],
   [
    [
     2.092720653513517,
     -81.65955765142151
    ],
    1
   ],
   [
    [
     2.090297241511713,
     -81.69008874581061
    ],
    1
   ],
   [
    [
     2.0868409472626825,
     -81.45897801704902
    ],
    1
   ],
   [
    [
     2.0838844897033133,
     -81.63916650120825
    ],
    1
   ],
   [
    [
     2.09707190078649,
     -81.53364415879817
    ],
    1
   ],
   [
    [
     2.078793012689577,
     -81.48787355360999
    ],
    1
   ],
   [
    [
     2.094242727329102,
     -81.50735122427668
    ],
    1
   ]
  ]
 },
 {
  "init_weights": [
   2.0,
   -93.6
  ],
  "results": [
   [
    [
     2.0928920202739647,
     -81.32182442310159
    ],
    1
   ],
   [
    [
     2.088060034414206,
     -81.47362436526191
    ],
    1
   ],
   [
    [
     2.089568317708188,
     -81.26736172392984
    ],
    1
   ],
   [
    [
     2.0926548272548544,
     -81.47042399269891
    ],
    1
   ],
   [
    [
     2.0902268703408904,
     -81.50095879296848
    ],
    1
   ],
   [
    [
     2.086772235064052,
     -81.2698179942467
    ],
    1
   ],
   [
    [
     2.083808794989224,
     -81.45003025184643
    ],
    1
   ],
   [
    [
     2.097015382753534,
     -81.34449433463209
    ],
    1
   ],
   [
    [
     2.078714603462993,
     -81.29871751636203
    ],
    1
   ],
   [
    [
     2.094182521758597,
     -81.31819797003209
    ],
    1
   ]
  ]
 },
 {
  "init_weights": [
   2.0,
   -93.4
  ],
  "results": [
   [
    [
     2.092831085689901,
     -81.13268310220833
    ],
    1
   ],
   [
    [
     2.0879892444644472,
     -81.28450272688133
    ],
    1
   ],
   [
    [
     2.0895046985059462,
     -81.07821323972985
    ],
    1
   ],
   [
    [
     2.0925884125641843,
     -81.28130182241752
    ],
    1
   ],
   [
    [
     2.0901567371636602,
     -81.31184034188644
    ],
    1
   ],
   [
    [
     2.0867035350905554,
     -81.08066938516646
    ],
    1
   ],
   [
    [
     2.0837329685878707,
     -81.26090548655898
    ],
    1
   ],
   [
    [
     2.0969586364894295,
     -81.15535595263323
    ],
    1
   ],
   [
    [
     2.07863568569359,
     -81.10957289829173
    ],
    1
   ],
   [
    [
     2.0941223523078882,
     -81.12905614771157
    ],
    1
   ]
  ]
 },
 {
  "init_weights": [
   2.0,
   -93.2
  ],
  "results": [
   [
    [
     2.092769887837537,
     -80.94355324583546
    ],
    1
   ],
   [
    [
     2.087917938977455,
     -81.09539261356286
    ],
    1
   ],
   [
    [
     2.0894409367213713,
     -80.88907621029881
    ],
    1
   ],
   [
    [
     2.092522013275798,
     -81.09219117472975
    ],
    1
   ],
   [
    [
     2.090085914765555,
     -81.12273341940487
    ],
    1
   ],
   [
    [
     2.0866347317037457,
     -80.89153222039482
    ],
    1
   ],
   [
    [
     2.083657100963933,
     -81.07179223569565
    ],
    1
   ],
   [
    [
     2.096902130942458,
     -80.96622904380838
    ],
    1
   ],
   [
    [
     2.0785567205263726,
     -80.9204397401629
    ],
    1
   ],
   [
    [
     2.094062031670926,
     -80.9399257934309
    ],
    1
   ]
  ]
 },
 {
  "init_weights": [
   2.0,
   -93.0
  ],
  "results": [
   [
    [
     2.0927088666196023,
     -80.75443489747055
    ],
    1
   ],
   [
    [
     2.087846859122378,
     -80.90629406814963
    ],
    1
   ],
   [
    [
     2.089377244145821,
     -80.69995066455044
    ],
    1
   ],
   [
    [
     2.0924561541742777,
     -80.9030920871787
    ],
    1
   ],
   [
    [
     2.0900156790472817,
     -80.9336380761174
    ],
    1
   ],
   [
    [
     2.0865657746241366,
     -80.70240654702026
    ],
    1
   ],
   [
    [
     2.0835814136140045,
     -80.88269053941092
    ],
    1
   ],
   [
    [
     2.096845426285627,
     -80.77711365045701
    ],
    1
   ],
   [
    [
     2.078477818931052,
     -80.7313180804667
    ],
    1
   ],
   [
    [
     2.094001664649161,
     -80.75080694161859
    ],
    1
   ]
  ]
 },
 {
  "init_weights": [
   2.0,
   -92.8
  ],
  "results": [
   [
    [
     2.0926478181130403,
     -80.56532809216482
    ],
    1
   ],
   [
    [
     2.087775761805895,
     -80.71720711819832
    ],
    1
   ],
   [
    [
     2.089313358181222,
     -80.51083664609673
    ],
    1
   ],
   [
    [
     2.0923897839068264,
     -80.71400460617096
    ],
    1
   ],
   [
    [
     2.089945164404882,
     -80.74455433482666
    ],
    1
   ],
   [
    [
     2.086496590871199,
     -80.5132923877966
    ],
    1
   ],
   [
    [
     2.0835050966446107,
     -80.69360043198638
    ],
    1
   ],
   [
    [
     2.0967889230842003,
     -80.5880098114036
    ],
    1
   ],
   [
    [
     2.0783988783038567,
     -80.5422079490257
    ],
    1
   ],
   [
    [
     2.0939416640194057,
     -80.561699640123
    ],
    1
   ]
  ]
 },
 {
  "init_weights": [
   2.0,
   -92.6
  ],
  "results": [
   [
    [
     2.092586880044963,
     -80.37623287219344
    ],
    1
   ],
   [
    [
     2.087704280696994,
     -80.5281318120549
    ],
    1
   ],
   [
    [
     2.089249281204407,
     -80.32173419107627
    ],
    1
   ],
   [
    [
     2.0923235612365034,
     -80.52492875395133
    ],
    1
   ],
   [
    [
     2.089874665354062,
     -80.55548224043321
    ],
    1
   ],
   [
    [
     2.086427753884543,
     -80.32418978965337
    ],
    1
   ],
   [
    [
     2.083429002067098,
     -80.50452195190405
    ],
    1
   ],
   [
    [
     2.0967323744204935,
     -80.39891756003735
    ],
    1
   ],
   [
    [
     2.078319953945844,
     -80.35310940217745
    ],
    1
   ],
   [
    [
     2.0938810237330467,
     -80.37260391341303
    ],
    1
   ]
  ]
 },
 {
  "init_weights": [
   2.0,
   -92.4
  ],
  "results": [
   [
    [
     2.092525710869739,
     -80.18714927110507
    ],
    1
   ],
   [
    [
     2.087633096786465,
     -80.33906817866509
    ],
    1
   ],
   [
    [
     2.0891853939011464,
     -80.13264333316822
    ],
    1
   ],
   [
    [
     2.0922569795810353,
     -80.3358645811969
    ],
    1
   ],
   [
    [
     2.089803953534814,
     -80.36642183070539
    ],
    1
   ],
   [
    [
     2.086358698013625,
     -80.13509879257467
    ],
    1
   ],
   [
    [
     2.0833525855119888,
     -80.31545513879692
    ],
    1
   ],
   [
    [
     2.096675330733033,
     -80.20983694130142
    ],
    1
   ],
   [
    [
     2.0782403171809483,
     -80.16402245460273
    ],
    1
   ],
   [
    [
     2.093820812633992,
     -80.18351980050174
    ],
    1
   ]
  ]
 },
 {
  "init_weights": [
   2.0,
   -92.2
  ],
  "results": [
   [
    [
     2.0924646097316026,
     -79.99807732144487
    ],
    1
   ],
   [
    [
     2.087561797618868,
     -80.15001626430005
    ],
    1
   ],
   [
    [
     2.089121380779017,
     -79.94356410955172
    ],
    1
   ],
   [
    [
     2.0921905030796313,
     -80.14681211230462
    ],
    1
   ],
   [
    [
     2.089733062153526,
     -80.17737314444183
    ],
    1
   ],
   [
    [
     2.086289334872208,
     -79.94601942258579
    ],
    1
   ],
   [
    [
     2.083276202282226,
     -80.12640003407844
    ],
    1
   ],
   [
    [
     2.0966188379480135,
     -80.02076797476492
    ],
    1
   ],
   [
    [
     2.078160981602901,
     -79.97494714608186
    ],
    1
   ],
   [
    [
     2.0937603341263187,
     -79.99444734832501
    ],
    1
   ]
  ]
 },
 {
  "init_weights": [
   2.0,
   -92.0
  ],
  "results": [
   [
    [
     2.092403374369619,
     -79.80901706906225
    ],
    1
   ],
   [
    [
     2.087490254646658,
     -79.9609760973221
    ],
    1
   ],
   [
    [
     2.0890574603843888,
     -79.75449656067885
    ],
    1
   ],
   [
    [
     2.0921245972340485,
     -79.95777140272773
    ],
    1
   ],
   [
    [
     2.0896623773250638,
     -79.988336224323
    ],
    1
   ],
   [
    [
     2.0862203587826924,
     -79.75695173625978
    ],
    1
   ],
   [
    [
     2.0832003271773663,
     -79.93735666977871
    ],
    1
   ],
   [
    [
     2.0965623061973653,
     -79.83171071806873
    ],
    1
   ],
   [
    [
     2.0780816312141326,
     -79.7858835326561
    ],
    1
   ],
   [
    [
     2.09369975314919,
     -79.80538658161332
    ],
    1
   ]
  ]
 },
 {
  "init_weights": [
   2.0,
   -91.8
  ],
  "results": [
   [
    [
     2.0923421126965014,
     -79.61996854542423
    ],
    1
   ],
   [
    [
     2.0874188066275106,
     -79.77194772159632
    ],
    1
   ],
   [
    [
     2.088993301439766,
     -79.56544072324021
    ],
    1
   ],
   [
    [
     2.0920577605934243,
     -79.76874248068587
    ],
    1
   ],
   [
    [
     2.0895915111359677,
     -79.79931109837025
    ],
    1
   ],
   [
    [
     2.086150612901155,
     -79.567895747058
    ],
    1
   ],
   [
    [
     2.0831235656109035,
     -79.74832509076323
    ],
    1
   ],
   [
    [
     2.096505524370264,
     -79.6426652054803
    ],
    1
   ],
   [
    [
     2.0780020350971276,
     -79.59683163652042
    ],
    1
   ],
   [
    [
     2.093639516524263,
     -79.61633755483868
    ],
    1
   ]
  ]
 },
 {
  "init_weights": [
   2.0,
   -91.6
  ],
  "results": [
   [
    [
     2.0922810620397345,
     -79.43093179770861
    ],
    1
   ],
   [
    [
     2.087347049337986,
     -79.58293117760056
    ],
    1
   ],
   [
    [
     2.0889289699589004,
     -79.3763966439808
    ],
    1
   ],
   [
    [
     2.0919911811202523,
     -79.57972538185355
    ],
    1
   ],
   [
    [
     2.0895207964373057,
     -79.61029781182087
    ],
    1
   ],
   [
    [
     2.086081467548447,
     -79.37885151438292
    ],
    1
   ],
   [
    [
     2.0830470340065377,
     -79.55930532143333
    ],
    1
   ],
   [
    [
     2.096448864050421,
     -79.45363146591389
    ],
    1
   ],
   [
    [
     2.077922675587346,
     -79.4077915110872
    ],
    1
   ],
   [
    [
     2.093578977367334,
     -79.4273002980015
    ],
    1
   ]
  ]
 },
 {
  "init_weights": [
   2.0,
   -91.4
  ],
  "results": [
   [
    [
     2.0922195939100487,
     -79.24190685746265
    ],
    1
   ],
   [
    [
     2.087275453948932,
     -79.39392649953169
    ],
    1
   ],
   [
    [
     2.08886492545239,
     -79.18736434657474
    ],
    1
   ],
   [
    [
     2.0919244317323393,
     -79.39072015226446
    ],
    1
   ],
   [
    [
     2.089449838988706,
     -79.42129640282197
    ],
    1
   ],
   [
    [
     2.086012135720196,
     -79.18981906559857
    ],
    1
   ],
   [
    [
     2.082970248989596,
     -79.37029741607292
    ],
    1
   ],
   [
    [
     2.0963919488032223,
     -79.26460955398315
    ],
    1
   ],
   [
    [
     2.077842660409688,
     -79.21876317408694
    ],
    1
   ],
   [
    [
     2.0935184746909075,
     -79.23827484311953
    ],
    1
   ]
  ]
 },
 {
  "init_weights": [
   2.0,
   -91.2
  ],
  "results": [
   [
    [
     2.092158485818941,
     -79.05289376582603
    ],
    1
   ],
   [
    [
     2.087203664417564,
     -79.20493373045282
    ],
    1
   ],
   [
    [
     2.0888008641543028,
     -78.99834388215382
    ],
    1
   ],
   [
    [
     2.0918577069053277,
     -79.20172682248455
    ],
    1
   ],
   [
    [
     2.0893787221337745,
     -79.23230691098458
    ],
    1
   ],
   [
    [
     2.0859426134150025,
     -79.00079844606
    ],
    1
   ],
   [
    [
     2.08289350000032,
     -79.1813014121586
    ],
    1
   ],
   [
    [
     2.0963352890953457,
     -79.07559949048297
    ],
    1
   ],
   [
    [
     2.0777627011049553,
     -79.02974667888658
    ],
    1
   ],
   [
    [
     2.093458005288089,
     -79.04926123757843
    ],
    1
   ]
  ]
 },
 {
  "init_weights": [
   2.0,
   -91.0
  ],
  "results": [
   [
    [
     2.092097060061001,
     -78.86389256260662
    ],
    1
   ],
   [
    [
     2.087132083470451,
     -79.0159529108957
    ],
    1
   ],
   [
    [
     2.0887364064209932,
     -78.80933527853199
    ],
    1
   ],
   [
    [
     2.0917915406884986,
     -79.01274544223111
    ],
    1
   ],
   [
    [
     2.0893077224654677,
     -79.04332937641443
    ],
    1
   ],
   [
    [
     2.085873161313377,
     -78.81178969317058
    ],
    1
   ],
   [
    [
     2.082817101622336,
     -78.99231734258612
    ],
    1
   ],
   [
    [
     2.0962787063963915,
     -78.88660132332313
    ],
    1
   ],
   [
    [
     2.077682693437053,
     -78.84074206277559
    ],
    1
   ],
   [
    [
     2.0933969963945915,
     -78.86025951316324
    ],
    1
   ]
  ]
 },
 {
  "init_weights": [
   2.0,
   -90.8
  ],
  "results": [
   [
    [
     2.092035565572736,
     -78.67490328642859
    ],
    1
   ],
   [
    [
     2.087060062424145,
     -78.82698406981426
    ],
    1
   ],
   [
    [
     2.0886722399661406,
     -78.62033858287823
    ],
    1
   ],
   [
    [
     2.091724304266019,
     -78.82377604725488
    ],
    1
   ],
   [
    [
     2.089236627451794,
     -78.85436383225505
    ],
    1
   ],
   [
    [
     2.0858032688233514,
     -78.62279284085477
    ],
    1
   ],
   [
    [
     2.0827401164326256,
     -78.80334524912625
    ],
    1
   ],
   [
    [
     2.0962218213972106,
     -78.6976150961472
    ],
    1
   ],
   [
    [
     2.0776029639103446,
     -78.65174935827677
    ],
    1
   ],
   [
    [
     2.093336606389489,
     -78.67126972515075
    ],
    1
   ]
  ]
 },
 {
  "init_weights": [
   2.0,
   -90.6
  ],
  "results": [
   [
    [
     2.0919744135821228,
     -78.4859259746241
    ],
    1
   ],
   [
    [
     2.086988022004646,
     -78.63802726292235
    ],
    1
   ],
   [
    [
     2.088607624752762,
     -78.43135384129216
    ],
    1
   ],
   [
    [
     2.0916577875255977,
     -78.63481867468676
    ],
    1
   ],
   [
    [
     2.089165694276465,
     -78.66541032669936
    ],
    1
   ],
   [
    [
     2.0857339240282844,
     -78.4338079282662
    ],
    1
   ],
   [
    [
     2.0826629682501716,
     -78.61438516562625
    ],
    1
   ],
   [
    [
     2.0961649172520778,
     -78.50864083815856
    ],
    1
   ],
   [
    [
     2.0775226758702794,
     -78.46276861705572
    ],
    1
   ],
   [
    [
     2.0932761055594207,
     -78.48229189783571
    ],
    1
   ]
  ]
 },
 {
  "init_weights": [
   2.0,
   -90.4
  ],
  "results": [
   [
    [
     2.091913026778774,
     -78.29696067083773
    ],
    1
   ],
   [
    [
     2.0869161870530775,
     -78.44908251833273
    ],
    1
   ],
   [
    [
     2.088543174354679,
     -78.24238107544936
    ],
    1
   ],
   [
    [
     2.0915907472802684,
     -78.44587336778486
    ],
    1
   ],
   [
    [
     2.089094319988243,
     -78.47646889058804
    ],
    1
   ],
   [
    [
     2.0856640332621166,
     -78.24483500374662
    ],
    1
   ],
   [
    [
     2.0825859416298527,
     -78.4254371444229
    ],
    1
   ],
   [
    [
     2.096108040388858,
     -78.31967860431166
    ],
    1
   ],
   [
    [
     2.077442302819468,
     -78.27379986333268
    ],
    1
   ],
   [
    [
     2.0932154198516217,
     -78.29332606938837
    ],
    1
   ]
  ]
 },
 {
  "init_weights": [
   2.0,
   -90.2
  ],
  "results": [
   [
    [
     2.091851450387639,
     -78.10800741273516
    ],
    1
   ],
   [
    [
     2.086844156442561,
     -78.26014988025719
    ],
    1
   ],
   [
    [
     2.08847892269925,
     -78.05342034012517
    ],
    1
   ],
   [
    [
     2.0915237971365643,
     -78.25694016173397
    ],
    1
   ],
   [
    [
     2.089022613458273,
     -78.28753957564791
    ],
    1
   ],
   [
    [
     2.08559419254816,
     -78.05587409934253
    ],
    1
   ],
   [
    [
     2.08250872611272,
     -78.23650121969442
    ],
    1
   ],
   [
    [
     2.0960512756923304,
     -78.13072841750221
    ],
    1
   ],
   [
    [
     2.077362021500248,
     -78.08484314703709
    ],
    1
   ],
   [
    [
     2.093154789275668,
     -78.10437228884612
    ],
    1
   ]
  ]
 },
 {
  "init_weights": [
   2.0,
   -90.0
  ],
  "results": [
   [
    [
     2.091789949718729,
     -77.91906624216969
    ],
    1
   ],
   [
    [
     2.0867719500019533,
     -78.07122938945783
    ],
    1
   ],
   [
    [
     2.088414331667966,
     -77.86447166190412
    ],
    1
   ],
   [
    [
     2.0914574135174493,
     -78.06801909851613
    ],
    1
   ],
   [
    [
     2.0889515135404726,
     -78.0986224141636
    ],
    1
   ],
   [
    [
     2.085524314416009,
     -77.86692526199792
    ],
    1
   ],
   [
    [
     2.082431817781404,
     -78.0475774323318
    ],
    1
   ],
   [
    [
     2.0959946014519755,
     -77.94179032260716
    ],
    1
   ],
   [
    [
     2.0772813971004194,
     -77.89589851205358
    ],
    1
   ],
   [
    [
     2.093093789129634,
     -77.9154305912283
    ],
    1
   ]
  ]
 },
 {
  "init_weights": [
   2.0,
   -89.8
  ],
  "results": [
   [
    [
     2.091728703543859,
     -77.73013719316633
    ],
    1
   ],
   [
    [
     2.0866998092587288,
     -77.88232108522746
    ],
    1
   ],
   [
    [
     2.088349866854392,
     -77.67553509652218
    ],
    1
   ],
   [
    [
     2.0913900626784145,
     -77.87911022912638
    ],
    1
   ],
   [
    [
     2.0888800069121753,
     -77.90971744637687
    ],
    1
   ],
   [
    [
     2.0854541306700725,
     -77.67798852984309
    ],
    1
   ],
   [
    [
     2.0823544117478554,
     -77.858665818115
    ],
    1
   ],
   [
    [
     2.0959376433088033,
     -77.75286437017479
    ],
    1
   ],
   [
    [
     2.0772011461364985,
     -77.7069659857057
    ],
    1
   ],
   [
    [
     2.093033251012426,
     -77.72650102836243
    ],
    1
   ]
  ]
 },
 {
  "init_weights": [
   2.0,
   -89.6
  ],
  "results": [
   [
    [
     2.091666898782273,
     -77.541220315012
    ],
    1
   ],
   [
    [
     2.0866274303158723,
     -77.69342501036603
    ],
    1
   ],
   [
    [
     2.0882852273264265,
     -77.48661067966472
    ],
    1
   ],
   [
    [
     2.0913231434682253,
     -77.69021357999463
    ],
    1
   ],
   [
    [
     2.0888085848134574,
     -77.72082472025761
    ],
    1
   ],
   [
    [
     2.0853845610762405,
     -77.48906393607373
    ],
    1
   ],
   [
    [
     2.0822767832632607,
     -77.66976642053856
    ],
    1
   ],
   [
    [
     2.095880757315611,
     -77.563950590696
    ],
    1
   ],
   [
    [
     2.077120556125353,
     -77.51804562284102
    ],
    1
   ],
   [
    [
     2.0929722965610003,
     -77.53758362418623
    ],
    1
   ]
  ]
 },
 {
  "init_weights": [
   2.0,
   -89.4
  ],
  "results": [
   [
    [
     2.091605406808452,
     -77.35231564234134
    ],
    1
   ],
   [
    [
     2.0865553321226744,
     -77.50454120619405
    ],
    1
   ],
   [
    [
     2.0882205383035055,
     -77.29769844614063
    ],
    1
   ],
   [
    [
     2.0912559097913697,
     -77.50132919667017
    ],
    1
   ],
   [
    [
     2.08873701981983,
     -77.531944272253
    ],
    1
   ],
   [
    [
     2.0853144583310623,
     -77.30015152318921
    ],
    1
   ],
   [
    [
     2.0821992928736495,
     -77.48087928508475
    ],
    1
   ],
   [
    [
     2.0958235694973433,
     -77.37504903125763
    ],
    1
   ],
   [
    [
     2.077039523582769,
     -77.32913744970078
    ],
    1
   ],
   [
    [
     2.092911589147513,
     -77.34867842234382
    ],
    1
   ]
  ]
 },
 {
  "init_weights": [
   2.0,
   -89.2
  ],
  "results": [
   [
    [
     2.091543719866585,
     -77.16342322217047
    ],
    1
   ],
   [
    [
     2.0864828346258455,
     -77.31566971008438
    ],
    1
   ],
   [
    [
     2.0881559694306584,
     -77.10879843947613
    ],
    1
   ],
   [
    [
     2.091188755400156,
     -77.31245712144614
    ],
    1
   ],
   [
    [
     2.0886653856873134,
     -77.34307614211603
    ],
    1
   ],
   [
    [
     2.0852443931281637,
     -77.1112513431276
    ],
    1
   ],
   [
    [
     2.0821218668761063,
     -77.29200445256153
    ],
    1
   ],
   [
    [
     2.0957668346979306,
     -77.18615972121515
    ],
    1
   ],
   [
    [
     2.0769588477405345,
     -77.14024151917668
    ],
    1
   ],
   [
    [
     2.0928507380876638,
     -77.15978547219781
    ],
    1
   ]
  ]
 },
 {
  "init_weights": [
   2.0,
   -89.0
  ],
  "results": [
   [
    [
     2.091481944981968,
     -76.97454309257566
    ],
    1
   ],
   [
    [
     2.0864103327746153,
     -77.12681056980134
    ],
    1
   ],
   [
    [
     2.088091212285767,
     -76.9199106985374
    ],
    1
   ],
   [
    [
     2.091121971447159,
     -77.12359739754788
    ],
    1
   ],
   [
    [
     2.0885937349383066,
     -77.15422037626047
    ],
    1
   ],
   [
    [
     2.085174017523742,
     -76.92236342864653
    ],
    1
   ],
   [
    [
     2.0820443690851165,
     -77.10314195849315
    ],
    1
   ],
   [
    [
     2.095709953325317,
     -76.99728271608295
    ],
    1
   ],
   [
    [
     2.076877715096422,
     -76.95135786831135
    ],
    1
   ],
   [
    [
     2.0927896523700626,
     -76.97090480708697
    ],
    1
   ]
  ]
 },
 {
  "init_weights": [
   2.0,
   -88.8
  ],
  "results": [
   [
    [
     2.091420266539845,
     -76.78567529368851
    ],
    1
   ],
   [
    [
     2.0863379073830024,
     -76.93796381825979
    ],
    1
   ],
   [
    [
     2.0880264572696987,
     -76.73103527273632
    ],
    1
   ],
   [
    [
     2.09105451235928,
     -76.93475007144636
    ],
    1
   ],
   [
    [
     2.088521932142792,
     -76.96537700720557
    ],
    1
   ],
   [
    [
     2.0851035923778958,
     -76.73348782206807
    ],
    1
   ],
   [
    [
     2.081966474688692,
     -76.91429184811751
    ],
    1
   ],
   [
    [
     2.0956530842237213,
     -76.80841805117551
    ],
    1
   ],
   [
    [
     2.0767967770762974,
     -76.76248653672587
    ],
    1
   ],
   [
    [
     2.0927287669271526,
     -76.78203647848176
    ],
    1
   ]
  ]
 },
 {
  "init_weights": [
   2.0,
   -88.6
  ],
  "results": [
   [
    [
     2.0913587192321135,
     -76.59681986479404
    ],
    1
   ],
   [
    [
     2.086265236998821,
     -76.74912950945769
    ],
    1
   ],
   [
    [
     2.0879615261938094,
     -76.54217220939796
    ],
    1
   ],
   [
    [
     2.0909873500702134,
     -76.74591517395606
    ],
    1
   ],
   [
    [
     2.088450372500228,
     -76.77654609096624
    ],
    1
   ],
   [
    [
     2.0850335961491133,
     -76.54462455942851
    ],
    1
   ],
   [
    [
     2.0818885936943294,
     -76.72545416014536
    ],
    1
   ],
   [
    [
     2.095596122015707,
     -76.61956576745473
    ],
    1
   ],
   [
    [
     2.076715684936315,
     -76.57362757254683
    ],
    1
   ],
   [
    [
     2.092668000586557,
     -76.59318052358147
    ],
    1
   ]
  ]
 },
 {
  "init_weights": [
   2.0,
   -88.4
  ],
  "results": [
   [
    [
     2.091296829524599,
     -76.40797685843928
    ],
    1
   ],
   [
    [
     2.086192756364036,
     -76.56030767753911
    ],
    1
   ],
   [
    [
     2.087896637499469,
     -76.35332152502879
    ],
    1
   ],
   [
    [
     2.0909198798808886,
     -76.55709275126422
    ],
    1
   ],
   [
    [
     2.0883783997579433,
     -76.58772765790648
    ],
    1
   ],
   [
    [
     2.084963224670928,
     -76.35577369494894
    ],
    1
   ],
   [
    [
     2.081810568828455,
     -76.53662894536598
    ],
    1
   ],
   [
    [
     2.095538883325688,
     -76.43072591665452
    ],
    1
   ],
   [
    [
     2.07663418162231,
     -76.3847810065391
    ],
    1
   ],
   [
    [
     2.092606980598224,
     -76.40433697573037
    ],
    1
   ]
  ]
 },
 {
  "init_weights": [
   2.0,
   -88.2
  ],
  "results": [
   [
    [
     2.09123497733987,
     -76.21914630683777
    ],
    1
   ],
   [
    [
     2.086119867597458,
     -76.3714983682212
    ],
    1
   ],
   [
    [
     2.087831636294438,
     -76.16448328131828
    ],
    1
   ],
   [
    [
     2.090852495479962,
     -76.36828284968888
    ],
    1
   ],
   [
    [
     2.088306271319617,
     -76.39892175652457
    ],
    1
   ],
   [
    [
     2.0848926088834436,
     -76.16693526183856
    ],
    1
   ],
   [
    [
     2.081732646985556,
     -76.34781624207136
    ],
    1
   ],
   [
    [
     2.0954821537723936,
     -76.24189852270975
    ],
    1
   ],
   [
    [
     2.076552908653549,
     -76.19594689078963
    ],
    1
   ],
   [
    [
     2.092546155653186,
     -76.21550588771248
    ],
    1
   ]
  ]
 },
 {
  "init_weights": [
   2.0,
   -88.0
  ],
  "results": [
   [
    [
     2.0911730739993706,
     -76.03032826064069
    ],
    1
   ],
   [
    [
     2.0860470245363265,
     -76.1827016205798
    ],
    1
   ],
   [
    [
     2.0877669325632815,
     -75.97565751636598
    ],
    1
   ],
   [
    [
     2.0907854651167184,
     -76.17948550573064
    ],
    1
   ],
   [
    [
     2.0882347337612286,
     -76.21012843202223
    ],
    1
   ],
   [
    [
     2.0848224171135934,
     -75.97810931200033
    ],
    1
   ],
   [
    [
     2.0816549261009447,
     -76.15901608961784
    ],
    1
   ],
   [
    [
     2.095425345171506,
     -76.05308364441734
    ],
    1
   ],
   [
    [
     2.076471278894366,
     -76.00712526549103
    ],
    1
   ],
   [
    [
     2.0924847613041875,
     -76.02668729694815
    ],
    1
   ]
  ]
 },
 {
  "init_weights": [
   2.0,
   -87.8
  ],
  "results": [
   [
    [
     2.09111122215089,
     -75.84152275258161
    ],
    1
   ],
   [
    [
     2.085974416771336,
     -75.99391747593995
    ],
    1
   ],
   [
    [
     2.087701869759863,
     -75.7868442724732
    ],
    1
   ],
   [
    [
     2.090717695007704,
     -75.99070077215207
    ],
    1
   ],
   [
    [
     2.0881625109068334,
     -76.02134772047347
    ],
    1
   ],
   [
    [
     2.08475152437509,
     -75.7892958741055
    ],
    1
   ],
   [
    [
     2.081576275251368,
     -75.9702285341819
    ],
    1
   ],
   [
    [
     2.0953680984761265,
     -75.86428131458555
    ],
    1
   ],
   [
    [
     2.0763897113741985,
     -75.8183161707622
    ],
    1
   ],
   [
    [
     2.092424008847569,
     -75.8378812556422
    ],
    1
   ]
  ]
 },
 {
  "init_weights": [
   2.0,
   -87.6
  ],
  "results": [
   [
    [
     2.0910495634805994,
     -75.6527298288726
    ],
    1
   ],
   [
    [
     2.0859013478837407,
     -75.80514598944724
    ],
    1
   ],
   [
    [
     2.0876365797570364,
     -75.5980435999248
    ],
    1
   ],
   [
    [
     2.090650375527424,
     -75.80192868803655
    ],
    1
   ],
   [
    [
     2.0880902535439185,
     -75.8325796668744
    ],
    1
   ],
   [
    [
     2.0846810485953315,
     -75.6004949941584
    ],
    1
   ],
   [
    [
     2.08149802241895,
     -75.78145361492095
    ],
    1
   ],
   [
    [
     2.0953111927363164,
     -75.67549157924871
    ],
    1
   ],
   [
    [
     2.0763081679431608,
     -75.62951965754344
    ],
    1
   ],
   [
    [
     2.0923629262925716,
     -75.64908779523688
    ],
    1
   ]
  ]
 },
 {
  "init_weights": [
   2.0,
   -87.4
  ],
  "results": [
   [
    [
     2.0909876562316283,
     -75.4639495407155
    ],
    1
   ],
   [
    [
     2.085828356188539,
     -75.61638719071058
    ],
    1
   ],
   [
    [
     2.087571730595236,
     -75.40925552971176
    ],
    1
   ],
   [
    [
     2.09058255096401,
     -75.6131692903732
    ],
    1
   ],
   [
    [
     2.088018109112469,
     -75.64382431829263
    ],
    1
   ],
   [
    [
     2.0846104425360354,
     -75.41170672443671
    ],
    1
   ],
   [
    [
     2.08141969728593,
     -75.59269138241304
    ],
    1
   ],
   [
    [
     2.0952539736869764,
     -75.48671449338019
    ],
    1
   ],
   [
    [
     2.076226120721134,
     -75.44073575608276
    ],
    1
   ],
   [
    [
     2.092301932732664,
     -75.46030695830136
    ],
    1
   ]
  ]
 },
 {
  "init_weights": [
   2.0,
   -87.2
  ],
  "results": [
   [
    [
     2.090925713608557,
     -75.2751819220444
    ],
    1
   ],
   [
    [
     2.0857552904165932,
     -75.4276411334076
    ],
    1
   ],
   [
    [
     2.087506476301821,
     -75.22048011196088
    ],
    1
   ],
   [
    [
     2.090515152225549,
     -75.42442262850156
    ],
    1
   ],
   [
    [
     2.0879458035219067,
     -75.45508171824687
    ],
    1
   ],
   [
    [
     2.08453953916353,
     -75.22293110837028
    ],
    1
   ],
   [
    [
     2.081341396702638,
     -75.4039418764693
    ],
    1
   ],
   [
    [
     2.095197105340592,
     -75.29795007918999
    ],
    1
   ],
   [
    [
     2.076144339219263,
     -75.25196451744158
    ],
    1
   ],
   [
    [
     2.0922406021243316,
     -75.27153879529968
    ],
    1
   ]
  ]
 },
 {
  "init_weights": [
   2.0,
   -87.0
  ],
  "results": [
   [
    [
     2.090863651163989,
     -75.08642702426685
    ],
    1
   ],
   [
    [
     2.085682197598178,
     -75.23890786095002
    ],
    1
   ],
   [
    [
     2.087441281850572,
     -75.03171738724672
    ],
    1
   ],
   [
    [
     2.090447877964358,
     -75.23568874582759
    ],
    1
   ],
   [
    [
     2.0878737023262937,
     -75.26635191119652
    ],
    1
   ],
   [
    [
     2.0844687958520565,
     -75.03416818114937
    ],
    1
   ],
   [
    [
     2.0812629637499995,
     -75.21520514311807
    ],
    1
   ],
   [
    [
     2.0951402353167454,
     -75.10919839578406
    ],
    1
   ],
   [
    [
     2.0760622075257587,
     -75.06320598468677
    ],
    1
   ],
   [
    [
     2.092179267438689,
     -75.0827833504769
    ],
    1
   ]
  ]
 },
 {
  "init_weights": [
   2.0,
   -86.8
  ],
  "results": [
   [
    [
     2.0908017901107194,
     -74.89768488509372
    ],
    1
   ],
   [
    [
     2.0856089878637074,
     -75.05018740768324
    ],
    1
   ],
   [
    [
     2.087376008200059,
     -74.84296740144387
    ],
    1
   ],
   [
    [
     2.0903799866257127,
     -75.0469676939376
    ],
    1
   ],
   [
    [
     2.087801254641289,
     -75.0776349342204
    ],
    1
   ],
   [
    [
     2.084397487409562,
     -74.8454179862236
    ],
    1
   ],
   [
    [
     2.081184186605742,
     -75.02648122135894
    ],
    1
   ],
   [
    [
     2.095082964424547,
     -74.92045948368516
    ],
    1
   ],
   [
    [
     2.075980108049617,
     -74.87446020300914
    ],
    1
   ],
   [
    [
     2.092118303960782,
     -74.8940406670136
    ],
    1
   ]
  ]
 },
 {
  "init_weights": [
   2.0,
   -86.6
  ],
  "results": [
   [
    [
     2.090739837917678,
     -74.70895555038179
    ],
    1
   ],
   [
    [
     2.0855355126861075,
     -74.86147982953773
    ],
    1
   ],
   [
    [
     2.0873106084072486,
     -74.65423020164319
    ],
    1
   ],
   [
    [
     2.090312318307316,
     -74.85825950310691
    ],
    1
   ],
   [
    [
     2.0877288248092754,
     -74.8889308385134
    ],
    1
   ],
   [
    [
     2.084327020144245,
     -74.65668057120936
    ],
    1
   ],
   [
    [
     2.081105549797333,
     -74.83777015879015
    ],
    1
   ],
   [
    [
     2.095026168573895,
     -74.73173338020008
    ],
    1
   ],
   [
    [
     2.0758979206196773,
     -74.68572721952825
    ],
    1
   ],
   [
    [
     2.0920569455858127,
     -74.70531078588564
    ],
    1
   ]
  ]
 },
 {
  "init_weights": [
   2.0,
   -86.4
  ],
  "results": [
   [
    [
     2.0906777343532608,
     -74.52023906778224
    ],
    1
   ],
   [
    [
     2.0854623443834988,
     -74.67278516630056
    ],
    1
   ],
   [
    [
     2.087245432454608,
     -74.46550582950944
    ],
    1
   ],
   [
    [
     2.09024426725029,
     -74.66956422898164
    ],
    1
   ],
   [
    [
     2.08765642373414,
     -74.7002396727233
    ],
    1
   ],
   [
    [
     2.084255929948515,
     -74.46795598449205
    ],
    1
   ],
   [
    [
     2.081026586967527,
     -74.64907200480988
    ],
    1
   ],
   [
    [
     2.094968550248413,
     -74.54302014867945
    ],
    1
   ],
   [
    [
     2.075815345735512,
     -74.4970070659698
    ],
    1
   ],
   [
    [
     2.0919959979050926,
     -74.51659374761931
    ],
    1
   ]
  ]
 },
 {
  "init_weights": [
   2.0,
   -86.2
  ],
  "results": [
   [
    [
     2.0906153581472076,
     -74.3315354805228
    ],
    1
   ],
   [
    [
     2.0853887679479093,
     -74.4841034646308
    ],
    1
   ],
   [
    [
     2.0871802657033536,
     -74.27679432866253
    ],
    1
   ],
   [
    [
     2.0901765238080996,
     -74.48088190991683
    ],
    1
   ],
   [
    [
     2.087583759885471,
     -74.51156147485
    ],
    1
   ],
   [
    [
     2.0841848554507,
     -74.27924426446167
    ],
    1
   ],
   [
    [
     2.080947684618082,
     -74.460386798951
    ],
    1
   ],
   [
    [
     2.0949119191861594,
     -74.3543198107035
    ],
    1
   ],
   [
    [
     2.075733048545544,
     -74.3082997998651
    ],
    1
   ],
   [
    [
     2.0919347044006913,
     -74.32788960980663
    ],
    1
   ]
  ]
 },
 {
  "init_weights": [
   2.0,
   -86.0
  ],
  "results": [
   [
    [
     2.0905531443952126,
     -74.14284483232365
    ],
    1
   ],
   [
    [
     2.0853154388464716,
     -74.29543477287275
    ],
    1
   ],
   [
    [
     2.087114555113429,
     -74.08809574265811
    ],
    1
   ],
   [
    [
     2.0901089641233566,
     -74.29221259546075
    ],
    1
   ],
   [
    [
     2.087511252270399,
     -74.32289629554784
    ],
    1
   ],
   [
    [
     2.084113559072297,
     -74.09054546826403
    ],
    1
   ],
   [
    [
     2.080868914267366,
     -74.27171458723578
    ],
    1
   ],
   [
    [
     2.0948547187487194,
     -74.16563242202892
    ],
    1
   ],
   [
    [
     2.0756503546587486,
     -74.1196054639189
    ],
    1
   ],
   [
    [
     2.0918730866524484,
     -74.13919840687059
    ],
    1
   ]
  ]
 },
 {
  "init_weights": [
   2.0,
   -85.8
  ],
  "results": [
   [
    [
     2.090491194709144,
     -73.95416716946264
    ],
    1
   ],
   [
    [
     2.0852419362154833,
     -74.106779124621
    ],
    1
   ],
   [
    [
     2.0870492349285588,
     -73.89941012044622
    ],
    1
   ],
   [
    [
     2.090040822294859,
     -74.10355633644735
    ],
    1
   ],
   [
    [
     2.0874385695509514,
     -74.13424417794972
    ],
    1
   ],
   [
    [
     2.0840422993417724,
     -73.90185962347053
    ],
    1
   ],
   [
    [
     2.080789558093509,
     -74.08305541969096
    ],
    1
   ],
   [
    [
     2.094797400912051,
     -73.97695803638294
    ],
    1
   ],
   [
    [
     2.075567729179394,
     -73.93092409670054
    ],
    1
   ],
   [
    [
     2.0918119639679893,
     -73.95052018916145
    ],
    1
   ]
  ]
 },
 {
  "init_weights": [
   2.0,
   -85.6
  ],
  "results": [
   [
    [
     2.0904290193801844,
     -73.76550253925802
    ],
    1
   ],
   [
    [
     2.085168298253727,
     -73.91813658184081
    ],
    1
   ],
   [
    [
     2.0869835566512274,
     -73.71073751438207
    ],
    1
   ],
   [
    [
     2.0899729301590058,
     -73.91491316813831
    ],
    1
   ],
   [
    [
     2.087365732616215,
     -73.94560516320098
    ],
    1
   ],
   [
    [
     2.083971191804731,
     -73.71318678493176
    ],
    1
   ],
   [
    [
     2.0807104565286263,
     -73.89440933034649
    ],
    1
   ],
   [
    [
     2.094740372047821,
     -73.78829668364425
    ],
    1
   ],
   [
    [
     2.0754850030399457,
     -73.74225575740434
    ],
    1
   ],
   [
    [
     2.091750654801438,
     -73.76185500263625
    ],
    1
   ]
  ]
 },
 {
  "init_weights": [
   2.0,
   -85.4
  ],
  "results": [
   [
    [
     2.090366680323254,
     -73.57685098327889
    ],
    1
   ],
   [
    [
     2.0850946950666103,
     -73.72950717872348
    ],
    1
   ],
   [
    [
     2.0869179169976,
     -73.52207795395461
    ],
    1
   ],
   [
    [
     2.0899047365650576,
     -73.72628313852836
    ],
    1
   ],
   [
    [
     2.0872930137425296,
     -73.75697930452041
    ],
    1
   ],
   [
    [
     2.0838996782278683,
     -73.52452699849604
    ],
    1
   ],
   [
    [
     2.0806309886689296,
     -73.70577637833276
    ],
    1
   ],
   [
    [
     2.0946830401415544,
     -73.59964842417743
    ],
    1
   ],
   [
    [
     2.075401746671897,
     -73.55360047577712
    ],
    1
   ],
   [
    [
     2.0916893542263773,
     -73.57320289044262
    ],
    1
   ]
  ]
 },
 {
  "init_weights": [
   2.0,
   -85.2
  ],
  "results": [
   [
    [
     2.090304536626647,
     -73.38821255363712
    ],
    1
   ],
   [
    [
     2.085020741094285,
     -73.54089096705492
    ],
    1
   ],
   [
    [
     2.0868523594221324,
     -73.3334314965131
    ],
    1
   ],
   [
    [
     2.089836731839269,
     -73.53766629936543
    ],
    1
   ],
   [
    [
     2.0872200016217697,
     -73.56836664535989
    ],
    1
   ],
   [
    [
     2.0838282774364525,
     -73.33588030875971
    ],
    1
   ],
   [
    [
     2.080551771086338,
     -73.51715660874203
    ],
    1
   ],
   [
    [
     2.0946261370763435,
     -73.41101329209302
    ],
    1
   ],
   [
    [
     2.0753189766419107,
     -73.36495830703211
    ],
    1
   ],
   [
    [
     2.091627841228935,
     -73.38456389772342
    ],
    1
   ]
  ]
 },
 {
  "init_weights": [
   2.0,
   -85.0
  ],
  "results": [
   [
    [
     2.0902419590557484,
     -73.19958729279386
    ],
    1
   ],
   [
    [
     2.084946986391226,
     -73.35228799788513
    ],
    1
   ],
   [
    [
     2.0867866905861314,
     -73.14479818457605
    ],
    1
   ],
   [
    [
     2.0897690562715945,
     -73.34906269538388
    ],
    1
   ],
   [
    [
     2.0871472509978797,
     -73.37976723780305
    ],
    1
   ],
   [
    [
     2.083756842317079,
     -73.14724676521209
    ],
    1
   ],
   [
    [
     2.0804725199718552,
     -73.32855006445202
    ],
    1
   ],
   [
    [
     2.094569012968087,
     -73.22239133935109
    ],
    1
   ],
   [
    [
     2.0752357073587984,
     -73.17632930025184
    ],
    1
   ],
   [
    [
     2.0915662959842947,
     -73.19593807174056
    ],
    1
   ]
  ]
 },
 {
  "init_weights": [
   2.0,
   -84.8
  ],
  "results": [
   [
    [
     2.0901798173845623,
     -73.01097524835305
    ],
    1
   ],
   [
    [
     2.084873085021749,
     -73.16369831076646
    ],
    1
   ],
   [
    [
     2.0867210834362426,
     -72.95617806342003
    ],
    1
   ],
   [
    [
     2.0897006796827537,
     -73.16047237989736
    ],
    1
   ],
   [
    [
     2.087074130696632,
     -73.19118112007527
    ],
    1
   ],
   [
    [
     2.0836849903097296,
     -72.95862640947882
    ],
    1
   ],
   [
    [
     2.080392707540939,
     -73.13995679082768
    ],
    1
   ],
   [
    [
     2.0945117653015806,
     -73.03378261991196
    ],
    1
   ],
   [
    [
     2.0751527097647786,
     -72.98771349232477
    ],
    1
   ],
   [
    [
     2.091504994705269,
     -73.00732546734181
    ],
    1
   ]
  ]
 },
 {
  "init_weights": [
   2.0,
   -84.6
  ],
  "results": [
   [
    [
     2.0901176945773856,
     -72.82237646861135
    ],
    1
   ],
   [
    [
     2.084798927913903,
     -72.97512195245818
    ],
    1
   ],
   [
    [
     2.086655246137997,
     -72.76757119142465
    ],
    1
   ],
   [
    [
     2.089632489660693,
     -72.97189538608349
    ],
    1
   ],
   [
    [
     2.087001138941364,
     -73.00260834817485
    ],
    1
   ],
   [
    [
     2.083613626283175,
     -72.77001929234008
    ],
    1
   ],
   [
    [
     2.080313161970751,
     -72.95137683467479
    ],
    1
   ],
   [
    [
     2.094454632516786,
     -72.84518716367852
    ],
    1
   ],
   [
    [
     2.075069308933778,
     -72.79911094546951
    ],
    1
   ],
   [
    [
     2.091443404007413,
     -72.81872612297565
    ],
    1
   ]
  ]
 },
 {
  "init_weights": [
   2.0,
   -84.4
  ],
  "results": [
   [
    [
     2.090055144471208,
     -72.63379100016935
    ],
    1
   ],
   [
    [
     2.084724995399162,
     -72.78655897773766
    ],
    1
   ],
   [
    [
     2.0865894079286504,
     -72.57897760123798
    ],
    1
   ],
   [
    [
     2.089564137458681,
     -72.78333177246097
    ],
    1
   ],
   [
    [
     2.0869280428727315,
     -72.81404896045753
    ],
    1
   ],
   [
    [
     2.0835419466565215,
     -72.58142545774412
    ],
    1
   ],
   [
    [
     2.080233307792121,
     -72.76281024984951
    ],
    1
   ],
   [
    [
     2.0943971611991827,
     -72.65660503761096
    ],
    1
   ],
   [
    [
     2.074985560717376,
     -72.61052168374775
    ],
    1
   ],
   [
    [
     2.0913819899127395,
     -72.63014008178219
    ],
    1
   ]
  ]
 },
 {
  "init_weights": [
   2.0,
   -84.2
  ],
  "results": [
   [
    [
     2.089992693744898,
     -72.44521889032717
    ],
    1
   ],
   [
    [
     2.0846508291530914,
     -72.59800942789238
    ],
    1
   ],
   [
    [
     2.0865236102034346,
     -72.39039734714723
    ],
    1
   ],
   [
    [
     2.089495726513471,
     -72.5947815794688
    ],
    1
   ],
   [
    [
     2.086854728408337,
     -72.62550301436481
    ],
    1
   ],
   [
    [
     2.083470154777769,
     -72.3928449589737
    ],
    1
   ],
   [
    [
     2.080153511958241,
     -72.5742570849221
    ],
    1
   ],
   [
    [
     2.094340084953843,
     -72.46803627184319
    ],
    1
   ],
   [
    [
     2.074902102842429,
     -72.42194577598296
    ],
    1
   ],
   [
    [
     2.091320473868275,
     -72.44156740414236
    ],
    1
   ]
  ]
 },
 {
  "init_weights": [
   2.0,
   -84.0
  ],
  "results": [
   [
    [
     2.0899301301642685,
     -72.25666018510792
    ],
    1
   ],
   [
    [
     2.084576573964468,
     -72.40947335806914
    ],
    1
   ],
   [
    [
     2.086457611205595,
     -72.20183047197217
    ],
    1
   ],
   [
    [
     2.0894277448136607,
     -72.40624486247324
    ],
    1
   ],
   [
    [
     2.0867814975601564,
     -72.43697055582636
    ],
    1
   ],
   [
    [
     2.0833983756018206,
     -72.20427783850351
    ],
    1
   ],
   [
    [
     2.0800739247584694,
     -72.38571737717282
    ],
    1
   ],
   [
    [
     2.0942829749887992,
     -72.27948092774139
    ],
    1
   ],
   [
    [
     2.0748182236775246,
     -72.23338326366951
    ],
    1
   ],
   [
    [
     2.0912586183178754,
     -72.25300812624076
    ],
    1
   ]
  ]
 },
 {
  "init_weights": [
   2.0,
   -83.8
  ],
  "results": [
   [
    [
     2.0898675601608376,
     -72.06811493633991
    ],
    1
   ],
   [
    [
     2.084502399412222,
     -72.2209508064796
    ],
    1
   ],
   [
    [
     2.0863918323695025,
     -72.01327703277768
    ],
    1
   ],
   [
    [
     2.0893590375922066,
     -72.2177216712361
    ],
    1
   ],
   [
    [
     2.0867081627461856,
     -72.24845162886017
    ],
    1
   ],
   [
    [
     2.08332621161533,
     -72.01572414662053
    ],
    1
   ],
   [
    [
     2.079993504003028,
     -72.19719118509347
    ],
    1
   ],
   [
    [
     2.094225830989582,
     -72.09093904519614
    ],
    1
   ],
   [
    [
     2.074734616948373,
     -72.04483419050639
    ],
    1
   ],
   [
    [
     2.091197150457625,
     -72.06446230666903
    ],
    1
   ]
  ]
 },
 {
  "init_weights": [
   2.0,
   -83.6
  ],
  "results": [
   [
    [
     2.0898053101960876,
     -71.87958318961832
    ],
    1
   ],
   [
    [
     2.0844280291933845,
     -72.03244183583223
    ],
    1
   ],
   [
    [
     2.0863257105398034,
     -71.82473707640119
    ],
    1
   ],
   [
    [
     2.0892908083269597,
     -72.0292120461518
    ],
    1
   ],
   [
    [
     2.0866348269744073,
     -72.05994628258485
    ],
    1
   ],
   [
    [
     2.083254397931067,
     -71.82718392473058
    ],
    1
   ],
   [
    [
     2.079913414149784,
     -72.00867854973151
    ],
    1
   ],
   [
    [
     2.09416839237911,
     -71.90241067801652
    ],
    1
   ],
   [
    [
     2.0746506619935783,
     -71.85629861347464
    ],
    1
   ],
   [
    [
     2.091135536938124,
     -71.87592998803689
    ],
    1
   ]
  ]
 },
 {
  "init_weights": [
   2.0,
   -83.4
  ],
  "results": [
   [
    [
     2.089742754871615,
     -71.69106499526299
    ],
    1
   ],
   [
    [
     2.0843537950585143,
     -71.84394648269117
    ],
    1
   ],
   [
    [
     2.0862596938846427,
     -71.63621064356339
    ],
    1
   ],
   [
    [
     2.0892222095992534,
     -71.84071604101408
    ],
    1
   ],
   [
    [
     2.086561510506659,
     -71.87145457147358
    ],
    1
   ],
   [
    [
     2.0831823981711723,
     -71.63865723586096
    ],
    1
   ],
   [
    [
     2.079833207355842,
     -71.8201795312262
    ],
    1
   ],
   [
    [
     2.0941110256716597,
     -71.71389587584405
    ],
    1
   ],
   [
    [
     2.0745663210764556,
     -71.6677765707053
    ],
    1
   ],
   [
    [
     2.091073919752794,
     -71.68741121715952
    ],
    1
   ]
  ]
 },
 {
  "init_weights": [
   2.0,
   -83.2
  ],
  "results": [
   [
    [
     2.0896800165890728,
     -71.50256040042561
    ],
    1
   ],
   [
    [
     2.0842791591656207,
     -71.65546479997035
    ],
    1
   ],
   [
    [
     2.0861935339269135,
     -71.44769778424862
    ],
    1
   ],
   [
    [
     2.0891536934498625,
     -71.65223370310365
    ],
    1
   ],
   [
    [
     2.086487602683805,
     -71.68297654131969
    ],
    1
   ],
   [
    [
     2.083110198045381,
     -71.45014411295209
    ],
    1
   ],
   [
    [
     2.0797528313383182,
     -71.63169416898944
    ],
    1
   ],
   [
    [
     2.0940539108608736,
     -71.52539467995024
    ],
    1
   ],
   [
    [
     2.07448224587553,
     -71.47926811677252
    ],
    1
   ],
   [
    [
     2.0910122590023437,
     -71.49890604603007
    ],
    1
   ]
  ]
 },
 {
  "init_weights": [
   2.0,
   -83.0
  ],
  "results": [
   [
    [
     2.089617387652125,
     -71.31406946146073
    ],
    1
   ],
   [
    [
     2.0842046610402556,
     -71.46699684483758
    ],
    1
   ],
   [
    [
     2.0861273782456236,
     -71.25919855730918
    ],
    1
   ],
   [
    [
     2.0890852897762153,
     -71.46376508353431
    ],
    1
   ],
   [
    [
     2.086414286967068,
     -71.4945122440613
    ],
    1
   ],
   [
    [
     2.0830380942244324,
     -71.26164462465547
    ],
    1
   ],
   [
    [
     2.0796726402954415,
     -71.44322251931672
    ],
    1
   ],
   [
    [
     2.0939968610834594,
     -71.33690714199676
    ],
    1
   ],
   [
    [
     2.0743978430400314,
     -71.29077330342675
    ],
    1
   ],
   [
    [
     2.0909503198073547,
     -71.31041452194721
    ],
    1
   ]
  ]
 },
 {
  "init_weights": [
   2.0,
   -82.8
  ],
  "results": [
   [
    [
     2.089554819348615,
     -71.12559221718871
    ],
    1
   ],
   [
    [
     2.0841299884654383,
     -71.2785426558417
    ],
    1
   ],
   [
    [
     2.0860613382443343,
     -71.07071300222117
    ],
    1
   ],
   [
    [
     2.0890164073214814,
     -71.27531023787465
    ],
    1
   ],
   [
    [
     2.086340469643089,
     -71.30606173142084
    ],
    1
   ],
   [
    [
     2.0829656195809982,
     -71.07315880073944
    ],
    1
   ],
   [
    [
     2.079591976569996,
     -71.25476462708522
    ],
    1
   ],
   [
    [
     2.093939463570704,
     -71.14843332134254
    ],
    1
   ],
   [
    [
     2.0743135185268886,
     -71.10229217304364
    ],
    1
   ],
   [
    [
     2.090888733693852,
     -71.12193670120784
    ],
    1
   ]
  ]
 },
 {
  "init_weights": [
   2.0,
   -82.6
  ],
  "results": [
   [
    [
     2.0894922430869927,
     -70.93712872632014
    ],
    1
   ],
   [
    [
     2.0840550486368485,
     -71.09010229083158
    ],
    1
   ],
   [
    [
     2.085994842405647,
     -70.88224118009411
    ],
    1
   ],
   [
    [
     2.0889478551069143,
     -71.08686921111004
    ],
    1
   ],
   [
    [
     2.0862668780689053,
     -71.11762504609577
    ],
    1
   ],
   [
    [
     2.082893510746335,
     -70.88468669641331
    ],
    1
   ],
   [
    [
     2.0795114211272585,
     -71.06632054158997
    ],
    1
   ],
   [
    [
     2.0938821605265665,
     -70.95997325742384
    ],
    1
   ],
   [
    [
     2.0742289380010113,
     -70.91382478951923
    ],
    1
   ],
   [
    [
     2.0908268915223087,
     -70.93347263266611
    ],
    1
   ]
  ]
 },
 {
  "init_weights": [
   2.0,
   -82.4
  ],
  "results": [
   [
    [
     2.08942945521235,
     -70.74867903498223
    ],
    1
   ],
   [
    [
     2.0839805879938726,
     -70.90167580084972
    ],
    1
   ],
   [
    [
     2.0859287103753306,
     -70.69378313110526
    ],
    1
   ],
   [
    [
     2.0888791133969193,
     -70.8984420502668
    ],
    1
   ],
   [
    [
     2.0861931207613438,
     -70.92920224489329
    ],
    1
   ],
   [
    [
     2.08282116805784,
     -70.69622837053683
    ],
    1
   ],
   [
    [
     2.0794307090370387,
     -70.87789031704092
    ],
    1
   ],
   [
    [
     2.093824654156547,
     -70.77152701007569
    ],
    1
   ],
   [
    [
     2.074144198959568,
     -70.7253711890769
    ],
    1
   ],
   [
    [
     2.090765269917089,
     -70.74502235447774
    ],
    1
   ]
  ]
 },
 {
  "init_weights": [
   2.0,
   -82.2
  ],
  "results": [
   [
    [
     2.089366611877076,
     -70.56024319765945
    ],
    1
   ],
   [
    [
     2.0839056327944605,
     -70.71326322957827
    ],
    1
   ],
   [
    [
     2.085862510717131,
     -70.50533890876343
    ],
    1
   ],
   [
    [
     2.088810367926584,
     -70.71002881181515
    ],
    1
   ],
   [
    [
     2.086119187033523,
     -70.74079337828019
    ],
    1
   ],
   [
    [
     2.082748603161125,
     -70.50778386966728
    ],
    1
   ],
   [
    [
     2.0793497384282973,
     -70.68947400507736
    ],
    1
   ],
   [
    [
     2.0937675427511917,
     -70.58309461584115
    ],
    1
   ],
   [
    [
     2.0740594978521414,
     -70.53693142666572
    ],
    1
   ],
   [
    [
     2.0907034934038085,
     -70.5565859279971
    ],
    1
   ]
  ]
 },
 {
  "init_weights": [
   2.0,
   -82.0
  ],
  "results": [
   [
    [
     2.0893038987283856,
     -70.37182126131302
    ],
    1
   ],
   [
    [
     2.083830695458291,
     -70.52486463767254
    ],
    1
   ],
   [
    [
     2.0857960254423076,
     -70.31690855863566
    ],
    1
   ],
   [
    [
     2.0887418131824624,
     -70.52162954266151
    ],
    1
   ],
   [
    [
     2.0860453283523315,
     -70.55239849792831
    ],
    1
   ],
   [
    [
     2.082676090515995,
     -70.31935324302833
    ],
    1
   ],
   [
    [
     2.079269261772457,
     -70.50107165811751
    ],
    1
   ],
   [
    [
     2.093710252487355,
     -70.39467613826594
    ],
    1
   ],
   [
    [
     2.07397443847043,
     -70.3485055563155
    ],
    1
   ],
   [
    [
     2.090641332415708,
     -70.36816339980489
    ],
    1
   ]
  ]
 },
 {
  "init_weights": [
   2.0,
   -81.8
  ],
  "results": [
   [
    [
     2.089241215209908,
     -70.18341327829086
    ],
    1
   ],
   [
    [
     2.083755745379503,
     -70.33648006731
    ],
    1
   ],
   [
    [
     2.085729583141076,
     -70.12849214411655
    ],
    1
   ],
   [
    [
     2.088672700057311,
     -70.33324430559007
    ],
    1
   ],
   [
    [
     2.085971220795456,
     -70.36401765121799
    ],
    1
   ],
   [
    [
     2.082603447591854,
     -70.13093654318784
    ],
    1
   ],
   [
    [
     2.07918801342847,
     -70.31268332563904
    ],
    1
   ],
   [
    [
     2.0936529592354285,
     -70.20627162676335
    ],
    1
   ],
   [
    [
     2.073889441677044,
     -70.16009362019315
    ],
    1
   ],
   [
    [
     2.090579651740002,
     -70.1797548346162
    ],
    1
   ]
  ]
 },
 {
  "init_weights": [
   2.0,
   -81.6
  ],
  "results": [
   [
    [
     2.0891783918750377,
     -69.99501930110866
    ],
    1
   ],
   [
    [
     2.0836805511896013,
     -70.14810958157771
    ],
    1
   ],
   [
    [
     2.0856630642650975,
     -69.94008971582872
    ],
    1
   ],
   [
    [
     2.088603813744489,
     -70.1448731365229
    ],
    1
   ],
   [
    [
     2.0858973069298683,
     -70.17565089619148
    ],
    1
   ],
   [
    [
     2.0825308087179617,
     -69.94253381404803
    ],
    1
   ],
   [
    [
     2.079106869509648,
     -70.12430904823837
    ],
    1
   ],
   [
    [
     2.093595653470949,
     -70.01788112650084
    ],
    1
   ],
   [
    [
     2.0738045987408333,
     -69.9716956869053
    ],
    1
   ],
   [
    [
     2.090517675936958,
     -69.99136026717704
    ],
    1
   ]
  ]
 },
 {
  "init_weights": [
   2.0,
   -81.4
  ],
  "results": [
   [
    [
     2.0891154744396276,
     -69.80663938170603
    ],
    1
   ],
   [
    [
     2.0836055502941027,
     -69.9597532220734
    ],
    1
   ],
   [
    [
     2.085596570698829,
     -69.75170131242196
    ],
    1
   ],
   [
    [
     2.0885345820895167,
     -69.95651609736707
    ],
    1
   ],
   [
    [
     2.085823248275347,
     -69.98729828135194
    ],
    1
   ],
   [
    [
     2.082458170762848,
     -69.7541451153171
    ],
    1
   ],
   [
    [
     2.079025636604388,
     -69.93594890028253
    ],
    1
   ],
   [
    [
     2.093537974263048,
     -69.82950470047473
    ],
    1
   ],
   [
    [
     2.0737189979925703,
     -69.78331179105248
    ],
    1
   ],
   [
    [
     2.0904559928562807,
     -69.80297975239223
    ],
    1
   ]
  ]
 },
 {
  "init_weights": [
   2.0,
   -81.2
  ],
  "results": [
   [
    [
     2.089052516031701,
     -69.6182735699102
    ],
    1
   ],
   [
    [
     2.0835302275546286,
     -69.7714110478129
    ],
    1
   ],
   [
    [
     2.085530013079104,
     -69.5633269939588
    ],
    1
   ],
   [
    [
     2.088465766699038,
     -69.76817323618582
    ],
    1
   ],
   [
    [
     2.0857489681016057,
     -69.79895986116685
    ],
    1
   ],
   [
    [
     2.0823853702855306,
     -69.56577049867428
    ],
    1
   ],
   [
    [
     2.0789443250574564,
     -69.7476029215571
    ],
    1
   ],
   [
    [
     2.0934808960150133,
     -69.6411423892621
    ],
    1
   ],
   [
    [
     2.0736337548813104,
     -69.59494199086024
    ],
    1
   ],
   [
    [
     2.0903940093141813,
     -69.61461334438536
    ],
    1
   ]
  ]
 },
 {
  "init_weights": [
   2.0,
   -81.0
  ],
  "results": [
   [
    [
     2.088989515194399,
     -69.42992192524902
    ],
    1
   ],
   [
    [
     2.0834550727750876,
     -69.58308311379476
    ],
    1
   ],
   [
    [
     2.0854634756274666,
     -69.37496681163937
    ],
    1
   ],
   [
    [
     2.088396885643075,
     -69.57984461165228
    ],
    1
   ],
   [
    [
     2.085674761539681,
     -69.61063569048441
    ],
    1
   ],
   [
    [
     2.082312438538834,
     -69.3774100206317
    ],
    1
   ],
   [
    [
     2.0788633126883362,
     -69.5592711669772
    ],
    1
   ],
   [
    [
     2.0934235915714297,
     -69.45279424831672
    ],
    1
   ],
   [
    [
     2.0735481223547625,
     -69.40658634458472
    ],
    1
   ],
   [
    [
     2.090331712896997,
     -69.42626109837423
    ],
    1
   ]
  ]
 },
 {
  "init_weights": [
   2.0,
   -80.8
  ],
  "results": [
   [
    [
     2.088926655451442,
     -69.24158448977197
    ],
    1
   ],
   [
    [
     2.083379797046501,
     -69.39476946495573
    ],
    1
   ],
   [
    [
     2.0853967242313454,
     -69.18662082319737
    ],
    1
   ],
   [
    [
     2.0883277411207235,
     -69.3915302774824
    ],
    1
   ],
   [
    [
     2.0856004037195777,
     -69.42232581231544
    ],
    1
   ],
   [
    [
     2.082239271265266,
     -69.18906372492856
    ],
    1
   ],
   [
    [
     2.078781479431704,
     -69.3709536858479
    ],
    1
   ],
   [
    [
     2.093366284538661,
     -69.26446033846544
    ],
    1
   ],
   [
    [
     2.073462652874282,
     -69.21824489416849
    ],
    1
   ],
   [
    [
     2.090270019134918,
     -69.23792307008613
    ],
    1
   ]
  ]
 },
 {
  "init_weights": [
   2.0,
   -80.6
  ],
  "results": [
   [
    [
     2.088863859011909,
     -69.05326132716631
    ],
    1
   ],
   [
    [
     2.0833041273145136,
     -69.20647016230687
    ],
    1
   ],
   [
    [
     2.0853299585856613,
     -68.99828907948286
    ],
    1
   ],
   [
    [
     2.0882586387007716,
     -69.20323027773355
    ],
    1
   ],
   [
    [
     2.0855260320246787,
     -69.23403029478342
    ],
    1
   ],
   [
    [
     2.0821665865682415,
     -69.0007316640911
    ],
    1
   ],
   [
    [
     2.0786999384393257,
     -69.18265053246446
    ],
    1
   ],
   [
    [
     2.0933089362708666,
     -69.07614070630163
    ],
    1
   ],
   [
    [
     2.073376922730555,
     -69.0299177036036
    ],
    1
   ],
   [
    [
     2.0902078847711714,
     -69.04959930747893
    ],
    1
   ]
  ]
 },
 {
  "init_weights": [
   2.0,
   -80.4
  ],
  "results": [
   [
    [
     2.088800717560391,
     -68.86495248838708
    ],
    1
   ],
   [
    [
     2.0832288705135014,
     -69.01818525513944
    ],
    1
   ],
   [
    [
     2.0852632006097256,
     -68.80997162849202
    ],
    1
   ],
   [
    [
     2.088189276238255,
     -69.01494467392988
    ],
    1
   ],
   [
    [
     2.0854516141793153,
     -69.04574918406578
    ],
    1
   ],
   [
    [
     2.0820934255661485,
     -68.81241390142188
    ],
    1
   ],
   [
    [
     2.078618143715118,
     -68.99436176743284
    ],
    1
   ],
   [
    [
     2.093251336508239,
     -68.88783540858158
    ],
    1
   ],
   [
    [
     2.0732908386567654,
     -68.8416048214562
    ],
    1
   ],
   [
    [
     2.090145936094582,
     -68.86128986016304
    ],
    1
   ]
  ]
 },
 {
  "init_weights": [
   2.0,
   -80.2
  ],
  "results": [
   [
    [
     2.0887376789007166,
     -68.67665802135006
    ],
    1
   ],
   [
    [
     2.083153083928679,
     -68.82991480033489
    ],
    1
   ],
   [
    [
     2.0851963471198376,
     -68.62166852979377
    ],
    1
   ],
   [
    [
     2.0881199257331606,
     -68.82667351634524
    ],
    1
   ],
   [
    [
     2.0853769829423787,
     -68.85748253599995
    ],
    1
   ],
   [
    [
     2.0820201605912136,
     -68.6241104840527
    ],
    1
   ],
   [
    [
     2.0785364121913688,
     -68.80608744417363
    ],
    1
   ],
   [
    [
     2.093194281061555,
     -68.69954449383846
    ],
    1
   ],
   [
    [
     2.0732049264397494,
     -68.653306301102
    ],
    1
   ],
   [
    [
     2.0900838731136444,
     -68.67299479068605
    ],
    1
   ]
  ]
 },
 {
  "init_weights": [
   2.0,
   -80.0
  ],
  "results": [
   [
    [
     2.0886745179213237,
     -68.48837798797537
    ],
    1
   ],
   [
    [
     2.0830774258605205,
     -68.64165885591669
    ],
    1
   ],
   [
    [
     2.085129575852675,
     -68.43337983348782
    ],
    1
   ],
   [
    [
     2.0880510058091932,
     -68.63841686463574
    ],
    1
   ],
   [
    [
     2.0853024935284905,
     -68.66923040662459
    ],
    1
   ],
   [
    [
     2.0819469980574556,
     -68.43582146957891
    ],
    1
   ],
   [
    [
     2.0784548651884838,
     -68.61782761243985
    ],
    1
   ],
   [
    [
     2.0931369077877413,
     -68.51126802104156
    ],
    1
   ],
   [
    [
     2.0731187576930985,
     -68.46502219836685
    ],
    1
   ],
   [
    [
     2.0900214886451582,
     -68.48471414911212
    ],
    1
   ]
  ]
 },
 {
  "init_weights": [
   2.0,
   -79.8
  ],
  "results": [
   [
    [
     2.0886114929666233,
     -68.30011243435999
    ],
    1
   ],
   [
    [
     2.0830018906680863,
     -68.45341746539921
    ],
    1
   ],
   [
    [
     2.085062623969254,
     -68.24510560049968
    ],
    1
   ],
   [
    [
     2.087981280288155,
     -68.45017477572156
    ],
    1
   ],
   [
    [
     2.0852278178176027,
     -68.48099284537848
    ],
    1
   ],
   [
    [
     2.081873403454666,
     -68.24754691257162
    ],
    1
   ],
   [
    [
     2.0783724771725187,
     -68.42958232574462
    ],
    1
   ],
   [
    [
     2.0930793304519915,
     -68.32300604804875
    ],
    1
   ],
   [
    [
     2.0730324951117165,
     -68.27675256510315
    ],
    1
   ],
   [
    [
     2.0899595397061623,
     -68.29644799533114
    ],
    1
   ]
  ]
 },
 {
  "init_weights": [
   2.0,
   -79.6
  ],
  "results": [
   [
    [
     2.0885483118212353,
     -68.11186142856917
    ],
    1
   ],
   [
    [
     2.0829258140729636,
     -68.26519069871121
    ],
    1
   ],
   [
    [
     2.084995553946796,
     -68.05684588683683
    ],
    1
   ],
   [
    [
     2.0879120312398127,
     -68.26194729531805
    ],
    1
   ],
   [
    [
     2.085153208225163,
     -68.29276991434246
    ],
    1
   ],
   [
    [
     2.0818003911653458,
     -68.05928685767971
    ],
    1
   ],
   [
    [
     2.0782903886082464,
     -68.24135164210225
    ],
    1
   ],
   [
    [
     2.0930220769442442,
     -68.13475862269696
    ],
    1
   ],
   [
    [
     2.0729462665832816,
     -68.08849746692222
    ],
    1
   ],
   [
    [
     2.0898973967706267,
     -68.10819637895348
    ],
    1
   ]
  ]
 },
 {
  "init_weights": [
   2.0,
   -79.4
  ],
  "results": [
   [
    [
     2.088485146281817,
     -67.92362501650858
    ],
    1
   ],
   [
    [
     2.0828500754702772,
     -68.0769786012741
    ],
    1
   ],
   [
    [
     2.084928747293748,
     -67.86860073439911
    ],
    1
   ],
   [
    [
     2.0878425772818097,
     -68.07373448832682
    ],
    1
   ],
   [
    [
     2.0850783522746337,
     -68.10456166512982
    ],
    1
   ],
   [
    [
     2.0817268072342094,
     -67.87104137589144
    ],
    1
   ],
   [
    [
     2.0782080556860323,
     -68.0531356210153
    ],
    1
   ],
   [
    [
     2.092964457894466,
     -67.94652581063634
    ],
    1
   ],
   [
    [
     2.072859565802352,
     -67.90025694320367
    ],
    1
   ],
   [
    [
     2.0898355113999956,
     -67.9199593535279
    ],
    1
   ]
  ]
 },
 {
  "init_weights": [
   2.0,
   -79.2
  ],
  "results": [
   [
    [
     2.0884218970621933,
     -67.73540325331805
    ],
    1
   ],
   [
    [
     2.082773887044556,
     -67.88878123407832
    ],
    1
   ],
   [
    [
     2.084861714931025,
     -67.68037021310899
    ],
    1
   ],
   [
    [
     2.087772935500482,
     -67.88553640069115
    ],
    1
   ],
   [
    [
     2.085003346123624,
     -67.91636815536258
    ],
    1
   ],
   [
    [
     2.0816531416557305,
     -67.68281051380012
    ],
    1
   ],
   [
    [
     2.0781257169726612,
     -67.86493431544147
    ],
    1
   ],
   [
    [
     2.092907244274016,
     -67.75830765170613
    ],
    1
   ],
   [
    [
     2.0727729931980963,
     -67.7120310558673
    ],
    1
   ],
   [
    [
     2.0897731676013556,
     -67.73173697851388
    ],
    1
   ]
  ]
 },
 {
  "init_weights": [
   2.0,
   -79.0
  ],
  "results": [
   [
    [
     2.0883586653493356,
     -67.54719620242844
    ],
    1
   ],
   [
    [
     2.082698012008481,
     -67.70059865450163
    ],
    1
   ],
   [
    [
     2.084794634380886,
     -67.4921543692874
    ],
    1
   ],
   [
    [
     2.0877037212620095,
     -67.69735309977767
    ],
    1
   ],
   [
    [
     2.0849285334839007,
     -67.72818944768268
    ],
    1
   ],
   [
    [
     2.081579731965708,
     -67.49459433270816
    ],
    1
   ],
   [
    [
     2.078043732145359,
     -67.67674778309076
    ],
    1
   ],
   [
    [
     2.092849952861201,
     -67.57010421534798
    ],
    1
   ],
   [
    [
     2.072686175465535,
     -67.52381986828259
    ],
    1
   ],
   [
    [
     2.0897105612151066,
     -67.54352930727654
    ],
    1
   ]
  ]
 },
 {
  "init_weights": [
   2.0,
   -78.8
  ],
  "results": [
   [
    [
     2.0882956046101464,
     -67.35900390787076
    ],
    1
   ],
   [
    [
     2.0826217943861978,
     -67.51243091352494
    ],
    1
   ],
   [
    [
     2.0847276163047574,
     -67.30395326294806
    ],
    1
   ],
   [
    [
     2.0876339789007217,
     -67.5091846414991
    ],
    1
   ],
   [
    [
     2.084853499266601,
     -67.54002558836018
    ],
    1
   ],
   [
    [
     2.081505729967806,
     -67.3063928810138
    ],
    1
   ],
   [
    [
     2.077960837610793,
     -67.48857607746027
    ],
    1
   ],
   [
    [
     2.09279245478355,
     -67.38191555449032
    ],
    1
   ],
   [
    [
     2.072599283691927,
     -67.33562342416457
    ],
    1
   ],
   [
    [
     2.0896485211659006,
     -67.3553364036302
    ],
    1
   ]
  ]
 },
 {
  "init_weights": [
   2.0,
   -78.6
  ],
  "results": [
   [
    [
     2.088232332606202,
     -67.17082644229151
    ],
    1
   ],
   [
    [
     2.082545500321534,
     -67.32427807570451
    ],
    1
   ],
   [
    [
     2.084660109054862,
     -67.11576696026363
    ],
    1
   ],
   [
    [
     2.087564367056246,
     -67.32103107225112
    ],
    1
   ],
   [
    [
     2.0847785271613697,
     -67.35187663995106
    ],
    1
   ],
   [
    [
     2.08143230734917,
     -67.1182062183822
    ],
    1
   ],
   [
    [
     2.077878263348895,
     -67.3004192559521
    ],
    1
   ],
   [
    [
     2.0927350525180346,
     -67.1937417238293
    ],
    1
   ],
   [
    [
     2.072512319765578,
     -67.14744179217314
    ],
    1
   ],
   [
    [
     2.0895863541862356,
     -67.16715831941484
    ],
    1
   ]
  ]
 },
 {
  "init_weights": [
   2.0,
   -78.4
  ],
  "results": [
   [
    [
     2.0881690085411466,
     -66.98266385279733
    ],
    1
   ],
   [
    [
     2.0824693883603507,
     -67.13614019164291
    ],
    1
   ],
   [
    [
     2.084592989335316,
     -66.92759550393171
    ],
    1
   ],
   [
    [
     2.087494588349349,
     -67.13289246261121
    ],
    1
   ],
   [
    [
     2.084703390716158,
     -67.16374265750814
    ],
    1
   ],
   [
    [
     2.08135842375228,
     -66.93003440639905
    ],
    1
   ],
   [
    [
     2.0777955228653875,
     -67.11227738009092
    ],
    1
   ],
   [
    [
     2.0926775324819458,
     -67.00558278941365
    ],
    1
   ],
   [
    [
     2.0724251073617883,
     -66.9592750255946
    ],
    1
   ],
   [
    [
     2.0895241302342336,
     -66.97899510603867
    ],
    1
   ]
  ]
 },
 {
  "init_weights": [
   2.0,
   -78.2
  ],
  "results": [
   [
    [
     2.0881054800323913,
     -66.79451619908777
    ],
    1
   ],
   [
    [
     2.0823928561580844,
     -66.94801732156009
    ],
    1
   ],
   [
    [
     2.084525596312851,
     -66.73943895842916
    ],
    1
   ],
   [
    [
     2.0874247741354726,
     -66.94476885872491
    ],
    1
   ],
   [
    [
     2.08462806691238,
     -66.97562370327981
    ],
    1
   ],
   [
    [
     2.081284461404621,
     -66.74187749838231
    ],
    1
   ],
   [
    [
     2.077712628055623,
     -66.92415050452956
    ],
    1
   ],
   [
    [
     2.0926202011002766,
     -66.8174387943566
    ],
    1
   ],
   [
    [
     2.072337851528021,
     -66.77112317562879
    ],
    1
   ],
   [
    [
     2.0894617673285905,
     -66.79084682913799
    ],
    1
   ]
  ]
 },
 {
  "init_weights": [
   2.0,
   -78.0
  ],
  "results": [
   [
    [
     2.0880421237984454,
     -66.60638353971771
    ],
    1
   ],
   [
    [
     2.082316524499246,
     -66.75990953453369
    ],
    1
   ],
   [
    [
     2.084458249340079,
     -66.55129737725686
    ],
    1
   ],
   [
    [
     2.087355392815314,
     -66.75666032893241
    ],
    1
   ],
   [
    [
     2.084552858639405,
     -66.78751983743832
    ],
    1
   ],
   [
    [
     2.0812106175009446,
     -66.55373556050205
    ],
    1
   ],
   [
    [
     2.07762986352606,
     -66.73603868984364
    ],
    1
   ],
   [
    [
     2.0925629378137907,
     -66.62930980414018
    ],
    1
   ],
   [
    [
     2.0722502792326822,
     -66.5829863105924
    ],
    1
   ],
   [
    [
     2.0893994269979537,
     -66.60271354388561
    ],
    1
   ]
  ]
 },
 {
  "init_weights": [
   2.0,
   -77.8
  ],
  "results": [
   [
    [
     2.087978876371862,
     -66.41826593220567
    ],
    1
   ],
   [
    [
     2.0822399781282916,
     -66.57181687104462
    ],
    1
   ],
   [
    [
     2.0843910572433155,
     -66.36317082393224
    ],
    1
   ],
   [
    [
     2.0872853263196522,
     -66.56856692859992
    ],
    1
   ],
   [
    [
     2.084477330670989,
     -66.59943110783422
    ],
    1
   ],
   [
    [
     2.0811362965105418,
     -66.36560863689726
    ],
    1
   ],
   [
    [
     2.0775466228859267,
     -66.54794199495896
    ],
    1
   ],
   [
    [
     2.0925054358171407,
     -66.44119588318361
    ],
    1
   ],
   [
    [
     2.072162857358407,
     -66.39486447854813
    ],
    1
   ],
   [
    [
     2.0893370188102884,
     -66.41459531255401
    ],
    1
   ]
  ]
 },
 {
  "init_weights": [
   2.0,
   -77.6
  ],
  "results": [
   [
    [
     2.0879155545714694,
     -66.23016343685714
    ],
    1
   ],
   [
    [
     2.082163226125941,
     -66.38373940181881
    ],
    1
   ],
   [
    [
     2.084323523787336,
     -66.17505935569224
    ],
    1
   ],
   [
    [
     2.087215439804164,
     -66.38048871635203
    ],
    1
   ],
   [
    [
     2.0844020112411803,
     -66.41135758618667
    ],
    1
   ],
   [
    [
     2.081062477170529,
     -66.17749678874661
    ],
    1
   ],
   [
    [
     2.0774634748443326,
     -66.35986046995022
    ],
    1
   ],
   [
    [
     2.0924480757364496,
     -66.25309707940033
    ],
    1
   ],
   [
    [
     2.0720751354290416,
     -66.20675774928944
    ],
    1
   ],
   [
    [
     2.089274586252965,
     -66.22649219251674
    ],
    1
   ]
  ]
 },
 {
  "init_weights": [
   2.0,
   -77.4
  ],
  "results": [
   [
    [
     2.0878519439884946,
     -66.04207611335829
    ],
    1
   ],
   [
    [
     2.082086802747945,
     -66.19567718049582
    ],
    1
   ],
   [
    [
     2.0842558061265946,
     -65.98696303367144
    ],
    1
   ],
   [
    [
     2.0871454011575414,
     -66.19242575042037
    ],
    1
   ],
   [
    [
     2.0843265718576345,
     -66.22329932345257
    ],
    1
   ],
   [
    [
     2.0809881973632653,
     -65.98940008573703
    ],
    1
   ],
   [
    [
     2.077380256268511,
     -66.17179419018134
    ],
    1
   ],
   [
    [
     2.092390518732472,
     -66.06501346448758
    ],
    1
   ],
   [
    [
     2.0719871816541726,
     -66.01866617439103
    ],
    1
   ],
   [
    [
     2.089212380235902,
     -66.03840423423394
    ],
    1
   ]
  ]
 },
 {
  "init_weights": [
   2.0,
   -77.2
  ],
  "results": [
   [
    [
     2.0877883913099473,
     -65.85400401746247
    ],
    1
   ],
   [
    [
     2.0820099477718936,
     -66.00763027591582
    ],
    1
   ],
   [
    [
     2.0841885946759025,
     -65.79888191204944
    ],
    1
   ],
   [
    [
     2.0870755464422284,
     -66.00437809075845
    ],
    1
   ],
   [
    [
     2.084250848823247,
     -66.03525638337089
    ],
    1
   ],
   [
    [
     2.080913865973171,
     -65.80131858204936
    ],
    1
   ],
   [
    [
     2.0772967718386335,
     -65.9837432060718
    ],
    1
   ],
   [
    [
     2.092333142040746,
     -65.87694508719959
    ],
    1
   ],
   [
    [
     2.071899316737417,
     -65.83058981261763
    ],
    1
   ],
   [
    [
     2.089149827269427,
     -65.85033150664238
    ],
    1
   ]
  ]
 },
 {
  "init_weights": [
   2.0,
   -77.0
  ],
  "results": [
   [
    [
     2.0877248612730965,
     -65.66594721747985
    ],
    1
   ],
   [
    [
     2.0819331412674367,
     -65.81959874301661
    ],
    1
   ],
   [
    [
     2.084120939959539,
     -65.61081605086133
    ],
    1
   ],
   [
    [
     2.0870056986170638,
     -65.81634580026501
    ],
    1
   ],
   [
    [
     2.08417536793234,
     -65.84722882979806
    ],
    1
   ],
   [
    [
     2.0808395479052275,
     -65.6132523406666
    ],
    1
   ],
   [
    [
     2.0772136190264656,
     -65.79570757705208
    ],
    1
   ],
   [
    [
     2.092275938672469,
     -65.68889200734307
    ],
    1
   ],
   [
    [
     2.071811210678537,
     -65.64252873172754
    ],
    1
   ],
   [
    [
     2.0890873900491185,
     -65.6622740655946
    ],
    1
   ]
  ]
 },
 {
  "init_weights": [
   2.0,
   -76.8
  ],
  "results": [
   [
    [
     2.0876614277664824,
     -65.47790576039368
    ],
    1
   ],
   [
    [
     2.081856242048337,
     -65.63158263549595
    ],
    1
   ],
   [
    [
     2.084053359465014,
     -65.4227655173061
    ],
    1
   ],
   [
    [
     2.0869355438895876,
     -65.62832894236408
    ],
    1
   ],
   [
    [
     2.084099581357558,
     -65.65921671450022
    ],
    1
   ],
   [
    [
     2.0807649131604258,
     -65.42520141092638
    ],
    1
   ],
   [
    [
     2.0771297959287875,
     -65.6076873683884
    ],
    1
   ],
   [
    [
     2.0922182775403617,
     -65.50085429431762
    ],
    1
   ],
   [
    [
     2.071723017641098,
     -65.4544829785401
    ],
    1
   ],
   [
    [
     2.0890248112538896,
     -65.47423197973224
    ],
    1
   ]
  ]
 },
 {
  "init_weights": [
   2.0,
   -76.6
  ],
  "results": [
   [
    [
     2.0875980571741524,
     -65.28987972086746
    ],
    1
   ],
   [
    [
     2.0817791183387713,
     -65.44358202816684
    ],
    1
   ],
   [
    [
     2.0839854681912544,
     -65.23473037183751
    ],
    1
   ],
   [
    [
     2.086865423492214,
     -65.4403275724731
    ],
    1
   ],
   [
    [
     2.084023769836599,
     -65.47122010739598
    ],
    1
   ],
   [
    [
     2.0806907298480963,
     -65.2371658588661
    ],
    1
   ],
   [
    [
     2.077046142425513,
     -65.41968263175636
    ],
    1
   ],
   [
    [
     2.092161210200908,
     -65.31283200125982
    ],
    1
   ],
   [
    [
     2.0716347739538135,
     -65.26645263193468
    ],
    1
   ],
   [
    [
     2.0889623812752633,
     -65.28620529985557
    ],
    1
   ]
  ]
 },
 {
  "init_weights": [
   2.0,
   -76.4
  ],
  "results": [
   [
    [
     2.0875343463583427,
     -65.10186914953198
    ],
    1
   ],
   [
    [
     2.0817022090905244,
     -65.25559697188703
    ],
    1
   ],
   [
    [
     2.083917782838097,
     -65.04671066547034
    ],
    1
   ],
   [
    [
     2.0867951193111014,
     -65.25234175143055
    ],
    1
   ],
   [
    [
     2.083947957365791,
     -65.2832390642729
    ],
    1
   ],
   [
    [
     2.080616132839121,
     -65.04914575274472
    ],
    1
   ],
   [
    [
     2.076962150120975,
     -65.23169344254387
    ],
    1
   ],
   [
    [
     2.0921033323819023,
     -65.12482520012564
    ],
    1
   ],
   [
    [
     2.0715461070412426,
     -65.07843773694168
    ],
    1
   ],
   [
    [
     2.088899933005462,
     -65.09819408807928
    ],
    1
   ]
  ]
 },
 {
  "init_weights": [
   2.0,
   -76.2
  ],
  "results": [
   [
    [
     2.087470815375286,
     -64.91387411260706
    ],
    1
   ],
   [
    [
     2.0816249316792366,
     -65.06762753701587
    ],
    1
   ],
   [
    [
     2.0838501093644783,
     -64.8587064673135
    ],
    1
   ],
   [
    [
     2.086724901529315,
     -65.06437154478994
    ],
    1
   ],
   [
    [
     2.0838719925570914,
     -65.09527365184691
    ],
    1
   ],
   [
    [
     2.080541300960379,
     -64.8611411445217
    ],
    1
   ],
   [
    [
     2.076878393854704,
     -65.04371985838151
    ],
    1
   ],
   [
    [
     2.0920460758513513,
     -64.93683393605504
    ],
    1
   ],
   [
    [
     2.071457451751717,
     -64.89043836262499
    ],
    1
   ],
   [
    [
     2.0888373435765595,
     -64.91019841376672
    ],
    1
   ]
  ]
 },
 {
  "init_weights": [
   2.0,
   -76.0
  ],
  "results": [
   [
    [
     2.0874069451079027,
     -64.72589467822725
    ],
    1
   ],
   [
    [
     2.0815477144659718,
     -64.8796737799987
    ],
    1
   ],
   [
    [
     2.0837822640251042,
     -64.67071783581417
    ],
    1
   ],
   [
    [
     2.0866548936065654,
     -64.87641701442837
    ],
    1
   ],
   [
    [
     2.083796064170931,
     -64.90732393264567
    ],
    1
   ],
   [
    [
     2.0804667659311815,
     -64.67315210635559
    ],
    1
   ],
   [
    [
     2.076794511078113,
     -64.85576193274532
    ],
    1
   ],
   [
    [
     2.091988793110803,
     -64.74885828214725
    ],
    1
   ],
   [
    [
     2.0713685640156525,
     -64.70245456921288
    ],
    1
   ],
   [
    [
     2.088774716789956,
     -64.7222183273967
    ],
    1
   ]
  ]
 },
 {
  "init_weights": [
   2.0,
   -75.8
  ],
  "results": [
   [
    [
     2.0873433814233087,
     -64.53793089776453
    ],
    1
   ],
   [
    [
     2.0814706440983515,
     -64.69173576411602
    ],
    1
   ],
   [
    [
     2.0837143554901565,
     -64.48274483925452
    ],
    1
   ],
   [
    [
     2.08658439337864,
     -64.68847822773569
    ],
    1
   ],
   [
    [
     2.0837200550320296,
     -64.71938996148546
    ],
    1
   ],
   [
    [
     2.080391873972468,
     -64.48517869058078
    ],
    1
   ],
   [
    [
     2.0767101899128533,
     -64.66781974072259
    ],
    1
   ],
   [
    [
     2.091931219123422,
     -64.5608982992745
    ],
    1
   ],
   [
    [
     2.0712797890057315,
     -64.51448641980387
    ],
    1
   ],
   [
    [
     2.0887122805517366,
     -64.53425390472917
    ],
    1
   ]
  ]
 },
 {
  "init_weights": [
   2.0,
   -75.6
  ],
  "results": [
   [
    [
     2.0872797215061336,
     -64.3499828409235
    ],
    1
   ],
   [
    [
     2.081393015819876,
     -64.50381355578948
    ],
    1
   ],
   [
    [
     2.083646443031906,
     -64.29478754158548
    ],
    1
   ],
   [
    [
     2.0865141196872354,
     -64.50055523742401
    ],
    1
   ],
   [
    [
     2.0836439103087327,
     -64.53147181062867
    ],
    1
   ],
   [
    [
     2.0803171823399795,
     -64.29722095829905
    ],
    1
   ],
   [
    [
     2.076625861281835,
     -64.47989333148101
    ],
    1
   ],
   [
    [
     2.091873987474255,
     -64.37295405090096
    ],
    1
   ],
   [
    [
     2.071190878433809,
     -64.32653398107267
    ],
    1
   ],
   [
    [
     2.088649502620874,
     -64.34630520143935
    ],
    1
   ]
  ]
 },
 {
  "init_weights": [
   2.0,
   -75.4
  ],
  "results": [
   [
    [
     2.0872160278093266,
     -64.1620505701548
    ],
    1
   ],
   [
    [
     2.08131557818426,
     -64.31590721635244
    ],
    1
   ],
   [
    [
     2.0835784587719166,
     -64.10684599175657
    ],
    1
   ],
   [
    [
     2.0864436226288956,
     -64.31264811649723
    ],
    1
   ],
   [
    [
     2.083567653355971,
     -64.34356953937171
    ],
    1
   ],
   [
    [
     2.0802421087593626,
     -64.10927898660229
    ],
    1
   ],
   [
    [
     2.076541509926253,
     -64.29198278250048
    ],
    1
   ],
   [
    [
     2.091816375431598,
     -64.18502560264926
    ],
    1
   ],
   [
    [
     2.0711014709075997,
     -64.13859730668742
    ],
    1
   ],
   [
    [
     2.0885869758723636,
     -64.1583722768039
    ],
    1
   ]
  ]
 },
 {
  "init_weights": [
   2.0,
   -75.2
  ],
  "results": [
   [
    [
     2.087152198288581,
     -63.97413414670601
    ],
    1
   ],
   [
    [
     2.0812380708824283,
     -64.12801681100198
    ],
    1
   ],
   [
    [
     2.083510518330356,
     -63.91892026787365
    ],
    1
   ],
   [
    [
     2.086373062422496,
     -64.12475692027462
    ],
    1
   ],
   [
    [
     2.0834912522803695,
     -64.15568321482557
    ],
    1
   ],
   [
    [
     2.0801670513518413,
     -63.921352826404615
    ],
    1
   ],
   [
    [
     2.0764570401719378,
     -64.10408815185001
    ],
    1
   ],
   [
    [
     2.091759058486222,
     -63.99711301064669
    ],
    1
   ],
   [
    [
     2.0710122153583455,
     -63.95067646758761
    ],
    1
   ],
   [
    [
     2.0885243700384053,
     -63.97045520278784
    ],
    1
   ]
  ]
 },
 {
  "init_weights": [
   2.0,
   -75.0
  ],
  "results": [
   [
    [
     2.0870883685421258,
     -63.78623363877702
    ],
    1
   ],
   [
    [
     2.0811603595641586,
     -63.9401424085159
    ],
    1
   ],
   [
    [
     2.083442290745346,
     -63.73101042812222
    ],
    1
   ],
   [
    [
     2.0863028821396705,
     -63.93688172435103
    ],
    1
   ],
   [
    [
     2.0834151512279653,
     -63.967812905327065
    ],
    1
   ],
   [
    [
     2.080092095076827,
     -63.73344255250748
    ],
    1
   ],
   [
    [
     2.076372718553452,
     -63.91620950816393
    ],
    1
   ],
   [
    [
     2.091701747758852,
     -63.8092163428187
    ],
    1
   ],
   [
    [
     2.0709226655624917,
     -63.76277152972457
    ],
    1
   ],
   [
    [
     2.0884614415482297,
     -63.78255403723726
    ],
    1
   ]
  ]
 },
 {
  "init_weights": [
   2.0,
   -74.8
  ],
  "results": [
   [
    [
     2.0870246639389136,
     -63.59834910565684
    ],
    1
   ],
   [
    [
     2.08108271816404,
     -63.752284064053484
    ],
    1
   ],
   [
    [
     2.0833743627613646,
     -63.54311653933976
    ],
    1
   ],
   [
    [
     2.0862320784960513,
     -63.74902259052258
    ],
    1
   ],
   [
    [
     2.0833385748517537,
     -63.779958663337815
    ],
    1
   ],
   [
    [
     2.080016598483257,
     -63.54554821854362
    ],
    1
   ],
   [
    [
     2.076287751390776,
     -63.72834691071797
    ],
    1
   ],
   [
    [
     2.0916442105401014,
     -63.62133566793928
    ],
    1
   ],
   [
    [
     2.070833197133426,
     -63.57488255029039
    ],
    1
   ],
   [
    [
     2.088398887530011,
     -63.59466885211566
    ],
    1
   ]
  ]
 },
 {
  "init_weights": [
   2.0,
   -74.6
  ],
  "results": [
   [
    [
     2.0869609077763993,
     -63.41048061842788
    ],
    1
   ],
   [
    [
     2.0810046227342838,
     -63.56444185262717
    ],
    1
   ],
   [
    [
     2.083306057034353,
     -63.35523866839389
    ],
    1
   ],
   [
    [
     2.0861615171956895,
     -63.5611795772284
    ],
    1
   ],
   [
    [
     2.0832621445030797,
     -63.592120564085945
    ],
    1
   ],
   [
    [
     2.0799414828114693,
     -63.35766989138301
    ],
    1
   ],
   [
    [
     2.076202947571097,
     -63.54050042113633
    ],
    1
   ],
   [
    [
     2.0915868306049923,
     -63.43347105072094
    ],
    1
   ],
   [
    [
     2.070743481787104,
     -63.387009605233
    ],
    1
   ],
   [
    [
     2.088336232265045,
     -63.40679971038554
    ],
    1
   ]
  ]
 },
 {
  "init_weights": [
   2.0,
   -74.4
  ],
  "results": [
   [
    [
     2.086896962636703,
     -63.22262824255377
    ],
    1
   ],
   [
    [
     2.0809268446586104,
     -63.37661583380047
    ],
    1
   ],
   [
    [
     2.0832379019986753,
     -63.167376875622836
    ],
    1
   ],
   [
    [
     2.0860908065390533,
     -63.37335275630937
    ],
    1
   ],
   [
    [
     2.0831856047136834,
     -63.40429867372072
    ],
    1
   ],
   [
    [
     2.079866273393559,
     -63.169807642768056
    ],
    1
   ],
   [
    [
     2.07611801003387,
     -63.35267011723422
    ],
    1
   ],
   [
    [
     2.091529252836168,
     -63.24562255337527
    ],
    1
   ],
   [
    [
     2.070653363830308,
     -63.19915274703685
    ],
    1
   ],
   [
    [
     2.0882736291111357,
     -63.21894667009608
    ],
    1
   ]
  ]
 },
 {
  "init_weights": [
   2.0,
   -74.2
  ],
  "results": [
   [
    [
     2.086833118138394,
     -63.03479204053457
    ],
    1
   ],
   [
    [
     2.0808490935377817,
     -63.18880607929825
    ],
    1
   ],
   [
    [
     2.0831696056770084,
     -62.97953122594439
    ],
    1
   ],
   [
    [
     2.086020058166186,
     -63.18554219250001
    ],
    1
   ],
   [
    [
     2.083108857142274,
     -63.216493053757425
    ],
    1
   ],
   [
    [
     2.079790764840057,
     -62.9819615337155
    ],
    1
   ],
   [
    [
     2.0760329926789947,
     -63.16485606181564
    ],
    1
   ],
   [
    [
     2.0914720995507476,
     -63.0577902381894
    ],
    1
   ],
   [
    [
     2.070563449625654,
     -63.01131205166753
    ],
    1
   ],
   [
    [
     2.0882107303121975,
     -63.031109803914724
    ],
    1
   ]
  ]
 },
 {
  "init_weights": [
   2.0,
   -74.0
  ],
  "results": [
   [
    [
     2.0867689630931707,
     -62.84697207918937
    ],
    1
   ],
   [
    [
     2.0807708572132104,
     -63.0010126540483
    ],
    1
   ],
   [
    [
     2.083101322395158,
     -62.79170179271041
    ],
    1
   ],
   [
    [
     2.0859495922278,
     -62.99774795439344
    ],
    1
   ],
   [
    [
     2.0830322923768207,
     -63.02870378062923
    ],
    1
   ],
   [
    [
     2.079715412567238,
     -62.79413163669618
    ],
    1
   ],
   [
    [
     2.075948128168784,
     -62.97705831844243
    ],
    1
   ],
   [
    [
     2.0914147957397646,
     -62.86997418354402
    ],
    1
   ],
   [
    [
     2.0704732141044015,
     -62.82348758140265
    ],
    1
   ],
   [
    [
     2.0881477783904017,
     -62.84328917598539
    ],
    1
   ]
  ]
 },
 {
  "init_weights": [
   2.0,
   -73.8
  ],
  "results": [
   [
    [
     2.086705168558048,
     -62.659168423934915
    ],
    1
   ],
   [
    [
     2.0806928492327437,
     -62.81323561986659
    ],
    1
   ],
   [
    [
     2.0830330721498944,
     -62.60388863933807
    ],
    1
   ],
   [
    [
     2.085878602844348,
     -62.80997010991945
    ],
    1
   ],
   [
    [
     2.082955445761911,
     -62.84093090937478
    ],
    1
   ],
   [
    [
     2.079639535876821,
     -62.60631800863098
    ],
    1
   ],
   [
    [
     2.07586261110014,
     -62.78927695473444
    ],
    1
   ],
   [
    [
     2.091357175153217,
     -62.68217444462258
    ],
    1
   ],
   [
    [
     2.070382894104962,
     -62.635679402760125
    ],
    1
   ],
   [
    [
     2.0880851708446717,
     -62.655484862792235
    ],
    1
   ]
  ]
 },
 {
  "init_weights": [
   2.0,
   -73.6
  ],
  "results": [
   [
    [
     2.0866413774584394,
     -62.471381150051144
    ],
    1
   ],
   [
    [
     2.080614513042698,
     -62.62547505841064
    ],
    1
   ],
   [
    [
     2.0829644413964465,
     -62.41609183955519
    ],
    1
   ],
   [
    [
     2.0858078028472398,
     -62.622208725951424
    ],
    1
   ],
   [
    [
     2.082878616742098,
     -62.65317451566888
    ],
    1
   ],
   [
    [
     2.079564082309364,
