[
 {
  "init_weights": [
   2.0,
   -97.0
  ],
  "results": [
   [
    [
     1.621664487045018,
     -19.323732597756734
    ],
    0
   ],
   [
    [
     1.489254301437664,
     -19.32543260927839
    ],
    0
   ],
   [
    [
     1.5638529592856039,
     -19.32500063074195
    ],
    0
   ],
   [
    [
     1.5614011869622344,
     -19.324042001752147
    ],
    0
   ],
   [
    [
     1.5707621264763123,
     -19.32363799159537
    ],
    0
   ],
   [
    [
     1.681484645710872,
     -19.322497175608724
    ],
    0
   ],
   [
    [
     1.5425953570154969,
     -19.324351936557967
    ],
    0
   ],
   [
    [
     1.5855304141429538,
     -19.323937639295988
    ],
    0
   ],
   [
    [
     1.5721691687289001,
     -19.323933172230998
    ],
    0
   ],
   [
    [
     1.5556914380700795,
     -19.324484590858713
    ],
    0
   ]
  ]
 },
 {
  "init_weights": [
   2.0,
   -96.8
  ],
  "results": [
   [
    [
     1.6214464991594701,
     -19.245072311510373
    ],
    0
   ],
   [
    [
     1.488958570923672,
     -19.246778042079356
    ],
    0
   ],
   [
    [
     1.563601353516007,
     -19.246345622542105
    ],
    0
   ],
   [
    [
     1.561147771579091,
     -19.245382215485595
    ],
    0
   ],
   [
    [
     1.570513939735682,
     -19.244976646107563
    ],
    0
   ],
   [
    [
     1.6813011235966653,
     -19.243832509057352
    ],
    0
   ],
   [
    [
     1.5423305190089838,
     -19.245692960950255
    ],
    0
   ],
   [
    [
     1.5852914178002515,
     -19.24527780322509
    ],
    0
   ],
   [
    [
     1.5719216161135456,
     -19.245273469436558
    ],
    0
   ],
   [
    [
     1.555435026177312,
     -19.24582718541524
    ],
    0
   ]
  ]
 },
 {
  "init_weights": [
   2.0,
   -96.6
  ],
  "results": [
   [
    [
     1.6212289350477513,
     -19.16651772192293
    ],
    0
   ],
   [
    [
     1.488663411322428,
     -19.168229224548302
    ],
    0
   ],
   [
    [
     1.5633501331926605,
     -19.167796368546774
    ],
    0
   ],
   [
    [
     1.560894719282488,
     -19.166828135819213
    ],
    0
   ],
   [
    [
     1.5702662520041533,
     -19.166420994795473
    ],
    0
   ],
   [
    [
     1.6811179581225133,
     -19.165273550368394
    ],
    0
   ],
   [
    [
     1.5420661726443206,
     -19.16713973055933
    ],
    0
   ],
   [
    [
     1.585052971626507,
     -19.16672367703204
    ],
    0
   ],
   [
    [
     1.5716744256921305,
     -19.166719491810845
    ],
    0
   ],
   [
    [
     1.5551790969990986,
     -19.1672755079561
    ],
    0
   ]
  ]
 },
 {
  "init_weights": [
   2.0,
   -96.4
  ],
  "results": [
   [
    [
     1.6210117451884136,
     -19.088068802406237
    ],
    0
   ],
   [
    [
     1.4883687501705634,
     -19.08978608840401
    ],
    0
   ],
   [
    [
     1.563099362274805,
     -19.0893528161836
    ],
    0
   ],
   [
    [
     1.5606422241852136,
     -19.088379728834216
    ],
    0
   ],
   [
    [
     1.5700188850772632,
     -19.0879709968034
    ],
    0
   ],
   [
    [
     1.6809351459093491,
     -19.086820220901547
    ],
    0
   ],
   [
    [
     1.5418022789217491,
     -19.088692163029148
    ],
    0
   ],
   [
    [
     1.5848149620216696,
     -19.088275196962446
    ],
    0
   ],
   [
    [
     1.571427815457465,
     -19.088271192210108
    ],
    0
   ],
   [
    [
     1.5549236686078574,
     -19.088829486988587
    ],
    0
   ]
  ]
 },
 {
  "init_weights": [
   2.0,
   -96.2
  ],
  "results": [
   [
    [
     1.6207949662331314,
     -19.009725476979114
    ],
    0
   ],
   [
    [
     1.488074725415757,
     -19.01144856304147
    ],
    0
   ],
   [
    [
     1.562849149054841,
     -19.01101485916487
    ],
    0
   ],
   [
    [
     1.560390187801171,
     -19.010036897039637
    ],
    0
   ],
   [
    [
     1.5697720867061198,
     -19.009626578021383
    ],
    0
   ],
   [
    [
     1.6807526640434018,
     -19.00847245368235
    ],
    0
   ],
   [
    [
     1.541538923306588,
     -19.010350165775684
    ],
    0
   ],
   [
    [
     1.5845774091173581,
     -19.00993230491256
    ],
    0
   ],
   [
    [
     1.571181607585786,
     -19.00992845393459
    ],
    0
   ],
   [
    [
     1.5546687478272234,
     -19.010489083050487
    ],
    0
   ]
  ]
 },
 {
  "init_weights": [
   2.0,
   -96.0
  ],
  "results": [
   [
    [
     1.6205786761854521,
     -18.931487626300523
    ],
    0
   ],
   [
    [
     1.4877811859566836,
     -18.933216575670674
    ],
    0
   ],
   [
    [
     1.5625994430107142,
     -18.93278242772513
    ],
    0
   ],
   [
    [
     1.5601386692236736,
     -18.931799563547
    ],
    0
   ],
   [
    [
     1.569525780018402,
     -18.931387644370677
    ],
    0
   ],
   [
    [
     1.680570608214557,
     -18.930230156994575
    ],
    0
   ],
   [
    [
     1.541276022681432,
     -18.932113691924766
    ],
    0
   ],
   [
    [
     1.5843403807046925,
     -18.931694927392336
    ],
    0
   ],
   [
    [
     1.5709359276970005,
     -18.931691224591884
    ],
    0
   ],
   [
    [
     1.554414320617657,
     -18.932254195941887
    ],
    0
   ]
  ]
 },
 {
  "init_weights": [
   2.0,
   -95.8
  ],
  "results": [
   [
    [
     1.6203628462494415,
     -18.85335522412528
    ],
    0
   ],
   [
    [
     1.4874882643700702,
     -18.85509004971964
    ],
    0
   ],
   [
    [
     1.5623502087643093,
     -18.85465547235089
    ],
    0
   ],
   [
    [
     1.5598876338045786,
     -18.85366767333272
    ],
    0
   ],
   [
    [
     1.5692799686153047,
     -18.8532541342225
    ],
    0
   ],
   [
    [
     1.6803888854897504,
     -18.852093272308636
    ],
    0
   ],
   [
    [
     1.5410137315800216,
     -18.853982647530206
    ],
    0
   ],
   [
    [
     1.5841038005442052,
     -18.853562977447158
    ],
    0
   ],
   [
    [
     1.5706906606069886,
     -18.853559424899476
    ],
    0
   ],
   [
    [
     1.5541604250197047,
     -18.854124744753733
    ],
    0
   ]
  ]
 },
 {
  "init_weights": [
   2.0,
   -95.6
  ],
  "results": [
   [
    [
     1.6201474191717933,
     -18.775328166650766
    ],
    0
   ],
   [
    [
     1.487195944497061,
     -18.777068916180014
    ],
    0
   ],
   [
    [
     1.5621014866481888,
     -18.77663390177317
    ],
    0
   ],
   [
    [
     1.5596371410212468,
     -18.775641131412378
    ],
    0
   ],
   [
    [
     1.5690346121537362,
     -18.775225963096986
    ],
    0
   ],
   [
    [
     1.6802075441107986,
     -18.77406169002309
    ],
    0
   ],
   [
    [
     1.5407519505394973,
     -18.775956951224135
    ],
    0
   ],
   [
    [
     1.5838676789203192,
     -18.77553637829057
    ],
    0
   ],
   [
    [
     1.570445986381137,
     -18.77553298643872
    ],
    0
   ],
   [
    [
     1.5539070335171936,
     -18.776100671213
    ],
    0
   ]
  ]
 },
 {
  "init_weights": [
   2.0,
   -95.4
  ],
  "results": [
   [
    [
     1.619932446163529,
     -18.697406368791814
    ],
    0
   ],
   [
    [
     1.4869042541773678,
     -18.699153058523287
    ],
    0
   ],
   [
    [
     1.5618532700778909,
     -18.6987176291919
    ],
    0
   ],
   [
    [
     1.5593871409179751,
     -18.69771985013371
    ],
    0
   ],
   [
    [
     1.5687897855821917,
     -18.697303054355093
    ],
    0
   ],
   [
    [
     1.68002656115711,
     -18.696135356638923
    ],
    0
   ],
   [
    [
     1.5404906093740385,
     -18.69803653949952
    ],
    0
   ],
   [
    [
     1.5836320768514747,
     -18.697615047057255
    ],
    0
   ],
   [
    [
     1.5702017152130079,
     -18.697611812689736
    ],
    0
   ],
   [
    [
     1.553654181127391,
     -18.698181871509753
    ],
    0
   ]
  ]
 },
 {
  "init_weights": [
   2.0,
   -95.2
  ],
  "results": [
   [
    [
     1.6197179388953724,
     -18.619589771096443
    ],
    0
   ],
   [
    [
     1.4866131379632113,
     -18.621342441987732
    ],
    0
   ],
   [
    [
     1.5616056372605842,
     -18.62090655459153
    ],
    0
   ],
   [
    [
     1.5591376780876007,
     -18.619903765768896
    ],
    0
   ],
   [
    [
     1.5685454998154904,
     -18.619485331203848
    ],
    0
   ],
   [
    [
     1.6798459976129732,
     -18.61831419612553
    ],
    0
   ],
   [
    [
     1.5402298827283607,
     -18.620221324449442
    ],
    0
   ],
   [
    [
     1.5833970051390152,
     -18.61979891312886
    ],
    0
   ],
   [
    [
     1.5699580433593612,
     -18.619795837881092
    ],
    0
   ],
   [
    [
     1.5534018656000796,
     -18.620368290056263
    ],
    0
   ]
  ]
 },
 {
  "init_weights": [
   2.0,
   -95.0
  ],
  "results": [
   [
    [
     1.6195039118415326,
     -18.54187824947719
    ],
    0
   ],
   [
    [
     1.4863226821089837,
     -18.543636944225383
    ],
    0
   ],
   [
    [
     1.5613584966844158,
     -18.543200633433873
    ],
    0
   ],
   [
    [
     1.5588887696846585,
     -18.542192753545528
    ],
    0
   ],
   [
    [
     1.568301729048363,
     -18.54177269601859
    ],
    0
   ],
   [
    [
     1.6796658548090309,
     -18.54059810264643
    ],
    0
   ],
   [
    [
     1.539969800398191,
     -18.542511191262612
    ],
    0
   ],
   [
    [
     1.5831624453443423,
     -18.542087861946076
    ],
    0
   ],
   [
    [
     1.5697148546261541,
     -18.542084947090093
    ],
    0
   ],
   [
    [
     1.5531501019185865,
     -18.54265980305011
    ],
    0
   ]
  ]
 },
 {
  "init_weights": [
   2.0,
   -94.8
  ],
  "results": [
   [
    [
     1.6192903916600567,
     -18.46427175283617
    ],
    0
   ],
   [
    [
     1.4860328184952556,
     -18.466036498462806
    ],
    0
   ],
   [
    [
     1.561111884452172,
     -18.46559973856921
    ],
    0
   ],
   [
    [
     1.5586403729203386,
     -18.464586775048602
    ],
    0
   ],
   [
    [
     1.5680585128849278,
     -18.464165055523047
    ],
    0
   ],
   [
    [
     1.679486050497842,
     -18.462986985663196
    ],
    0
   ],
   [
    [
     1.539710169041012,
     -18.46490608307089
    ],
    0
   ],
   [
    [
     1.5829283581140157,
     -18.464481821891127
    ],
    0
   ],
   [
    [
     1.5694721760200232,
     -18.46447907165502
    ],
    0
   ],
   [
    [
     1.5528988969772484,
     -18.465056359162926
    ],
    0
   ]
  ]
 },
 {
  "init_weights": [
   2.0,
   -94.6
  ],
  "results": [
   [
    [
     1.619077317302092,
     -18.386770160468505
    ],
    0
   ],
   [
    [
     1.4857435764547038,
     -18.388540991147106
    ],
    0
   ],
   [
    [
     1.5608659752697827,
     -18.388103798308553
    ],
    0
   ],
   [
    [
     1.5583925332615454,
     -18.38708572067718
    ],
    0
   ],
   [
    [
     1.5678157937315345,
     -18.386662311429546
    ],
    0
   ],
   [
    [
     1.6793067372342565,
     -18.38548074690124
    ],
    0
   ],
   [
    [
     1.5394511843014085,
     -18.387405885811695
    ],
    0
   ],
   [
    [
     1.582694876420842,
     -18.386980696467525
    ],
    0
   ],
   [
    [
     1.5692300962883858,
     -18.386978123623106
    ],
    0
   ],
   [
    [
     1.5526482906116847,
     -18.38755783808225
    ],
    0
   ]
  ]
 },
 {
  "init_weights": [
   2.0,
   -94.4
  ],
  "results": [
   [
    [
     1.6188647638212847,
     -18.309373398601327
    ],
    0
   ],
   [
    [
     1.4854551007807528,
     -18.311150344588025
    ],
    0
   ],
   [
    [
     1.5606204770349887,
     -18.310712725274737
    ],
    0
   ],
   [
    [
     1.5581453320566587,
     -18.309689459174038
    ],
    0
   ],
   [
    [
     1.5675736681698706,
     -18.30926439235328
    ],
    0
   ],
   [
    [
     1.6791277742113921,
     -18.308079320804048
    ],
    0
   ],
   [
    [
     1.5391928037542142,
     -18.310010532158984
    ],
    0
   ],
   [
    [
     1.5824619156000437,
     -18.309584403322553
    ],
    0
   ],
   [
    [
     1.5689885404536397,
     -18.309581986004698
    ],
    0
   ],
   [
    [
     1.5523982738403865,
     -18.3101641510643
    ],
    0
   ]
  ]
 },
 {
  "init_weights": [
   2.0,
   -94.2
  ],
  "results": [
   [
    [
     1.6186526754986517,
     -18.23208135430479
    ],
    0
   ],
   [
    [
     1.4851671953450212,
     -18.23386445582344
    ],
    0
   ],
   [
    [
     1.5603756937976647,
     -18.233426400689126
    ],
    0
   ],
   [
    [
     1.5578986426443016,
     -18.232397947135063
    ],
    0
   ],
   [
    [
     1.5673320984608847,
     -18.231971186777056
    ],
    0
   ],
   [
    [
     1.6789492711689973,
     -18.23078257315081
    ],
    0
   ],
   [
    [
     1.5389349290790764,
     -18.23271990579473
    ],
    0
   ],
   [
    [
     1.5822295306150633,
     -18.23229282823276
    ],
    0
   ],
   [
    [
     1.5687475471819032,
     -18.232290584125074
    ],
    0
   ],
   [
    [
     1.552148803818793,
     -18.232875226585964
    ],
    0
   ]
  ]
 },
 {
  "init_weights": [
   2.0,
   -94.0
  ],
  "results": [
   [
    [
     1.6184412206623657,
     -18.15489392779157
    ],
    0
   ],
   [
    [
     1.4848800246740397,
     -18.15668322579231
    ],
    0
   ],
   [
    [
     1.5601314434316549,
     -18.156244728657523
    ],
    0
   ],
   [
    [
     1.5576525929389051,
     -18.155211054652632
    ],
    0
   ],
   [
    [
     1.5670911121293367,
     -18.154782607345727
    ],
    0
   ],
   [
    [
     1.6787711986411575,
     -18.153590436172703
    ],
    0
   ],
   [
    [
     1.5386777657511526,
     -18.15553391245665
    ],
    0
   ],
   [
    [
     1.5819976806930638,
     -18.155105894675767
    ],
    0
   ],
   [
    [
     1.5685071363159266,
     -18.15510381642204
    ],
    0
   ],
   [
    [
     1.551899954527163,
     -18.155690928212135
    ],
    0
   ]
  ]
 },
 {
  "init_weights": [
   2.0,
   -93.8
  ],
  "results": [
   [
    [
     1.6182301203522185,
     -18.0778110318512
    ],
    0
   ],
   [
    [
     1.4845936238173614,
     -18.079606555928233
    ],
    0
   ],
   [
    [
     1.5598877939261262,
     -18.07916762678979
    ],
    0
   ],
   [
    [
     1.55740711036773,
     -18.078128688793186
    ],
    0
   ],
   [
    [
     1.5668507315139195,
     -18.077698528484035
    ],
    0
   ],
   [
    [
     1.6785935199850428,
     -18.076502793136356
    ],
    0
   ],
   [
    [
     1.5384211808087462,
     -18.078452436924696
    ],
    0
   ],
   [
    [
     1.58176639538846,
     -18.078023473768678
    ],
    0
   ],
   [
    [
     1.5682672744057755,
     -18.07802156883537
    ],
    0
   ],
   [
    [
     1.5516516951977009,
     -18.0786111683767
    ],
    0
   ]
  ]
 },
 {
  "init_weights": [
   2.0,
   -93.6
  ],
  "results": [
   [
    [
     1.6180197346650824,
     -18.000832551406088
    ],
    0
   ],
   [
    [
     1.484307780546207,
     -18.002634346140464
    ],
    0
   ],
   [
    [
     1.5596446810209088,
     -18.002194973373328
    ],
    0
   ],
   [
    [
     1.5571622440088593,
     -18.00115073512356
    ],
    0
   ],
   [
    [
     1.5666109210463195,
     -18.00071885046254
    ],
    0
   ],
   [
    [
     1.6784163113907886,
     -17.99951953110356
    ],
    0
   ],
   [
    [
     1.5381651667410097,
     -18.00147538679291
    ],
    0
   ],
   [
    [
     1.5815356712952116,
     -18.001045470598527
    ],
    0
   ],
   [
    [
     1.5680280490065956,
     -18.001043745230284
    ],
    0
   ],
   [
    [
     1.5514041300167851,
     -18.00163585313605
    ],
    0
   ]
  ]
 },
 {
  "init_weights": [
   2.0,
   -93.4
  ],
  "results": [
   [
    [
     1.61780975797357,
     -17.923958376270583
    ],
    0
   ],
   [
    [
     1.4840226999397537,
     -17.925766462852497
    ],
    0
   ],
   [
    [
     1.5594022668669796,
     -17.925326663228994
    ],
    0
   ],
   [
    [
     1.5569180176765371,
     -17.924277101043256
    ],
    0
   ],
   [
    [
     1.5663716937935313,
     -17.9238434923362
    ],
    0
   ],
   [
    [
     1.6782395545955886,
     -17.92264055530737
    ],
    0
   ],
   [
    [
     1.5379098992367344,
     -17.924602653556335
    ],
    0
   ],
   [
    [
     1.581305611248862,
     -17.92417178105891
    ],
    0
   ],
   [
    [
     1.5677893815642097,
     -17.92417021891957
    ],
    0
   ],
   [
    [
     1.5511571761566796,
     -17.924764857883027
    ],
    0
   ]
  ]
 },
 {
  "init_weights": [
   2.0,
   -93.2
  ],
  "results": [
   [
    [
     1.6176003363959754,
     -17.847188409301975
    ],
    0
   ],
   [
    [
     1.4837383341457353,
     -17.849002823823245
    ],
    0
   ],
   [
    [
     1.5591605424909936,
     -17.84856258720813
    ],
    0
   ],
   [
    [
     1.5566744569101552,
     -17.847507651088634
    ],
    0
   ],
   [
    [
     1.5661331349181806,
     -17.847072303002818
    ],
    0
   ],
   [
    [
     1.678063337938866,
     -17.845865752834698
    ],
    0
   ],
   [
    [
     1.537655219843703,
     -17.847834117451246
    ],
    0
   ],
   [
    [
     1.5810761105766757,
     -17.847402284360808
    ],
    0
   ],
   [
    [
     1.5675513571676034,
     -17.847400912549972
    ],
    0
   ],
   [
    [
     1.5509107709076344,
     -17.847998084471044
    ],
    0
   ]
  ]
 },
 {
  "init_weights": [
   2.0,
   -93.0
  ],
  "results": [
   [
    [
     1.6173915586640142,
     -17.770522518457348
    ],
    0
   ],
   [
    [
     1.483454814099944,
     -17.772343294650128
    ],
    0
   ],
   [
    [
     1.558919357742758,
     -17.771902616628783
    ],
    0
   ],
   [
    [
     1.5564313928518296,
     -17.770842304200325
    ],
    0
   ],
   [
    [
     1.5658951656766849,
     -17.770405198640297
    ],
    0
   ],
   [
    [
     1.6778875289558854,
     -17.769194996474464
    ],
    0
   ],
   [
    [
     1.537401210798466,
     -17.771169687416435
    ],
    0
   ],
   [
    [
     1.5808472499173656,
     -17.770736887339243
    ],
    0
   ],
   [
    [
     1.5673139459552303,
     -17.77073567985514
    ],
    0
   ],
   [
    [
     1.5506651228956931,
     -17.771335418863067
    ],
    0
   ]
  ]
 },
 {
  "init_weights": [
   2.0,
   -92.8
  ],
  "results": [
   [
    [
     1.6171833238830908,
     -17.693960592697298
    ],
    0
   ],
   [
    [
     1.483171966154217,
     -17.695787768630854
    ],
    0
   ],
   [
    [
     1.558678892959127,
     -17.69534666215577
    ],
    0
   ],
   [
    [
     1.5561891324071684,
     -17.69428091694604
    ],
    0
   ],
   [
    [
     1.565657811828553,
     -17.693842065334287
    ],
    0
   ],
   [
    [
     1.6777121916267783,
     -17.69262818996128
    ],
    0
   ],
   [
    [
     1.5371479085198905,
     -17.694609216058304
    ],
    0
   ],
   [
    [
     1.5806190041323354,
     -17.694175447879417
    ],
    0
   ],
   [
    [
     1.5670771685903184,
     -17.694174424604487
    ],
    0
   ],
   [
    [
     1.5504201599967884,
     -17.694776724128058
    ],
    0
   ]
  ]
 },
 {
  "init_weights": [
   2.0,
   -92.6
  ],
  "results": [
   [
    [
     1.6169756073008341,
     -17.617502510775857
    ],
    0
   ],
   [
    [
     1.4828898607455663,
     -17.61933614337556
    ],
    0
   ],
   [
    [
     1.5584390995628497,
     -17.618894594232763
    ],
    0
   ],
   [
    [
     1.555947481633388,
     -17.617823378191478
    ],
    0
   ],
   [
    [
     1.5654211518652015,
     -17.61738274941984
    ],
    0
   ],
   [
    [
     1.6775373090892065,
     -17.616165192922224
    ],
    0
   ],
   [
    [
     1.536895253681625,
     -17.618152603031785
    ],
    0
   ],
   [
    [
     1.58039135662156,
     -17.617717866734864
    ],
    0
   ],
   [
    [
     1.5668409943757784,
     -17.61771701201979
    ],
    0
   ],
   [
    [
     1.5501757339240232,
     -17.618321901284876
    ],
    0
   ]
  ]
 },
 {
  "init_weights": [
   2.0,
   -92.4
  ],
  "results": [
   [
    [
     1.6167685556552385,
     -17.541148158289737
    ],
    0
   ],
   [
    [
     1.4826085743489397,
     -17.542988270997842
    ],
    0
   ],
   [
    [
     1.558199907776573,
     -17.54254628285921
    ],
    0
   ],
   [
    [
     1.5557064616394711,
     -17.541469569357094
    ],
    0
   ],
   [
    [
     1.5651851009905215,
     -17.54102714597251
    ],
    0
   ],
   [
    [
     1.6773630182495725,
     -17.539805904355052
    ],
    0
   ],
   [
    [
     1.53664333126819,
     -17.54179972379782
    ],
    0
   ],
   [
    [
     1.5801643845323585,
     -17.541363999935164
    ],
    0
   ],
   [
    [
     1.5666055342962755,
     -17.541363329405833
    ],
    0
   ],
   [
    [
     1.5499321714517718,
     -17.54197083160682
    ],
    0
   ]
  ]
 },
 {
  "init_weights": [
   2.0,
   -92.2
  ],
  "results": [
   [
    [
     1.6165620066865765,
     -17.46489740663471
    ],
    0
   ],
   [
    [
     1.4823280759220652,
     -17.466744033149403
    ],
    0
   ],
   [
    [
     1.5579614146789729,
     -17.46630160951519
    ],
    0
   ],
   [
    [
     1.5554662015181024,
     -17.465219351322542
    ],
    0
   ],
   [
    [
     1.5649497816983031,
     -17.464775148225794
    ],
    0
   ],
   [
    [
     1.677189179456171,
     -17.46355016415557
    ],
    0
   ],
   [
    [
     1.536392079619203,
     -17.465550439942852
    ],
    0
   ],
   [
    [
     1.5799380848349287,
     -17.46511372954291
    ],
    0
   ],
   [
    [
     1.5663706744039103,
     -17.465113250472584
    ],
    0
   ],
   [
    [
     1.5496891428073338,
     -17.46572336856998
    ],
    0
   ]
  ]
 },
 {
  "init_weights": [
   2.0,
   -92.0
  ],
  "results": [
   [
    [
     1.6163561586308808,
     -17.38875012802527
    ],
    0
   ],
   [
    [
     1.4820483768487984,
     -17.39060330494722
    ],
    0
   ],
   [
    [
     1.5577236557201342,
     -17.390160442522593
    ],
    0
   ],
   [
    [
     1.5552266646577466,
     -17.389072607783792
    ],
    0
   ],
   [
    [
     1.5647151080013666,
     -17.38862660520977
    ],
    0
   ],
   [
    [
     1.6770158469267673,
     -17.38739787533701
    ],
    0
   ],
   [
    [
     1.536141575686682,
     -17.389404645892505
    ],
    0
   ],
   [
    [
     1.5797124207665683,
     -17.388966948925756
    ],
    0
   ],
   [
    [
     1.5661366259225613,
     -17.38896665212117
    ],
    0
   ],
   [
    [
     1.5494469626438208,
     -17.389579397811755
    ],
    0
   ]
  ]
 },
 {
  "init_weights": [
   2.0,
   -91.8
  ],
  "results": [
   [
    [
     1.616150927267323,
     -17.312706173943305
    ],
    0
   ],
   [
    [
     1.4817695101531028,
     -17.31456593570992
    ],
    0
   ],
   [
    [
     1.557486575572583,
     -17.314122647800087
    ],
    0
   ],
   [
    [
     1.5549877463299224,
     -17.313029207623206
    ],
    0
   ],
   [
    [
     1.5644811343195164,
     -17.312581391554698
    ],
    0
   ],
   [
    [
     1.6768430135378605,
     -17.3113488921817
    ],
    0
   ],
   [
    [
     1.535891770634119,
     -17.313362188421564
    ],
    0
   ],
   [
    [
     1.5794874591568957,
     -17.312923499915964
    ],
    0
   ],
   [
    [
     1.565903121652711,
     -17.312923390087047
    ],
    0
   ],
   [
    [
     1.549205442021365,
     -17.313538779099627
    ],
    0
   ]
  ]
 },
 {
  "init_weights": [
   2.0,
   -91.6
  ],
  "results": [
   [
    [
     1.6159462926263097,
     -17.23676542409473
    ],
    0
   ],
   [
    [
     1.4814914638362744,
     -17.238631818757607
    ],
    0
   ],
   [
    [
     1.5572502539371824,
     -17.23818808254063
    ],
    0
   ],
   [
    [
     1.5547495797502375,
     -17.23708901190961
    ],
    0
   ],
   [
    [
     1.5642478448049237,
     -17.236639356758978
    ],
    0
   ],
   [
    [
     1.6766707479089646,
     -17.235403090048067
    ],
    0
   ],
   [
    [
     1.5356426899318991,
     -17.23742293737175
    ],
    0
   ],
   [
    [
     1.5792631501037322,
     -17.23698324332688
    ],
    0
   ],
   [
    [
     1.5656703644229004,
     -17.23698332425395
    ],
    0
   ],
   [
    [
     1.5489646395321888,
     -17.237601393570902
    ],
    0
   ]
  ]
 },
 {
  "init_weights": [
   2.0,
   -91.4
  ],
  "results": [
   [
    [
     1.615742309671792,
     -17.160927737640044
    ],
    0
   ],
   [
    [
     1.4812142968333466,
     -17.162800801394802
    ],
    0
   ],
   [
    [
     1.557014657030412,
     -17.162356637223876
    ],
    0
   ],
   [
    [
     1.5545121751152098,
     -17.161251859007656
    ],
    0
   ],
   [
    [
     1.5640152981851039,
     -17.16080038612338
    ],
    0
   ],
   [
    [
     1.6764989984110379,
     -17.15956030906704
    ],
    0
   ],
   [
    [
     1.5353944444204815,
     -17.161586751613232
    ],
    0
   ],
   [
    [
     1.5790395964106207,
     -17.161146072569565
    ],
    0
   ],
   [
    [
     1.565438246581792,
     -17.161146326271243
    ],
    0
   ],
   [
    [
     1.5487246137819226,
     -17.161767088214173
    ],
    0
   ]
  ]
 },
 {
  "init_weights": [
   2.0,
   -91.2
  ],
  "results": [
   [
    [
     1.6155389701283154,
     -17.085192968964414
    ],
    0
   ],
   [
    [
     1.4809379273755907,
     -17.08707274521111
    ],
    0
   ],
   [
    [
     1.5567798572436393,
     -17.086628134731985
    ],
    0
   ],
   [
    [
     1.5542754297438846,
     -17.085517649088192
    ],
    0
   ],
   [
    [
     1.5637834976891853,
     -17.085064333486528
    ],
    0
   ],
   [
    [
     1.6763277933660523,
     -17.08382041685971
    ],
    0
   ],
   [
    [
     1.535146964066932,
     -17.085853497114943
    ],
    0
   ],
   [
    [
     1.578816707814446,
     -17.08541181095623
    ],
    0
   ],
   [
    [
     1.5652069584467625,
     -17.085412261380263
    ],
    0
   ],
   [
    [
     1.5484853414125481,
     -17.086035716830306
    ],
    0
   ]
  ]
 },
 {
  "init_weights": [
   2.0,
   -91.0
  ],
  "results": [
   [
    [
     1.6153362909799556,
     -17.009560966505553
    ],
    0
   ],
   [
    [
     1.4806624390576686,
     -17.01144749237454
    ],
    0
   ],
   [
    [
     1.5565456946805745,
     -17.011002455017373
    ],
    0
   ],
   [
    [
     1.5540395275216858,
     -17.009886193772047
    ],
    0
   ],
   [
    [
     1.5635523786531036,
     -17.009431009847397
    ],
    0
   ],
   [
    [
     1.676157150554722,
     -17.00818327359824
    ],
    0
   ],
   [
    [
     1.5349002478675036,
     -17.01022302295671
    ],
    0
   ],
   [
    [
     1.5785945328766735,
     -17.009780313216513
    ],
    0
   ],
   [
    [
     1.5649763820616087,
     -17.009780963984397
    ],
    0
   ],
   [
    [
     1.5482468554217264,
     -17.010407139310917
    ],
    0
   ]
  ]
 },
 {
  "init_weights": [
   2.0,
   -90.8
  ],
  "results": [
   [
    [
     1.615134246034514,
     -16.934031595243894
    ],
    0
   ],
   [
    [
     1.4803878905196692,
     -16.93592490365083
    ],
    0
   ],
   [
    [
     1.5563124054984743,
     -16.935479444479693
    ],
    0
   ],
   [
    [
     1.5538043862591906,
     -16.934357387590534
    ],
    0
   ],
   [
    [
     1.5633219843813695,
     -16.93390034802552
    ],
    0
   ],
   [
    [
     1.6759870828557133,
     -16.932648706189518
    ],
    0
   ],
   [
    [
     1.5346543307374856,
     -16.934695166675123
    ],
    0
   ],
   [
    [
     1.5783731645802377,
     -16.934251465822705
    ],
    0
   ],
   [
    [
     1.5647465354996284,
     -16.934252297016737
    ],
    0
   ],
   [
    [
     1.5480091117996808,
     -16.934881210665488
    ],
    0
   ]
  ]
 },
 {
  "init_weights": [
   2.0,
   -90.6
  ],
  "results": [
   [
    [
     1.6149329773784933,
     -16.858604701934322
    ],
    0
   ],
   [
    [
     1.4801142128558737,
     -16.860504831789257
    ],
    0
   ],
   [
    [
     1.5560798754221743,
     -16.860058926396892
    ],
    0
   ],
   [
    [
     1.553569988162457,
     -16.858931052744413
    ],
    0
   ],
   [
    [
     1.5630923716599925,
     -16.85847211951562
    ],
    0
   ],
   [
    [
     1.6758175300535874,
     -16.857216603457225
    ],
    0
   ],
   [
    [
     1.534409187152029,
     -16.859269799244565
    ],
    0
   ],
   [
    [
     1.578152441858773,
     -16.85882507370264
    ],
    0
   ],
   [
    [
     1.5645173777277708,
     -16.858826108518524
    ],
    0
   ],
   [
    [
     1.5477722363408695,
     -16.85945777416815
    ],
    0
   ]
  ]
 },
 {
  "init_weights": [
   2.0,
   -90.4
  ],
  "results": [
   [
    [
     1.6147322887371214,
     -16.783280120176904
    ],
    0
   ],
   [
    [
     1.4798414635639947,
     -16.78518710479177
    ],
    0
   ],
   [
    [
     1.5558481085216365,
     -16.784740770909153
    ],
    0
   ],
   [
    [
     1.5533363713995607,
     -16.78360702812172
    ],
    0
   ],
   [
    [
     1.5628636131391784,
     -16.783146201662415
    ],
    0
   ],
   [
    [
     1.6756486746587127,
     -16.781886781396373
    ],
    0
   ],
   [
    [
     1.5341648407537545,
     -16.783946749901638
    ],
    0
   ],
   [
    [
     1.5779325828344974,
     -16.783501004886784
    ],
    0
   ],
   [
    [
     1.5642890682646358,
     -16.783502229779987
    ],
    0
   ],
   [
    [
     1.5475361397049328,
     -16.784136666234215
    ],
    0
   ]
  ]
 },
 {
  "init_weights": [
   2.0,
   -90.2
  ],
  "results": [
   [
    [
     1.6145323818655686,
     -16.70805769680571
    ],
    0
   ],
   [
    [
     1.4795696926246023,
     -16.70997157763078
    ],
    0
   ],
   [
    [
     1.5556171609653417,
     -16.70952480540481
    ],
    0
   ],
   [
    [
     1.55310361371552,
     -16.708385146633116
    ],
    0
   ],
   [
    [
     1.5626355887637062,
     -16.707922430491944
    ],
    0
   ],
   [
    [
     1.6754802701529234,
     -16.70665907394872
    ],
    0
   ],
   [
    [
     1.5339214097020364,
     -16.708725872845356
    ],
    0
   ],
   [
    [
     1.5777134376298558,
     -16.708279101502562
    ],
    0
   ],
   [
    [
     1.5640615853423976,
     -16.708280528392063
    ],
    0
   ],
   [
    [
     1.5473007787439341,
     -16.708917736989548
    ],
    0
   ]
  ]
 },
 {
  "init_weights": [
   2.0,
   -90.0
  ],
  "results": [
   [
    [
     1.6143331785791089,
     -16.632937256505834
    ],
    0
   ],
   [
    [
     1.4792987497374563,
     -16.6348580883367
    ],
    0
   ],
   [
    [
     1.5553870572550959,
     -16.63441087023122
    ],
    0
   ],
   [
    [
     1.55287164603803,
     -16.633265279848658
    ],
    0
   ],
   [
    [
     1.5624083251869076,
     -16.632800636235952
    ],
    0
   ],
   [
    [
     1.6753125528136332,
     -16.631533323092864
    ],
    0
   ],
   [
    [
     1.5336787818636177,
     -16.63360698413653
    ],
    0
   ],
   [
    [
     1.5774950964549488,
     -16.633159177367308
    ],
    0
   ],
   [
    [
     1.5638348426655133,
     -16.6331608071367
    ],
    0
   ],
   [
    [
     1.5470663857931963,
     -16.633800818790537
    ],
    0
   ]
  ]
 },
 {
  "init_weights": [
   2.0,
   -89.8
  ],
  "results": [
   [
    [
     1.6141346607081615,
     -16.55791863928984
    ],
    0
   ],
   [
    [
     1.4790288958091633,
     -16.55984645741313
    ],
    0
   ],
   [
    [
     1.5551577279899236,
     -16.559398814292344
    ],
    0
   ],
   [
    [
     1.5526405445907108,
     -16.558247218357526
    ],
    0
   ],
   [
    [
     1.5621819086504558,
     -16.55778065093979
    ],
    0
   ],
   [
    [
     1.6751454309615235,
     -16.556509364918462
    ],
    0
   ],
   [
    [
     1.533436976663994,
     -16.558589945970134
    ],
    0
   ],
   [
    [
     1.5772774878128937,
     -16.558141082881043
    ],
    0
   ],
   [
    [
     1.5636088763112594,
     -16.55814290889018
    ],
    0
   ],
   [
    [
     1.5468327570069753,
     -16.55878574324124
    ],
    0
   ]
  ]
 },
 {
  "init_weights": [
   2.0,
   -89.6
  ],
  "results": [
   [
    [
     1.6139369105115846,
     -16.48300167578278
    ],
    0
   ],
   [
    [
     1.4787599158522828,
     -16.48493651832162
    ],
    0
   ],
   [
    [
     1.5549292962804782,
     -16.484488442254612
    ],
    0
   ],
   [
    [
     1.5524102186361535,
     -16.483330822933656
    ],
    0
   ],
   [
    [
     1.5619563358923694,
     -16.482862317354755
    ],
    0
   ],
   [
    [
     1.674978905361345,
     -16.481587024928732
    ],
    0
   ],
   [
    [
     1.5331960768815835,
     -16.483674544319005
    ],
    0
   ],
   [
    [
     1.577060692916449,
     -16.483224637799843
    ],
    0
   ],
   [
    [
     1.5633837164034399,
     -16.48322667703929
    ],
    0
   ],
   [
    [
     1.5466000116436545,
     -16.48387235591869
    ],
    0
   ]
  ]
 },
 {
  "init_weights": [
   2.0,
   -89.4
  ],
  "results": [
   [
    [
     1.613739894599814,
     -16.408186182398516
    ],
    0
   ],
   [
    [
     1.4784919912182828,
     -16.410128096955923
    ],
    0
   ],
   [
    [
     1.5547017477687284,
     -16.40967958683651
    ],
    0
   ],
   [
    [
     1.5521807903777265,
     -16.40851590434347
    ],
    0
   ],
   [
    [
     1.5617315393760525,
     -16.408045436425564
    ],
    0
   ],
   [
    [
     1.674813023199299,
     -16.40676613778626
    ],
    0
   ],
   [
    [
     1.532956098529706,
     -16.408860620131936
    ],
    0
   ],
   [
    [
     1.5768448265233168,
     -16.408409672634214
    ],
    0
   ],
   [
    [
     1.5631594244054998,
     -16.40841191728167
    ],
    0
   ],
   [
    [
     1.546368146490235,
     -16.409060451640507
    ],
    0
   ]
  ]
 },
 {
  "init_weights": [
   2.0,
   -89.2
  ],
  "results": [
   [
    [
     1.6135436577201707,
     -16.333471995306898
    ],
    0
   ],
   [
    [
     1.478225099319565,
     -16.33542101847934
    ],
    0
   ],
   [
    [
     1.5544750156609748,
     -16.334972066269316
    ],
    0
   ],
   [
    [
     1.5519522024099424,
     -16.333802285376215
    ],
    0
   ],
   [
    [
     1.5615076397058454,
     -16.33332985768297
    ],
    0
   ],
   [
    [
     1.6746477422890935,
     -16.332046515083324
    ],
    0
   ],
   [
    [
     1.532717013093198,
     -16.33414800988965
    ],
    0
   ],
   [
    [
     1.576629674628352,
     -16.333696024722848
    ],
    0
   ],
   [
    [
     1.5629359499142153,
     -16.33369846191892
    ],
    0
   ],
   [
    [
     1.546137200988923,
     -16.33434986962451
    ],
    0
   ]
  ]
 },
 {
  "init_weights": [
   2.0,
   -89.0
  ],
  "results": [
   [
    [
     1.6133481591791468,
     -16.25885892493614
    ],
    0
   ],
   [
    [
     1.4779591046887073,
     -16.260815084997578
    ],
    0
   ],
   [
    [
     1.5542492342378442,
     -16.26036571604258
    ],
    0
   ],
   [
    [
     1.5517245425222852,
     -16.25918977271846
    ],
    0
   ],
   [
    [
     1.5612846160576916,
     -16.258715375100948
    ],
    0
   ],
   [
    [
     1.6744831695407913,
     -16.257427969843686
    ],
    0
   ],
   [
    [
     1.5324788034562709,
     -16.25953652250005
    ],
    0
   ],
   [
    [
     1.5764154203866572,
     -16.259083476027076
    ],
    0
   ],
   [
    [
     1.5627134109220508,
     -16.259086127263505
    ],
    0
   ],
   [
    [
     1.5459070973686864,
     -16.25974043240885
    ],
    0
   ]
  ]
 },
 {
  "init_weights": [
   2.0,
   -88.8
  ],
  "results": [
   [
    [
     1.6131534759184525,
     -16.184346773018298
    ],
    0
   ],
   [
    [
     1.4776942514711642,
     -16.186310125770657
    ],
    0
   ],
   [
    [
     1.5540242594454834,
     -16.185860323232077
    ],
    0
   ],
   [
    [
     1.5514977619265462,
     -16.184678195497295
    ],
    0
   ],
   [
    [
     1.5610624401053574,
     -16.184201818876982
    ],
    0
   ],
   [
    [
     1.6743192259360606,
     -16.182910314695427
    ],
    0
   ],
   [
    [
     1.5322414823021018,
     -16.185025979030026
    ],
    0
   ],
   [
    [
     1.576202040501627,
     -16.184571849344934
    ],
    0
   ],
   [
    [
     1.56249167105105,
     -16.184574714370214
    ],
    0
   ],
   [
    [
     1.5456779032800638,
     -16.185231926447923
    ],
    0
   ]
  ]
 },
 {
  "init_weights": [
   2.0,
   -88.6
  ],
  "results": [
   [
    [
     1.61295961059933,
     -16.109935355406897
    ],
    0
   ],
   [
    [
     1.4774304641001321,
     -16.1119059486718
    ],
    0
   ],
   [
    [
     1.5538002530191979,
     -16.111455715414515
    ],
    0
   ],
   [
    [
     1.5512719298971775,
     -16.11026735154276
    ],
    0
   ],
   [
    [
     1.5608411762155556,
     -16.109788967439812
    ],
    0
   ],
   [
    [
     1.6741559186312573,
     -16.108493367159564
    ],
    0
   ],
   [
    [
     1.5320051900999565,
     -16.11061614738151
    ],
    0
   ],
   [
    [
     1.5759895168407054,
     -16.110160971328526
    ],
    0
   ],
   [
    [
     1.5622707974298207,
     -16.110164043095917
    ],
    0
   ],
   [
    [
     1.545449711738903,
     -16.110824184652774
    ],
    0
   ]
  ]
 },
 {
  "init_weights": [
   2.0,
   -88.4
  ],
  "results": [
   [
    [
     1.6127664748091148,
     -16.035624475374377
    ],
    0
   ],
   [
    [
     1.4771676965992608,
     -16.03760235340728
    ],
    0
   ],
   [
    [
     1.5535771539202143,
     -16.03715168256794
    ],
    0
   ],
   [
    [
     1.5510469690423487,
     -16.035957043913868
    ],
    0
   ],
   [
    [
     1.560620755586711,
     -16.035476648184467
    ],
    0
   ],
   [
    [
     1.6739933612800295,
     -16.034176911445787
    ],
    0
   ],
   [
    [
     1.531769866857696,
     -16.03630688942678
    ],
    0
   ],
   [
    [
     1.5757778422659783,
     -16.035850632292497
    ],
    0
   ],
   [
    [
     1.562050850544583,
     -16.03585391092541
    ],
    0
   ],
   [
    [
     1.5452224599008364,
     -16.036517010360022
    ],
    0
   ]
  ]
 },
 {
  "init_weights": [
   2.0,
   -88.2
  ],
  "results": [
   [
    [
     1.6125742371786218,
     -15.961413928194073
    ],
    0
   ],
   [
    [
     1.4769060833559648,
     -15.963399122068529
    ],
    0
   ],
   [
    [
     1.553355040099529,
     -15.962948024337969
    ],
    0
   ],
   [
    [
     1.5508230062080306,
     -15.961747080323914
    ],
    0
   ],
   [
    [
     1.5604013396081355,
     -15.961264651574396
    ],
    0
   ],
   [
    [
     1.67383141040428,
     -15.959960772525545
    ],
    0
   ],
   [
    [
     1.531535476202588,
     -15.962097969271047
    ],
    0
   ],
   [
    [
     1.5755670945862512,
     -15.961640633203793
    ],
    0
   ],
   [
    [
     1.561831845146451,
     -15.96164412691804
    ],
    0
   ],
   [
    [
     1.5449961349698766,
     -15.962310190060082
    ],
    0
   ]
  ]
 },
 {
  "init_weights": [
   2.0,
   -88.0
  ],
  "results": [
   [
    [
     1.6123827689928951,
     -15.887303522078614
    ],
    0
   ],
   [
    [
     1.4766455056060448,
     -15.889296085929276
    ],
    0
   ],
   [
    [
     1.5531338205317573,
     -15.888844547699568
    ],
    0
   ],
   [
    [
     1.550599905328847,
     -15.887637258253996
    ],
    0
   ],
   [
    [
     1.5601827910271633,
     -15.88715278189798
    ],
    0
   ],
   [
    [
     1.6736702229374107,
     -15.885844727233922
    ],
    0
   ],
   [
    [
     1.5313020399614974,
     -15.887989176932608
    ],
    0
   ],
   [
    [
     1.5753572533227092,
     -15.887530760127689
    ],
    0
   ],
   [
    [
     1.5616137553597689,
     -15.887534476186106
    ],
    0
   ],
   [
    [
     1.5447707527410162,
     -15.888203518880834
    ],
    0
   ]
  ]
 },
 {
  "init_weights": [
   2.0,
   -87.8
  ],
  "results": [
   [
    [
     1.6121922237579909,
     -15.813293040866135
    ],
    0
   ],
   [
    [
     1.4763861277579133,
     -15.815292987841245
    ],
    0
   ],
   [
    [
     1.5529136478306484,
     -15.81484104161593
    ],
    0
   ],
   [
    [
     1.5503778734757867,
     -15.81362734801182
    ],
    0
   ],
   [
    [
     1.5599652013604453,
     -15.813140827580696
    ],
    0
   ],
   [
    [
     1.673509739623964,
     -15.811828569943465
    ],
    0
   ],
   [
    [
     1.5310697281969479,
     -15.813980328242435
    ],
    0
   ],
   [
    [
     1.5751483525455214,
     -15.813520814113831
    ],
    0
   ],
   [
    [
     1.5613965433577166,
     -15.813524750618816
    ],
    0
   ],
   [
    [
     1.5445464014617782,
     -15.814196807198803
    ],
    0
   ]
  ]
 },
 {
  "init_weights": [
   2.0,
   -87.6
  ],
  "results": [
   [
    [
     1.612002470599213,
     -15.739382259883303
    ],
    0
   ],
   [
    [
     1.4761277908546697,
     -15.741389668507848
    ],
    0
   ],
   [
    [
     1.5526943964428452,
     -15.740937286214146
    ],
    0
   ],
   [
    [
     1.5501568121256528,
     -15.73971714995234
    ],
    0
   ],
   [
    [
     1.5597486544542076,
     -15.739228564827776
    ],
    0
   ],
   [
    [
     1.6733499730994041,
     -15.737912084967007
    ],
    0
   ],
   [
    [
     1.5308383370732452,
     -15.740071181532059
    ],
    0
   ],
   [
    [
     1.5749403965404647,
     -15.739610593717059
    ],
    0
   ],
   [
    [
     1.5611803514264326,
     -15.739614735727553
    ],
    0
   ],
   [
    [
     1.5443230256047378,
     -15.740289823304352
    ],
    0
   ]
  ]
 },
 {
  "init_weights": [
   2.0,
   -87.4
  ],
  "results": [
   [
    [
     1.611813634727553,
     -15.66557097264538
    ],
    0
   ],
   [
    [
     1.4758706908062258,
     -15.667585876582056
    ],
    0
   ],
   [
    [
     1.5524761767134272,
     -15.667133072330879
    ],
    0
   ],
   [
    [
     1.5499366677635291,
     -15.665906450202698
    ],
    0
   ],
   [
    [
     1.5595329632400146,
     -15.665415780741846
    ],
    0
   ],
   [
    [
     1.6731909515625063,
     -15.664095063900705
    ],
    0
   ],
   [
    [
     1.5306079728929995,
     -15.666261553035662
    ],
    0
   ],
   [
    [
     1.5747333786403368,
     -15.665799849751648
    ],
    0
   ],
   [
    [
     1.560965121476454,
     -15.665804225811835
    ],
    0
   ],
   [
    [
     1.5441007140093708,
     -15.66648234568055
    ],
    0
   ]
  ]
 },
 {
  "init_weights": [
   2.0,
   -87.2
  ],
  "results": [
   [
    [
     1.611625674093192,
     -15.591858957636385
    ],
    0
   ],
   [
    [
     1.4756147371896526,
     -15.593881393417785
    ],
    0
   ],
   [
    [
     1.5522589995672433,
     -15.593428170467087
    ],
    0
   ],
   [
    [
     1.5497176457635045,
     -15.592195011949077
    ],
    0
   ],
   [
    [
     1.5593183201756338,
     -15.59170225746507
    ],
    0
   ],
   [
    [
     1.673032649397222,
     -15.590377271582298
    ],
    0
   ],
   [
    [
     1.53037870420328,
     -15.592551178968478
    ],
    0
   ],
   [
    [
     1.574527342852853,
     -15.592088392712789
    ],
    0
   ],
   [
    [
     1.56075083652281,
     -15.592092978758902
    ],
    0
   ],
   [
    [
     1.543879413025343,
     -15.592774170092046
    ],
    0
   ]
  ]
 },
 {
  "init_weights": [
   2.0,
   -87.0
  ],
  "results": [
   [
    [
     1.6114385835822465,
     -15.51824597699221
    ],
    0
   ],
   [
    [
     1.4753599840955358,
     -15.52027599114646
    ],
    0
   ],
   [
    [
     1.552042811755738,
     -15.5198223410528
    ],
    0
   ],
   [
    [
     1.5494995913026532,
     -15.5185826193294
    ],
    0
   ],
   [
    [
     1.5591046863844418,
     -15.51808775903743
    ],
    0
   ],
   [
    [
     1.6728750874012406,
     -15.516758484169674
    ],
    0
   ],
   [
    [
     1.5301504739222622,
     -15.518939862818684
    ],
    0
   ],
   [
    [
     1.5743222750388035,
     -15.51847596066053
    ],
    0
   ],
   [
    [
     1.5605375977533271,
     -15.518480781881655
    ],
    0
   ],
   [
    [
     1.5436591688409715,
     -15.519165047416164
    ],
    0
   ]
  ]
 },
 {
  "init_weights": [
   2.0,
   -86.8
  ],
  "results": [
   [
    [
     1.611252427697065,
     -15.444731796960681
    ],
    0
   ],
   [
    [
     1.4751064606352051,
     -15.44676945882547
    ],
    0
   ],
   [
    [
     1.5518276988039106,
     -15.446315378235248
    ],
    0
   ],
   [
    [
     1.549282613966089,
     -15.445069029877303
    ],
    0
   ],
   [
    [
     1.5588920370721047,
     -15.444572058021237
    ],
    0
   ],
   [
    [
     1.6727183314023513,
     -15.443238464792381
    ],
    0
   ],
   [
    [
     1.5299233607125664,
     -15.445427350456692
    ],
    0
   ],
   [
    [
     1.574118216405191,
     -15.44496234819865
    ],
    0
   ],
   [
    [
     1.5603253568729283,
     -15.444967397298969
    ],
    0
   ],
   [
    [
     1.543439987542274,
     -15.44565476492932
    ],
    0
   ]
  ]
 },
 {
  "init_weights": [
   2.0,
   -86.6
  ],
  "results": [
   [
    [
     1.6110672289652102,
     -15.37131620169531
    ],
    0
   ],
   [
    [
     1.474854119494479,
     -15.373361523762487
    ],
    0
   ],
   [
    [
     1.551613634776817,
     -15.372907023685485
    ],
    0
   ],
   [
    [
     1.5490666772970947,
     -15.371654015109883
    ],
    0
   ],
   [
    [
     1.5586805211050716,
     -15.371154908593246
    ],
    0
   ],
   [
    [
     1.6725623269779692,
     -15.36981697541207
    ],
    0
   ],
   [
    [
     1.5296972649510772,
     -15.372013421592845
    ],
    0
   ],
   [
    [
     1.5739151586290758,
     -15.371547295342639
    ],
    0
   ],
   [
    [
     1.5601141388928774,
     -15.371552571623283
    ],
    0
   ],
   [
    [
     1.5432219291901947,
     -15.372243062527573
    ],
    0
   ]
  ]
 },
 {
  "init_weights": [
   2.0,
   -86.4
  ],
  "results": [
   [
    [
     1.610882923623658,
     -15.297998923579822
    ],
    0
   ],
   [
    [
     1.4746030481668642,
     -15.300051961876973
    ],
    0
   ],
   [
    [
     1.551400636828012,
     -15.299597043908829
    ],
    0
   ],
   [
    [
     1.5488517800012551,
     -15.298337328378429
    ],
    0
   ],
   [
    [
     1.5584699423584685,
     -15.297836077894106
    ],
    0
   ],
   [
    [
     1.672407109120466,
     -15.296493772905789
    ],
    0
   ],
   [
    [
     1.5294723867165918,
     -15.298697816341617
    ],
    0
   ],
   [
    [
     1.5737131558810085,
     -15.298230577342942
    ],
    0
   ],
   [
    [
     1.55990398682715,
     -15.298236089679285
    ],
    0
   ],
   [
    [
     1.5430049156893975,
     -15.298929724648405
    ],
    0
   ]
  ]
 },
 {
  "init_weights": [
   2.0,
   -86.2
  ],
  "results": [
   [
    [
     1.6106995911843445,
     -15.224779714081611
    ],
    0
   ],
   [
    [
     1.4743532504723906,
     -15.226840527253296
    ],
    0
   ],
   [
    [
     1.551188756076902,
     -15.226385184263416
    ],
    0
   ],
   [
    [
     1.5486380351500164,
     -15.225118715683957
    ],
    0
   ],
   [
    [
     1.558260459900337,
     -15.22461531214806
    ],
    0
   ],
   [
    [
     1.6722526937299025,
     -15.223268624322365
    ],
    0
   ],
   [
    [
     1.5292485882787847,
     -15.225480307306022
    ],
    0
   ],
   [
    [
     1.5735121894708999,
     -15.22501193646744
    ],
    0
   ],
   [
    [
     1.5596949017746102,
     -15.225017684564627
    ],
    0
   ],
   [
    [
     1.5427890112911797,
     -15.225714464118271
    ],
    0
   ]
  ]
 },
 {
  "init_weights": [
   2.0,
   -86.0
  ],
  "results": [
   [
    [
     1.610517248186501,
     -15.151658335565545
    ],
    0
   ],
   [
    [
     1.4741047419483508,
     -15.153726951105922
    ],
    0
   ],
   [
    [
     1.5509780216958773,
     -15.153271188035518
    ],
    0
   ],
   [
    [
     1.5484254278987537,
     -15.151997927639517
    ],
    0
   ],
   [
    [
     1.5580521249051589,
     -15.151492356843006
    ],
    0
   ],
   [
    [
     1.6720990993901026,
     -15.150141250474565
    ],
    0
   ],
   [
    [
     1.5290259707707579,
     -15.152360625579409
    ],
    0
   ],
   [
    [
     1.5733122969279423,
     -15.15189112366871
    ],
    0
   ],
   [
    [
     1.559486851575927,
     -15.151897102668004
    ],
    0
   ],
   [
    [
     1.542574289337408,
     -15.152597061790983
    ],
    0
   ]
  ]
 },
 {
  "init_weights": [
   2.0,
   -85.8
  ],
  "results": [
   [
    [
     1.610335835316619,
     -15.078634519266922
    ],
    0
   ],
   [
    [
     1.473857554825979,
     -15.080710995656075
    ],
    0
   ],
   [
    [
     1.550768388909739,
     -15.080254820551431
    ],
    0
   ],
   [
    [
     1.5482139084771087,
     -15.078974707931561
    ],
    0
   ],
   [
    [
     1.5578448005906373,
     -15.078466950957605
    ],
    0
   ],
   [
    [
     1.6719463362075164,
     -15.0771114099317
    ],
    0
   ],
   [
    [
     1.5288045186004602,
     -15.079338516284928
    ],
    0
   ],
   [
    [
     1.5731134730917942,
     -15.078867874337343
    ],
    0
   ],
   [
    [
     1.5592799377624436,
     -15.0788740882844
    ],
    0
   ],
   [
    [
     1.5423607233479872,
     -15.079577268151807
    ],
    0
   ]
  ]
 },
 {
  "init_weights": [
   2.0,
   -85.6
  ],
  "results": [
   [
    [
     1.6101554739176354,
     -15.005707997875103
    ],
    0
   ],
   [
    [
     1.4736116628824218,
     -15.00779237787816
    ],
    0
   ],
   [
    [
     1.5505598497176183,
     -15.007335790372597
    ],
    0
   ],
   [
    [
     1.5480035325132475,
     -15.006048789531851
    ],
    0
   ],
   [
    [
     1.5576386352687017,
     -15.005538832884117
    ],
    0
   ],
   [
    [
     1.6717944291324833,
     -15.0041788272674
    ],
    0
   ],
   [
    [
     1.528584206514054,
     -15.006413710093419
    ],
    0
   ],
   [
    [
     1.5729156862113136,
     -15.00594192832038
    ],
    0
   ],
   [
    [
     1.5590741222544628,
     -15.005948377498518
    ],
    0
   ],
   [
    [
     1.5421482915954337,
     -15.006654775816193
    ],
    0
   ]
  ]
 },
 {
  "init_weights": [
   2.0,
   -85.4
  ],
  "results": [
   [
    [
     1.609976104731027,
     -14.932878522563028
    ],
    0
   ],
   [
    [
     1.4733671383755826,
     -14.934970845958489
    ],
    0
   ],
   [
    [
     1.550352563394288,
     -14.934513835847628
    ],
    0
   ],
   [
    [
     1.547794315603483,
     -14.933219898041239
    ],
    0
   ],
   [
    [
     1.5574336592419795,
     -14.932707730525028
    ],
    0
   ],
   [
    [
     1.6716433311032426,
     -14.931343239249218
    ],
    0
   ],
   [
    [
     1.5283651043760995,
     -14.93358594792368
    ],
    0
   ],
   [
    [
     1.5727190923038528,
     -14.933113016587312
    ],
    0
   ],
   [
    [
     1.558869414928423,
     -14.9331197182528
    ],
    0
   ],
   [
    [
     1.5419370181925824,
     -14.933829357763148
    ],
    0
   ]
  ]
 },
 {
  "init_weights": [
   2.0,
   -85.2
  ],
  "results": [
   [
    [
     1.60979776915611,
     -14.860145777469928
    ],
    0
   ],
   [
    [
     1.4731239775772795,
     -14.862246115527494
    ],
    0
   ],
   [
    [
     1.550146408718715,
     -14.861788694867862
    ],
    0
   ],
   [
    [
     1.5475863093303284,
     -14.860487769933377
    ],
    0
   ],
   [
    [
     1.557229743533326,
     -14.859973374727776
    ],
    0
   ],
   [
    [
     1.6714931313597372,
     -14.85860436226567
    ],
    0
   ],
   [
    [
     1.5281472660419417,
     -14.860854938697786
    ],
    0
   ],
   [
    [
     1.5725236130225582,
     -14.860380861948896
    ],
    0
   ],
   [
    [
     1.5586658504176816,
     -14.8603877942104
    ],
    0
   ],
   [
    [
     1.5417269911907385,
     -14.861100700867615
    ],
    0
   ]
  ]
 },
 {
  "init_weights": [
   2.0,
   -85.0
  ],
  "results": [
   [
    [
     1.609620447645954,
     -14.787509521967554
    ],
    0
   ],
   [
    [
     1.472882181168701,
     -14.789617913183072
    ],
    0
   ],
   [
    [
     1.549941455713982,
     -14.789160070566405
    ],
    0
   ],
   [
    [
     1.5473794642501235,
     -14.787852108264092
    ],
    0
   ],
   [
    [
     1.5570270403689488,
     -14.787335473620077
    ],
    0
   ],
   [
    [
     1.6713437247580152,
     -14.785961940019426
    ],
    0
   ],
   [
    [
     1.5279306441713463,
     -14.7882204215522
    ],
    0
   ],
   [
    [
     1.5723292439407022,
     -14.787745184663537
    ],
    0
   ],
   [
    [
     1.5584634746020587,
     -14.787752359285498
    ],
    0
   ],
   [
    [
     1.541518234286946,
     -14.788468551861595
    ],
    0
   ]
  ]
 },
 {
  "init_weights": [
   2.0,
   -84.8
  ],
  "results": [
   [
    [
     1.6094441989271902,
     -14.714969452661908
    ],
    0
   ],
   [
    [
     1.472641827696096,
     -14.717085939606996
    ],
    0
   ],
   [
    [
     1.549737744747096,
     -14.716627680741938
    ],
    0
   ],
   [
    [
     1.5471738651138875,
     -14.715312639085361
    ],
    0
   ],
   [
    [
     1.5568255290182467,
     -14.714793751086846
    ],
    0
   ],
   [
    [
     1.6711953098727663,
     -14.713415648088214
    ],
    0
   ],
   [
    [
     1.527715256999521,
     -14.715682084220083
    ],
    0
   ],
   [
    [
     1.5721360428325515,
     -14.71520569117306
    ],
    0
   ],
   [
    [
     1.5582622891010356,
     -14.715213113284324
    ],
    0
   ],
   [
    [
     1.5413105896405863,
     -14.715932618256046
    ],
    0
   ]
  ]
 },
 {
  "init_weights": [
   2.0,
   -84.6
  ],
  "results": [
   [
    [
     1.6092690592560932,
     -14.642525268600089
    ],
    0
   ],
   [
    [
     1.4724028491142196,
     -14.644649898582959
    ],
    0
   ],
   [
    [
     1.549535241224271,
     -14.64419123606331
    ],
    0
   ],
   [
    [
     1.5469694805512846,
     -14.642869068764428
    ],
    0
   ],
   [
    [
     1.5566252042027833,
     -14.6423479027115
    ],
    0
   ],
   [
    [
     1.6710477821162597,
     -14.640965221776622
    ],
    0
   ],
   [
    [
     1.5275011809963464,
     -14.643239660256205
    ],
    0
   ],
   [
    [
     1.5719440048803301,
     -14.642762091651136
    ],
    0
   ],
   [
    [
     1.5580622233540695,
     -14.642769766850405
    ],
    0
   ],
   [
    [
     1.5411043296127804,
     -14.643492600159306
    ],
    0
   ]
  ]
 },
 {
  "init_weights": [
   2.0,
   -84.4
  ],
  "results": [
   [
    [
     1.6090949594562423,
     -14.570176684231033
    ],
    0
   ],
   [
    [
     1.472165354553126,
     -14.572309507187772
    ],
    0
   ],
   [
    [
     1.5493339543883264,
     -14.571850439266175
    ],
    0
   ],
   [
    [
     1.5467663423614746,
     -14.57052108043092
    ],
    0
   ],
   [
    [
     1.5564261104338428,
     -14.569997642390227
    ],
    0
   ],
   [
    [
     1.6709010805979847,
     -14.568610334697556
    ],
    0
   ],
   [
    [
     1.5272884073474011,
     -14.570892835091847
    ],
    0
   ],
   [
    [
     1.5717531788476038,
     -14.570414091842618
    ],
    0
   ],
   [
    [
     1.5578634777258742,
     -14.570422018191497
    ],
    0
   ],
   [
    [
     1.5408992845485427,
     -14.571148200107448
    ],
    0
   ]
  ]
 },
 {
  "init_weights": [
   2.0,
   -84.2
  ],
  "results": [
   [
    [
     1.6089219743358656,
     -14.497923389980722
    ],
    0
   ],
   [
    [
     1.4719293450688893,
     -14.500064459944923
    ],
    0
   ],
   [
    [
     1.5491340149222264,
     -14.499604977644585
    ],
    0
   ],
   [
    [
     1.546564508885303,
     -14.49826840003079
    ],
    0
   ],
   [
    [
     1.5562282201894007,
     -14.497742648616654
    ],
    0
   ],
   [
    [
     1.6707554168826793,
     -14.496350710472507
    ],
    0
   ],
   [
    [
     1.5270768920418485,
     -14.49864130948594
    ],
    0
   ],
   [
    [
     1.5715635838445032,
     -14.498161390885132
    ],
    0
   ],
   [
    [
     1.5576658992816235,
     -14.498169561692327
    ],
    0
   ],
   [
    [
     1.5406955154443522,
     -14.498899118399748
    ],
    0
   ]
  ]
 },
 {
  "init_weights": [
   2.0,
   -84.0
  ],
  "results": [
   [
    [
     1.6087501624329223,
     -14.425765072526758
    ],
    0
   ],
   [
    [
     1.4716948003611352,
     -14.42791442708474
    ],
    0
   ],
   [
    [
     1.5489353268753125,
     -14.427454543610548
    ],
    0
   ],
   [
    [
     1.5463639098767201,
     -14.426110684787936
    ],
    0
   ],
   [
    [
     1.5560316094785631,
     -14.425582626973561
    ],
    0
   ],
   [
    [
     1.6706106730440358,
     -14.424186017842333
    ],
    0
   ],
   [
    [
     1.526866741157712,
     -14.426484760463442
    ],
    0
   ],
   [
    [
     1.5713752066296407,
     -14.42600365236196
    ],
    0
   ],
   [
    [
     1.5574695760560524,
     -14.426012084578119
    ],
    0
   ],
   [
    [
     1.54049310249258,
     -14.426745030283938
    ],
    0
   ]
  ]
 },
 {
  "init_weights": [
   2.0,
   -83.8
  ],
  "results": [
   [
    [
     1.6085794268827367,
     -14.3537014138795
    ],
    0
   ],
   [
    [
     1.4714617586445986,
     -14.355859112088751
    ],
    0
   ],
   [
    [
     1.5487379530654939,
     -14.355398829312394
    ],
    0
   ],
   [
    [
     1.5461646742041453,
     -14.354047634223905
    ],
    0
   ],
   [
    [
     1.5558362778532393,
     -14.353517241769993
    ],
    0
   ],
   [
    [
     1.6704668256604969,
     -14.352115938722498
    ],
    0
   ],
   [
    [
     1.526658010767775,
     -14.354422881274825
    ],
    0
   ],
   [
    [
     1.5711880479257934,
     -14.353940584655557
    ],
    0
   ],
   [
    [
     1.557274509492633,
     -14.353949280827022
    ],
    0
   ],
   [
    [
     1.5402920026431746,
     -14.354685639210176
    ],
    0
   ]
  ]
 },
 {
  "init_weights": [
   2.0,
   -83.6
  ],
  "results": [
   [
    [
     1.608409867679415,
     -14.281732077810837
    ],
    0
   ],
   [
    [
     1.4712302944630722,
     -14.283898181891322
    ],
    0
   ],
   [
    [
     1.5485419166585948,
     -14.283437490215217
    ],
    0
   ],
   [
    [
     1.5459666866637014,
     -14.282078913468347
    ],
    0
   ],
   [
    [
     1.5556422729082051,
     -14.281546185980297
    ],
    0
   ],
   [
    [
     1.6703240059353401,
     -14.280140170749572
    ],
    0
   ],
   [
    [
     1.52645053038664,
     -14.282455338003471
    ],
    0
   ],
   [
    [
     1.5710022210282044,
     -14.281971861655622
    ],
    0
   ],
   [
    [
     1.5570807280567922,
     -14.28198079959079
    ],
    0
   ],
   [
    [
     1.5400922606689007,
     -14.282720606939044
    ],
    0
   ]
  ]
 },
 {
  "init_weights": [
   2.0,
   -83.4
  ],
  "results": [
   [
    [
     1.6082414808701095,
     -14.209856758758159
    ],
    0
   ],
   [
    [
     1.4710003258870992,
     -14.212031297887314
    ],
    0
   ],
   [
    [
     1.548347229824659,
     -14.211570210037282
    ],
    0
   ],
   [
    [
     1.5457700768082665,
     -14.210204202234591
    ],
    0
   ],
   [
    [
     1.555449528035611,
     -14.209669110747722
    ],
    0
   ],
   [
    [
     1.670182134778282,
     -14.208258355013283
    ],
    0
   ],
   [
    [
     1.5262445385806842,
     -14.210581815126567
    ],
    0
   ],
   [
    [
     1.5708176302474477,
     -14.210097127130487
    ],
    0
   ],
   [
    [
     1.5568882984128123,
     -14.210106331602566
    ],
    0
   ],
   [
    [
     1.5398938483750049,
     -14.210849602945864
    ],
    0
   ]
  ]
 },
 {
  "init_weights": [
   2.0,
   -83.2
  ],
  "results": [
   [
    [
     1.608074320494797,
     -14.138075107270723
    ],
    0
   ],
   [
    [
     1.4707720011689929,
     -14.140258130758514
    ],
    0
   ],
   [
    [
     1.5481538743413645,
     -14.139796653946945
    ],
    0
   ],
   [
    [
     1.5455748854375142,
     -14.138423160391577
    ],
    0
   ],
   [
    [
     1.5552581446327107,
     -14.13788568985208
    ],
    0
   ],
   [
    [
     1.6700412690070388,
     -14.136470163775488
    ],
    0
   ],
   [
    [
     1.5260398984611114,
     -14.13880196435478
    ],
    0
   ],
   [
    [
     1.5706342787206833,
     -14.138316076776848
    ],
    0
   ],
   [
    [
     1.5566971467926392,
     -14.138325535600758
    ],
    0
   ],
   [
    [
     1.5396968859757514,
     -14.139072288639296
    ],
    0
   ]
  ]
 },
 {
  "init_weights": [
   2.0,
   -83.0
  ],
  "results": [
   [
    [
     1.6079083270032988,
     -14.066386766079468
    ],
    0
   ],
   [
    [
     1.4705452391192793,
     -14.06857834935841
    ],
    0
   ],
   [
    [
     1.5479619176292958,
     -14.068116465640697
    ],
    0
   ],
   [
    [
     1.545381046217775,
     -14.0667354453189
    ],
    0
   ],
   [
    [
     1.5550681097496744,
     -14.066195581011929
    ],
    0
   ],
   [
    [
     1.669901404578397,
     -14.064775256325687
    ],
    0
   ],
   [
    [
     1.5258366871624016,
     -14.067115439572422
    ],
    0
   ],
   [
    [
     1.570452347705113,
     -14.066628333194343
    ],
    0
   ],
   [
    [
     1.5565073212383083,
     -14.06663806118816
    ],
    0
   ],
   [
    [
     1.5395013080768583,
     -14.06738832637303
    ],
    0
   ]
  ]
 },
 {
  "init_weights": [
   2.0,
   -82.8
  ],
  "results": [
   [
    [
     1.6077435468965477,
     -13.994791393222217
    ],
    0
   ],
   [
    [
     1.4703201691703198,
     -13.996991569470888
    ],
    0
   ],
   [
    [
     1.5477714084983738,
     -13.996529299575093
    ],
    0
   ],
   [
    [
     1.5451885889923427,
     -13.995140688248165
    ],
    0
   ],
   [
    [
     1.5548794509217794,
     -13.994598420931101
    ],
    0
   ],
   [
    [
     1.6697625881005282,
     -13.993173274021679
    ],
    0
   ],
   [
    [
     1.5256349956882709,
     -13.995521894289556
    ],
    0
   ],
   [
    [
     1.570271742893698,
     -13.99503357630999
    ],
    0
   ],
   [
    [
     1.5563188861925845,
     -13.995043568971395
    ],
    0
   ],
   [
    [
     1.5393071605417248,
     -13.99579735683956
    ],
    0
   ]
  ]
 },
 {
  "init_weights": [
   2.0,
   -82.6
  ],
  "results": [
   [
    [
     1.6075800530329285,
     -13.923288646516548
    ],
    0
   ],
   [
    [
     1.470096675155443,
     -13.925497457190774
    ],
    0
   ],
   [
    [
     1.5475822891221962,
     -13.9250348038263
    ],
    0
   ],
   [
    [
     1.5449975800459241,
     -13.923638546175424
    ],
    0
   ],
   [
    [
     1.5546921917445173,
     -13.923093854565206
    ],
    0
   ],
   [
    [
     1.6696248468557344,
     -13.921663859176528
    ],
    0
   ],
   [
    [
     1.5254347476312362,
     -13.924020962569386
    ],
    0
   ],
   [
    [
     1.570092498297302,
     -13.923531415567663
    ],
    0
   ],
   [
    [
     1.5561318273755342,
     -13.92354167800517
    ],
    0
   ],
   [
    [
     1.5391144805893537,
     -13.924299029320762
    ],
    0
   ]
  ]
 },
 {
  "init_weights": [
   2.0,
   -82.4
  ],
  "results": [
   [
    [
     1.6074178005205189,
     -13.85187812692583
    ],
    0
   ],
   [
    [
     1.469874910168306,
     -13.854095649701046
    ],
    0
   ],
   [
    [
     1.5473946254480775,
     -13.853632582343598
    ],
    0
   ],
   [
    [
     1.5448079911291535,
     -13.852228653819052
    ],
    0
   ],
   [
    [
     1.5545062926575546,
     -13.851681531442635
    ],
    0
   ],
   [
    [
     1.6694881074645997,
     -13.850246656197331
    ],
    0
   ],
   [
    [
     1.5252359755516016,
     -13.852612281258828
    ],
    0
   ],
   [
    [
     1.5699146042522172,
     -13.852121516522535
    ],
    0
   ],
   [
    [
     1.555946192851503,
     -13.852132053298657
    ],
    0
   ],
   [
    [
     1.5389232853886026,
     -13.85289296425876
    ],
    0
   ]
  ]
 },
 {
  "init_weights": [
   2.0,
   -82.2
  ],
  "results": [
   [
    [
     1.6072568046961635,
     -13.780559484153782
    ],
    0
   ],
   [
    [
     1.4696547711051622,
     -13.78278575687757
    ],
    0
   ],
   [
    [
     1.547208430330222,
     -13.782322325464238
    ],
    0
   ],
   [
    [
     1.5446199008191075,
     -13.780910630117939
    ],
    0
   ],
   [
    [
     1.5543218653504025,
     -13.780361045708569
    ],
    0
   ],
   [
    [
     1.6693524566751463,
     -13.778921262143221
    ],
    0
   ],
   [
    [
     1.5250387010664495,
     -13.781295484638637
    ],
    0
   ],
   [
    [
     1.5697381180149408,
     -13.78080348525323
    ],
    0
   ],
   [
    [
     1.5557619480670488,
     -13.780814287996378
    ],
    0
   ],
   [
    [
     1.5387335763696584,
     -13.781578820348923
    ],
    0
   ]
  ]
 },
 {
  "init_weights": [
   2.0,
   -82.0
  ],
  "results": [
   [
    [
     1.6070971899842108,
     -13.709332327917538
    ],
    0
   ],
   [
    [
     1.4694363981775103,
     -13.711567413590759
    ],
    0
   ],
   [
    [
     1.547023768713166,
     -13.711103577826895
    ],
    0
   ],
   [
    [
     1.5444333161725519,
     -13.709684085156997
    ],
    0
   ],
   [
    [
     1.5541388797938047,
     -13.709132041804668
    ],
    0
   ],
   [
    [
     1.6692179055228744,
     -13.707687326209324
    ],
    0
   ],
   [
    [
     1.5248430602293757,
     -13.710070181711833
    ],
    0
   ],
   [
    [
     1.5695630678998553,
     -13.709576942153266
    ],
    0
   ],
   [
    [
     1.5555791570201942,
     -13.709588022665567
    ],
    0
   ],
   [
    [
     1.5385453693131652,
     -13.710356170051178
    ],
    0
   ]
  ]
 },
 {
  "init_weights": [
   2.0,
   -81.8
  ],
  "results": [
   [
    [
     1.6069387759069296,
     -13.638196275104942
    ],
    0
   ],
   [
    [
     1.469219795011229,
     -13.640440216708235
    ],
    0
   ],
   [
    [
     1.5468405831270005,
     -13.639976008374164
    ],
    0
   ],
   [
    [
     1.5442482086603515,
     -13.63854864666206
    ],
    0
   ],
   [
    [
     1.5539573697903766,
     -13.637994110931619
    ],
    0
   ],
   [
    [
     1.6690844455777194,
     -13.636544435526908
    ],
    0
   ],
   [
    [
     1.5246489186748233,
     -13.638935983491104
    ],
    0
   ],
   [
    [
     1.569389426230169,
     -13.638441498652353
    ],
    0
   ],
   [
    [
     1.5553978515480469,
     -13.638452855830014
    ],
    0
   ],
   [
    [
     1.5383587286815612,
     -13.639224655890878
    ],
    0
   ]
  ]
 },
 {
  "init_weights": [
   2.0,
   -81.6
  ],
  "results": [
   [
    [
     1.6067817735146224,
     -13.567150922533138
    ],
    0
   ],
   [
    [
     1.4690049241456788,
     -13.569403772444279
    ],
    0
   ],
   [
    [
     1.5466589184922594,
     -13.568939188535856
    ],
    0
   ],
   [
    [
     1.5440646176623556,
     -13.567503916819756
    ],
    0
   ],
   [
    [
     1.5537773652944964,
     -13.566946887302334
    ],
    0
   ],
   [
    [
     1.668952138221905,
     -13.56549222409456
    ],
    0
   ],
   [
    [
     1.5244563523446422,
     -13.567892484878008
    ],
    0
   ],
   [
    [
     1.5692173001346434,
     -13.56739676654522
    ],
    0
   ],
   [
    [
     1.5552180586829134,
     -13.567408399736024
    ],
    0
   ],
   [
    [
     1.5381736354403202,
     -13.568183870440555
    ],
    0
   ]
  ]
 },
 {
  "init_weights": [
   2.0,
   -81.4
  ],
  "results": [
   [
    [
     1.606626120037544,
     -13.496195857525429
    ],
    0
   ],
   [
    [
     1.468791897296502,
     -13.498457690049865
    ],
    0
   ],
   [
    [
     1.5464787757012042,
     -13.497992722304634
    ],
    0
   ],
   [
    [
     1.5438826295791286,
     -13.496549488380955
    ],
    0
   ],
   [
    [
     1.5535988178870033,
     -13.495989937573356
    ],
    0
   ],
   [
    [
     1.6688208804856295,
     -13.494530253414165
    ],
    0
   ],
   [
    [
     1.5242654630716785,
     -13.496939318967605
    ],
    0
   ],
   [
    [
     1.5690466018193527,
     -13.496442337875772
    ],
    0
   ],
   [
    [
     1.5550397175288824,
     -13.496454246319795
    ],
    0
   ],
   [
    [
     1.537990093690757,
     -13.497233419972645
    ],
    0
   ]
  ]
 },
 {
  "init_weights": [
   2.0,
   -81.2
  ],
  "results": [
   [
    [
     1.606471812681328,
     -13.425330690989941
    ],
    0
   ],
   [
    [
     1.4685806729569457,
     -13.42760153786822
    ],
    0
   ],
   [
    [
     1.5463002686273515,
     -13.427136206228724
    ],
    0
   ],
   [
    [
     1.5437021962943533,
     -13.425684933694612
    ],
    0
   ],
   [
    [
     1.5534218914490492,
     -13.425122854494278
    ],
    0
   ],
   [
    [
     1.6686908417814637,
     -13.423658140720004
    ],
    0
   ],
   [
    [
     1.5240761273073857,
     -13.426076024771637
    ],
    0
   ],
   [
    [
     1.5688774475833664,
     -13.425577789937794
    ],
    0
   ],
   [
    [
     1.5548629160215677,
     -13.425589992304127
    ],
    0
   ],
   [
    [
     1.5378082150767314,
     -13.426372880264857
    ],
    0
   ]
  ]
 },
 {
  "init_weights": [
   2.0,
   -81.0
  ],
  "results": [
   [
    [
     1.6063188596475186,
     -13.354554989514432
    ],
    0
   ],
   [
    [
     1.4683712878144715,
     -13.356834917102974
    ],
    0
   ],
   [
    [
     1.5461233420434726,
     -13.356369201649441
    ],
    0
   ],
   [
    [
     1.5435233237128996,
     -13.354909861951615
    ],
    0
   ],
   [
    [
     1.5532464783109161,
     -13.35434523375275
    ],
    0
   ],
   [
    [
     1.6685619913052387,
     -13.352875426161118
    ],
    0
   ],
   [
    [
     1.5238884519601963,
     -13.355302214897968
    ],
    0
   ],
   [
    [
     1.5687098089526217,
     -13.354802712238618
    ],
    0
   ],
   [
    [
     1.5546876139599652,
     -13.354815195041514
    ],
    0
   ],
   [
    [
     1.537627966078062,
     -13.355601830195706
    ],
    0
   ]
  ]
 },
 {
  "init_weights": [
   2.0,
   -80.8
  ],
  "results": [
   [
    [
     1.6061673816797088,
     -13.28386832142016
    ],
    0
   ],
   [
    [
     1.4681637999905213,
     -13.28615737571204
    ],
    0
   ],
   [
    [
     1.5459480664550778,
     -13.285691296670736
    ],
    0
   ],
   [
    [
     1.5433461249380285,
     -13.2842238162538
    ],
    0
   ],
   [
    [
     1.5530726662383991,
     -13.283656611054779
    ],
    0
   ],
   [
    [
     1.6684342813078132,
     -13.282181715693767
    ],
    0
   ],
   [
    [
     1.5237024756777233,
     -13.284617452476333
    ],
    0
   ],
   [
    [
     1.5685436755370628,
     -13.284116670300598
    ],
    0
   ],
   [
    [
     1.5545139765356222,
     -13.284129445194752
    ],
    0
   ],
   [
    [
     1.537449327928585,
     -13.284919847006266
    ],
    0
   ]
  ]
 },
 {
  "init_weights": [
   2.0,
   -80.6
  ],
  "results": [
   [
    [
     1.606017320401778,
     -13.213270251688844
    ],
    0
   ],
   [
    [
     1.4679582220797351,
     -13.215568483264965
    ],
    0
   ],
   [
    [
     1.5457743924466998,
     -13.215102047237487
    ],
    0
   ],
   [
    [
     1.543170565419285,
     -13.213626373150017
    ],
    0
   ],
   [
    [
     1.5529004667612638,
     -13.213056576970276
    ],
    0
   ],
   [
    [
     1.6683077849171697,
     -13.211576552361548
    ],
    0
   ],
   [
    [
     1.523518242221312,
     -13.214021278120152
    ],
    0
   ],
   [
    [
     1.568379140359586,
     -13.213519222385072
    ],
    0
   ],
   [
    [
     1.5543418867084342,
     -13.213532293421512
    ],
    0
   ],
   [
    [
     1.5372723814690081,
     -13.214326494214127
    ],
    0
   ]
  ]
 },
 {
  "init_weights": [
   2.0,
   -80.4
  ],
  "results": [
   [
    [
     1.6058686864773248,
     -13.142760322191592
    ],
    0
   ],
   [
    [
     1.467754588534074,
     -13.145067801784256
    ],
    0
   ],
   [
    [
     1.545602434402152,
     -13.144601001400233
    ],
    0
   ],
   [
    [
     1.5429966610712134,
     -13.143117075865518
    ],
    0
   ],
   [
    [
     1.552729866248693,
     -13.14254468639136
    ],
    0
   ],
   [
    [
     1.6681825050181747,
     -13.14105949633092
    ],
    0
   ],
   [
    [
     1.5233356967622844,
     -13.143513267358832
    ],
    0
   ],
   [
    [
     1.5682162374511022,
     -13.143009934704843
    ],
    0
   ],
   [
    [
     1.5541714131461772,
     -13.14302328914703
    ],
    0
   ],
   [
    [
     1.5370971427932563,
     -13.143821312601544
    ],
    0
   ]
  ]
 },
 {
  "init_weights": [
   2.0,
   -80.2
  ],
  "results": [
   [
    [
     1.6057215232140705,
     -13.07233809362573
    ],
    0
   ],
   [
    [
     1.4675528603896246,
     -13.074654878168417
    ],
    0
   ],
   [
    [
     1.5454321461954412,
     -13.074187722348205
    ],
    0
   ],
   [
    [
     1.5428244134579523,
     -13.07269546084282
    ],
    0
   ],
   [
    [
     1.5525609190063085,
     -13.072120461866374
    ],
    0
   ],
   [
    [
     1.6680584522995516,
     -13.070630093500364
    ],
    0
   ],
   [
    [
     1.523154880219182,
     -13.073092962161812
    ],
    0
   ],
   [
    [
     1.5680549069888796,
     -13.072588347315357
    ],
    0
   ],
   [
    [
     1.5540025925914147,
     -13.072601985952112
    ],
    0
   ],
   [
    [
     1.5369236236222834,
     -13.073403859111536
    ],
    0
   ]
  ]
 },
 {
  "init_weights": [
   2.0,
   -80.0
  ],
  "results": [
   [
    [
     1.6055759273909844,
     -13.00200308335008
    ],
    0
   ],
   [
    [
     1.4673531578531145,
     -13.004329227175218
    ],
    0
   ],
   [
    [
     1.545263602519056,
     -13.003861716786462
    ],
    0
   ],
   [
    [
     1.5426539041555676,
     -13.002361095245638
    ],
    0
   ],
   [
    [
     1.5523936525845752,
     -13.001783458056103
    ],
    0
   ],
   [
    [
     1.6679356855154333,
     -13.000287858692035
    ],
    0
   ],
   [
    [
     1.522975860123172,
     -13.002759886598955
    ],
    0
   ],
   [
    [
     1.5678952336915557,
     -13.002253968267432
    ],
    0
   ],
   [
    [
     1.5538354221019535,
     -13.002267914583722
    ],
    0
   ],
   [
    [
     1.5367518671551712,
     -13.003073666192304
    ],
    0
   ]
  ]
 },
 {
  "init_weights": [
   2.0,
   -79.8
  ],
  "results": [
   [
    [
     1.605431781673591,
     -12.93175483060772
    ],
    0
   ],
   [
    [
     1.4671554413481152,
     -12.93409039784518
    ],
    0
   ],
   [
    [
     1.5450967336254764,
     -12.933622520712769
    ],
    0
   ],
   [
    [
     1.5424851474545547,
     -12.932113474497955
    ],
    0
   ],
   [
    [
     1.5522280839707872,
     -12.93153317298276
    ],
    0
   ],
   [
    [
     1.6678141689465353,
     -12.930032342154998
    ],
    0
   ],
   [
    [
     1.5227986288673863,
     -12.932513576697415
    ],
    0
   ],
   [
    [
     1.5677372182191105,
     -12.932006362645293
    ],
    0
   ],
   [
    [
     1.5536699911170289,
     -12.932020609880752
    ],
    0
   ],
   [
    [
     1.5365818917599632,
     -12.932830251594432
    ],
    0
   ]
  ]
 },
 {
  "init_weights": [
   2.0,
   -79.6
  ],
  "results": [
   [
    [
     1.6052891970664038,
     -12.861592853011494
    ],
    0
   ],
   [
    [
     1.4669598211102761,
     -12.863937875590299
    ],
    0
   ],
   [
    [
     1.5449316932872985,
     -12.863469668561448
    ],
    0
   ],
   [
    [
     1.5423181572645714,
     -12.861952133715295
    ],
    0
   ],
   [
    [
     1.5520642681526549,
     -12.861369150142886
    ],
    0
   ],
   [
    [
     1.6676939386954739,
     -12.859863049671382
    ],
    0
   ],
   [
    [
     1.5226232543126996,
     -12.86235354696754
    ],
    0
   ],
   [
    [
     1.5675808576698451,
     -12.861845022700699
    ],
    0
   ],
   [
    [
     1.5535061783794464,
     -12.861859584704224
    ],
    0
   ],
   [
    [
     1.536413673551524,
     -12.862673148391927
    ],
    0
   ]
  ]
 },
 {
  "init_weights": [
   2.0,
   -79.4
  ],
  "results": [
   [
    [
     1.6051481408372414,
     -12.791516661952416
    ],
    0
   ],
   [
    [
     1.4667662149999203,
     -12.793871213597047
    ],
    0
   ],
   [
    [
     1.5447684650837015,
     -12.793402651169325
    ],
    0
   ],
   [
    [
     1.5421529691462328,
     -12.791876561840299
    ],
    0
   ],
   [
    [
     1.551902133480093,
     -12.791290901444237
    ],
    0
   ],
   [
    [
     1.667575056532666,
     -12.78977948792877
    ],
    0
   ],
   [
    [
     1.5224497323857558,
     -12.792279295190847
    ],
    0
   ],
   [
    [
     1.5674262357793716,
     -12.791769477509117
    ],
    0
   ],
   [
    [
     1.553344177753906,
     -12.791784322477469
    ],
    0
   ],
   [
    [
     1.536247329930574,
     -12.79260184588928
    ],
    0
   ]
  ]
 },
 {
  "init_weights": [
   2.0,
   -79.2
  ],
  "results": [
   [
    [
     1.6050086963120933,
     -12.721525741843175
    ],
    0
   ],
   [
    [
     1.4665747504057043,
     -12.723889865942429
    ],
    0
   ],
   [
    [
     1.5446069459471081,
     -12.72342097707192
    ],
    0
   ],
   [
    [
     1.5419895595691508,
     -12.721886261612283
    ],
    0
   ],
   [
    [
     1.5517418104327536,
     -12.721297896942461
    ],
    0
   ],
   [
    [
     1.6674574532492954,
     -12.71978114628899
    ],
    0
   ],
   [
    [
     1.5222780415320267,
     -12.722290334482658
    ],
    0
   ],
   [
    [
     1.5672733301013646,
     -12.721779193087313
    ],
    0
   ],
   [
    [
     1.5531838829323636,
     -12.721794344890926
    ],
    0
   ],
   [
    [
     1.5360828103889475,
     -12.722615840419094
    ],
    0
   ]
  ]
 },
 {
  "init_weights": [
   2.0,
   -79.0
  ],
  "results": [
   [
    [
     1.6048708572027943,
     -12.651619575776278
    ],
    0
   ],
   [
    [
     1.4663853970204062,
     -12.653993351260013
    ],
    0
   ],
   [
    [
     1.5444473478124499,
     -12.653524108719896
    ],
    0
   ],
   [
    [
     1.541828005208815,
     -12.651980727780964
    ],
    0
   ],
   [
    [
     1.5515832610864304,
     -12.651389636899145
    ],
    0
   ],
   [
    [
     1.667341172784947,
     -12.649867533896098
    ],
    0
   ],
   [
    [
     1.5221083090658811,
     -12.652386134551394
    ],
    0
   ],
   [
    [
     1.5671222231136885,
     -12.651873671826484
    ],
    0
   ],
   [
    [
     1.5530253939096272,
     -12.65188914438882
    ],
    0
   ],
   [
    [
     1.5359201480672233,
     -12.65271464637117
    ],
    0
   ]
  ]
 },
 {
  "init_weights": [
   2.0,
   -78.8
  ],
  "results": [
   [
    [
     1.6047346321711178,
     -12.581797628511632
    ],
    0
   ],
   [
    [
     1.4661982243639353,
     -12.584181106645156
    ],
    0
   ],
   [
    [
     1.5442896581196135,
     -12.58371153583688
    ],
    0
   ],
   [
    [
     1.541668333265814,
     -12.582159424147974
    ],
    0
   ],
   [
    [
     1.5514265684090804,
     -12.581565595762418
    ],
    0
   ],
   [
    [
     1.667226297001791,
     -12.580038089274064
    ],
    0
   ],
   [
    [
     1.5219405076572612,
     -12.58256618616292
    ],
    0
   ],
   [
    [
     1.5669728301433492,
     -12.58205240165322
    ],
    0
   ],
   [
    [
     1.552868672686955,
     -12.58206817879277
    ],
    0
   ],
   [
    [
     1.5357594604670526,
     -12.582897706899098
    ],
    0
   ]
  ]
 },
 {
  "init_weights": [
   2.0,
   -78.6
  ],
  "results": [
   [
    [
     1.6046000632294395,
     -12.512059409366413
    ],
    0
   ],
   [
    [
     1.466013264424716,
     -12.514452655815179
    ],
    0
   ],
   [
    [
     1.5441338210868385,
     -12.513982738941056
    ],
    0
   ],
   [
    [
     1.5415105198290506,
     -12.512421831254906
    ],
    0
   ],
   [
    [
     1.5512716927492363,
     -12.511825238606832
    ],
    0
   ],
   [
    [
     1.6671128117870468,
     -12.51029230521479
    ],
    0
   ],
   [
    [
     1.521774613004879,
     -12.512829941385245
    ],
    0
   ],
   [
    [
     1.5668252784945496,
     -12.512314831646922
    ],
    0
   ],
   [
    [
     1.5527139441433708,
     -12.512330914133615
    ],
    0
   ],
   [
    [
     1.5356006011193812,
     -12.513164504336546
    ],
    0
   ]
  ]
 },
 {
  "init_weights": [
   2.0,
   -78.4
  ],
  "results": [
   [
    [
     1.6044671645995685,
     -12.442404340163884
    ],
    0
   ],
   [
    [
     1.4658305061338133,
     -12.44480739868041
    ],
    0
   ],
   [
    [
     1.5439798721796145,
     -12.44433716903946
    ],
    0
   ],
   [
    [
     1.5413546243082243,
     -12.442767396194522
    ],
    0
   ],
   [
    [
     1.5511187265042397,
     -12.442168020764887
    ],
    0
   ],
   [
    [
     1.6670007196811665,
     -12.440629647773035
    ],
    0
   ],
   [
    [
     1.5216107448023324,
     -12.44317687669534
    ],
    0
   ],
   [
    [
     1.566679563186188,
     -12.442660415188632
    ],
    0
   ],
   [
    [
     1.5525609076368456,
     -12.442676812226432
    ],
    0
   ],
   [
    [
     1.5354437896911068,
     -12.443514492723095
    ],
    0
   ]
  ]
 },
 {
  "init_weights": [
   2.0,
   -78.2
  ],
  "results": [
   [
    [
     1.6043359515314954,
     -12.372831883229626
    ],
    0
   ],
   [
    [
     1.4656499617531493,
     -12.375244808727501
    ],
    0
   ],
   [
    [
     1.5438278957777753,
     -12.374774263335034
    ],
    0
   ],
   [
    [
     1.5412007335795572,
     -12.373195563025208
    ],
    0
   ],
   [
    [
     1.5509676140049409,
     -12.37259339464187
    ],
    0
   ],
   [
    [
     1.6668900556122705,
     -12.371049530241729
    ],
    0
   ],
   [
    [
     1.5214489008712435,
     -12.37360640353126
    ],
    0
   ],
   [
    [
     1.5665356892942035,
     -12.37308860907145
    ],
    0
   ],
   [
    [
     1.5524097899766514,
     -12.373105324971712
    ],
    0
   ],
   [
    [
     1.535288896371958,
     -12.37394711473763
    ],
    0
   ]
  ]
 },
 {
  "init_weights": [
   2.0,
   -78.0
  ],
  "results": [
   [
    [
     1.604206509713468,
     -12.303341449782314
    ],
    0
   ],
   [
    [
     1.4654717451295765,
     -12.305764321984881
    ],
    0
   ],
   [
    [
     1.5436779031779744,
     -12.305293453709668
    ],
    0
   ],
   [
    [
     1.5410487748559438,
     -12.303705764280142
    ],
    0
   ],
   [
    [
     1.5508184601113433,
     -12.303100774288733
    ],
    0
   ],
   [
    [
     1.666780823259063,
     -12.301551404540072
    ],
    0
   ],
   [
    [
     1.5212890569210964,
     -12.304117982583548
    ],
    0
   ],
   [
    [
     1.5663937079857557,
     -12.30359884225671
    ],
    0
   ],
   [
    [
     1.5522606684324463,
     -12.303615881986403
    ],
    0
   ],
   [
    [
     1.5351360658902162,
     -12.304461803161955
    ],
    0
   ]
  ]
 },
 {
  "init_weights": [
   2.0,
   -77.8
  ],
  "results": [
   [
    [
     1.6040787513038397,
     -12.233932471419473
    ],
    0
   ],
   [
    [
     1.4652958592093013,
     -12.236365345738363
    ],
    0
   ],
   [
    [
     1.5435298842330416,
     -12.2358941680671
    ],
    0
   ],
   [
    [
     1.540898793042078,
     -12.234297431192882
    ],
    0
   ],
   [
    [
     1.5506712188179181,
     -12.233689608089053
    ],
    0
   ],
   [
    [
     1.6666730620627528,
     -12.232134678387983
    ],
    0
   ],
   [
    [
     1.5211313449060702,
     -12.234711022916445
    ],
    0
   ],
   [
    [
     1.5662536543818049,
     -12.234190523829676
    ],
    0
   ],
   [
    [
     1.5521134086999602,
     -12.234207895083875
    ],
    0
   ],
   [
    [
     1.5349852490077502,
     -12.235057991269578
    ],
    0
   ]
  ]
 },
 {
  "init_weights": [
   2.0,
   -77.6
  ],
  "results": [
   [
    [
     1.6039527521203416,
     -12.1646043713677
    ],
    0
   ],
   [
    [
     1.4651222888914917,
     -12.167047302528141
    ],
    0
   ],
   [
    [
     1.5433839584636884,
     -12.166575809797104
    ],
    0
   ],
   [
    [
     1.5407508889277606,
     -12.164969960270346
    ],
    0
   ],
   [
    [
     1.5505259945754661,
     -12.164359272256107
    ],
    0
   ],
   [
    [
     1.6665667523494823,
     -12.162798774497706
    ],
    0
   ],
   [
    [
     1.5209757270306896,
     -12.165384948312393
    ],
    0
   ],
   [
    [
     1.5661155014201666,
     -12.164863088326502
    ],
    0
   ],
   [
    [
     1.5519680997047016,
     -12.164880782909341
    ],
    0
   ],
   [
    [
     1.5348365222247564,
     -12.165735071120766
    ],
    0
   ]
  ]
 },
 {
  "init_weights": [
   2.0,
   -77.4
  ],
  "results": [
   [
    [
     1.603828527228377,
     -12.09535653973112
    ],
    0
   ],
   [
    [
     1.4649511090735265,
     -12.097809586635025
    ],
    0
   ],
   [
    [
     1.54324004352166,
     -12.097337807335913
    ],
    0
   ],
   [
    [
     1.5406050052377702,
     -12.095722760476466
    ],
    0
   ],
   [
    [
     1.5503827522949856,
     -12.095109204542569
    ],
    0
   ],
   [
    [
     1.666461970669769,
     -12.093543105875577
    ],
    0
   ],
   [
    [
     1.5208221882153183,
     -12.096139153510025
    ],
    0
   ],
   [
    [
     1.5659793419014172,
     -12.095615921535206
    ],
    0
   ],
   [
    [
     1.5518248552284244,
     -12.0956339483722
    ],
    0
   ],
   [
    [
     1.5346898937310771,
     -12.09649245769591
    ],
    0
   ]
  ]
 },
 {
  "init_weights": [
   2.0,
   -77.2
  ],
  "results": [
   [
    [
     1.6037061895243376,
     -12.026188365643613
    ],
    0
   ],
   [
    [
     1.4647823754884808,
     -12.028651588872968
    ],
    0
   ],
   [
    [
     1.5430982215005578,
     -12.028179508665081
    ],
    0
   ],
   [
    [
     1.5404612404758125,
     -12.026555211205741
    ],
    0
   ],
   [
    [
     1.5502415706458994,
     -12.025938761973766
    ],
    0
   ],
   [
    [
     1.6663587173456988,
     -12.024367029167001
    ],
    0
   ],
   [
    [
     1.5206708111078993,
     -12.02697300676774
    ],
    0
   ],
   [
    [
     1.5658451336909687,
     -12.026448410618725
    ],
    0
   ],
   [
    [
     1.5516835906753774,
     -12.026466765656462
    ],
    0
   ],
   [
    [
     1.5345453560914772,
     -12.027329529474414
    ],
    0
   ]
  ]
 },
 {
  "init_weights": [
   2.0,
   -77.0
  ],
  "results": [
   [
    [
     1.6035856816495946,
     -11.957099208536588
    ],
    0
   ],
   [
    [
     1.4646160848718166,
     -11.959572688984268
    ],
    0
   ],
   [
    [
     1.5429585000760866,
     -11.959100309312317
    ],
    0
   ],
   [
    [
     1.5403195831859733,
     -11.957466699831445
    ],
    0
   ],
   [
    [
     1.5501024293573862,
     -11.956847335765993
    ],
    0
   ],
   [
    [
     1.6662570049351975,
     -11.955269934873236
    ],
    0
   ],
   [
    [
     1.5205216618899657,
     -11.957885907212754
    ],
    0
   ],
   [
    [
     1.5657130038384932,
     -11.957359935620442
    ],
    0
   ],
   [
    [
     1.5515444289047426,
     -11.957378617952529
    ],
    0
   ],
   [
    [
     1.5344029857477122,
     -11.958245666692232
    ],
    0
   ]
  ]
 },
 {
  "init_weights": [
   2.0,
   -76.8
  ],
  "results": [
   [
    [
     1.603466982772284,
     -11.888088455712124
    ],
    0
   ],
   [
    [
     1.4644522342422945,
     -11.89057224018783
    ],
    0
   ],
   [
    [
     1.5428209558318624,
     -11.890099575167067
    ],
    0
   ],
   [
    [
     1.5401800261999332,
     -11.88845658106186
    ],
    0
   ],
   [
    [
     1.5499653690055255,
     -11.8878342801385
    ],
    0
   ],
   [
    [
     1.6661568003320573,
     -11.88625118938074
    ],
    0
   ],
   [
    [
     1.520374751650065,
     -11.888877208575035
    ],
    0
   ],
   [
    [
     1.565582819673177,
     -11.88834985717887
    ],
    0
   ],
   [
    [
     1.5514073042505314,
     -11.888368866891014
    ],
    0
   ],
   [
    [
     1.5342628094211703,
     -11.889240228634163
    ],
    0
   ]
  ]
 },
 {
  "init_weights": [
   2.0,
   -76.6
  ],
  "results": [
   [
    [
     1.60335021803664,
     -11.819155442149881
    ],
    0
   ],
   [
    [
     1.4642909074657784,
     -11.821649587474063
    ],
    0
   ],
   [
    [
     1.5426856093599002,
     -11.821176646536898
    ],
    0
   ],
   [
    [
     1.5400427042604983,
     -11.819524197688018
    ],
    0
   ],
   [
    [
     1.5498304778845844,
     -11.818898949999673
    ],
    0
   ],
   [
    [
     1.6660582908398829,
     -11.817310120225299
    ],
    0
   ],
   [
    [
     1.5202300031391949,
     -11.819946262632953
    ],
    0
   ],
   [
    [
     1.5654547760363746,
     -11.819417521449381
    ],
    0
   ],
   [
    [
     1.5512722387507187,
     -11.819436870657622
    ],
    0
   ],
   [
    [
     1.534124859978256,
     -11.820312568142374
    ],
    0
   ]
  ]
 },
 {
  "init_weights": [
   2.0,
   -76.4
  ],
  "results": [
   [
    [
     1.6032354075866797,
     -11.75029950653653
    ],
    0
   ],
   [
    [
     1.464132186174311,
     -11.75280408448617
    ],
    0
   ],
   [
    [
     1.5425524690394419,
     -11.752330867427967
    ],
    0
   ],
   [
    [
     1.5399075483798887,
     -11.750668900465492
    ],
    0
   ],
   [
    [
     1.5496977210471146,
     -11.750040683360465
    ],
    0
   ],
   [
    [
     1.665961309100739,
     -11.748446082154572
    ],
    0
   ],
   [
    [
     1.5200875751933753,
     -11.7510923967712
    ],
    0
   ],
   [
    [
     1.5653288102177803,
     -11.75056226063471
    ],
    0
   ],
   [
    [
     1.55113940064657,
     -11.750581957424117
    ],
    0
   ],
   [
    [
     1.5339891562169305,
     -11.751462023450234
    ],
    0
   ]
  ]
 },
 {
  "init_weights": [
   2.0,
   -76.2
  ],
  "results": [
   [
    [
     1.6031224491208456,
     -11.681519977840223
    ],
    0
   ],
   [
    [
     1.4639760049040182,
     -11.684035047396767
    ],
    0
   ],
   [
    [
     1.5424215186378,
     -11.683561557556306
    ],
    0
   ],
   [
    [
     1.5397746135101908,
     -11.681890000334635
    ],
    0
   ],
   [
    [
     1.5495670701944644,
     -11.681258792742131
    ],
    0
   ],
   [
    [
     1.6658659766159816,
     -11.679658400474915
    ],
    0
   ],
   [
    [
     1.5199474882614856,
     -11.682314938875711
    ],
    0
   ],
   [
    [
     1.5652050122104846,
     -11.681783409377813
    ],
    0
   ],
   [
    [
     1.551008670730649,
     -11.681803445835037
    ],
    0
   ],
   [
    [
     1.5338556975541384,
     -11.682687920316907
    ],
    0
   ]
  ]
 },
 {
  "init_weights": [
   2.0,
   -76.0
  ],
  "results": [
   [
    [
     1.6030115297102785,
     -11.61281616452532
    ],
    0
   ],
   [
    [
     1.463822488517944,
     -11.61534178397421
    ],
    0
   ],
   [
    [
     1.5422928582887923,
     -11.614868030027042
    ],
    0
   ],
   [
    [
     1.5396439694138715,
     -11.613186818825307
    ],
    0
   ],
   [
    [
     1.5494387247550907,
     -11.612552586487817
    ],
    0
   ],
   [
    [
     1.665772313606515,
     -11.61094637999601
    ],
    0
   ],
   [
    [
     1.5198097211589958,
     -11.613613201226327
    ],
    0
   ],
   [
    [
     1.565083407658324,
     -11.613080274964405
    ],
    0
   ],
   [
    [
     1.5508801448865477,
     -11.613100660049884
    ],
    0
   ],
   [
    [
     1.5337245906494272,
     -11.613989546975832
    ],
    0
   ]
  ]
 },
 {
  "init_weights": [
   2.0,
   -75.8
  ],
  "results": [
   [
    [
     1.6029026042135213,
     -11.544187351568073
    ],
    0
   ],
   [
    [
     1.463671613294712,
     -11.54672359397255
    ],
    0
   ],
   [
    [
     1.5421665253917236,
     -11.546249576689874
    ],
    0
   ],
   [
    [
     1.5395155973319092,
     -11.544558627620733
    ],
    0
   ],
   [
    [
     1.549312596065714,
     -11.543921379626818
    ],
    0
   ],
   [
    [
     1.6656802914541435,
     -11.542309312992623
    ],
    0
   ],
   [
    [
     1.5196743365791041,
     -11.544986494998565
    ],
    0
   ],
   [
    [
     1.564963933120376,
     -11.544452140795968
    ],
    0
   ],
   [
    [
     1.550753873934397,
     -11.544472881524632
    ],
    0
   ],
   [
    [
     1.5335958109980627,
     -11.545366230735466
    ],
    0
   ]
  ]
 },
 {
  "init_weights": [
   2.0,
   -75.6
  ],
  "results": [
   [
    [
     1.602795701583419,
     -11.475632842943021
    ],
    0
   ],
   [
    [
     1.463523417889876,
     -11.478179756737287
    ],
    0
   ],
   [
    [
     1.5420424592051043,
     -11.477705492657375
    ],
    0
   ],
   [
    [
     1.5393896305026689,
     -11.476004739979318
    ],
    0
   ],
   [
    [
     1.549188688540355,
     -11.475364444541281
    ],
    0
   ],
   [
    [
     1.665590032350164,
     -11.473746484702954
    ],
    0
   ],
   [
    [
     1.5195413824597799,
     -11.476434071061083
    ],
    0
   ],
   [
    [
     1.5648466820389526,
     -11.47589832188203
    ],
    0
   ],
   [
    [
     1.5506298111777304,
     -11.47591940042279
    ],
    0
   ],
   [
    [
     1.5334694222410155,
     -11.476817240959381
    ],
    0
   ]
  ]
 },
 {
  "init_weights": [
   2.0,
   -75.4
  ],
  "results": [
   [
    [
     1.6026908283063468,
     -11.407151874509829
    ],
    0
   ],
   [
    [
     1.4633779955706891,
     -11.409709540995847
    ],
    0
   ],
   [
    [
     1.5419207897958567,
     -11.409235034149736
    ],
    0
   ],
   [
    [
     1.539265926796269,
     -11.407524416971997
    ],
    0
   ],
   [
    [
     1.5490671233409121,
     -11.406881037095612
    ],
    0
   ],
   [
    [
     1.6655014533885286,
     -11.405257163599503
    ],
    0
   ],
   [
    [
     1.5194108698433686,
     -11.407955218880778
    ],
    0
   ],
   [
    [
     1.5647316603113388,
     -11.407418046240993
    ],
    0
   ],
   [
    [
     1.5505080762122476,
     -11.40743947781115
    ],
    0
   ],
   [
    [
     1.5333454014074028,
     -11.408341842073096
    ],
    0
   ]
  ]
 },
 {
  "init_weights": [
   2.0,
   -75.2
  ],
  "results": [
   [
    [
     1.6025881010122265,
     -11.338743736638241
    ],
    0
   ],
   [
    [
     1.4632353235780757,
     -11.341312215196321
    ],
    0
   ],
   [
    [
     1.541801566546444,
     -11.340837462754585
    ],
    0
   ],
   [
    [
     1.539144689420855,
     -11.339116900251867
    ],
    0
   ],
   [
    [
     1.5489478903615335,
     -11.338470428573604
    ],
    0
   ],
   [
    [
     1.6654146237000482,
     -11.33684060295995
    ],
    0
   ],
   [
    [
     1.5192827877540522,
     -11.339549187892544
    ],
    0
   ],
   [
    [
     1.5646189720114416,
     -11.339010586748698
    ],
    0
   ],
   [
    [
     1.5503886772516424,
     -11.339032381893356
    ],
    0
   ],
   [
    [
     1.5332238360384982,
     -11.339939282744341
    ],
    0
   ]
  ]
 },
 {
  "init_weights": [
   2.0,
   -75.0
  ],
  "results": [
   [
    [
     1.6024874160765923,
     -11.270407648415107
    ],
    0
   ],
   [
    [
     1.4630954302267503,
     -11.272987002364948
    ],
    0
   ],
   [
    [
     1.541684661005937,
     -11.272512010195175
    ],
    0
   ],
   [
    [
     1.539025833895751,
     -11.270781433691207
    ],
    0
   ],
   [
    [
     1.5488310390939621,
     -11.27013186030281
    ],
    0
   ],
   [
    [
     1.6653295624590323,
     -11.26849604646205
    ],
    0
   ],
   [
    [
     1.5191572724199618,
     -11.271215217985779
    ],
    0
   ],
   [
    [
     1.5645085845733238,
     -11.270675186538028
    ],
    0
   ],
   [
    [
     1.550271565087463,
     -11.270697336375072
    ],
    0
   ],
   [
    [
     1.5331047645612015,
     -11.271608822698266
    ],
    0
   ]
  ]
 },
 {
  "init_weights": [
   2.0,
   -74.8
  ],
  "results": [
   [
    [
     1.602388937907052,
     -11.202142830070557
    ],
    0
   ],
   [
    [
     1.462958440759794,
     -11.204733119885013
    ],
    0
   ],
   [
    [
     1.5415703305498176,
     -11.204257904370536
    ],
    0
   ],
   [
    [
     1.5389094264052314,
     -11.202517246442135
    ],
    0
   ],
   [
    [
     1.5487165188018037,
     -11.201864523156093
    ],
    0
   ],
   [
    [
     1.6652462833583186,
     -11.200222705492827
    ],
    0
   ],
   [
    [
     1.5190342713855745,
     -11.202952524786975
    ],
    0
   ],
   [
    [
     1.5644004920574024,
     -11.202411064473615
    ],
    0
   ],
   [
    [
     1.5501569085038358,
     -11.20243357000561
    ],
    0
   ],
   [
    [
     1.5329881536916554,
     -11.203349668269317
    ],
    0
   ]
  ]
 },
 {
  "init_weights": [
   2.0,
   -74.6
  ],
  "results": [
   [
    [
     1.602292585036842,
     -11.133948495846152
    ],
    0
   ],
   [
    [
     1.462824341833204,
     -11.136549785136564
    ],
    0
   ],
   [
    [
     1.541458430591664,
     -11.136074353062957
    ],
    0
   ],
   [
    [
     1.538795525820582,
     -11.134323534157602
    ],
    0
   ],
   [
    [
     1.5486045218960394,
     -11.133667661195235
    ],
    0
   ],
   [
    [
     1.6651648810524626,
     -11.132019791691617
    ],
    0
   ],
   [
    [
     1.5189138310764057,
     -11.134760330478459
    ],
    0
   ],
   [
    [
     1.5642948306568878,
     -11.134217423015146
    ],
    0
   ],
   [
    [
     1.5500446308709541,
     -11.134240299465624
    ],
    0
   ],
   [
    [
     1.5328741382742672,
     -11.13516102680892
    ],
    0
   ]
  ]
 },
 {
  "init_weights": [
   2.0,
   -74.4
  ],
  "results": [
   [
    [
     1.6021984261890465,
     -11.065823837876344
    ],
    0
   ],
   [
    [
     1.4626931440376527,
     -11.06843619734342
    ],
    0
   ],
   [
    [
     1.5413490640527392,
     -11.067960556447428
    ],
    0
   ],
   [
    [
     1.5386841698592129,
     -11.066199505072651
    ],
    0
   ],
   [
    [
     1.548494940357392,
     -11.065540453296029
    ],
    0
   ],
   [
    [
     1.6650852534329155,
     -11.063886501140939
    ],
    0
   ],
   [
    [
     1.5187960442402633,
     -11.066637808903415
    ],
    0
   ],
   [
    [
     1.564191577814646,
     -11.066093464519614
    ],
    0
   ],
   [
    [
     1.5499348180588177,
     -11.066116702710213
    ],
    0
   ],
   [
    [
     1.5327626436648254,
     -11.067042104999466
    ],
    0
   ]
  ]
 },
 {
  "init_weights": [
   2.0,
   -74.2
  ],
  "results": [
   [
    [
     1.6021065234637692,
     -10.997768027219777
    ],
    0
   ],
   [
    [
     1.4625648780885054,
     -11.00039151789504
    ],
    0
   ],
   [
    [
     1.5412422722957249,
     -10.999915675115876
    ],
    0
   ],
   [
    [
     1.538575351829207,
     -10.998144317698785
    ],
    0
   ],
   [
    [
     1.548387838454207,
     -10.997482066755294
    ],
    0
   ],
   [
    [
     1.665007514752089,
     -10.995822011582055
    ],
    0
   ],
   [
    [
     1.5186808980063833,
     -10.998584158824663
    ],
    0
   ],
   [
    [
     1.5640907426702728,
     -10.998038349246745
    ],
    0
   ],
   [
    [
     1.5498274694693812,
     -10.998061953587538
    ],
    0
   ],
   [
    [
     1.5326537849624216,
     -10.998992074124756
    ],
    0
   ]
  ]
 },
 {
  "init_weights": [
   2.0,
   -74.0
  ],
  "results": [
   [
    [
     1.6020168866702962,
     -10.929780229444177
    ],
    0
   ],
   [
    [
     1.4624396492273308,
     -10.93241493145547
    ],
    0
   ],
   [
    [
     1.541138055045881,
     -10.931938885824273
    ],
    0
   ],
   [
    [
     1.5384691166909363,
     -10.930157139154518
    ],
    0
   ],
   [
    [
     1.5482833189453276,
     -10.929491672932219
    ],
    0
   ],
   [
    [
     1.6649316901838058,
     -10.92782546989459
    ],
    0
   ],
   [
    [
     1.5185684163446795,
     -10.93059850931818
    ],
    0
   ],
   [
    [
     1.563992400288987,
     -10.930051246999177
    ],
    0
   ],
   [
    [
     1.5497225969855617,
     -10.930075235135599
    ],
    0
   ],
   [
    [
     1.532547575582678,
     -10.931010082502723
    ],
    0
   ]
  ]
 },
 {
